{"learner":{"attributes":{},"feature_names":["home_prior_adj_oe","away_prior_adj_oe","home_prior_adj_de","away_prior_adj_de","home_prior_adj_tempo","away_prior_adj_tempo","home_prior_barthag","away_prior_barthag","neutral_site","conference_game","home_rank","away_rank","home_ranked","away_ranked","home_run_games","home_run_avg_pts_for","home_run_avg_pts_against","away_run_games","away_run_avg_pts_for","away_run_avg_pts_against","home_roster_bpm","home_roster_obpm","home_roster_dbpm","home_top5_bpm","home_depth_count","home_star_count","away_roster_bpm","away_roster_obpm","away_roster_dbpm","away_top5_bpm","away_depth_count","away_star_count","travel_advantage","away_timezone_shift","diff_prior_rank","diff_prior_win_pct","diff_run_win_pct","diff_run_avg_margin","diff_run_recent_win_pct","diff_run_recent_avg_margin","diff_roster_bpm","diff_top5_bpm","diff_sos","diff_conf_win_pct","season_progress"],"feature_types":["float","float","float","float","float","float","float","float","int","int","int","int","int","int","int","float","float","int","float","float","float","float","float","float","float","float","float","float","float","float","float","float","float","float","float","float","float","float","float","float","float","float","float","float","float"],"gradient_booster":{"model":{"cats":{"enc":[],"feature_segments":[],"sorted_idx":[]},"gbtree_model_param":{"num_parallel_tree":"1","num_trees":"500"},"iteration_indptr":[0,1,2,3,4,5,6,7,8,9,10,11,12,13,14,15,16,17,18,19,20,21,22,23,24,25,26,27,28,29,30,31,32,33,34,35,36,37,38,39,40,41,42,43,44,45,46,47,48,49,50,51,52,53,54,55,56,57,58,59,60,61,62,63,64,65,66,67,68,69,70,71,72,73,74,75,76,77,78,79,80,81,82,83,84,85,86,87,88,89,90,91,92,93,94,95,96,97,98,99,100,101,102,103,104,105,106,107,108,109,110,111,112,113,114,115,116,117,118,119,120,121,122,123,124,125,126,127,128,129,130,131,132,133,134,135,136,137,138,139,140,141,142,143,144,145,146,147,148,149,150,151,152,153,154,155,156,157,158,159,160,161,162,163,164,165,166,167,168,169,170,171,172,173,174,175,176,177,178,179,180,181,182,183,184,185,186,187,188,189,190,191,192,193,194,195,196,197,198,199,200,201,202,203,204,205,206,207,208,209,210,211,212,213,214,215,216,217,218,219,220,221,222,223,224,225,226,227,228,229,230,231,232,233,234,235,236,237,238,239,240,241,242,243,244,245,246,247,248,249,250,251,252,253,254,255,256,257,258,259,260,261,262,263,264,265,266,267,268,269,270,271,272,273,274,275,276,277,278,279,280,281,282,283,284,285,286,287,288,289,290,291,292,293,294,295,296,297,298,299,300,301,302,303,304,305,306,307,308,309,310,311,312,313,314,315,316,317,318,319,320,321,322,323,324,325,326,327,328,329,330,331,332,333,334,335,336,337,338,339,340,341,342,343,344,345,346,347,348,349,350,351,352,353,354,355,356,357,358,359,360,361,362,363,364,365,366,367,368,369,370,371,372,373,374,375,376,377,378,379,380,381,382,383,384,385,386,387,388,389,390,391,392,393,394,395,396,397,398,399,400,401,402,403,404,405,406,407,408,409,410,411,412,413,414,415,416,417,418,419,420,421,422,423,424,425,426,427,428,429,430,431,432,433,434,435,436,437,438,439,440,441,442,443,444,445,446,447,448,449,450,451,452,453,454,455,456,457,458,459,460,461,462,463,464,465,466,467,468,469,470,471,472,473,474,475,476,477,478,479,480,481,482,483,484,485,486,487,488,489,490,491,492,493,494,495,496,497,498,499,500],"tree_info":[0,0,0,0,0,0,0,0,0,0,0,0,0,0,0,0,0,0,0,0,0,0,0,0,0,0,0,0,0,0,0,0,0,0,0,0,0,0,0,0,0,0,0,0,0,0,0,0,0,0,0,0,0,0,0,0,0,0,0,0,0,0,0,0,0,0,0,0,0,0,0,0,0,0,0,0,0,0,0,0,0,0,0,0,0,0,0,0,0,0,0,0,0,0,0,0,0,0,0,0,0,0,0,0,0,0,0,0,0,0,0,0,0,0,0,0,0,0,0,0,0,0,0,0,0,0,0,0,0,0,0,0,0,0,0,0,0,0,0,0,0,0,0,0,0,0,0,0,0,0,0,0,0,0,0,0,0,0,0,0,0,0,0,0,0,0,0,0,0,0,0,0,0,0,0,0,0,0,0,0,0,0,0,0,0,0,0,0,0,0,0,0,0,0,0,0,0,0,0,0,0,0,0,0,0,0,0,0,0,0,0,0,0,0,0,0,0,0,0,0,0,0,0,0,0,0,0,0,0,0,0,0,0,0,0,0,0,0,0,0,0,0,0,0,0,0,0,0,0,0,0,0,0,0,0,0,0,0,0,0,0,0,0,0,0,0,0,0,0,0,0,0,0,0,0,0,0,0,0,0,0,0,0,0,0,0,0,0,0,0,0,0,0,0,0,0,0,0,0,0,0,0,0,0,0,0,0,0,0,0,0,0,0,0,0,0,0,0,0,0,0,0,0,0,0,0,0,0,0,0,0,0,0,0,0,0,0,0,0,0,0,0,0,0,0,0,0,0,0,0,0,0,0,0,0,0,0,0,0,0,0,0,0,0,0,0,0,0,0,0,0,0,0,0,0,0,0,0,0,0,0,0,0,0,0,0,0,0,0,0,0,0,0,0,0,0,0,0,0,0,0,0,0,0,0,0,0,0,0,0,0,0,0,0,0,0,0,0,0,0,0,0,0,0,0,0,0,0,0,0,0,0,0,0,0,0,0,0,0,0,0,0,0,0,0,0,0,0,0,0,0,0,0,0,0,0,0,0,0,0,0,0,0,0,0,0,0,0,0,0,0,0,0,0,0,0,0,0,0,0,0,0,0,0,0,0,0,0,0,0,0,0,0,0,0,0,0,0,0,0],"trees":[{"base_weights":[-6.021832E-3,-8.330215E-1,6.0031533E-1,-1.3814552E0,-4.8539358E-1,2.0794517E-1,9.974348E-1,-1.7090578E0,-1.0494862E0,-1.6628735E0,-4.161487E-1,1.1033855E-1,1.099865E0,7.994725E-1,1.3372813E0,-2.0281408E0,-1.4788375E0,-1.2067122E0,-1.9615546E-1,-1.94616E0,-7.904542E-1,-5.180586E-1,1.252839E-1,-2.546203E-1,2.0513973E-1,-1.10037485E-2,1.2003534E0,4.3791987E-2,8.6302996E-1,1.1810589E0,1.4496053E0,-2.2820948E-2,-2.0810888E0,-2.107132E0,-1.3583705E0,-2.451018E-1,-1.3059837E0,-3.7804532E-1,4.6767022E-2,-3.926108E-2,-1.0272217E-1,-6.8406865E-2,-8.159592E-3,-7.363626E-1,-1.95553E-1,-2.6089262E-2,8.837359E-1,-9.590168E-1,-1.3669266E-1,1.7690011E-4,3.6118442E-1,1.2472187E0,7.0510856E-3,-3.467133E-1,7.700885E-1,9.4159395E-1,3.2905433E-1,1.731327E-2,1.2104516E0,2.2963626E-2,7.3214054E-2,-1.0836815E-1,-6.1803516E-2,-4.566202E-2,-1.1283598E-1,-7.0842184E-2,-8.159592E-3,-3.1221593E-2,5.2268542E-2,-6.796237E-2,-1.3006742E-2,-4.9595837E-3,-6.032299E-2,-4.71694E-2,-2.6053831E-2,-2.3479255E-2,2.3300888E-3,3.240056E-2,-6.161369E-3,1.4391716E-3,5.90337E-2,-1.0120433E-1,-3.1120306E-2,-9.5798494E-4,-3.2820582E-2,-5.5611995E-3,1.5186406E-2,3.9006684E-2,1.4896335E-2,3.995378E-2,6.841098E-2,-3.100024E-2,2.6716301E-2,1.0355382E-2,6.2232465E-2,3.335252E-2,5.2514512E-2,-2.153754E-3,4.5187455E-2,2.5075722E-2,6.199764E-2],"categories":[],"categories_nodes":[],"categories_segments":[],"categories_sizes":[],"default_left":[0,0,0,0,0,0,0,0,0,0,0,0,0,0,0,0,0,0,0,0,0,0,0,0,0,0,0,0,0,0,0,0,0,0,0,0,0,0,0,0,0,0,0,0,0,0,0,0,0,0,0,0,0,0,0,0,0,0,0,0,0,0,0,0,0,0,0,0,0,0,0,0,0,0,0,0,0,0,0,0,0,0,0,0,0,0,0,0,0,0,0,0,0,0,0,0,0,0,0,0,0],"id":0,"left_children":[1,3,5,7,9,11,13,15,17,19,21,23,25,27,29,31,33,35,37,39,41,43,45,47,49,-1,51,53,55,57,59,-1,61,63,65,67,69,71,-1,-1,-1,-1,-1,73,75,77,79,81,83,85,87,89,-1,91,93,95,97,-1,99,-1,-1,-1,-1,-1,-1,-1,-1,-1,-1,-1,-1,-1,-1,-1,-1,-1,-1,-1,-1,-1,-1,-1,-1,-1,-1,-1,-1,-1,-1,-1,-1,-1,-1,-1,-1,-1,-1,-1,-1,-1,-1],"loss_changes":[1.54048E3,2.4691736E2,2.7584955E2,5.26922E1,6.409021E1,7.74946E1,5.7954346E1,1.5139221E1,3.3546173E1,9.027107E0,4.1720627E1,2.7936255E1,1.2016739E1,2.6723053E1,3.6826172E0,7.335846E0,8.150482E0,1.9878204E1,8.66016E0,2.1678772E0,4.160622E0,4.4476913E1,1.3900299E1,1.3585047E1,2.0453463E1,0E0,3.7501068E0,1.294434E1,2.118982E1,2.8758392E0,1.7919617E0,0E0,4.1927185E0,1.5865021E0,8.617706E0,1.1025892E1,1.0232147E1,8.018139E0,0E0,0E0,0E0,0E0,0E0,1.621782E1,1.7178883E1,6.6409783E0,4.9540434E0,6.9295807E0,8.707303E0,9.460289E0,9.291695E0,2.9298325E0,0E0,7.4601183E0,3.865614E0,1.2517639E1,1.4629181E1,0E0,2.034439E0,0E0,0E0,0E0,0E0,0E0,0E0,0E0,0E0,0E0,0E0,0E0,0E0,0E0,0E0,0E0,0E0,0E0,0E0,0E0,0E0,0E0,0E0,0E0,0E0,0E0,0E0,0E0,0E0,0E0,0E0,0E0,0E0,0E0,0E0,0E0,0E0,0E0,0E0,0E0,0E0,0E0,0E0],"parents":[2147483647,0,0,1,1,2,2,3,3,4,4,5,5,6,6,7,7,8,8,9,9,10,10,11,11,12,12,13,13,14,14,15,15,16,16,17,17,18,18,19,19,20,20,21,21,22,22,23,23,24,24,26,26,27,27,28,28,29,29,30,30,32,32,33,33,34,34,35,35,36,36,37,37,43,43,44,44,45,45,46,46,47,47,48,48,49,49,50,50,51,51,53,53,54,54,55,55,56,56,58,58],"right_children":[2,4,6,8,10,12,14,16,18,20,22,24,26,28,30,32,34,36,38,40,42,44,46,48,50,-1,52,54,56,58,60,-1,62,64,66,68,70,72,-1,-1,-1,-1,-1,74,76,78,80,82,84,86,88,90,-1,92,94,96,98,-1,100,-1,-1,-1,-1,-1,-1,-1,-1,-1,-1,-1,-1,-1,-1,-1,-1,-1,-1,-1,-1,-1,-1,-1,-1,-1,-1,-1,-1,-1,-1,-1,-1,-1,-1,-1,-1,-1,-1,-1,-1,-1,-1],"split_conditions":[0E0,-8E0,7.285714E0,-5.2383476E-1,-2.6099603E0,2.6830845E0,2.251935E0,-2.4831922E0,1.8846133E-1,5.8958097E-3,8.825849E-1,-4.646573E-1,-2.6285556E-1,-1.0250152E0,1.838807E0,-1.2857143E0,-2E1,1E-1,2.1457121E0,7.83871E0,1.6E1,-2.6E0,2.816538E0,6.5E-1,-2.095818E-3,-1.10037485E-2,1.0829016E0,1.7E1,1E0,7.2980003E0,-3.64512E2,-2.2820948E-2,1.3786376E-1,1E-1,2E0,1.0929555E2,1.2380353E0,1E0,4.6767022E-2,-3.926108E-2,-1.0272217E-1,-6.8406865E-2,-8.159592E-3,-4.6875E0,-1.0994895E-3,1.6666667E-1,1.4484543E2,-1.9241277E0,1.0192307E1,5.2413793E0,1E-1,3.3787708E0,7.0510856E-3,1.1265779E2,2.0833333E-1,7.2666664E1,2.5E1,1.731327E-2,6.777778E1,2.2963626E-2,7.3214054E-2,-1.0836815E-1,-6.1803516E-2,-4.566202E-2,-1.1283598E-1,-7.0842184E-2,-8.159592E-3,-3.1221593E-2,5.2268542E-2,-6.796237E-2,-1.3006742E-2,-4.9595837E-3,-6.032299E-2,-4.71694E-2,-2.6053831E-2,-2.3479255E-2,2.3300888E-3,3.240056E-2,-6.161369E-3,1.4391716E-3,5.90337E-2,-1.0120433E-1,-3.1120306E-2,-9.5798494E-4,-3.2820582E-2,-5.5611995E-3,1.5186406E-2,3.9006684E-2,1.4896335E-2,3.995378E-2,6.841098E-2,-3.100024E-2,2.6716301E-2,1.0355382E-2,6.2232465E-2,3.335252E-2,5.2514512E-2,-2.153754E-3,4.5187455E-2,2.5075722E-2,6.199764E-2],"split_indices":[37,37,37,41,40,40,41,41,42,42,40,40,23,41,20,29,39,44,41,30,17,39,40,37,42,0,28,17,8,32,32,0,42,44,33,0,22,8,0,0,0,0,0,37,42,44,32,40,30,37,37,41,0,2,38,15,17,0,15,0,0,0,0,0,0,0,0,0,0,0,0,0,0,0,0,0,0,0,0,0,0,0,0,0,0,0,0,0,0,0,0,0,0,0,0,0,0,0,0,0,0],"split_type":[0,0,0,0,0,0,0,0,0,0,0,0,0,0,0,0,0,0,0,0,0,0,0,0,0,0,0,0,0,0,0,0,0,0,0,0,0,0,0,0,0,0,0,0,0,0,0,0,0,0,0,0,0,0,0,0,0,0,0,0,0,0,0,0,0,0,0,0,0,0,0,0,0,0,0,0,0,0,0,0,0,0,0,0,0,0,0,0,0,0,0,0,0,0,0,0,0,0,0,0,0],"sum_hessian":[3.0700642E3,1.2986251E3,1.771439E3,5.0253754E2,7.9608765E2,8.9194073E2,8.794983E2,2.5069272E2,2.518448E2,4.2857395E1,7.532302E2,8.0507385E2,8.6866875E1,5.580678E2,3.2143045E2,1.016135E2,1.4907922E2,2.1221323E2,3.963157E1,3.133659E1,1.1520805E1,6.341051E2,1.1912512E2,1.6543877E2,6.3963513E2,5.9908185E0,8.087605E1,4.3548645E1,5.1451917E2,1.3963216E2,1.8179831E2,3.6866577E0,9.792684E1,2.1198282E1,1.27880936E2,2.0276617E1,1.9193661E2,3.479283E1,4.838738E0,3.4562416E0,2.7880348E1,5.2995706E0,6.221235E0,3.7719116E2,2.5691397E2,1.0000059E2,1.9124537E1,2.2580778E1,1.4285799E2,2.7719058E2,3.6244452E2,7.718939E1,3.6866577E0,2.8571596E1,1.4977047E1,4.476985E2,6.682067E1,5.2995706E0,1.343326E2,3.2258255E0,1.7857248E2,8.7327705E1,1.0599141E1,3.2258255E0,1.7972456E1,1.21659706E2,6.221235E0,1.6129128E1,4.14749E0,1.8225914E2,9.677476E0,2.6958685E1,7.8341475E0,1.903237E2,1.8686746E2,1.2027721E2,1.3663675E2,1.1751222E1,8.824937E1,5.2995706E0,1.3824966E1,4.14749E0,1.8433289E1,1.17512215E2,2.5345772E1,2.0299658E2,7.4193985E1,4.5852806E1,3.1659174E2,1.8202871E1,5.8986523E1,2.2119946E1,6.451651E0,7.6037316E0,7.3733153E0,1.2926343E2,3.1843506E2,4.1014065E1,2.5806604E1,6.221235E0,1.2811136E2],"tree_param":{"num_deleted":"0","num_feature":"45","num_nodes":"101","size_leaf_vector":"1"}},{"base_weights":[5.235447E-3,-7.887962E-1,5.9760267E-1,-1.2962099E0,-4.5777032E-1,2.1798491E-1,9.821241E-1,-1.773787E0,-1.0397972E0,-7.1613187E-1,-1.4080793E-1,1.2676775E-1,1.1454055E0,8.1617457E-1,1.2997826E0,-1.8153596E0,-5.777565E-1,-1.2944572E0,-6.013565E-1,-1.019375E0,-3.8183695E-1,-2.3007683E-1,5.3106064E-1,-4.32545E-2,2.842564E-1,4.4406515E-1,1.2894557E0,2.7142724E-1,8.836871E-1,1.1889138E0,7.263116E-2,-1.1163746E0,-1.875631E0,-5.8180016E-2,9.702778E-3,-5.453236E-1,-1.3855143E0,-7.178398E-1,8.666314E-1,-1.7325829E0,-9.056056E-1,-6.467116E-1,3.6064282E-2,-3.960711E-1,8.842655E-2,7.257229E-1,-1.3921563E-1,6.8892705E-1,-1.4139402E-1,-4.9118105E-2,4.0715608E-1,1.0237392E0,-1.6474921E-2,2.7832434E-2,1.3364733E0,4.6570495E-1,-4.5837092E-1,7.499894E-1,1.1246631E0,1.2439362E0,7.479663E-1,2.0007188E-2,-8.044427E-2,-1.0446401E-1,-7.908257E-2,-4.6564423E-2,1.3200368E-2,-7.7758476E-2,-5.0137486E-2,-4.069817E-2,1.5359715E-2,1.10105835E-2,5.6923028E-2,-3.8420163E-2,-9.282476E-2,-4.929029E-2,-1.1844691E-2,-5.321319E-2,-2.6098758E-2,-2.4811199E-2,1.325133E-2,-5.1242616E-2,-1.4022881E-2,-4.5979623E-2,8.697752E-3,1.789251E-2,6.0773302E-2,-2.8008213E-2,2.5586495E-2,1.2425788E-3,4.7464915E-2,-1.2544091E-2,6.512966E-3,1.6134775E-3,-4.3285746E-2,-5.35625E-3,2.4570066E-2,6.316017E-2,2.1076698E-2,6.873139E-2,3.3231758E-2,-3.988115E-2,2.867649E-2,-6.1752465E-2,-4.0555038E-3,-1.8828705E-2,3.9533015E-2,5.726325E-2,-0E0,6.409027E-2,3.6809754E-2,-1.2527204E-2,4.64875E-2],"categories":[],"categories_nodes":[],"categories_segments":[],"categories_sizes":[],"default_left":[0,0,0,0,0,0,0,0,0,0,0,0,0,0,0,0,0,0,0,0,0,0,0,0,0,0,0,0,0,0,0,0,0,0,0,0,0,0,0,0,0,0,0,0,0,0,0,0,0,0,0,0,0,0,0,0,0,0,0,0,0,0,0,0,0,0,0,0,0,0,0,0,0,0,0,0,0,0,0,0,0,0,0,0,0,0,0,0,0,0,0,0,0,0,0,0,0,0,0,0,0,0,0,0,0,0,0,0,0,0,0,0,0],"id":1,"left_children":[1,3,5,7,9,11,13,15,17,19,21,23,25,27,29,31,33,35,37,39,41,43,45,47,49,51,53,55,57,59,-1,61,63,-1,-1,65,67,69,71,73,75,77,79,81,83,85,87,89,91,93,95,97,-1,-1,99,101,103,105,107,109,111,-1,-1,-1,-1,-1,-1,-1,-1,-1,-1,-1,-1,-1,-1,-1,-1,-1,-1,-1,-1,-1,-1,-1,-1,-1,-1,-1,-1,-1,-1,-1,-1,-1,-1,-1,-1,-1,-1,-1,-1,-1,-1,-1,-1,-1,-1,-1,-1,-1,-1,-1,-1],"loss_changes":[1.444987E3,2.1969897E2,2.5651276E2,6.1251953E1,6.499977E1,7.475195E1,4.4786194E1,7.6245117E0,3.691617E1,4.3884857E1,2.1616962E1,2.1689405E1,7.2547836E0,2.0857758E1,3.0571594E0,4.881714E0,3.7450829E0,1.3623413E1,2.2268791E1,1.674672E1,2.3346222E1,1.6858452E1,5.6739607E0,2.8024567E1,1.727364E1,7.194687E0,1.3082123E0,9.459787E0,1.5483704E1,3.2025452E0,0E0,1.2946457E1,6.2125244E0,0E0,0E0,8.09689E0,1.0503723E1,1.1924889E1,1.3183637E0,1.9292374E0,1.0353897E1,5.995533E0,1.0141784E1,1.4789303E1,9.520046E0,5.3580265E0,3.0960207E0,7.8459587E0,1.0286348E1,7.6789446E0,1.3408184E1,5.9267044E-1,0E0,0E0,4.279251E-1,7.5325413E0,3.9012172E0,1.5594299E1,4.256256E0,1.8740387E0,4.3883E0,0E0,0E0,0E0,0E0,0E0,0E0,0E0,0E0,0E0,0E0,0E0,0E0,0E0,0E0,0E0,0E0,0E0,0E0,0E0,0E0,0E0,0E0,0E0,0E0,0E0,0E0,0E0,0E0,0E0,0E0,0E0,0E0,0E0,0E0,0E0,0E0,0E0,0E0,0E0,0E0,0E0,0E0,0E0,0E0,0E0,0E0,0E0,0E0,0E0,0E0,0E0,0E0],"parents":[2147483647,0,0,1,1,2,2,3,3,4,4,5,5,6,6,7,7,8,8,9,9,10,10,11,11,12,12,13,13,14,14,15,15,16,16,17,17,18,18,19,19,20,20,21,21,22,22,23,23,24,24,25,25,26,26,27,27,28,28,29,29,31,31,32,32,35,35,36,36,37,37,38,38,39,39,40,40,41,41,42,42,43,43,44,44,45,45,46,46,47,47,48,48,49,49,50,50,51,51,54,54,55,55,56,56,57,57,58,58,59,59,60,60],"right_children":[2,4,6,8,10,12,14,16,18,20,22,24,26,28,30,32,34,36,38,40,42,44,46,48,50,52,54,56,58,60,-1,62,64,-1,-1,66,68,70,72,74,76,78,80,82,84,86,88,90,92,94,96,98,-1,-1,100,102,104,106,108,110,112,-1,-1,-1,-1,-1,-1,-1,-1,-1,-1,-1,-1,-1,-1,-1,-1,-1,-1,-1,-1,-1,-1,-1,-1,-1,-1,-1,-1,-1,-1,-1,-1,-1,-1,-1,-1,-1,-1,-1,-1,-1,-1,-1,-1,-1,-1,-1,-1,-1,-1,-1,-1],"split_conditions":[0E0,-8E0,7.285714E0,-1.3803813E0,-1.5000917E-2,2.816538E0,2.4073315E0,2.6607144E-1,-1.05E0,0E0,1.5765987E-1,3.0555556E0,8.3532774E-1,-4.82633E-1,4.92627E0,3.8886124E1,6.5888885E1,7.163636E1,1.9661806E0,-2.6099603E0,-2.6E0,2.8E1,6.069506E2,7.285714E0,-4.7680702E-2,1.2E1,1.1429872E1,6.902353E1,1.54E1,1.1453983E2,7.263116E-2,-7.610216E-1,-1.2722222E1,-5.8180016E-2,9.702778E-3,-1.419286E0,-1.0348718E1,3.3333334E-1,8.655172E0,-2.9221788E-1,8.330103E2,6.725E1,5E-1,-6.4636364E0,3.0494148E-1,6.7976234E1,-3.4E0,-7.302184E-1,4.095606E-2,1.0814815E1,-7.3589665E-1,3.5580075E0,-1.6474921E-2,2.7832434E-2,6.5238094E0,7.6153846E0,8.384615E0,-2.6166666E-1,1.7274919E0,8.077273E1,-5.4693377E-1,2.0007188E-2,-8.044427E-2,-1.0446401E-1,-7.908257E-2,-4.6564423E-2,1.3200368E-2,-7.7758476E-2,-5.0137486E-2,-4.069817E-2,1.5359715E-2,1.10105835E-2,5.6923028E-2,-3.8420163E-2,-9.282476E-2,-4.929029E-2,-1.1844691E-2,-5.321319E-2,-2.6098758E-2,-2.4811199E-2,1.325133E-2,-5.1242616E-2,-1.4022881E-2,-4.5979623E-2,8.697752E-3,1.789251E-2,6.0773302E-2,-2.8008213E-2,2.5586495E-2,1.2425788E-3,4.7464915E-2,-1.2544091E-2,6.512966E-3,1.6134775E-3,-4.3285746E-2,-5.35625E-3,2.4570066E-2,6.316017E-2,2.1076698E-2,6.873139E-2,3.3231758E-2,-3.988115E-2,2.867649E-2,-6.1752465E-2,-4.0555038E-3,-1.8828705E-2,3.9533015E-2,5.726325E-2,-0E0,6.409027E-2,3.6809754E-2,-1.2527204E-2,4.64875E-2],"split_indices":[37,37,37,40,40,40,40,42,23,42,42,37,20,40,41,32,15,16,40,40,39,34,32,24,42,17,32,5,37,3,0,27,37,0,0,20,37,42,24,27,32,15,44,37,6,4,39,27,42,30,41,41,0,0,37,30,24,42,22,18,22,0,0,0,0,0,0,0,0,0,0,0,0,0,0,0,0,0,0,0,0,0,0,0,0,0,0,0,0,0,0,0,0,0,0,0,0,0,0,0,0,0,0,0,0,0,0,0,0,0,0,0,0],"split_type":[0,0,0,0,0,0,0,0,0,0,0,0,0,0,0,0,0,0,0,0,0,0,0,0,0,0,0,0,0,0,0,0,0,0,0,0,0,0,0,0,0,0,0,0,0,0,0,0,0,0,0,0,0,0,0,0,0,0,0,0,0,0,0,0,0,0,0,0,0,0,0,0,0,0,0,0,0,0,0,0,0,0,0,0,0,0,0,0,0,0,0,0,0,0,0,0,0,0,0,0,0,0,0,0,0,0,0,0,0,0,0,0,0],"sum_hessian":[3.070137E3,1.311565E3,1.7585721E3,5.165509E2,7.9501404E2,8.8584796E2,8.727241E2,1.782489E2,3.3830197E2,4.3712833E2,3.578857E2,8.076549E2,7.8193E1,5.758012E2,2.969229E2,1.7168008E2,6.5688143E0,2.1262326E2,1.2567872E2,2.2797806E2,2.0915027E2,3.166234E2,4.126229E1,3.8841672E2,4.1923822E2,1.4137642E1,6.405535E1,6.42092E1,5.1159204E2,1.7755772E2,1.193652E2,1.530978E1,1.563703E2,3.5193763E0,3.0494378E0,2.3919851E1,1.8870341E2,1.1697593E2,8.702793E0,2.92851E1,1.9869296E2,1.27824295E2,8.1325966E1,2.0819102E2,1.08432396E2,3.2027348E1,9.234942E0,4.507683E1,3.433399E2,1.12866394E2,3.0637183E2,7.970654E0,6.1669884E0,4.7644067E0,5.9290947E1,5.1103863E1,1.3105333E1,3.3194858E2,1.7964345E2,1.5603902E2,2.1518703E1,3.7493725E0,1.1560408E1,8.682402E1,6.954629E1,1.6177687E1,7.7421656E0,1.2844685E2,6.025656E1,1.0722433E2,9.751597E0,3.2210367E0,5.481756E0,4.246971E0,2.503813E1,1.7685822E2,2.183474E1,2.7485023E1,1.0033927E2,2.3978071E1,5.7347897E1,3.0978796E1,1.7721223E2,7.6265507E0,1.0080585E2,1.9394192E1,1.2633155E1,5.7862296E0,3.448713E0,1.3112635E1,3.19642E1,2.4502788E2,9.831202E1,1.03398964E2,9.467428E0,4.29179E1,2.6345392E2,4.798763E0,3.1718912E0,5.4973995E1,4.316953E0,3.4427E0,4.7661163E1,3.4545507E0,9.650784E0,1.1192903E1,3.2075568E2,1.7644781E2,3.1956236E0,1.4360686E2,1.2432155E1,3.1712341E0,1.834747E1],"tree_param":{"num_deleted":"0","num_feature":"45","num_nodes":"113","size_leaf_vector":"1"}},{"base_weights":[-6.9213132E-3,-7.423906E-1,5.521219E-1,-1.085174E0,-3.345323E-1,1.8195933E-1,9.429023E-1,-1.631626E0,-9.141341E-1,-6.8428886E-1,-1.7025398E-1,8.786471E-2,8.708208E-1,7.7224755E-1,1.2547071E0,-4.245102E-2,-1.6931306E0,-1.0272833E0,-3.0419794E-1,-1.0969373E0,-5.098264E-1,-2.6383632E-1,2.795503E-1,-2.4830645E-1,1.6659567E-1,-4.8661366E-2,9.733172E-1,5.2029748E-2,8.284338E-1,1.0908598E0,1.3932681E0,2.7168458E-2,-3.369221E-2,-1.7244276E0,-3.6308005E-2,-1.2847917E0,-8.2678676E-1,5.056671E-1,-4.993279E-1,-1.3768818E0,-3.4248817E-1,3.3542627E-1,-5.728314E-1,-5.5107516E-1,-1.2517272E-1,-4.374578E-2,3.6444697E-1,-9.511306E-1,-1.7821145E-1,2.4128248E-1,-2.5755024E-1,-3.804102E-2,2.7471853E-2,1.0597821E0,3.2447916E-1,-6.967813E-1,6.5658647E-1,-3.378354E-1,8.536362E-1,8.938726E-3,1.1153262E0,3.4818113E-2,7.046997E-2,-4.5842085E-2,-8.807645E-2,-2.4051076E-2,-7.068707E-2,-5.6102194E-2,-2.7823865E-2,-2.6952846E-2,4.2920083E-2,-3.2855257E-2,2.2788364E-2,-8.121291E-2,-2.5646811E-2,-4.2434886E-2,2.0468978E-2,-3.0479355E-2,4.4779766E-2,-8.891559E-3,-3.9023984E-2,-4.121022E-2,-1.1670007E-2,-3.698618E-2,-1.929253E-3,4.6572838E-2,1.143404E-2,8.480235E-4,-6.858914E-2,-2.9377101E-2,-3.1212163E-3,8.051648E-3,2.5876446E-2,1.4034211E-2,-1.8784048E-2,3.3634424E-2,5.7736486E-2,-1.9667773E-2,4.5451045E-2,-5.165946E-2,1.5851466E-2,-1.7802699E-2,4.271421E-2,-5.9127487E-2,1.623982E-2,2.9559383E-2,4.808262E-2,4.8661947E-2,6.575655E-2],"categories":[],"categories_nodes":[],"categories_segments":[],"categories_sizes":[],"default_left":[0,0,0,0,0,0,0,0,0,0,0,0,0,0,0,0,0,0,0,0,0,0,0,0,0,0,0,0,0,0,0,0,0,0,0,0,0,0,0,0,0,0,0,0,0,0,0,0,0,0,0,0,0,0,0,0,0,0,0,0,0,0,0,0,0,0,0,0,0,0,0,0,0,0,0,0,0,0,0,0,0,0,0,0,0,0,0,0,0,0,0,0,0,0,0,0,0,0,0,0,0,0,0,0,0,0,0,0,0],"id":2,"left_children":[1,3,5,7,9,11,13,15,17,19,21,23,25,27,29,31,33,35,37,39,41,43,45,47,49,51,53,55,57,59,61,-1,-1,63,-1,65,67,69,71,73,75,77,79,81,83,-1,85,87,89,91,93,-1,-1,95,97,99,101,103,105,-1,107,-1,-1,-1,-1,-1,-1,-1,-1,-1,-1,-1,-1,-1,-1,-1,-1,-1,-1,-1,-1,-1,-1,-1,-1,-1,-1,-1,-1,-1,-1,-1,-1,-1,-1,-1,-1,-1,-1,-1,-1,-1,-1,-1,-1,-1,-1,-1,-1],"loss_changes":[1.2629447E3,1.8495905E2,2.5214197E2,6.556836E1,3.4695564E1,5.8004417E1,4.3978638E1,1.639743E1,3.7576508E1,1.3216148E1,1.7532005E1,2.0966362E1,1.02827835E1,2.21734E1,5.0045776E0,3.1277008E0,3.4611511E0,2.2691223E1,1.4122046E1,1.1286163E1,7.5701447E0,1.3566694E1,7.2986674E0,7.1191807E0,2.0387438E1,5.400727E0,4.958267E0,1.9052044E1,1.5362762E1,2.8317108E0,5.8081055E-1,0E0,0E0,2.8476257E0,0E0,1.9980865E1,2.0277435E1,6.9210243E0,1.1068676E1,7.6664276E0,6.7529273E0,5.9212036E0,1.0345665E1,9.375034E0,1.2322111E1,0E0,4.875539E0,5.560792E0,6.4377856E0,1.1959862E1,6.2414703E0,0E0,0E0,2.164383E0,5.855958E0,6.798565E0,5.0226116E0,6.8752236E0,1.3469238E1,0E0,2.398529E0,0E0,0E0,0E0,0E0,0E0,0E0,0E0,0E0,0E0,0E0,0E0,0E0,0E0,0E0,0E0,0E0,0E0,0E0,0E0,0E0,0E0,0E0,0E0,0E0,0E0,0E0,0E0,0E0,0E0,0E0,0E0,0E0,0E0,0E0,0E0,0E0,0E0,0E0,0E0,0E0,0E0,0E0,0E0,0E0,0E0,0E0,0E0,0E0],"parents":[2147483647,0,0,1,1,2,2,3,3,4,4,5,5,6,6,7,7,8,8,9,9,10,10,11,11,12,12,13,13,14,14,15,15,16,16,17,17,18,18,19,19,20,20,21,21,22,22,23,23,24,24,25,25,26,26,27,27,28,28,29,29,30,30,33,33,35,35,36,36,37,37,38,38,39,39,40,40,41,41,42,42,43,43,44,44,46,46,47,47,48,48,49,49,50,50,53,53,54,54,55,55,56,56,57,57,58,58,60,60],"right_children":[2,4,6,8,10,12,14,16,18,20,22,24,26,28,30,32,34,36,38,40,42,44,46,48,50,52,54,56,58,60,62,-1,-1,64,-1,66,68,70,72,74,76,78,80,82,84,-1,86,88,90,92,94,-1,-1,96,98,100,102,104,106,-1,108,-1,-1,-1,-1,-1,-1,-1,-1,-1,-1,-1,-1,-1,-1,-1,-1,-1,-1,-1,-1,-1,-1,-1,-1,-1,-1,-1,-1,-1,-1,-1,-1,-1,-1,-1,-1,-1,-1,-1,-1,-1,-1,-1,-1,-1,-1,-1,-1],"split_conditions":[-7.1428575E-2,-5.6723075E0,7.285714E0,-1.9797584E0,-5.2383476E-1,2.5540957E0,2.251935E0,-1.2491593E0,7.06556E-1,-6.4165495E-2,1.4747616E0,-7.0493335E-1,-4.6428572E-2,-1.1488774E0,1.6772728E1,9.733597E1,2.9177191E0,-3E-1,7.0545456E1,-1.1488774E0,9.451039E1,-1.8055555E-1,7.8076925E0,-3.0194356E0,1E0,3.1333926E0,6.04E0,2.5E-1,-2.8653125E2,-5.1E1,7.2980003E0,2.7168458E-2,-3.369221E-2,6.7125E1,-3.6308005E-2,4E0,7.59423E-3,1.065029E2,2.7578173E0,-6.552006E-2,-2.1964285E0,-2.0767386E0,1.0231729E2,-1.435266E0,5.363781E1,-4.374578E-2,7E0,-1.9886364E-1,9.411765E-1,5.2413793E0,-1.6666667E-1,-3.804102E-2,2.7471853E-2,1.0702105E2,2.8356583E0,9.6875E0,-2.8173628E-1,6.89E1,7.294118E1,8.938726E-3,1.4089836E0,3.4818113E-2,7.046997E-2,-4.5842085E-2,-8.807645E-2,-2.4051076E-2,-7.068707E-2,-5.6102194E-2,-2.7823865E-2,-2.6952846E-2,4.2920083E-2,-3.2855257E-2,2.2788364E-2,-8.121291E-2,-2.5646811E-2,-4.2434886E-2,2.0468978E-2,-3.0479355E-2,4.4779766E-2,-8.891559E-3,-3.9023984E-2,-4.121022E-2,-1.1670007E-2,-3.698618E-2,-1.929253E-3,4.6572838E-2,1.143404E-2,8.480235E-4,-6.858914E-2,-2.9377101E-2,-3.1212163E-3,8.051648E-3,2.5876446E-2,1.4034211E-2,-1.8784048E-2,3.3634424E-2,5.7736486E-2,-1.9667773E-2,4.5451045E-2,-5.165946E-2,1.5851466E-2,-1.7802699E-2,4.271421E-2,-5.9127487E-2,1.623982E-2,2.9559383E-2,4.808262E-2,4.8661947E-2,6.575655E-2],"split_indices":[37,37,37,41,41,41,41,28,41,42,41,41,42,41,37,0,20,38,16,41,0,38,30,26,8,41,37,44,32,34,32,0,0,16,0,17,42,0,41,35,37,41,3,23,32,0,17,35,37,37,41,0,0,0,23,30,35,16,15,0,21,0,0,0,0,0,0,0,0,0,0,0,0,0,0,0,0,0,0,0,0,0,0,0,0,0,0,0,0,0,0,0,0,0,0,0,0,0,0,0,0,0,0,0,0,0,0,0,0],"split_type":[0,0,0,0,0,0,0,0,0,0,0,0,0,0,0,0,0,0,0,0,0,0,0,0,0,0,0,0,0,0,0,0,0,0,0,0,0,0,0,0,0,0,0,0,0,0,0,0,0,0,0,0,0,0,0,0,0,0,0,0,0,0,0,0,0,0,0,0,0,0,0,0,0,0,0,0,0,0,0,0,0,0,0,0,0,0,0,0,0,0,0,0,0,0,0,0,0,0,0,0,0,0,0,0,0,0,0,0,0],"sum_hessian":[3.069626E3,1.3255725E3,1.7440533E3,7.192093E2,6.063632E2,8.965385E2,8.475149E2,1.6927417E2,5.499351E2,1.92579E2,4.1378424E2,7.8991345E2,1.0662504E2,5.501875E2,2.9732736E2,6.4307494E0,1.6284343E2,4.6316516E2,8.676992E1,5.5484108E1,1.3709488E2,3.4304834E2,7.0735886E1,1.4924257E2,6.406709E2,1.0648476E1,9.597656E1,4.0083755E1,5.1010376E2,1.406291E2,1.5669827E2,3.3259206E0,3.1048286E0,1.5687914E2,5.964293E0,2.0016968E2,2.629955E2,1.643876E1,7.033116E1,3.976968E1,1.5714431E1,9.100096E0,1.2799479E2,1.1048519E2,2.3256317E2,4.1273007E0,6.660859E1,1.2265348E1,1.3697723E2,5.4531464E2,9.535623E1,4.8128824E0,5.8355937E0,8.3995705E1,1.1980855E1,1.7763597E1,2.2320158E1,1.0443568E1,4.996602E2,3.9975562E0,1.3663155E2,4.6845317E0,1.5201373E2,8.138354E0,1.4874078E2,2.8434875E1,1.717348E2,1.2401447E2,1.3898103E2,3.9444435E0,1.2494317E1,6.0717598E1,9.613562E0,3.0142956E1,9.626723E0,9.393972E0,6.3204584E0,3.2874248E0,5.812671E0,4.49074E1,8.308739E1,5.838119E1,5.2103996E1,2.7646414E1,2.0491675E2,1.1593314E1,5.5015274E1,3.933871E0,8.331477E0,2.911432E1,1.0786291E2,4.240679E2,1.2124674E2,1.676193E1,7.859431E1,1.8344536E1,6.565117E1,5.447347E0,6.5335083E0,1.3397494E1,4.366103E0,3.4323363E0,1.8887823E1,4.3124285E0,6.1311393E0,1.4784293E2,3.5181726E2,8.357225E1,5.3059296E1],"tree_param":{"num_deleted":"0","num_feature":"45","num_nodes":"109","size_leaf_vector":"1"}},{"base_weights":[1.0619131E-2,-6.8362784E-1,5.46164E-1,-1.0103589E0,-3.0188426E-1,1.9137779E-1,9.262125E-1,-1.5536536E0,-8.393803E-1,-5.3313214E-1,-5.9091512E-2,1.0666516E-1,1.0688262E0,7.870893E-1,1.2747635E0,-1.5865027E0,-0E0,-9.007546E-1,5.090197E-1,-9.838982E-1,-3.6551973E-1,-1.09548494E-1,8.552449E-1,-1.8372263E-1,2.1246909E-1,-1.4954224E-3,1.1449428E0,7.550049E-2,8.432547E-1,7.445926E-1,1.3100846E0,-1.8105082E-2,-1.6231403E0,-1.2004486E0,-7.102307E-1,6.8255615E-1,-2.6060412E-2,-1.3853252E0,-7.2049975E-1,-7.0147306E-1,-2.2787839E-1,-3.119101E-1,2.1145182E-2,-9.036242E-3,6.459006E-2,-9.547125E-1,-1.0920273E-1,-4.489315E-3,3.454117E-1,1.6270362E-2,1.1936984E0,-7.833278E-1,3.50614E-1,7.288231E-1,1.1483947E0,4.6591773E-3,1.0098703E0,2.3639811E-2,1.3210113E0,-8.252152E-2,-2.730833E-2,-1.614081E-2,-6.56509E-2,-4.608962E-2,-2.6192302E-2,1.2574337E-2,5.870217E-2,-8.065279E-2,-1.2441499E-2,3.0996377E-2,-4.322994E-2,6.02599E-3,-4.395653E-2,-4.725682E-2,-7.3882416E-3,-2.7581295E-2,-1.9948995E-3,-8.43751E-3,8.904374E-3,2.135395E-4,-6.5653525E-2,-1.2800771E-2,8.426509E-3,-1.7650826E-2,6.8850964E-3,3.8466897E-2,1.3961258E-2,6.1909314E-2,1.5168372E-2,-1.300544E-2,-7.716625E-2,-3.34926E-2,3.130783E-2,-2.2178834E-2,3.8584657E-2,4.804687E-2,6.504355E-2,4.9206796E-3,6.478469E-2,2.8590346E-2,6.642073E-2],"categories":[],"categories_nodes":[],"categories_segments":[],"categories_sizes":[],"default_left":[0,0,0,0,0,0,0,0,0,0,0,0,0,0,0,0,0,0,0,0,0,0,0,0,0,0,0,0,0,0,0,0,0,0,0,0,0,0,0,0,0,0,0,0,0,0,0,0,0,0,0,0,0,0,0,0,0,0,0,0,0,0,0,0,0,0,0,0,0,0,0,0,0,0,0,0,0,0,0,0,0,0,0,0,0,0,0,0,0,0,0,0,0,0,0,0,0,0,0,0,0],"id":3,"left_children":[1,3,5,7,9,11,13,15,17,19,21,23,25,27,29,31,-1,33,35,37,39,41,43,45,47,-1,49,51,53,55,57,-1,59,61,63,65,-1,67,69,71,73,75,77,-1,-1,79,81,83,85,-1,87,89,91,93,95,-1,97,-1,99,-1,-1,-1,-1,-1,-1,-1,-1,-1,-1,-1,-1,-1,-1,-1,-1,-1,-1,-1,-1,-1,-1,-1,-1,-1,-1,-1,-1,-1,-1,-1,-1,-1,-1,-1,-1,-1,-1,-1,-1,-1,-1],"loss_changes":[1.1438447E3,1.666593E2,2.3390088E2,6.545825E1,3.4685482E1,6.664227E1,3.9434753E1,8.6493225E0,4.6092285E1,2.3448875E1,1.40205965E1,2.5287354E1,6.752365E0,2.3899628E1,3.2626953E0,6.7391663E0,0E0,2.9069794E1,4.76158E0,7.794098E0,1.0510302E1,7.668638E0,7.5273323E0,1.2412906E1,1.7426964E1,0E0,2.416031E0,1.0925045E1,1.8446075E1,2.7877274E0,1.2177734E0,0E0,3.6553955E0,1.949939E1,1.2190811E1,4.1235857E0,0E0,7.823784E0,1.0922272E1,9.959476E0,9.336034E0,7.3272743E0,5.276038E0,0E0,0E0,6.7063713E0,8.271999E0,1.1458157E1,1.0178879E1,0E0,2.2168732E0,3.8725252E0,1.0272643E1,2.0907288E1,2.8142242E0,0E0,2.8836546E0,0E0,2.5650024E-1,0E0,0E0,0E0,0E0,0E0,0E0,0E0,0E0,0E0,0E0,0E0,0E0,0E0,0E0,0E0,0E0,0E0,0E0,0E0,0E0,0E0,0E0,0E0,0E0,0E0,0E0,0E0,0E0,0E0,0E0,0E0,0E0,0E0,0E0,0E0,0E0,0E0,0E0,0E0,0E0,0E0,0E0],"parents":[2147483647,0,0,1,1,2,2,3,3,4,4,5,5,6,6,7,7,8,8,9,9,10,10,11,11,12,12,13,13,14,14,15,15,17,17,18,18,19,19,20,20,21,21,22,22,23,23,24,24,26,26,27,27,28,28,29,29,30,30,32,32,33,33,34,34,35,35,37,37,38,38,39,39,40,40,41,41,42,42,45,45,46,46,47,47,48,48,50,50,51,51,52,52,53,53,54,54,56,56,58,58],"right_children":[2,4,6,8,10,12,14,16,18,20,22,24,26,28,30,32,-1,34,36,38,40,42,44,46,48,-1,50,52,54,56,58,-1,60,62,64,66,-1,68,70,72,74,76,78,-1,-1,80,82,84,86,-1,88,90,92,94,96,-1,98,-1,100,-1,-1,-1,-1,-1,-1,-1,-1,-1,-1,-1,-1,-1,-1,-1,-1,-1,-1,-1,-1,-1,-1,-1,-1,-1,-1,-1,-1,-1,-1,-1,-1,-1,-1,-1,-1,-1,-1,-1,-1,-1,-1],"split_conditions":[0E0,-5.6723075E0,7.285714E0,-1.9797584E0,-5.589957E-2,2.816538E0,2.816538E0,2.9166666E-1,1.9114027E0,-6.5334275E-2,2.8722332E0,-4.7680702E-2,-1.4573629E-1,-1.065098E0,8.9E0,-1.2491593E0,-0E0,-3.3333334E-1,1.1505468E2,-1.2272047E0,6.95E1,-3.05E0,9.586778E1,-1.7666997E0,-5.0436663E-3,-1.4954224E-3,1.1429872E1,8.384615E0,1.7115385E1,1.5277778E-1,-1.1804122E0,-1.8105082E-2,8.4E1,1E-1,6.797379E-3,6.7290375E1,-2.6060412E-2,-6.552006E-2,-1.0728779E0,-2.529862E0,-2.4200065E0,2.974312E2,8.807693E0,-9.036242E-3,6.459006E-2,-1.4456353E-1,3.9800577E2,1.5215202E2,7.3333335E0,1.6270362E-2,7.914286E1,6.835816E1,7.1166664E1,-2.8333333E-1,1.8333334E-1,4.6591773E-3,1.7286165E2,2.3639811E-2,6.1588234E1,-8.252152E-2,-2.730833E-2,-1.614081E-2,-6.56509E-2,-4.608962E-2,-2.6192302E-2,1.2574337E-2,5.870217E-2,-8.065279E-2,-1.2441499E-2,3.0996377E-2,-4.322994E-2,6.02599E-3,-4.395653E-2,-4.725682E-2,-7.3882416E-3,-2.7581295E-2,-1.9948995E-3,-8.43751E-3,8.904374E-3,2.135395E-4,-6.5653525E-2,-1.2800771E-2,8.426509E-3,-1.7650826E-2,6.8850964E-3,3.8466897E-2,1.3961258E-2,6.1909314E-2,1.5168372E-2,-1.300544E-2,-7.716625E-2,-3.34926E-2,3.130783E-2,-2.2178834E-2,3.8584657E-2,4.804687E-2,6.504355E-2,4.9206796E-3,6.478469E-2,2.8590346E-2,6.642073E-2],"split_indices":[37,37,37,41,40,40,40,42,40,42,40,42,23,41,37,28,0,38,3,40,15,37,1,40,40,0,32,30,37,38,23,0,15,44,42,5,0,35,40,26,40,32,24,0,0,42,32,32,24,0,16,5,19,42,44,0,32,0,19,0,0,0,0,0,0,0,0,0,0,0,0,0,0,0,0,0,0,0,0,0,0,0,0,0,0,0,0,0,0,0,0,0,0,0,0,0,0,0,0,0,0],"split_type":[0,0,0,0,0,0,0,0,0,0,0,0,0,0,0,0,0,0,0,0,0,0,0,0,0,0,0,0,0,0,0,0,0,0,0,0,0,0,0,0,0,0,0,0,0,0,0,0,0,0,0,0,0,0,0,0,0,0,0,0,0,0,0,0,0,0,0,0,0,0,0,0,0,0,0,0,0,0,0,0,0,0,0,0,0,0,0,0,0,0,0,0,0,0,0,0,0,0,0,0,0],"sum_hessian":[3.074535E3,1.3386844E3,1.7358505E3,7.202877E2,6.1839667E2,8.9867664E2,8.3717377E2,1.7034253E2,5.499452E2,3.159052E2,3.024915E2,8.2068024E2,7.799645E1,6.0087946E2,2.3629436E2,1.6675693E2,3.585594E0,5.263919E2,2.3553303E1,8.414481E1,2.3176039E2,2.8760953E2,1.4881963E1,2.1871552E2,6.019647E2,5.007468E0,7.298898E1,4.425937E1,5.5662006E2,1.631516E1,2.1997919E2,5.240386E0,1.6151656E2,2.0231882E2,3.240731E2,2.0529716E1,3.0235856E0,3.1499525E1,5.2645287E1,6.595509E1,1.6580531E2,1.1261653E2,1.74993E2,4.5178466E0,1.0364117E1,1.811743E1,2.0059808E2,2.2879387E2,3.7317084E2,4.644504E0,6.8344475E1,1.0201702E1,3.4057667E1,4.0751334E2,1.491067E2,5.2215333E0,1.1093628E1,3.5219564E0,2.1645723E2,1.5691505E2,4.601492E0,2.3540964E1,1.7877785E2,1.4968561E2,1.743875E2,1.1850836E1,8.678881E0,2.5818674E1,5.6808496E0,4.722252E0,4.7923035E1,1.1678635E1,5.427646E1,1.5448546E1,1.5035677E2,5.912018E1,5.349635E1,7.886108E1,9.613191E1,5.1213865E0,1.2996044E1,1.3151569E2,6.90824E1,6.606978E1,1.6272408E2,4.8755566E1,3.2441528E2,6.461289E1,3.7315888E0,6.914946E0,3.2867558E0,6.8595448E0,2.7198122E1,1.3963457E1,3.935499E2,7.0450966E1,7.865575E1,3.0527987E0,8.04083E0,3.0156841E0,2.1344156E2],"tree_param":{"num_deleted":"0","num_feature":"45","num_nodes":"101","size_leaf_vector":"1"}},{"base_weights":[1.0675055E-3,-6.5623003E-1,5.162258E-1,-1.0714557E0,-4.192749E-1,1.5873618E-1,9.0228486E-1,-1.4295329E0,-8.796775E-1,-6.2788326E-1,-1.555871E-1,7.352875E-2,1.0411006E0,7.30565E-1,1.2293245E0,-3.0173537E-1,-1.4733951E0,-4.0665972E-1,-1.0272015E0,-8.943693E-1,-4.139412E-1,-1.9905047E-1,7.362753E-1,-2.3564367E-1,1.5815638E-1,3.3785373E-1,1.1886314E0,8.072801E-1,2.2100236E-1,1.7724453E-2,1.2405345E0,-4.2849466E-2,1.6888306E-2,-5.7795864E-1,-1.5323467E0,-8.9657746E-2,-9.605024E-1,-1.4724792E0,-8.5802937E-1,-1.2793722E0,-7.4150056E-1,-6.441457E-1,-1.804142E-1,-2.5726202E-1,2.8060827E-1,-1.4828387E-2,1.0296378E0,-3.44764E-1,3.2631904E-1,-1.22679114E-1,2.5507942E-1,4.7282808E-2,-3.7455052E-1,1.2567253E0,-2.4071855E-3,2.2415623E-1,8.5359037E-1,9.463969E-1,-1.2590548E-2,1.1291134E0,1.3570033E0,1.5184506E-2,-4.75709E-2,-8.476897E-2,-6.1403703E-2,-1.1772036E-2,6.169808E-2,-6.296928E-2,1.7873377E-3,-7.7604346E-2,-1.0344564E-2,-4.4738974E-2,4.6383243E-2,-7.6778196E-2,-4.6679523E-2,-4.130059E-2,6.4715156E-3,-4.8932474E-2,-2.3831403E-2,-1.1975068E-2,5.099232E-2,4.2342395E-2,-1.3940724E-2,3.662279E-2,-1.1044451E-2,1.2743647E-2,6.6442266E-2,-3.1863306E-2,-7.950204E-3,2.75751E-2,-4.9839284E-2,3.75007E-2,-9.502482E-3,1.5998822E-2,-4.3951944E-3,-4.775194E-2,1.2114881E-2,6.535799E-2,3.743878E-2,-7.628904E-3,4.890382E-2,3.800243E-2,5.7174325E-2,6.259548E-2,1.9265838E-2,-2.837573E-2,1.0230834E-2,5.7438064E-2,1.2659298E-2,2.9828623E-2,6.8531655E-2],"categories":[],"categories_nodes":[],"categories_segments":[],"categories_sizes":[],"default_left":[0,0,0,0,0,0,0,0,0,0,0,0,0,0,0,0,0,0,0,0,0,0,0,0,0,0,0,0,0,0,0,0,0,0,0,0,0,0,0,0,0,0,0,0,0,0,0,0,0,0,0,0,0,0,0,0,0,0,0,0,0,0,0,0,0,0,0,0,0,0,0,0,0,0,0,0,0,0,0,0,0,0,0,0,0,0,0,0,0,0,0,0,0,0,0,0,0,0,0,0,0,0,0,0,0,0,0,0,0,0,0],"id":4,"left_children":[1,3,5,7,9,11,13,15,17,19,21,23,25,27,29,31,33,35,37,39,41,43,45,47,49,51,53,55,57,-1,59,-1,-1,61,63,65,67,69,71,73,75,77,79,81,83,-1,85,87,89,91,93,-1,95,97,-1,99,101,103,105,107,109,-1,-1,-1,-1,-1,-1,-1,-1,-1,-1,-1,-1,-1,-1,-1,-1,-1,-1,-1,-1,-1,-1,-1,-1,-1,-1,-1,-1,-1,-1,-1,-1,-1,-1,-1,-1,-1,-1,-1,-1,-1,-1,-1,-1,-1,-1,-1,-1,-1,-1],"loss_changes":[1.0310295E3,1.3102759E2,2.353523E2,3.1835205E1,4.6774857E1,6.655272E1,4.4979492E1,7.6621704E0,2.1684875E1,2.663678E1,1.4766292E1,2.1241217E1,7.5377045E0,2.0851929E1,2.1545105E0,3.0443676E0,7.3945312E0,1.3433903E1,1.674733E1,1.12617035E1,1.4106483E1,1.0173129E1,5.740547E0,1.0806865E1,1.739246E1,6.923375E0,5.567436E0,1.2374878E1,1.2354179E1,0E0,1.8103638E0,0E0,0E0,4.188363E0,5.0769653E0,9.949339E0,8.514164E0,6.0639954E0,1.2512421E1,3.4907455E0,1.1476456E1,6.862999E0,9.648254E0,7.8747807E0,9.153064E0,0E0,2.767066E0,7.787325E0,9.061326E0,9.724873E0,1.0610847E1,0E0,3.011302E0,3.7145233E-1,0E0,1.046966E1,1.0717072E1,2.3923292E0,6.849498E0,2.1130066E0,3.3203125E-1,0E0,0E0,0E0,0E0,0E0,0E0,0E0,0E0,0E0,0E0,0E0,0E0,0E0,0E0,0E0,0E0,0E0,0E0,0E0,0E0,0E0,0E0,0E0,0E0,0E0,0E0,0E0,0E0,0E0,0E0,0E0,0E0,0E0,0E0,0E0,0E0,0E0,0E0,0E0,0E0,0E0,0E0,0E0,0E0,0E0,0E0,0E0,0E0,0E0,0E0],"parents":[2147483647,0,0,1,1,2,2,3,3,4,4,5,5,6,6,7,7,8,8,9,9,10,10,11,11,12,12,13,13,14,14,15,15,16,16,17,17,18,18,19,19,20,20,21,21,22,22,23,23,24,24,25,25,26,26,27,27,28,28,30,30,33,33,34,34,35,35,36,36,37,37,38,38,39,39,40,40,41,41,42,42,43,43,44,44,46,46,47,47,48,48,49,49,50,50,52,52,53,53,55,55,56,56,57,57,58,58,59,59,60,60],"right_children":[2,4,6,8,10,12,14,16,18,20,22,24,26,28,30,32,34,36,38,40,42,44,46,48,50,52,54,56,58,-1,60,-1,-1,62,64,66,68,70,72,74,76,78,80,82,84,-1,86,88,90,92,94,-1,96,98,-1,100,102,104,106,108,110,-1,-1,-1,-1,-1,-1,-1,-1,-1,-1,-1,-1,-1,-1,-1,-1,-1,-1,-1,-1,-1,-1,-1,-1,-1,-1,-1,-1,-1,-1,-1,-1,-1,-1,-1,-1,-1,-1,-1,-1,-1,-1,-1,-1,-1,-1,-1,-1,-1,-1],"split_conditions":[0E0,-8.523809E0,7.285714E0,-1.3803813E0,-1.5000917E-2,2.816538E0,2.30068E0,6.730769E1,6E0,-1.9760992E-2,2.8722332E0,-4.646573E-1,7.454904E-1,1E0,9.546586E1,-1.1601721E-2,-1.0719349E0,1E0,-4E-1,-1.9797584E0,-4.2222223E0,1.5765987E-1,6.978571E1,3E-1,-4.236111E-2,1.2E1,3.2789856E-1,-1.065098E0,-7.136448E-1,1.7724453E-2,1.4089836E0,-4.2849466E-2,1.6888306E-2,6.678937E1,-1.2722222E1,1.4799526E0,3.2307693E-1,2.2243902E-1,1.7638972E0,-7.853836E-2,1.1139416E2,6.931035E1,7.101527E1,-9.2E1,-7.53831E-1,-1.4828387E-2,1.0292991E0,-8.7012357E-1,7.98125E1,6.521645E1,1E0,4.7282808E-2,2.1E1,1.0814815E1,-2.4071855E-3,9.53125E0,1.8389744E1,3.3333334E-1,1.2820514E-1,4.8697934E-1,4.4691926E-1,1.5184506E-2,-4.75709E-2,-8.476897E-2,-6.1403703E-2,-1.1772036E-2,6.169808E-2,-6.296928E-2,1.7873377E-3,-7.7604346E-2,-1.0344564E-2,-4.4738974E-2,4.6383243E-2,-7.6778196E-2,-4.6679523E-2,-4.130059E-2,6.4715156E-3,-4.8932474E-2,-2.3831403E-2,-1.1975068E-2,5.099232E-2,4.2342395E-2,-1.3940724E-2,3.662279E-2,-1.1044451E-2,1.2743647E-2,6.6442266E-2,-3.1863306E-2,-7.950204E-3,2.75751E-2,-4.9839284E-2,3.75007E-2,-9.502482E-3,1.5998822E-2,-4.3951944E-3,-4.775194E-2,1.2114881E-2,6.535799E-2,3.743878E-2,-7.628904E-3,4.890382E-2,3.800243E-2,5.7174325E-2,6.259548E-2,1.9265838E-2,-2.837573E-2,1.0230834E-2,5.7438064E-2,1.2659298E-2,2.9828623E-2,6.8531655E-2],"split_indices":[37,37,37,40,40,40,40,16,14,42,40,40,20,8,3,42,28,8,36,41,37,42,18,38,42,17,36,41,28,0,21,0,0,5,37,20,41,42,22,42,3,15,5,34,20,0,20,22,18,5,8,0,14,30,0,30,37,38,36,28,6,0,0,0,0,0,0,0,0,0,0,0,0,0,0,0,0,0,0,0,0,0,0,0,0,0,0,0,0,0,0,0,0,0,0,0,0,0,0,0,0,0,0,0,0,0,0,0,0,0,0],"split_type":[0,0,0,0,0,0,0,0,0,0,0,0,0,0,0,0,0,0,0,0,0,0,0,0,0,0,0,0,0,0,0,0,0,0,0,0,0,0,0,0,0,0,0,0,0,0,0,0,0,0,0,0,0,0,0,0,0,0,0,0,0,0,0,0,0,0,0,0,0,0,0,0,0,0,0,0,0,0,0,0,0,0,0,0,0,0,0,0,0,0,0,0,0,0,0,0,0,0,0,0,0,0,0,0,0,0,0,0,0,0,0],"sum_hessian":[3.042908E3,1.3367994E3,1.7061086E3,4.8426285E2,8.525366E2,8.866985E2,8.1941016E2,1.6646802E2,3.1779483E2,4.7499713E2,3.7753946E2,8.097043E2,7.699418E1,5.396131E2,2.7979706E2,6.612199E0,1.598558E2,7.660492E1,2.4118991E2,2.0989911E2,2.6509802E2,3.6084332E2,1.6696136E1,1.7336804E2,6.3633624E2,1.4039385E1,6.2954796E1,4.683257E2,7.128739E1,4.06555E0,2.757315E2,3.440891E0,3.171308E0,1.0646281E1,1.4920953E2,4.957322E1,2.7031702E1,6.412128E1,1.7706863E2,5.737522E1,1.5252388E2,1.3239757E2,1.3270047E2,3.2239008E2,3.845324E1,3.6154382E0,1.3080698E1,1.456505E2,2.771755E1,1.6293448E2,4.7340176E2,7.4749403E0,6.564445E0,5.9730877E1,3.2239168E0,3.5045364E1,4.3328033E2,1.6725376E1,5.456202E1,1.4682394E2,1.2890755E2,3.1437314E0,7.50255E0,9.396272E1,5.524681E1,4.5463554E1,4.1096654E0,2.0667519E1,6.3641825E0,6.0039303E1,4.0819726E0,1.7404173E2,3.0269096E0,3.0814522E1,2.6560698E1,1.3918445E2,1.3339435E1,4.2364326E1,9.003323E1,1.2731663E2,5.3838444E0,5.350622E0,3.1703946E2,2.0090567E1,1.8362673E1,4.2532973E0,8.8274E0,5.54184E1,9.0232086E1,2.4249256E1,3.4682941E0,1.0844306E1,1.5209018E2,3.9838138E2,7.502039E1,3.182961E0,3.3814838E0,5.272548E1,7.0053997E0,2.381165E1,1.1233716E1,3.3057828E2,1.0270207E2,9.916359E0,6.8090167E0,1.50245905E1,3.953743E1,1.4318651E2,3.6374326E0,3.187308E0,1.2572024E2],"tree_param":{"num_deleted":"0","num_feature":"45","num_nodes":"111","size_leaf_vector":"1"}},{"base_weights":[1.4753042E-2,-6.087185E-1,5.2022815E-1,-9.7105384E-1,-3.454248E-1,2.4419796E-1,9.409386E-1,-1.180692E0,-6.449814E-1,-5.292054E-1,-8.758857E-2,1.5947177E-1,9.5211816E-1,8.121125E-1,1.2571534E0,-1.5606077E0,-1.0482172E0,-7.3959446E-1,4.167103E-1,-7.443854E-1,-3.596361E-1,-2.9695472E-1,1.4066118E-1,-2.7770597E-1,2.6305282E-1,7.3836684E-1,6.077635E-2,-4.5982867E-1,8.3716357E-1,1.2805802E0,-0E0,-9.739915E-1,-1.7291567E0,-1.501981E0,-9.4782704E-1,-1.899746E-1,-9.143227E-1,-1.5788631E-1,5.4949045E-2,-7.938156E-1,6.8440445E-2,-1.0611386E0,-2.9178655E-1,-3.7099466E-1,8.084854E-1,6.4885914E-1,1.3346254E-2,-3.7466624E-1,4.957099E-1,1.376928E-1,3.9964187E-1,1.0870165E0,5.710243E-1,1.1228316E-2,-7.3354386E-2,3.0888855E-1,8.8469106E-1,7.884442E-1,6.579601E-2,-6.331768E-2,-2.3392492E-3,-8.824991E-2,-3.7454113E-2,-1.265277E-2,-8.327627E-2,-3.687842E-2,-5.682677E-2,-2.6950633E-2,5.0959517E-3,-5.0121564E-2,-0E0,1.3282575E-2,-4.985069E-2,-4.0934417E-2,2.366256E-2,2.9324053E-2,-3.872895E-2,8.1889955E-3,-6.46117E-2,-3.2270364E-2,-8.882884E-3,6.900748E-3,-2.3186734E-2,6.088965E-2,9.620347E-3,4.812835E-2,3.6545955E-3,3.9998395E-3,-4.179096E-2,-4.2641625E-2,-1.0608753E-2,4.3180406E-2,-3.8896084E-2,3.261905E-2,2.8815772E-3,-5.134623E-2,2.117328E-2,6.2388033E-2,2.4809575E-2,-1.247039E-2,3.4890644E-2,-2.9563783E-2,3.0221445E-2,-1.6870482E-2,4.5042966E-2,4.2509283E-3,5.7735037E-2],"categories":[],"categories_nodes":[],"categories_segments":[],"categories_sizes":[],"default_left":[0,0,0,0,0,0,0,0,0,0,0,0,0,0,0,0,0,0,0,0,0,0,0,0,0,0,0,0,0,0,0,0,0,0,0,0,0,0,0,0,0,0,0,0,0,0,0,0,0,0,0,0,0,0,0,0,0,0,0,0,0,0,0,0,0,0,0,0,0,0,0,0,0,0,0,0,0,0,0,0,0,0,0,0,0,0,0,0,0,0,0,0,0,0,0,0,0,0,0,0,0,0,0,0,0,0,0],"id":5,"left_children":[1,3,5,7,9,11,13,15,17,19,21,23,25,27,29,31,33,35,37,39,41,43,45,47,49,51,-1,53,55,57,-1,59,61,63,65,67,69,71,-1,73,75,77,79,81,83,85,87,89,91,93,95,97,99,-1,-1,101,103,105,-1,-1,-1,-1,-1,-1,-1,-1,-1,-1,-1,-1,-1,-1,-1,-1,-1,-1,-1,-1,-1,-1,-1,-1,-1,-1,-1,-1,-1,-1,-1,-1,-1,-1,-1,-1,-1,-1,-1,-1,-1,-1,-1,-1,-1,-1,-1,-1,-1],"loss_changes":[9.620038E2,1.299147E2,1.9543073E2,3.832373E1,3.74793E1,6.0884323E1,2.5960144E1,1.5630951E1,2.3161537E1,1.6504807E1,1.5900469E1,4.1362183E1,5.0242157E0,1.5629852E1,5.526703E0,6.7265625E0,1.0241852E1,1.9791405E1,7.77207E0,8.272125E0,1.1976341E1,1.4453957E1,1.021662E1,1.329398E1,1.2525608E1,2.8735352E0,0E0,7.2001905E0,1.136972E1,2.014557E0,0E0,5.7782326E0,7.722931E-1,8.67524E0,7.5838165E0,5.3788466E0,1.2794754E1,4.3135343E0,0E0,6.4509583E0,5.8623066E0,6.6952744E0,9.467386E0,7.8075485E0,2.428475E0,5.549506E0,7.2569513E0,1.1845354E1,9.960911E0,1.5824196E1,1.2344814E1,1.0151577E0,4.867386E0,0E0,0E0,1.1100834E1,8.838867E0,3.7073555E0,0E0,0E0,0E0,0E0,0E0,0E0,0E0,0E0,0E0,0E0,0E0,0E0,0E0,0E0,0E0,0E0,0E0,0E0,0E0,0E0,0E0,0E0,0E0,0E0,0E0,0E0,0E0,0E0,0E0,0E0,0E0,0E0,0E0,0E0,0E0,0E0,0E0,0E0,0E0,0E0,0E0,0E0,0E0,0E0,0E0,0E0,0E0,0E0,0E0],"parents":[2147483647,0,0,1,1,2,2,3,3,4,4,5,5,6,6,7,7,8,8,9,9,10,10,11,11,12,12,13,13,14,14,15,15,16,16,17,17,18,18,19,19,20,20,21,21,22,22,23,23,24,24,25,25,27,27,28,28,29,29,31,31,32,32,33,33,34,34,35,35,36,36,37,37,39,39,40,40,41,41,42,42,43,43,44,44,45,45,46,46,47,47,48,48,49,49,50,50,51,51,52,52,55,55,56,56,57,57],"right_children":[2,4,6,8,10,12,14,16,18,20,22,24,26,28,30,32,34,36,38,40,42,44,46,48,50,52,-1,54,56,58,-1,60,62,64,66,68,70,72,-1,74,76,78,80,82,84,86,88,90,92,94,96,98,100,-1,-1,102,104,106,-1,-1,-1,-1,-1,-1,-1,-1,-1,-1,-1,-1,-1,-1,-1,-1,-1,-1,-1,-1,-1,-1,-1,-1,-1,-1,-1,-1,-1,-1,-1,-1,-1,-1,-1,-1,-1,-1,-1,-1,-1,-1,-1,-1,-1,-1,-1,-1,-1],"split_conditions":[-1E-1,-8.3E0,9.9E0,-1.9690278E-1,3.2764994E-2,2.6830845E0,3.0315545E0,-2.6099603E0,1.7195717E0,-1.25E-1,-3.2E0,-5.393821E-1,4.280702E0,-2.8653125E2,1.3846154E0,1E1,-1.92E1,7.163636E1,-2.4959517E0,1.1782922E3,-2.5379744E0,2.8722332E0,1.7851458E-1,2.638889E-1,1E-1,9.868596E1,6.077635E-2,5.362624E-1,-4.4E1,7.1791664E1,-0E0,7.4583336E1,7.7875E1,6.666667E-2,1.7E1,4E-1,1.7741935E-1,-1.2864952E0,5.4949045E-2,4.347826E-2,4.2169356E-1,-3.4927878E0,1.3409048E2,-5.2813854E-2,1.0100656E2,7.508696E1,7.0875694E1,-1.9241277E0,6.895576E1,7.4444447E0,-3.4587758E0,8.2666664E1,6.6166664E1,1.1228316E-2,-7.3354386E-2,1.3333334E-1,-1.8777723E0,1.69E1,6.579601E-2,-6.331768E-2,-2.3392492E-3,-8.824991E-2,-3.7454113E-2,-1.265277E-2,-8.327627E-2,-3.687842E-2,-5.682677E-2,-2.6950633E-2,5.0959517E-3,-5.0121564E-2,-0E0,1.3282575E-2,-4.985069E-2,-4.0934417E-2,2.366256E-2,2.9324053E-2,-3.872895E-2,8.1889955E-3,-6.46117E-2,-3.2270364E-2,-8.882884E-3,6.900748E-3,-2.3186734E-2,6.088965E-2,9.620347E-3,4.812835E-2,3.6545955E-3,3.9998395E-3,-4.179096E-2,-4.2641625E-2,-1.0608753E-2,4.3180406E-2,-3.8896084E-2,3.261905E-2,2.8815772E-3,-5.134623E-2,2.117328E-2,6.2388033E-2,2.4809575E-2,-1.247039E-2,3.4890644E-2,-2.9563783E-2,3.0221445E-2,-1.6870482E-2,4.5042966E-2,4.2509283E-3,5.7735037E-2],"split_indices":[39,39,39,40,40,40,40,40,40,38,39,40,40,32,31,17,39,16,26,32,40,40,40,36,36,2,0,6,34,15,0,15,19,44,17,44,35,28,0,36,28,23,32,35,2,16,5,40,5,24,20,15,16,0,0,44,22,39,0,0,0,0,0,0,0,0,0,0,0,0,0,0,0,0,0,0,0,0,0,0,0,0,0,0,0,0,0,0,0,0,0,0,0,0,0,0,0,0,0,0,0,0,0,0,0,0,0],"split_type":[0,0,0,0,0,0,0,0,0,0,0,0,0,0,0,0,0,0,0,0,0,0,0,0,0,0,0,0,0,0,0,0,0,0,0,0,0,0,0,0,0,0,0,0,0,0,0,0,0,0,0,0,0,0,0,0,0,0,0,0,0,0,0,0,0,0,0,0,0,0,0,0,0,0,0,0,0,0,0,0,0,0,0,0,0,0,0,0,0,0,0,0,0,0,0,0,0,0,0,0,0,0,0,0,0,0,0],"sum_hessian":[3.0505562E3,1.3656774E3,1.6848788E3,5.7344934E2,7.922281E2,1.0184722E3,6.6640656E2,3.47261E2,2.2618834E2,4.6169833E2,3.3052975E2,9.108279E2,1.07644325E2,4.7626175E2,1.9014478E2,8.679943E1,2.6046155E2,2.0804582E2,1.8142511E1,2.0172884E2,2.5996948E2,1.7246774E2,1.58062E2,1.7395999E2,7.368679E2,6.17324E1,4.5911922E1,8.786541E0,4.6747522E2,1.8658539E2,3.5593927E0,2.1018585E1,6.578084E1,4.4475357E1,2.1598619E2,5.0826633E1,1.572192E2,1.0186029E1,7.9564824E0,1.9030243E2,1.1426411E1,2.1505783E1,2.384637E2,1.6234883E2,1.0118911E1,3.0687195E1,1.2737481E2,1.551538E2,1.8806189E1,3.8565652E2,3.512114E2,1.804443E1,4.368797E1,5.635322E0,3.1512191E0,3.9378677E1,4.2809653E2,1.425224E1,1.7233315E2,1.5619806E1,5.3987794E0,6.2589043E1,3.191799E0,5.515371E0,3.8959984E1,1.0473216E2,1.1125403E2,2.2917967E1,2.7908669E1,1.4336096E2,1.3858231E1,7.144295E0,3.0417347E0,1.8706314E2,3.2392805E0,7.3392973E0,4.087113E0,3.390905E0,1.8114878E1,5.6834507E1,1.816292E2,2.4779337E1,1.3756949E2,5.3953614E0,4.72355E0,1.9316877E1,1.13703165E1,1.1905389E2,8.320919E0,3.8118317E1,1.17035484E2,1.4902062E1,3.9041266E0,5.0784115E1,3.3487244E2,5.0083475E0,3.4620303E2,1.3177981E1,4.866449E0,5.612754E0,3.8075214E1,9.402199E0,2.9976479E1,5.249515E0,4.2284702E2,5.3952947E0,8.856946E0],"tree_param":{"num_deleted":"0","num_feature":"45","num_nodes":"107","size_leaf_vector":"1"}},{"base_weights":[1.1982354E-3,-5.9265715E-1,4.796956E-1,-9.59106E-1,-3.5424593E-1,1.5420279E-1,8.1263447E-1,-1.4442891E0,-8.2734686E-1,-5.300903E-1,-8.686101E-2,7.277885E-2,8.980007E-1,6.835024E-1,1.1904231E0,-1.6098549E0,-8.3383524E-1,-9.05485E-1,-1.3938534E-1,-7.1722984E-1,-2.3856494E-1,-1.15397215E-1,9.461769E-1,-1.0335009E-1,2.1640387E-1,1.0018065E0,6.669062E-2,5.895654E-1,1.0108899E0,9.8822576E-1,1.3116534E0,-1.6467019E0,-3.00787E-2,1.8212352E-2,-1.2068537E0,-3.279864E-1,-9.689738E-1,4.795695E-1,-4.4669375E-1,-1.2463123E0,-6.167933E-1,-5.3322005E-1,-1.9312024E-2,-5.2232164E-1,-4.2457383E-2,1.8838104E-2,5.8647484E-2,-2.5778687E-2,-5.39208E-1,-1.5380101E-2,3.5471585E-1,1.0711619E0,-0E0,3.7151743E-2,-2.170506E-2,2.072367E-1,7.0668226E-1,-6.67791E-3,1.0571321E0,1.022811E0,1.894794E-3,6.665664E-2,2.0239769E-2,-8.4413566E-2,-2.9071614E-2,-7.158112E-2,-3.920198E-3,5.4277923E-2,-2.4833431E-2,-7.1085855E-2,-4.36725E-2,-3.2679908E-4,4.9927816E-2,-4.168215E-2,2.7221486E-2,-6.743996E-2,4.9814056E-3,5.7204305E-3,-3.3791486E-2,-3.3440217E-2,3.7569355E-2,-1.68813E-2,1.19301425E-2,-4.1189577E-2,2.2558E-3,-2.9443482E-2,8.0673676E-4,-3.227251E-2,1.3864684E-3,-1.6849183E-2,-7.49879E-2,7.5380825E-3,-1.779767E-2,3.6787165E-3,2.5880435E-2,-9.998547E-3,5.709505E-2,2.044488E-2,-2.2901393E-2,-5.3365277E-3,3.6882114E-2,5.4239493E-2,5.9210467E-3,1.1621564E-2,5.2841216E-2],"categories":[],"categories_nodes":[],"categories_segments":[],"categories_sizes":[],"default_left":[0,0,0,0,0,0,0,0,0,0,0,0,0,0,0,0,0,0,0,0,0,0,0,0,0,0,0,0,0,0,0,0,0,0,0,0,0,0,0,0,0,0,0,0,0,0,0,0,0,0,0,0,0,0,0,0,0,0,0,0,0,0,0,0,0,0,0,0,0,0,0,0,0,0,0,0,0,0,0,0,0,0,0,0,0,0,0,0,0,0,0,0,0,0,0,0,0,0,0,0,0,0,0,0,0],"id":6,"left_children":[1,3,5,7,9,11,13,15,17,19,21,23,25,27,29,31,33,35,37,39,41,43,45,47,49,51,53,55,57,59,61,63,-1,-1,65,67,69,71,73,75,77,79,81,83,85,-1,-1,87,89,91,93,95,-1,-1,-1,97,99,-1,101,103,-1,-1,-1,-1,-1,-1,-1,-1,-1,-1,-1,-1,-1,-1,-1,-1,-1,-1,-1,-1,-1,-1,-1,-1,-1,-1,-1,-1,-1,-1,-1,-1,-1,-1,-1,-1,-1,-1,-1,-1,-1,-1,-1,-1,-1],"loss_changes":[8.587215E2,1.1733017E2,1.8115015E2,3.2505615E1,3.838365E1,5.1175247E1,3.934265E1,9.717224E0,2.2340363E1,2.6653503E1,9.642399E0,1.9391699E1,7.025902E0,1.8276245E1,3.5997314E0,2.0085144E0,1.2172571E1,1.3365692E1,8.606429E0,1.49770355E1,1.2507939E1,9.372517E0,5.3727627E-1,1.1563379E1,1.3572979E1,5.197212E0,3.8894463E0,2.1412674E1,7.449005E0,2.5748749E0,1.7675629E0,2.4689026E0,0E0,0E0,4.85322E0,9.775488E0,1.317926E1,3.8945217E0,1.2034224E1,6.7005615E0,1.1103294E1,1.4916096E1,9.352921E0,8.34397E0,8.753238E0,0E0,0E0,9.806385E0,9.36165E0,9.040106E0,1.2024895E1,6.549301E0,0E0,0E0,0E0,1.5610105E1,9.447556E0,0E0,3.1586456E0,1.7681122E0,0E0,0E0,0E0,0E0,0E0,0E0,0E0,0E0,0E0,0E0,0E0,0E0,0E0,0E0,0E0,0E0,0E0,0E0,0E0,0E0,0E0,0E0,0E0,0E0,0E0,0E0,0E0,0E0,0E0,0E0,0E0,0E0,0E0,0E0,0E0,0E0,0E0,0E0,0E0,0E0,0E0,0E0,0E0,0E0,0E0],"parents":[2147483647,0,0,1,1,2,2,3,3,4,4,5,5,6,6,7,7,8,8,9,9,10,10,11,11,12,12,13,13,14,14,15,15,16,16,17,17,18,18,19,19,20,20,21,21,22,22,23,23,24,24,25,25,26,26,27,27,28,28,29,29,30,30,31,31,34,34,35,35,36,36,37,37,38,38,39,39,40,40,41,41,42,42,43,43,44,44,47,47,48,48,49,49,50,50,51,51,55,55,56,56,58,58,59,59],"right_children":[2,4,6,8,10,12,14,16,18,20,22,24,26,28,30,32,34,36,38,40,42,44,46,48,50,52,54,56,58,60,62,64,-1,-1,66,68,70,72,74,76,78,80,82,84,86,-1,-1,88,90,92,94,96,-1,-1,-1,98,100,-1,102,104,-1,-1,-1,-1,-1,-1,-1,-1,-1,-1,-1,-1,-1,-1,-1,-1,-1,-1,-1,-1,-1,-1,-1,-1,-1,-1,-1,-1,-1,-1,-1,-1,-1,-1,-1,-1,-1,-1,-1,-1,-1,-1,-1,-1,-1],"split_conditions":[-7.1428575E-2,-8E0,7.0011497E0,-2.410573E0,2.3599356E-2,2.5290835E0,3.0315545E0,7.4045456E1,2.147633E-1,-1.5000917E-2,2.951818E0,-6.45048E-3,7.7333336E1,1.8389744E1,2.077262E0,7.168072E1,4.5193928E-1,6.875E1,6.64E1,-2.3394933E0,-4.037037E0,-2.3333333E-1,1.2E0,1E0,-5.0436663E-3,6.422727E0,-1.5556986E0,8E0,-1.2679611E0,-9E-1,1.8839401E0,9.0344826E1,-3.00787E-2,1.8212352E-2,-1.4444445E-1,7.3454544E1,-5E-1,3.3333334E-1,7.481061E-2,-2.7705628E-2,9.7812164E1,1.9114027E0,-6.779042E-1,-6.942324E-1,7.6875E0,1.8838104E-2,5.8647484E-2,-1.7666997E0,1.4516129E-1,-8.2590157E-1,-1.8393313E0,6.714286E1,-0E0,3.7151743E-2,-2.170506E-2,1E0,7.5833335E0,-6.67791E-3,9.9833336E1,1.010101E-2,1.894794E-3,6.665664E-2,2.0239769E-2,-8.4413566E-2,-2.9071614E-2,-7.158112E-2,-3.920198E-3,5.4277923E-2,-2.4833431E-2,-7.1085855E-2,-4.36725E-2,-3.2679908E-4,4.9927816E-2,-4.168215E-2,2.7221486E-2,-6.743996E-2,4.9814056E-3,5.7204305E-3,-3.3791486E-2,-3.3440217E-2,3.7569355E-2,-1.68813E-2,1.19301425E-2,-4.1189577E-2,2.2558E-3,-2.9443482E-2,8.0673676E-4,-3.227251E-2,1.3864684E-3,-1.6849183E-2,-7.49879E-2,7.5380825E-3,-1.779767E-2,3.6787165E-3,2.5880435E-2,-9.998547E-3,5.709505E-2,2.044488E-2,-2.2901393E-2,-5.3365277E-3,3.6882114E-2,5.4239493E-2,5.9210467E-3,1.1621564E-2,5.2841216E-2],"split_indices":[37,37,37,41,42,40,40,19,42,40,40,42,16,37,20,4,7,18,19,40,37,36,25,8,40,37,28,14,40,29,26,18,0,0,38,16,38,42,35,35,0,40,28,21,30,0,0,40,35,21,26,18,0,0,0,8,30,0,19,36,0,0,0,0,0,0,0,0,0,0,0,0,0,0,0,0,0,0,0,0,0,0,0,0,0,0,0,0,0,0,0,0,0,0,0,0,0,0,0,0,0,0,0,0,0],"split_type":[0,0,0,0,0,0,0,0,0,0,0,0,0,0,0,0,0,0,0,0,0,0,0,0,0,0,0,0,0,0,0,0,0,0,0,0,0,0,0,0,0,0,0,0,0,0,0,0,0,0,0,0,0,0,0,0,0,0,0,0,0,0,0,0,0,0,0,0,0,0,0,0,0,0,0,0,0,0,0,0,0,0,0,0,0,0,0,0,0,0,0,0,0,0,0,0,0,0,0,0,0,0,0,0,0],"sum_hessian":[3.0200227E3,1.3473727E3,1.6726501E3,5.297226E2,8.176501E2,8.4667456E2,8.259755E2,1.1084226E2,4.188803E2,4.9244177E2,3.252083E2,7.642446E2,8.2429955E1,6.1785895E2,2.0811662E2,8.5777054E1,2.5065207E1,3.7574228E2,4.313803E1,2.9881772E2,1.9362405E2,3.17425E2,7.7833214E0,3.4309167E2,4.2115292E2,7.299027E1,9.439684E0,4.8251703E2,1.353419E2,8.174778E1,1.2636884E2,8.204636E1,3.7306952E0,5.8930383E0,1.9172169E1,3.798347E1,3.3775882E2,1.4018065E1,2.9119967E1,4.5695766E1,2.5312196E2,8.180193E1,1.1182211E2,4.710404E1,2.7032095E2,3.1005006E0,4.682821E0,2.923496E2,5.0742065E1,1.5745491E2,2.6369803E2,6.824864E1,4.741631E0,3.895109E0,5.5445743E0,1.1399687E2,3.6852014E2,5.098885E0,1.3024303E2,7.870209E1,3.0456944E0,1.2287808E2,3.490758E0,7.831175E1,3.7346063E0,1.5689749E1,3.4824197E0,3.4067554E0,3.4576717E1,5.6246014E1,2.815128E2,7.648693E0,6.369373E0,2.1130209E1,7.9897585E0,4.2529526E1,3.1662414E0,1.8713406E1,2.3440855E2,7.44964E1,7.305532E0,5.008579E1,6.1736324E1,3.0581217E1,1.6522821E1,2.5468248E1,2.448527E2,2.25068E1,2.698428E2,4.3119137E1,7.622931E0,1.0600583E2,5.1449085E1,9.749469E1,1.6620332E2,3.427014E0,6.4821625E1,8.789043E1,2.6106443E1,1.3304115E1,3.5521603E2,1.2626078E2,3.982244E0,3.691645E0,7.501044E1],"tree_param":{"num_deleted":"0","num_feature":"45","num_nodes":"105","size_leaf_vector":"1"}},{"base_weights":[1.0210017E-2,-5.531881E-1,4.7183853E-1,-9.0712696E-1,-3.2701862E-1,2.2044967E-1,8.815296E-1,-1.0866629E0,-5.18245E-1,-1.2746414E0,-2.7189064E-1,1.4138955E-1,9.6229595E-1,7.494932E-1,1.181352E0,-1.4211956E0,-9.5104647E-1,-6.270166E-1,6.3582325E-1,-1.484049E0,-6.1015844E-1,-3.4480897E-1,1.8818124E-1,3.3649445E-2,3.668499E-1,-0E0,1.028918E0,-3.86193E-1,7.745139E-1,1.198754E0,5.9393216E-3,-3.3699024E-1,-1.5866699E0,-1.1516784E0,-5.838169E-1,-7.521105E-1,1.6143817E-2,4.872185E-2,1.0361264E0,-1.163753E0,-8.850397E-2,-1.0737222E0,7.3752045E-3,-5.1758766E-1,-1.7702569E-1,5.0852798E-2,9.8041135E-1,-1.3904205E-1,1.7617387E-1,-3.3568823E-1,5.052706E-1,-2.575686E-2,2.676001E-2,4.8138055E-1,1.1377904E0,-5.65882E-2,1.8174373E-2,1.04386516E-1,8.11466E-1,9.6648884E-1,6.451483E-2,-3.7686765E-2,4.3749657E-2,-2.9107813E-2,-8.23469E-2,-6.020209E-2,-1.0172842E-2,-3.461322E-2,2.4517918E-2,2.3609398E-2,-3.9973002E-2,3.1345274E-2,-1.909799E-2,3.7215833E-2,-3.1372577E-2,2.4623474E-2,6.450899E-2,-9.265435E-3,-6.922766E-2,-1.577979E-2,-7.412972E-2,4.484273E-2,-2.685305E-2,-1.7730908E-2,4.6733147E-3,4.4325933E-2,-3.045179E-3,5.86307E-3,5.85925E-2,-2.0790234E-2,-2.3413152E-3,-2.306153E-3,1.5526757E-2,-3.908354E-2,1.7139718E-2,-1.682519E-2,2.7228806E-2,-2.9822895E-2,3.803527E-2,6.096644E-2,2.9023474E-2,-8.033556E-3,4.573567E-2,2.7137104E-2,4.6544846E-2,2.2857329E-2,5.551377E-2],"categories":[],"categories_nodes":[],"categories_segments":[],"categories_sizes":[],"default_left":[0,0,0,0,0,0,0,0,0,0,0,0,0,0,0,0,0,0,0,0,0,0,0,0,0,0,0,0,0,0,0,0,0,0,0,0,0,0,0,0,0,0,0,0,0,0,0,0,0,0,0,0,0,0,0,0,0,0,0,0,0,0,0,0,0,0,0,0,0,0,0,0,0,0,0,0,0,0,0,0,0,0,0,0,0,0,0,0,0,0,0,0,0,0,0,0,0,0,0,0,0,0,0,0,0,0,0],"id":7,"left_children":[1,3,5,7,9,11,13,15,17,19,21,23,25,27,29,31,33,35,37,39,41,43,45,47,49,51,53,55,57,59,-1,61,63,65,67,69,71,73,75,77,-1,79,-1,81,83,85,87,89,91,93,95,-1,-1,97,99,-1,-1,101,103,105,-1,-1,-1,-1,-1,-1,-1,-1,-1,-1,-1,-1,-1,-1,-1,-1,-1,-1,-1,-1,-1,-1,-1,-1,-1,-1,-1,-1,-1,-1,-1,-1,-1,-1,-1,-1,-1,-1,-1,-1,-1,-1,-1,-1,-1,-1,-1],"loss_changes":[7.850087E2,1.08388275E2,1.7056955E2,3.6224335E1,4.2913292E1,6.014486E1,2.3878357E1,1.4787445E1,2.1642097E1,5.1909103E0,2.6473595E1,2.258228E1,6.388138E0,1.2859177E1,3.2534485E0,1.755214E1,1.8316116E1,1.2575878E1,3.3649354E0,7.291031E-1,4.701704E0,1.9541275E1,1.1606977E1,1.5581255E1,2.9447685E1,2.3026142E0,4.805496E0,6.1222486E0,1.0510345E1,2.513977E0,0E0,8.143284E0,4.14859E0,7.905472E0,1.1320679E1,7.9530487E0,6.6165924E0,3.8789978E0,3.9692974E-1,3.6817913E0,0E0,1.8520832E0,0E0,9.645966E0,1.670988E1,8.84857E0,2.345582E0,7.2324724E0,1.0403535E1,1.5444252E1,8.538147E0,0E0,0E0,5.6577487E0,2.5789413E0,0E0,0E0,5.343383E0,1.2464905E1,3.5322723E0,0E0,0E0,0E0,0E0,0E0,0E0,0E0,0E0,0E0,0E0,0E0,0E0,0E0,0E0,0E0,0E0,0E0,0E0,0E0,0E0,0E0,0E0,0E0,0E0,0E0,0E0,0E0,0E0,0E0,0E0,0E0,0E0,0E0,0E0,0E0,0E0,0E0,0E0,0E0,0E0,0E0,0E0,0E0,0E0,0E0,0E0,0E0],"parents":[2147483647,0,0,1,1,2,2,3,3,4,4,5,5,6,6,7,7,8,8,9,9,10,10,11,11,12,12,13,13,14,14,15,15,16,16,17,17,18,18,19,19,20,20,21,21,22,22,23,23,24,24,25,25,26,26,27,27,28,28,29,29,31,31,32,32,33,33,34,34,35,35,36,36,37,37,38,38,39,39,41,41,43,43,44,44,45,45,46,46,47,47,48,48,49,49,50,50,53,53,54,54,57,57,58,58,59,59],"right_children":[2,4,6,8,10,12,14,16,18,20,22,24,26,28,30,32,34,36,38,40,42,44,46,48,50,52,54,56,58,60,-1,62,64,66,68,70,72,74,76,78,-1,80,-1,82,84,86,88,90,92,94,96,-1,-1,98,100,-1,-1,102,104,106,-1,-1,-1,-1,-1,-1,-1,-1,-1,-1,-1,-1,-1,-1,-1,-1,-1,-1,-1,-1,-1,-1,-1,-1,-1,-1,-1,-1,-1,-1,-1,-1,-1,-1,-1,-1,-1,-1,-1,-1,-1,-1,-1,-1,-1,-1,-1],"split_conditions":[0E0,-8.2E0,9.9E0,0E0,-2.6099603E0,2.816538E0,2.816538E0,-1.75E1,2.6607144E-1,5.8958097E-3,1.2534833E0,5.580645E0,1.1429872E1,-2.8653125E2,1.2737287E0,7.2066666E1,4.2120233E2,1.0795872E2,-4.465011E-1,1.0650611E2,6.666667E-1,-1.110223E-16,2.8722332E0,-2.095818E-3,2.5E-1,1.4102644E0,1.1757728E0,6.686667E1,5.8472223E0,2.2708526E0,5.9393216E-3,1.9837943E0,5E-2,2.2243902E-1,-1.1417362E-1,-2.0833333E-1,8E0,7.407143E1,1.0463871E2,-9.170373E-1,-8.850397E-2,5.7803974E-2,7.3752045E-3,3E0,-2.6E0,6.7545456E1,6.548142E1,1.3333334E0,-1.0572528E-2,3.154201E-1,7.6153846E0,-2.575686E-2,2.676001E-2,6.8166664E1,1.0444445E1,-5.65882E-2,1.8174373E-2,1E0,6E0,1.238272E2,6.451483E-2,-3.7686765E-2,4.3749657E-2,-2.9107813E-2,-8.23469E-2,-6.020209E-2,-1.0172842E-2,-3.461322E-2,2.4517918E-2,2.3609398E-2,-3.9973002E-2,3.1345274E-2,-1.909799E-2,3.7215833E-2,-3.1372577E-2,2.4623474E-2,6.450899E-2,-9.265435E-3,-6.922766E-2,-1.577979E-2,-7.412972E-2,4.484273E-2,-2.685305E-2,-1.7730908E-2,4.6733147E-3,4.4325933E-2,-3.045179E-3,5.86307E-3,5.85925E-2,-2.0790234E-2,-2.3413152E-3,-2.306153E-3,1.5526757E-2,-3.908354E-2,1.7139718E-2,-1.682519E-2,2.7228806E-2,-2.9822895E-2,3.803527E-2,6.096644E-2,2.9023474E-2,-8.033556E-3,4.573567E-2,2.7137104E-2,4.6544846E-2,2.2857329E-2,5.551377E-2],"split_indices":[37,37,39,41,40,40,40,39,42,42,41,37,32,32,28,16,32,0,21,2,44,42,40,42,44,22,23,16,37,23,0,23,44,42,40,42,17,18,2,23,0,42,0,17,39,18,4,37,40,41,30,0,0,16,30,0,0,33,17,32,0,0,0,0,0,0,0,0,0,0,0,0,0,0,0,0,0,0,0,0,0,0,0,0,0,0,0,0,0,0,0,0,0,0,0,0,0,0,0,0,0,0,0,0,0,0,0],"split_type":[0,0,0,0,0,0,0,0,0,0,0,0,0,0,0,0,0,0,0,0,0,0,0,0,0,0,0,0,0,0,0,0,0,0,0,0,0,0,0,0,0,0,0,0,0,0,0,0,0,0,0,0,0,0,0,0,0,0,0,0,0,0,0,0,0,0,0,0,0,0,0,0,0,0,0,0,0,0,0,0,0,0,0,0,0,0,0,0,0,0,0,0,0,0,0,0,0,0,0,0,0,0,0,0,0,0,0],"sum_hessian":[3.016356E3,1.358252E3,1.658104E3,5.2820154E2,8.300504E2,1.0286813E3,6.294227E2,3.599645E2,1.6823703E2,4.4317574E1,7.857328E2,9.308084E2,9.787284E1,4.3964447E2,1.8977826E2,1.0088615E2,2.5907837E2,1.5424289E2,1.3994143E1,3.264563E1,1.1671946E1,6.786407E2,1.07092125E2,6.3091003E2,2.998984E2,6.3553305E0,9.151751E1,9.0798645E0,4.305646E2,1.8650159E2,3.276677E0,1.3840773E1,8.704537E1,1.6598552E2,9.309286E1,1.2911606E2,2.512683E1,6.2293863E0,7.764756E0,1.7956379E1,1.4689251E1,7.064486E0,4.6074595E0,3.330224E2,3.456183E2,9.228541E1,1.4806719E1,2.8495886E2,3.4595117E2,4.900939E1,2.5088902E2,3.303159E0,3.0521715E0,1.6230698E1,7.528681E1,4.363757E0,4.716108E0,2.2842684E1,4.0772192E2,5.6301548E1,1.3020004E2,1.0642066E1,3.1987076E0,5.6241384E0,8.1421234E1,1.5694342E2,9.042094E0,8.496365E1,8.129199E0,4.394888E0,1.24721176E2,9.78751E0,1.5339319E1,3.0938184E0,3.1355677E0,3.5340965E0,4.23066E0,3.7280798E0,1.4228299E1,3.1816144E0,3.8828714E0,3.8410003E0,3.291814E2,2.0867236E2,1.3694592E2,1.0173627E1,8.211178E1,3.0753956E0,1.1731323E1,7.006943E1,2.1488942E2,1.3029471E2,2.1565646E2,2.9568571E1,1.9440819E1,1.07415E1,2.4014752E2,3.033168E0,1.319753E1,6.448511E1,1.0801704E1,1.7723612E1,5.1190734E0,1.2741508E2,2.8030685E2,1.3468E1,4.2833546E1],"tree_param":{"num_deleted":"0","num_feature":"45","num_nodes":"107","size_leaf_vector":"1"}},{"base_weights":[1.5231403E-2,-5.2730703E-1,4.6496493E-1,-9.27767E-1,-3.2997152E-1,2.8051898E-1,9.086969E-1,-1.1644213E0,-6.842857E-1,-4.4078842E-1,1.096554E-1,2.1178518E-1,8.6806756E-1,9.729395E-1,2.6767853E-1,-1.3071456E0,-8.53242E-1,-9.1078526E-1,-3.3509788E-1,-6.497507E-1,-2.784519E-1,3.6255738E-1,-1.005887E-1,7.0585676E-2,4.0959918E-1,5.617852E-1,1.0716003E0,5.8358735E-1,1.0599567E0,-4.0571522E-2,4.3033558E-1,-1.3818631E0,-5.5255175E-1,-1.2647903E0,-5.263668E-1,-3.754766E-2,-1.0241345E0,-4.7765172E-1,2.4670357E-1,-3.240247E-1,-7.415303E-1,-5.550501E-1,-1.5446894E-1,-1.7363524E-1,5.6334835E-1,-6.5639645E-1,2.1191666E-2,6.2018824E-1,1.4508005E-2,-2.5029555E-1,5.5263907E-1,7.072834E-1,7.87785E-2,1.1344396E0,7.4281218E-3,-7.553757E-2,8.4909004E-1,9.674112E-1,1.2432641E0,-4.7729847E-1,6.119897E-1,-5.180779E-2,-7.469264E-2,2.661269E-2,-4.5652017E-2,-1.3491248E-2,-7.115277E-2,-3.6445286E-2,1.5059948E-2,-2.3730256E-2,4.4506464E-2,-5.747814E-2,-1.4681515E-2,-2.7803484E-2,2.3678077E-2,-1.5268943E-2,4.02029E-2,-4.1004907E-5,-3.6083285E-2,-5.883603E-2,-3.3858355E-2,9.845703E-3,-3.384855E-2,8.738231E-4,-2.227823E-2,-5.15943E-2,1.2387332E-2,-2.5998859E-2,3.146457E-2,4.11391E-2,-6.1641153E-2,-8.227295E-3,3.6175054E-2,3.608425E-2,-1.3898896E-2,4.167231E-3,-1.8665232E-2,-3.0038541E-2,4.2874543E-3,9.98105E-3,3.0643446E-2,4.9317185E-2,1.1469687E-2,-3.376598E-2,2.7261639E-2,6.578655E-2,4.1487586E-2,-2.3826087E-2,3.6435224E-2,5.2034397E-2,2.3511086E-2,5.3475417E-2,3.440518E-2,6.318199E-2,2.8011734E-2,-5.9692707E-2,1.7744677E-2,4.8752315E-2,1.551614E-2],"categories":[],"categories_nodes":[],"categories_segments":[],"categories_sizes":[],"default_left":[0,0,0,0,0,0,0,0,0,0,0,0,0,0,0,0,0,0,0,0,0,0,0,0,0,0,0,0,0,0,0,0,0,0,0,0,0,0,0,0,0,0,0,0,0,0,0,0,0,0,0,0,0,0,0,0,0,0,0,0,0,0,0,0,0,0,0,0,0,0,0,0,0,0,0,0,0,0,0,0,0,0,0,0,0,0,0,0,0,0,0,0,0,0,0,0,0,0,0,0,0,0,0,0,0,0,0,0,0,0,0,0,0,0,0,0,0,0,0],"id":8,"left_children":[1,3,5,7,9,11,13,15,17,19,21,23,25,27,29,31,33,35,37,39,41,43,45,47,49,51,53,55,57,-1,59,61,63,65,67,69,71,73,75,77,79,81,83,85,87,89,91,93,95,97,99,101,103,105,-1,107,109,111,113,115,117,-1,-1,-1,-1,-1,-1,-1,-1,-1,-1,-1,-1,-1,-1,-1,-1,-1,-1,-1,-1,-1,-1,-1,-1,-1,-1,-1,-1,-1,-1,-1,-1,-1,-1,-1,-1,-1,-1,-1,-1,-1,-1,-1,-1,-1,-1,-1,-1,-1,-1,-1,-1,-1,-1,-1,-1,-1,-1],"loss_changes":[7.3807056E2,1.0790509E2,1.3499765E2,2.5053131E1,4.4906586E1,4.6956444E1,1.9589996E1,8.772278E0,1.7392227E1,2.4667145E1,9.944769E0,2.922028E1,6.843521E0,1.4135986E1,8.333317E0,7.7178955E0,9.195091E0,1.3309204E1,7.639559E0,9.232574E0,1.4102585E1,9.266727E0,6.9850545E0,1.8837034E1,4.1357773E1,3.4516716E0,3.881157E0,1.4643845E1,4.657318E0,0E0,6.9750385E0,3.5888062E0,6.6437736E0,4.5154915E0,7.5440674E0,7.174479E0,1.052861E1,5.724104E0,5.930917E0,9.23922E0,5.9917603E0,1.1921734E1,1.4502924E1,8.917067E0,4.77219E0,1.6846626E1,1.1201838E1,5.406168E0,1.4896234E1,9.324931E0,7.4309464E0,4.8438377E0,4.9621396E0,2.4049683E0,0E0,8.25722E0,3.661602E0,6.019989E0,7.2953796E-1,4.8105073E0,3.31845E0,0E0,0E0,0E0,0E0,0E0,0E0,0E0,0E0,0E0,0E0,0E0,0E0,0E0,0E0,0E0,0E0,0E0,0E0,0E0,0E0,0E0,0E0,0E0,0E0,0E0,0E0,0E0,0E0,0E0,0E0,0E0,0E0,0E0,0E0,0E0,0E0,0E0,0E0,0E0,0E0,0E0,0E0,0E0,0E0,0E0,0E0,0E0,0E0,0E0,0E0,0E0,0E0,0E0,0E0,0E0,0E0,0E0,0E0],"parents":[2147483647,0,0,1,1,2,2,3,3,4,4,5,5,6,6,7,7,8,8,9,9,10,10,11,11,12,12,13,13,14,14,15,15,16,16,17,17,18,18,19,19,20,20,21,21,22,22,23,23,24,24,25,25,26,26,27,27,28,28,30,30,31,31,32,32,33,33,34,34,35,35,36,36,37,37,38,38,39,39,40,40,41,41,42,42,43,43,44,44,45,45,46,46,47,47,48,48,49,49,50,50,51,51,52,52,53,53,55,55,56,56,57,57,58,58,59,59,60,60],"right_children":[2,4,6,8,10,12,14,16,18,20,22,24,26,28,30,32,34,36,38,40,42,44,46,48,50,52,54,56,58,-1,60,62,64,66,68,70,72,74,76,78,80,82,84,86,88,90,92,94,96,98,100,102,104,106,-1,108,110,112,114,116,118,-1,-1,-1,-1,-1,-1,-1,-1,-1,-1,-1,-1,-1,-1,-1,-1,-1,-1,-1,-1,-1,-1,-1,-1,-1,-1,-1,-1,-1,-1,-1,-1,-1,-1,-1,-1,-1,-1,-1,-1,-1,-1,-1,-1,-1,-1,-1,-1,-1,-1,-1,-1,-1,-1,-1,-1,-1,-1],"split_conditions":[0E0,-9.333333E0,1.1644737E1,-5.934399E-1,6.2874377E-1,2.9859462E0,1E0,-1.2071428E1,-1.0289979E0,-1.8055555E-1,5.3333336E-1,5.2413793E0,1.8861644E0,1.05120834E2,7.4444447E0,6.846728E-1,-2.2733219E0,7.1888885E1,1.07748116E2,1.2E1,6.95E1,9.8465866E1,-1.8E1,7.285714E0,2.5E-1,6.892032E1,1.2737287E0,1.3333334E-1,1.0716587E0,-4.0571522E-2,-2.8653125E2,2.6666668E-1,8.5489154E-1,-4.076087E-1,7.085286E2,-5.4693377E-1,8.4E1,4.51854E0,-1.2368066E0,7.58125E1,-2.646323E0,-2.559527E0,-4.5566067E-1,1.4747616E0,7.6153846E0,-1.4201603E0,6.142726E2,4.414141E0,1E0,2.5542784E-2,-2.0363636E0,1.0929555E2,8.827586E0,-2.16E-1,7.4281218E-3,6.9E1,-2.742177E0,-1.0195955E0,1.7314585E0,1.54E1,9.279652E1,-5.180779E-2,-7.469264E-2,2.661269E-2,-4.5652017E-2,-1.3491248E-2,-7.115277E-2,-3.6445286E-2,1.5059948E-2,-2.3730256E-2,4.4506464E-2,-5.747814E-2,-1.4681515E-2,-2.7803484E-2,2.3678077E-2,-1.5268943E-2,4.02029E-2,-4.1004907E-5,-3.6083285E-2,-5.883603E-2,-3.3858355E-2,9.845703E-3,-3.384855E-2,8.738231E-4,-2.227823E-2,-5.15943E-2,1.2387332E-2,-2.5998859E-2,3.146457E-2,4.11391E-2,-6.1641153E-2,-8.227295E-3,3.6175054E-2,3.608425E-2,-1.3898896E-2,4.167231E-3,-1.8665232E-2,-3.0038541E-2,4.2874543E-3,9.98105E-3,3.0643446E-2,4.9317185E-2,1.1469687E-2,-3.376598E-2,2.7261639E-2,6.578655E-2,4.1487586E-2,-2.3826087E-2,3.6435224E-2,5.2034397E-2,2.3511086E-2,5.3475417E-2,3.440518E-2,6.318199E-2,2.8011734E-2,-5.9692707E-2,1.7744677E-2,4.8752315E-2,1.551614E-2],"split_indices":[37,37,37,41,41,41,8,37,23,38,44,37,20,0,30,21,41,16,3,17,15,1,34,24,44,5,28,44,21,0,32,44,7,36,32,22,16,23,29,16,41,26,27,41,24,21,32,37,8,41,23,0,30,27,0,34,26,26,27,37,32,0,0,0,0,0,0,0,0,0,0,0,0,0,0,0,0,0,0,0,0,0,0,0,0,0,0,0,0,0,0,0,0,0,0,0,0,0,0,0,0,0,0,0,0,0,0,0,0,0,0,0,0,0,0,0,0,0,0],"split_type":[0,0,0,0,0,0,0,0,0,0,0,0,0,0,0,0,0,0,0,0,0,0,0,0,0,0,0,0,0,0,0,0,0,0,0,0,0,0,0,0,0,0,0,0,0,0,0,0,0,0,0,0,0,0,0,0,0,0,0,0,0,0,0,0,0,0,0,0,0,0,0,0,0,0,0,0,0,0,0,0,0,0,0,0,0,0,0,0,0,0,0,0,0,0,0,0,0,0,0,0,0,0,0,0,0,0,0,0,0,0,0,0,0,0,0,0,0,0,0],"sum_hessian":[3.0229282E3,1.3699213E3,1.6530068E3,4.508293E2,9.19092E2,1.1689622E3,4.8404468E2,2.2649344E2,2.2433589E2,7.3423737E2,1.8485461E2,1.0479047E3,1.2105743E2,4.3934036E2,4.4704323E1,1.5286086E2,7.363258E1,1.3492351E2,8.941237E1,3.194358E2,4.1480157E2,8.3801384E1,1.0105324E2,6.125379E2,4.3536682E2,5.0026886E1,7.103054E1,8.187086E1,3.5746948E2,5.252761E0,3.945156E1,1.3821178E2,1.4649073E1,3.1189077E1,4.2443504E1,1.5755712E1,1.191678E2,7.209776E1,1.7314606E1,7.1456474E1,2.4797932E2,1.2705853E2,2.8774304E2,2.2732822E1,6.106856E1,1.7520502E1,8.353274E1,5.5616127E1,5.5692175E2,7.730088E1,3.5806592E2,3.7929768E1,1.2097119E1,6.6187225E1,4.8433146E0,2.3606148E1,5.826471E1,2.4207661E2,1.1539288E2,6.215888E0,3.3235676E1,3.654478E1,1.01667E2,3.4657705E0,1.1183302E1,4.7381964E0,2.645088E1,3.4291126E1,8.152375E0,1.111519E1,4.6405215E0,1.0109854E2,1.8069263E1,6.708761E1,5.010158E0,8.835427E0,8.479179E0,4.0109123E1,3.134735E1,2.952314E1,2.1845619E2,1.7526445E1,1.0953209E2,1.8126765E2,1.0647538E2,7.0869527E0,1.5645869E1,3.0219333E0,5.8046627E1,4.744553E0,1.27759495E1,6.655457E1,1.6978159E1,5.0245937E1,5.370188E0,4.7385553E2,8.3066246E1,3.7598064E1,3.9702816E1,5.3057987E1,3.0500793E2,2.3142601E1,1.4787167E1,4.370061E0,7.727059E0,3.9210323E1,2.6976902E1,1.6107164E1,7.4989834E0,3.7360382E1,2.0904327E1,1.7494186E2,6.713475E1,1.1108268E2,4.3102026E0,3.171046E0,3.044842E0,1.3919657E1,1.931602E1],"tree_param":{"num_deleted":"0","num_feature":"45","num_nodes":"119","size_leaf_vector":"1"}},{"base_weights":[1.9433344E-3,-5.1507586E-1,4.387483E-1,-7.58525E-1,-2.2345936E-1,1.4191388E-1,7.673753E-1,-8.259518E-1,-2.1541128E-1,-4.933484E-1,-1.0555104E-1,8.605488E-2,9.11793E-1,6.133064E-1,1.048534E0,-1.2657628E0,-7.5327384E-1,8.825867E-2,-6.6204923E-1,-6.7759186E-2,-6.471775E-1,-1.6989322E-1,2.2908749E-1,-1.7870857E-1,1.5323724E-1,4.5812312E-1,1.0590487E0,3.7040257E-1,7.746674E-1,1.0808468E0,-3.0105636E-1,-5.6285244E-1,-1.3374326E0,-6.090454E-1,-9.282837E-1,3.1773943E-1,-3.8161892E-1,-8.7170184E-1,4.946133E-2,-5.798423E-1,1.9259694E-1,-8.465755E-1,-3.9368695E-1,-1.9667035E-2,-3.018682E-1,8.246741E-3,7.86891E-1,-6.758339E-2,-7.5141925E-1,2.1766981E-1,-2.0023745E-1,7.0124376E-1,-2.1087741E-2,1.1319873E0,3.532263E-3,2.7373346E-2,4.9973178E-1,8.602399E-1,4.211599E-1,2.2620346E-1,1.1107615E0,5.592591E-3,-3.3230785E-2,-6.172145E-2,-1.6852577E-3,-7.70519E-2,-5.2170165E-2,-4.4772625E-2,-2.4736369E-2,-5.5997428E-2,-2.821418E-2,2.945588E-2,-1.9701967E-2,-5.8034904E-2,1.5996203E-2,-1.6842816E-2,-6.973746E-2,-4.7230564E-2,4.084464E-2,1.8811917E-2,-3.823463E-2,-5.4285537E-2,-2.2616295E-2,1.6318006E-2,-3.0499086E-2,-8.035251E-3,1.9780258E-2,-3.214118E-2,-6.0863174E-3,-6.8362015E-3,4.583453E-2,4.692825E-2,-0E0,-1.0402727E-2,1.8467486E-2,-5.524097E-2,3.3179804E-4,-9.495748E-4,1.425706E-2,-3.1940963E-2,-4.8632312E-4,5.3942945E-2,5.986165E-3,6.0799684E-2,2.2063209E-2,-3.1885456E-2,1.5200417E-2,-3.3871494E-3,3.208654E-2,4.2236797E-3,4.5301177E-2,2.5826896E-2,-2.7459642E-2,3.758998E-2,-1.2743889E-2,6.103594E-2,4.7206294E-2],"categories":[],"categories_nodes":[],"categories_segments":[],"categories_sizes":[],"default_left":[0,0,0,0,0,0,0,0,0,0,0,0,0,0,0,0,0,0,0,0,0,0,0,0,0,0,0,0,0,0,0,0,0,0,0,0,0,0,0,0,0,0,0,0,0,0,0,0,0,0,0,0,0,0,0,0,0,0,0,0,0,0,0,0,0,0,0,0,0,0,0,0,0,0,0,0,0,0,0,0,0,0,0,0,0,0,0,0,0,0,0,0,0,0,0,0,0,0,0,0,0,0,0,0,0,0,0,0,0,0,0,0,0,0,0,0,0],"id":9,"left_children":[1,3,5,7,9,11,13,15,17,19,21,23,25,27,29,31,33,35,37,39,41,43,45,47,49,51,53,55,57,59,61,63,65,67,69,71,73,75,-1,77,79,81,83,85,87,89,91,93,95,97,99,101,-1,103,-1,105,107,109,111,113,115,-1,-1,-1,-1,-1,-1,-1,-1,-1,-1,-1,-1,-1,-1,-1,-1,-1,-1,-1,-1,-1,-1,-1,-1,-1,-1,-1,-1,-1,-1,-1,-1,-1,-1,-1,-1,-1,-1,-1,-1,-1,-1,-1,-1,-1,-1,-1,-1,-1,-1,-1,-1,-1,-1,-1,-1],"loss_changes":[6.779315E2,9.73219E1,1.5853772E2,2.7131256E1,1.9841888E1,3.6650288E1,3.2627594E1,2.0113586E1,1.1534284E1,1.2331432E1,9.46208E0,1.424905E1,3.2182426E0,1.9246567E1,1.2247955E1,3.727005E0,1.3761719E1,5.5994215E0,1.2733364E1,7.0518155E0,6.5864906E0,7.2604017E0,8.635227E0,1.0177843E1,1.459124E1,3.7612798E0,2.8735962E0,8.906183E0,8.585815E0,6.4041443E0,1.1895522E0,3.538983E0,3.1183014E0,9.820824E0,1.7127213E1,6.985748E0,9.747634E0,8.041122E0,0E0,9.866661E0,6.3908815E0,6.6060944E0,1.010862E1,1.0206669E1,1.18556E1,7.0327463E0,2.397994E0,8.46471E0,7.104295E0,8.669361E0,8.180061E0,2.617814E0,0E0,1.5923729E0,0E0,1.0582282E1,1.1914482E1,8.361908E0,5.894617E0,2.8581748E0,3.3252869E0,0E0,0E0,0E0,0E0,0E0,0E0,0E0,0E0,0E0,0E0,0E0,0E0,0E0,0E0,0E0,0E0,0E0,0E0,0E0,0E0,0E0,0E0,0E0,0E0,0E0,0E0,0E0,0E0,0E0,0E0,0E0,0E0,0E0,0E0,0E0,0E0,0E0,0E0,0E0,0E0,0E0,0E0,0E0,0E0,0E0,0E0,0E0,0E0,0E0,0E0,0E0,0E0,0E0,0E0,0E0,0E0],"parents":[2147483647,0,0,1,1,2,2,3,3,4,4,5,5,6,6,7,7,8,8,9,9,10,10,11,11,12,12,13,13,14,14,15,15,16,16,17,17,18,18,19,19,20,20,21,21,22,22,23,23,24,24,25,25,26,26,27,27,28,28,29,29,30,30,31,31,32,32,33,33,34,34,35,35,36,36,37,37,39,39,40,40,41,41,42,42,43,43,44,44,45,45,46,46,47,47,48,48,49,49,50,50,51,51,53,53,55,55,56,56,57,57,58,58,59,59,60,60],"right_children":[2,4,6,8,10,12,14,16,18,20,22,24,26,28,30,32,34,36,38,40,42,44,46,48,50,52,54,56,58,60,62,64,66,68,70,72,74,76,-1,78,80,82,84,86,88,90,92,94,96,98,100,102,-1,104,-1,106,108,110,112,114,116,-1,-1,-1,-1,-1,-1,-1,-1,-1,-1,-1,-1,-1,-1,-1,-1,-1,-1,-1,-1,-1,-1,-1,-1,-1,-1,-1,-1,-1,-1,-1,-1,-1,-1,-1,-1,-1,-1,-1,-1,-1,-1,-1,-1,-1,-1,-1,-1,-1,-1,-1,-1,-1,-1,-1,-1],"split_conditions":[0E0,-5.6723075E0,7.152174E0,6.857143E-1,-6.181818E-1,3.3787708E0,1.72E1,-3.086198E0,1.5E1,7.1166664E1,1.4747616E0,-5.934399E-1,1.277145E0,1.7973334E-1,1.5E0,1.0486051E2,1.7E1,9.583333E0,1.5375286E0,-1.3095239E-1,-8.7286524E-2,7.207143E1,7.8333336E1,7.9E1,1E0,-2.185537E0,2.277461E0,2.3333333E-1,1.0781816E2,-1.4119879E0,1.0695187E-2,1.1109812E2,-1.2722222E1,-1.5534722E1,-8.3E0,1E0,6.742446E1,7.15E1,4.946133E-2,2.9411765E-2,8.28E1,-8.3333336E-2,6.945E1,7.05E1,-3.5E0,1.0473684E1,8.8405937E-1,1E0,2.4E1,-1.1420338E0,-6.966903E-1,1.6E1,-2.1087741E-2,1.0782609E1,3.532263E-3,4.4691926E-1,6.8E0,7.5833335E0,7.678571E1,8.484615E1,-1.2307693E0,5.592591E-3,-3.3230785E-2,-6.172145E-2,-1.6852577E-3,-7.70519E-2,-5.2170165E-2,-4.4772625E-2,-2.4736369E-2,-5.5997428E-2,-2.821418E-2,2.945588E-2,-1.9701967E-2,-5.8034904E-2,1.5996203E-2,-1.6842816E-2,-6.973746E-2,-4.7230564E-2,4.084464E-2,1.8811917E-2,-3.823463E-2,-5.4285537E-2,-2.2616295E-2,1.6318006E-2,-3.0499086E-2,-8.035251E-3,1.9780258E-2,-3.214118E-2,-6.0863174E-3,-6.8362015E-3,4.583453E-2,4.692825E-2,-0E0,-1.0402727E-2,1.8467486E-2,-5.524097E-2,3.3179804E-4,-9.495748E-4,1.425706E-2,-3.1940963E-2,-4.8632312E-4,5.3942945E-2,5.986165E-3,6.0799684E-2,2.2063209E-2,-3.1885456E-2,1.5200417E-2,-3.3871494E-3,3.208654E-2,4.2236797E-3,4.5301177E-2,2.5826896E-2,-2.7459642E-2,3.758998E-2,-1.2743889E-2,6.103594E-2,4.7206294E-2],"split_indices":[37,37,37,41,41,41,39,41,17,18,41,41,20,41,31,1,14,30,22,36,35,19,18,18,8,29,29,44,2,22,35,2,37,37,39,8,5,15,0,35,16,38,19,19,37,30,7,33,14,21,28,14,0,30,0,6,39,30,18,19,29,0,0,0,0,0,0,0,0,0,0,0,0,0,0,0,0,0,0,0,0,0,0,0,0,0,0,0,0,0,0,0,0,0,0,0,0,0,0,0,0,0,0,0,0,0,0,0,0,0,0,0,0,0,0,0,0],"split_type":[0,0,0,0,0,0,0,0,0,0,0,0,0,0,0,0,0,0,0,0,0,0,0,0,0,0,0,0,0,0,0,0,0,0,0,0,0,0,0,0,0,0,0,0,0,0,0,0,0,0,0,0,0,0,0,0,0,0,0,0,0,0,0,0,0,0,0,0,0,0,0,0,0,0,0,0,0,0,0,0,0,0,0,0,0,0,0,0,0,0,0,0,0,0,0,0,0,0,0,0,0,0,0,0,0,0,0,0,0,0,0,0,0,0,0,0,0],"sum_hessian":[2.9999014E3,1.3736217E3,1.6262798E3,7.47579E2,6.260427E2,8.5538446E2,7.708953E2,6.6439087E2,8.318807E1,1.8911992E2,4.369228E2,7.986776E2,5.6706825E1,5.0028635E2,2.7060895E2,9.1696594E1,5.726943E2,4.986397E1,3.3324104E1,5.0764244E1,1.3835567E2,3.671254E2,6.979741E1,1.6100677E2,6.3767084E2,1.5069717E1,4.1637108E1,2.0125038E2,2.9903598E2,2.645482E2,6.0607595E0,9.432723E0,8.226387E1,3.1672635E2,2.5596796E2,3.386261E1,1.600136E1,3.0042456E1,3.2816467E0,1.6826302E1,3.3937943E1,7.5909996E1,6.2445675E1,1.725826E2,1.9454279E2,5.085672E1,1.8940695E1,1.359253E2,2.5081474E1,5.3991956E2,9.775128E1,1.2055354E1,3.0143633E0,3.8546173E1,3.0909345E0,5.5644722E1,1.4560567E2,2.3937488E2,5.9661087E1,9.3492985E0,2.551989E2,3.0331638E0,3.0275958E0,3.4862456E0,5.946478E0,4.5899094E1,3.636478E1,8.8156166E1,2.2857018E2,1.6613684E2,8.983112E1,2.4742083E1,9.12053E0,7.339135E0,8.662225E0,1.5761077E1,1.428138E1,1.3655381E1,3.1709194E0,2.9072302E1,4.8656406E0,4.6000515E1,2.9909481E1,1.4200593E1,4.8245083E1,1.2946613E2,4.3116474E1,6.6173096E1,1.2836969E2,4.4495483E1,6.3612347E0,1.5738732E1,3.201961E0,1.0342691E2,3.2498383E1,1.6884508E1,8.196966E0,1.1961096E2,4.2030862E2,2.8730873E1,6.902041E1,6.6863303E0,5.369024E0,3.355941E1,4.9867625E0,1.5856351E1,3.9788372E1,2.9106249E1,1.1649941E2,1.36202345E1,2.2575464E2,5.484135E1,4.8197374E0,4.2983522E0,5.0509458E0,1.4957416E2,1.0562473E2],"tree_param":{"num_deleted":"0","num_feature":"45","num_nodes":"117","size_leaf_vector":"1"}},{"base_weights":[4.285053E-3,-4.759785E-1,4.1543013E-1,-6.682145E-1,-1.7013197E-1,1.3157932E-1,7.379608E-1,-8.3695716E-1,-3.7090424E-1,-3.6217085E-1,8.020588E-3,6.69775E-2,9.0457004E-1,5.8717793E-1,1.0827787E0,-1.1831403E0,-7.457979E-1,-4.802768E-1,1.6498043E-1,4.8585337E-2,-3.9245337E-1,2.8465942E-1,-1.4968649E-1,-1.0331479E0,7.973296E-2,9.85204E-1,-1.7851066E-2,6.9769872E-3,6.4201796E-1,9.809886E-1,6.1350983E-2,-1.3303376E0,-7.661172E-1,-9.8411417E-1,-5.832667E-1,-5.7158947E-1,3.2355848E-1,-1.4741567E-1,6.4475584E-1,-1.02276266E-1,-5.0481224E-1,-3.2476544E-2,3.4537968E-1,-3.821347E-1,9.938935E-2,-8.259418E-2,-3.3391993E-3,1.999931E-1,-4.6081845E-2,2.1295162E-1,1.0636922E0,-8.3400244E-1,2.7430812E-1,5.38587E-1,9.4337076E-1,8.0243605E-1,1.171257E0,-1.5637338E-2,-6.9429845E-2,-5.3813107E-2,-6.260004E-3,1.534338E-2,-5.0943524E-2,-3.199985E-2,7.954658E-3,6.584277E-3,-3.2107215E-2,-2.7424311E-2,3.308673E-2,-2.344895E-2,2.2860488E-2,6.1242353E-2,1.0978079E-2,2.1596828E-3,-5.611339E-2,-3.036344E-2,-8.952929E-3,-2.3897028E-2,2.0363392E-2,2.865476E-3,-2.939264E-2,1.8928988E-2,-5.830716E-3,3.032509E-2,7.361088E-3,-1.1598441E-2,6.5127537E-3,2.8266776E-2,-8.794339E-3,5.6003142E-2,5.438659E-3,-8.362447E-4,-6.616252E-2,-3.5400975E-2,2.6400452E-2,-2.5191871E-2,2.901811E-2,2.656485E-2,5.3861488E-2,2.055943E-2,4.9425457E-2,6.1374307E-2,1.3795357E-4],"categories":[],"categories_nodes":[],"categories_segments":[],"categories_sizes":[],"default_left":[0,0,0,0,0,0,0,0,0,0,0,0,0,0,0,0,0,0,0,0,0,0,0,0,0,0,0,0,0,0,0,0,0,0,0,0,0,0,0,0,0,0,0,0,0,0,0,0,0,0,0,0,0,0,0,0,0,0,0,0,0,0,0,0,0,0,0,0,0,0,0,0,0,0,0,0,0,0,0,0,0,0,0,0,0,0,0,0,0,0,0,0,0,0,0,0,0,0,0,0,0,0,0],"id":10,"left_children":[1,3,5,7,9,11,13,15,17,19,21,23,25,27,29,31,33,35,37,-1,39,41,43,45,47,49,-1,51,53,55,-1,57,59,61,63,65,67,69,71,73,75,-1,77,79,81,-1,-1,83,85,87,89,91,93,95,97,99,101,-1,-1,-1,-1,-1,-1,-1,-1,-1,-1,-1,-1,-1,-1,-1,-1,-1,-1,-1,-1,-1,-1,-1,-1,-1,-1,-1,-1,-1,-1,-1,-1,-1,-1,-1,-1,-1,-1,-1,-1,-1,-1,-1,-1,-1,-1],"loss_changes":[5.8816516E2,8.0572754E1,1.4674982E2,4.186206E1,1.8230692E1,4.2540245E1,3.8238647E1,1.5864197E1,1.8118393E1,1.06719055E1,1.2121702E1,1.1076936E1,7.102951E0,1.6629898E1,1.9094238E0,5.520508E0,1.5840591E1,1.8968834E1,8.038525E0,0E0,8.080795E0,5.922515E0,1.02889805E1,5.1229744E0,1.1860529E1,3.412243E0,0E0,1.062498E1,1.4284424E1,3.568634E0,0E0,4.122406E0,5.9509106E0,8.090958E0,1.0975807E1,1.1546837E1,8.217964E0,6.5510063E0,4.7864904E0,1.0786945E1,5.841835E0,0E0,5.057745E0,8.380727E0,5.2458634E0,0E0,0E0,8.427946E0,1.2584973E1,1.1113257E0,2.7717896E0,4.3906813E0,9.357586E0,1.5952644E1,5.93589E0,4.906784E0,4.118866E0,0E0,0E0,0E0,0E0,0E0,0E0,0E0,0E0,0E0,0E0,0E0,0E0,0E0,0E0,0E0,0E0,0E0,0E0,0E0,0E0,0E0,0E0,0E0,0E0,0E0,0E0,0E0,0E0,0E0,0E0,0E0,0E0,0E0,0E0,0E0,0E0,0E0,0E0,0E0,0E0,0E0,0E0,0E0,0E0,0E0,0E0],"parents":[2147483647,0,0,1,1,2,2,3,3,4,4,5,5,6,6,7,7,8,8,9,9,10,10,11,11,12,12,13,13,14,14,15,15,16,16,17,17,18,18,20,20,21,21,22,22,23,23,24,24,25,25,27,27,28,28,29,29,31,31,32,32,33,33,34,34,35,35,36,36,37,37,38,38,39,39,40,40,42,42,43,43,44,44,47,47,48,48,49,49,50,50,51,51,52,52,53,53,54,54,55,55,56,56],"right_children":[2,4,6,8,10,12,14,16,18,20,22,24,26,28,30,32,34,36,38,-1,40,42,44,46,48,50,-1,52,54,56,-1,58,60,62,64,66,68,70,72,74,76,-1,78,80,82,-1,-1,84,86,88,90,92,94,96,98,100,102,-1,-1,-1,-1,-1,-1,-1,-1,-1,-1,-1,-1,-1,-1,-1,-1,-1,-1,-1,-1,-1,-1,-1,-1,-1,-1,-1,-1,-1,-1,-1,-1,-1,-1,-1,-1,-1,-1,-1,-1,-1,-1,-1,-1,-1,-1],"split_conditions":[0E0,-4.6875E0,7.152174E0,-7.714433E-2,-1.110223E-16,2.816538E0,2.4073315E0,-2.6099603E0,1.6284916E-1,-4.115757E0,-1.6197625E0,6E1,1.0759798E2,-1.0250152E0,4.92627E0,3.535991E-2,6.848148E1,1.5264113E0,-1.6666667E-1,4.8585337E-2,6.975E1,7.6153846E0,-3.267974E-2,1.7973334E-1,7.226923E1,6.92E1,-1.7851066E-2,8.384615E0,1.7115385E1,1.1E1,6.1350983E-2,6.255E1,-1.03E1,-3.4295914E0,-2.3E0,6.730769E1,-6.2651056E-1,6.638656E-2,7.35E1,3.5555556E0,1E0,-3.2476544E-2,6.764E1,6.945E1,-5.563935E-1,-8.259418E-2,-3.3391993E-3,7.1666665E0,3.0555556E0,6.626667E1,2.777778E-1,5.386339E-1,7.0565216E1,-2.6166666E-1,7.378571E1,1.54E1,8.1882355E1,-1.5637338E-2,-6.9429845E-2,-5.3813107E-2,-6.260004E-3,1.534338E-2,-5.0943524E-2,-3.199985E-2,7.954658E-3,6.584277E-3,-3.2107215E-2,-2.7424311E-2,3.308673E-2,-2.344895E-2,2.2860488E-2,6.1242353E-2,1.0978079E-2,2.1596828E-3,-5.611339E-2,-3.036344E-2,-8.952929E-3,-2.3897028E-2,2.0363392E-2,2.865476E-3,-2.939264E-2,1.8928988E-2,-5.830716E-3,3.032509E-2,7.361088E-3,-1.1598441E-2,6.5127537E-3,2.8266776E-2,-8.794339E-3,5.6003142E-2,5.438659E-3,-8.362447E-4,-6.616252E-2,-3.5400975E-2,2.6400452E-2,-2.5191871E-2,2.901811E-2,2.656485E-2,5.3861488E-2,2.055943E-2,4.9425457E-2,6.1374307E-2,1.3795357E-4],"split_indices":[37,37,37,40,42,40,40,40,42,29,29,15,2,41,41,42,15,40,38,0,16,30,41,41,16,18,0,30,37,14,0,15,39,26,39,16,22,35,18,31,33,0,16,19,21,0,0,30,37,18,36,7,19,42,15,39,18,0,0,0,0,0,0,0,0,0,0,0,0,0,0,0,0,0,0,0,0,0,0,0,0,0,0,0,0,0,0,0,0,0,0,0,0,0,0,0,0,0,0,0,0,0,0],"split_type":[0,0,0,0,0,0,0,0,0,0,0,0,0,0,0,0,0,0,0,0,0,0,0,0,0,0,0,0,0,0,0,0,0,0,0,0,0,0,0,0,0,0,0,0,0,0,0,0,0,0,0,0,0,0,0,0,0,0,0,0,0,0,0,0,0,0,0,0,0,0,0,0,0,0,0,0,0,0,0,0,0,0,0,0,0,0,0,0,0,0,0,0,0,0,0,0,0,0,0,0,0,0,0],"sum_hessian":[2.9767144E3,1.3727673E3,1.603947E3,8.4201654E2,5.3075073E2,8.5404364E2,7.499034E2,5.3577716E2,3.0623935E2,2.5519388E2,2.755569E2,7.892952E2,6.474844E1,5.2383307E2,2.2607033E2,1.0895145E2,4.2682574E2,2.5457225E2,5.1667107E1,4.9015427E0,2.5029233E2,9.9990166E1,1.7556673E2,8.039882E0,7.812553E2,6.1139114E1,3.6093287E0,4.549131E1,4.7834174E2,1.3751863E2,8.85517E1,7.8731544E1,3.0219898E1,1.707655E2,2.5606024E2,2.2897488E2,2.5597366E1,3.158529E1,2.0081818E1,7.064511E1,1.7964722E2,5.4101534E0,9.458001E1,9.074597E1,8.482075E1,4.4059896E0,3.633892E0,3.9955023E2,3.8170508E2,6.100737E0,5.5038376E1,1.0371255E1,3.5120056E1,3.584372E2,1.1990456E2,7.39062E1,6.361244E1,4.701261E0,7.403028E1,1.9802185E1,1.0417712E1,4.196201E0,1.6656929E2,2.3813487E2,1.7925379E1,2.0668814E1,2.0830606E2,6.8963504E0,1.8701015E1,2.0873625E1,1.0711666E1,7.598856E0,1.2482962E1,6.2579685E1,8.065424E0,1.3577261E2,4.3874603E1,6.029464E0,8.8550545E1,2.9010519E1,6.1735455E1,3.6872448E1,4.7948303E1,4.4485004E1,3.5506525E2,1.8594319E2,1.9576189E2,3.0971863E0,3.0035505E0,5.1708286E1,3.330091E0,4.3474755E0,6.02378E0,6.7600965E0,2.8359959E1,1.3292507E1,3.4514468E2,3.0801329E1,8.910323E1,2.502806E1,4.887813E1,6.0562077E1,3.050362E0],"tree_param":{"num_deleted":"0","num_feature":"45","num_nodes":"103","size_leaf_vector":"1"}},{"base_weights":[-1.3650233E-3,-4.5790842E-1,3.931055E-1,-7.785907E-1,-2.581956E-1,1.3585612E-1,6.966161E-1,-1.0121143E0,-6.2222546E-1,-4.2011783E-1,-2.0615676E-2,8.298486E-2,8.801626E-1,5.6659156E-1,1.0563105E0,-3.8669798E-1,-1.0779442E0,8.823323E-2,-6.923425E-1,-6.185878E-1,-2.074293E-1,-4.7669742E-2,5.556969E-2,-7.085618E-2,2.167919E-1,3.031363E-1,1.0128423E0,6.31299E-1,1.4839464E-1,9.0466094E-1,6.1001003E-2,1.3849309E-1,-9.5182693E-1,-1.2366918E0,-9.088383E-1,3.039896E-1,-5.818957E-2,-7.264193E-1,6.549647E-1,-7.339179E-1,-1.7003609E-1,-1.6642947E-1,-1.2449949E0,-9.320702E-1,-6.5640104E-3,-2.6148304E-2,-5.889112E-1,-1.0597787E-1,3.224538E-1,6.978974E-1,-1.4069653E-2,1.0949697E0,6.7804577E-3,3.6917722E-1,7.3254687E-1,-2.4252485E-1,7.1609515E-1,9.4582725E-1,-2.0916378E-3,-3.7979234E-2,3.4262422E-2,-1.3167369E-2,-6.5263264E-2,-6.4177446E-2,-1.5394131E-2,-4.7879E-2,1.7382255E-2,-4.446626E-2,2.5780454E-2,-4.122273E-2,-1.706527E-2,3.5045275E-3,5.448575E-2,-4.1721657E-2,-1.1216247E-2,4.705679E-3,-6.937491E-2,1.1025619E-2,-1.5157274E-2,-2.1788713E-2,-7.948626E-2,-6.680958E-2,9.974819E-3,1.679721E-2,-4.2479974E-3,-2.919138E-3,3.6185164E-2,-7.041377E-2,-1.717137E-2,8.712685E-4,-6.016318E-2,-1.4770605E-2,1.793867E-2,3.3924913E-3,5.3926613E-2,1.386213E-2,5.7639148E-2,1.06416E-2,4.052826E-2,1.4893626E-3,3.8775332E-2,-2.0089373E-2,4.7403306E-2,-5.798235E-4,4.550678E-2,3.1895794E-2,5.3948548E-2],"categories":[],"categories_nodes":[],"categories_segments":[],"categories_sizes":[],"default_left":[0,0,0,0,0,0,0,0,0,0,0,0,0,0,0,0,0,0,0,0,0,0,0,0,0,0,0,0,0,0,0,0,0,0,0,0,0,0,0,0,0,0,0,0,0,0,0,0,0,0,0,0,0,0,0,0,0,0,0,0,0,0,0,0,0,0,0,0,0,0,0,0,0,0,0,0,0,0,0,0,0,0,0,0,0,0,0,0,0,0,0,0,0,0,0,0,0,0,0,0,0,0,0,0,0,0,0],"id":11,"left_children":[1,3,5,7,9,11,13,15,17,19,21,23,25,27,29,31,33,35,37,39,41,43,-1,45,47,49,51,53,55,57,-1,59,61,63,65,67,-1,69,71,73,75,77,79,81,83,85,87,89,91,93,-1,95,-1,97,99,101,103,105,-1,-1,-1,-1,-1,-1,-1,-1,-1,-1,-1,-1,-1,-1,-1,-1,-1,-1,-1,-1,-1,-1,-1,-1,-1,-1,-1,-1,-1,-1,-1,-1,-1,-1,-1,-1,-1,-1,-1,-1,-1,-1,-1,-1,-1,-1,-1,-1,-1],"loss_changes":[5.3588556E2,8.8036896E1,1.2444917E2,1.8511566E1,3.271183E1,3.3884476E1,3.346637E1,8.0898285E0,1.603769E1,2.1156822E1,1.0558501E1,1.668718E1,3.937786E0,1.4437897E1,3.473999E0,6.6596127E0,3.7474365E0,8.225652E0,1.3845367E1,1.3292099E1,1.0120489E1,1.2240828E1,0E0,8.65074E0,1.483564E1,3.0658133E0,3.035946E0,1.2014008E1,1.66118E1,4.195755E0,0E0,6.4245515E0,2.0984268E0,3.564682E0,6.2617035E0,6.9843388E0,0E0,1.0339951E1,1.7485561E0,1.03211975E1,1.7909576E1,1.2664841E1,1.6454296E0,7.2221527E0,8.743552E0,8.389926E0,5.3174744E0,1.4682274E1,7.4497414E0,1.6597922E0,0E0,1.5103416E0,0E0,8.863461E0,1.0028473E1,8.741737E0,4.4036436E0,3.2455292E0,0E0,0E0,0E0,0E0,0E0,0E0,0E0,0E0,0E0,0E0,0E0,0E0,0E0,0E0,0E0,0E0,0E0,0E0,0E0,0E0,0E0,0E0,0E0,0E0,0E0,0E0,0E0,0E0,0E0,0E0,0E0,0E0,0E0,0E0,0E0,0E0,0E0,0E0,0E0,0E0,0E0,0E0,0E0,0E0,0E0,0E0,0E0,0E0,0E0],"parents":[2147483647,0,0,1,1,2,2,3,3,4,4,5,5,6,6,7,7,8,8,9,9,10,10,11,11,12,12,13,13,14,14,15,15,16,16,17,17,18,18,19,19,20,20,21,21,23,23,24,24,25,25,26,26,27,27,28,28,29,29,31,31,32,32,33,33,34,34,35,35,37,37,38,38,39,39,40,40,41,41,42,42,43,43,44,44,45,45,46,46,47,47,48,48,49,49,51,51,53,53,54,54,55,55,56,56,57,57],"right_children":[2,4,6,8,10,12,14,16,18,20,22,24,26,28,30,32,34,36,38,40,42,44,-1,46,48,50,52,54,56,58,-1,60,62,64,66,68,-1,70,72,74,76,78,80,82,84,86,88,90,92,94,-1,96,-1,98,100,102,104,106,-1,-1,-1,-1,-1,-1,-1,-1,-1,-1,-1,-1,-1,-1,-1,-1,-1,-1,-1,-1,-1,-1,-1,-1,-1,-1,-1,-1,-1,-1,-1,-1,-1,-1,-1,-1,-1,-1,-1,-1,-1,-1,-1,-1,-1,-1,-1,-1,-1],"split_conditions":[0E0,-8.2E0,7.285714E0,-2.095818E-3,2.2291034E-2,3.3787708E0,2.9859462E0,5E0,6.935294E1,-3.5E0,3.7591493E0,-2.095818E-3,1.0702105E2,1E0,4.92627E0,1E0,-6.1666667E-2,9.727273E0,2.6738572E0,6.9986597E2,4.3703704E0,-2.8010302E1,5.556969E-2,1.0722222E1,-2.7291718E-1,-2.1182146E0,7.9E1,7.2666664E1,8.1666666E-1,1.1049322E2,6.1001003E-2,-1.1174242E-1,-1.668937E2,1.0239307E3,8.610345E1,1.0509104E2,-5.818957E-2,5.664487E2,-1.172959E0,1.0894639E2,3.5064445E0,6.9818184E1,-1.875E0,1.08096565E2,2.9904288E-1,1.1765492E2,1.9031173E-1,8.05E1,-1.6161616E-1,1.1130567E2,-1.4069653E-2,6.6125E1,6.7804577E-3,2E1,-1.3150091E0,2.3323233E1,8.090909E0,1.9260352E2,-2.0916378E-3,-3.7979234E-2,3.4262422E-2,-1.3167369E-2,-6.5263264E-2,-6.4177446E-2,-1.5394131E-2,-4.7879E-2,1.7382255E-2,-4.446626E-2,2.5780454E-2,-4.122273E-2,-1.706527E-2,3.5045275E-3,5.448575E-2,-4.1721657E-2,-1.1216247E-2,4.705679E-3,-6.937491E-2,1.1025619E-2,-1.5157274E-2,-2.1788713E-2,-7.948626E-2,-6.680958E-2,9.974819E-3,1.679721E-2,-4.2479974E-3,-2.919138E-3,3.6185164E-2,-7.041377E-2,-1.717137E-2,8.712685E-4,-6.016318E-2,-1.4770605E-2,1.793867E-2,3.3924913E-3,5.3926613E-2,1.386213E-2,5.7639148E-2,1.06416E-2,4.052826E-2,1.4893626E-3,3.8775332E-2,-2.0089373E-2,4.7403306E-2,-5.798235E-4,4.550678E-2,3.1895794E-2,5.3948548E-2],"split_indices":[37,37,37,42,42,41,41,14,16,37,41,42,0,8,41,8,42,30,41,32,31,32,0,30,41,27,16,15,44,2,0,35,32,32,16,0,0,32,27,3,29,16,37,1,7,0,6,18,35,3,0,19,0,17,41,37,30,32,0,0,0,0,0,0,0,0,0,0,0,0,0,0,0,0,0,0,0,0,0,0,0,0,0,0,0,0,0,0,0,0,0,0,0,0,0,0,0,0,0,0,0,0,0,0,0,0,0],"split_type":[0,0,0,0,0,0,0,0,0,0,0,0,0,0,0,0,0,0,0,0,0,0,0,0,0,0,0,0,0,0,0,0,0,0,0,0,0,0,0,0,0,0,0,0,0,0,0,0,0,0,0,0,0,0,0,0,0,0,0,0,0,0,0,0,0,0,0,0,0,0,0,0,0,0,0,0,0,0,0,0,0,0,0,0,0,0,0,0,0,0,0,0,0,0,0,0,0,0,0,0,0,0,0,0,0,0,0],"sum_hessian":[2.9735706E3,1.3783822E3,1.5951882E3,5.276793E2,8.5070294E2,8.6435535E2,7.308329E2,2.0917491E2,3.185044E2,5.051973E2,3.455056E2,8.081919E2,5.6163467E1,5.388863E2,1.9194664E2,2.0719824E1,1.8845508E2,2.8459093E1,2.9004532E2,2.6010352E2,2.4509378E2,3.3846286E2,7.042747E0,3.7582285E2,4.3236905E2,1.1254761E1,4.4908707E1,4.6602908E2,7.285719E1,1.033484E2,8.8598236E1,1.1038968E1,9.680856E0,9.364329E1,9.48118E1,2.4989779E1,3.469315E0,2.8341217E2,6.633155E0,2.0622142E2,5.38821E1,2.3698596E2,8.107816E0,1.3961872E1,3.24501E2,3.4711087E2,2.8711979E1,1.06398796E2,3.2597025E2,6.704211E0,4.5505495E0,4.0733036E1,4.1756716E0,1.3142227E2,3.346068E2,4.3381363E1,2.9475832E1,9.91427E1,4.205699E0,3.9608629E0,7.0781054E0,3.971878E0,5.7089777E0,8.8679924E1,4.963365E0,9.157681E1,3.2349877E0,3.2105558E0,2.1779222E1,2.2478903E2,5.8623127E1,3.4214628E0,3.211692E0,1.7155014E2,3.4671295E1,4.4966408E1,8.915689E0,6.1521046E1,1.7546492E2,3.1851559E0,4.9226604E0,1.021963E1,3.7422416E0,5.9590797E1,2.649102E2,3.3381635E2,1.3294521E1,5.433201E0,2.3278778E1,9.644532E1,9.953474E0,1.754856E1,3.084217E2,3.0675716E0,3.6366396E0,3.1865573E0,3.754648E1,9.830879E1,3.311348E1,1.9507832E1,3.1509897E2,3.8921455E1,4.45991E0,6.294614E0,2.318122E1,3.19037E1,6.7239E1],"tree_param":{"num_deleted":"0","num_feature":"45","num_nodes":"107","size_leaf_vector":"1"}},{"base_weights":[2.6820276E-3,-4.218613E-1,3.7379065E-1,-7.3183405E-1,-2.3879223E-1,1.1634148E-1,6.7404616E-1,-7.906153E-1,-1.4791515E-1,-3.9823514E-1,-2.8722018E-2,5.746774E-2,8.278187E-1,5.5169046E-1,1.0505886E0,-6.6253906E-1,-9.949746E-1,2.861128E-1,-4.4316825E-1,-8.6793804E-1,-3.3980352E-1,1.6680163E-1,-2.1988036E-1,-1.459545E-1,1.4668009E-1,4.879775E-1,1.0224608E0,5.771046E-1,-4.970166E-1,2.5413588E-1,1.0853773E0,-1.1708019E0,-5.989088E-1,-1.1932539E0,-6.652942E-1,-2.2151153E-1,6.0090255E-2,3.3978093E-1,-7.688417E-1,-1.6142192E-1,-1.0516604E0,-7.433532E-1,-2.814365E-1,1.261197E-1,5.45837E-2,-2.7336827E-1,4.6954188E-1,-3.8444364E-1,2.9889815E-2,6.496317E-1,9.982527E-2,6.7539173E-1,-4.6507968E-3,1.1020685E0,4.6844813E-3,4.8451096E-1,8.3964115E-1,-9.602711E-1,3.8377732E-2,-7.874831E-3,3.1329744E-2,1.1736754E-2,1.1090722E0,-2.7054643E-2,-7.027888E-2,-5.6061424E-2,-2.6867766E-2,-6.130142E-2,-3.4303744E-3,-4.4692505E-2,-7.1015256E-3,-5.4538805E-2,3.820628E-2,-1.4456023E-2,3.9690595E-2,-7.057341E-2,-1.6258478E-2,3.951964E-2,-4.0210914E-2,-7.103476E-2,-3.3830393E-2,1.9047732E-2,-4.197596E-2,-2.5274515E-2,-6.6703646E-3,-2.902095E-3,1.4990698E-2,-1.5357575E-2,4.078384E-2,3.9359555E-2,-2.3642557E-2,-2.246148E-2,3.4027275E-2,1.0373884E-2,-2.2941252E-2,6.5559186E-3,4.620689E-2,-5.19178E-3,1.0328424E-2,2.1471088E-3,4.4743367E-2,2.876364E-2,5.90962E-2,7.6228427E-3,2.895914E-2,2.8948247E-2,5.556643E-2,7.5865135E-4,-8.070093E-2,1.4235936E-2,5.6189317E-2],"categories":[],"categories_nodes":[],"categories_segments":[],"categories_sizes":[],"default_left":[0,0,0,0,0,0,0,0,0,0,0,0,0,0,0,0,0,0,0,0,0,0,0,0,0,0,0,0,0,0,0,0,0,0,0,0,0,0,0,0,0,0,0,0,0,0,0,0,0,0,0,0,0,0,0,0,0,0,0,0,0,0,0,0,0,0,0,0,0,0,0,0,0,0,0,0,0,0,0,0,0,0,0,0,0,0,0,0,0,0,0,0,0,0,0,0,0,0,0,0,0,0,0,0,0,0,0,0,0,0,0],"id":12,"left_children":[1,3,5,7,9,11,13,15,17,19,21,23,25,27,29,31,33,35,37,39,41,43,45,47,49,51,53,55,57,59,61,63,65,67,69,71,-1,73,75,77,79,81,83,85,-1,87,89,91,93,95,97,99,-1,101,-1,103,105,107,-1,-1,-1,-1,109,-1,-1,-1,-1,-1,-1,-1,-1,-1,-1,-1,-1,-1,-1,-1,-1,-1,-1,-1,-1,-1,-1,-1,-1,-1,-1,-1,-1,-1,-1,-1,-1,-1,-1,-1,-1,-1,-1,-1,-1,-1,-1,-1,-1,-1,-1,-1,-1],"loss_changes":[4.6529913E2,7.788942E1,1.2166536E2,1.731961E1,2.900668E1,3.5461864E1,3.2759796E1,1.1310181E1,6.3061666E0,1.3112396E1,1.4085219E1,1.4287552E1,3.63274E0,1.498259E1,4.4950104E0,8.44606E0,1.0546921E1,9.634425E0,7.7381806E0,6.679535E0,1.0056927E1,6.740918E0,7.1400347E0,1.0103891E1,1.2757587E1,2.9170694E0,2.739605E0,1.2553955E1,8.6550865E0,1.5000793E0,3.015335E0,3.6065521E0,7.5410995E0,3.7915802E0,7.982332E0,1.25223255E1,0E0,2.8977892E0,5.3510294E0,8.209113E0,4.6871376E0,6.2904453E0,1.2684492E1,5.7817545E0,0E0,6.7380333E0,4.583059E0,7.3264227E0,1.2109637E1,6.3601875E0,1.0945284E1,2.5976448E0,0E0,6.887169E-1,0E0,1.2438873E1,9.016769E0,6.797473E0,0E0,0E0,0E0,0E0,1.5310822E0,0E0,0E0,0E0,0E0,0E0,0E0,0E0,0E0,0E0,0E0,0E0,0E0,0E0,0E0,0E0,0E0,0E0,0E0,0E0,0E0,0E0,0E0,0E0,0E0,0E0,0E0,0E0,0E0,0E0,0E0,0E0,0E0,0E0,0E0,0E0,0E0,0E0,0E0,0E0,0E0,0E0,0E0,0E0,0E0,0E0,0E0,0E0,0E0],"parents":[2147483647,0,0,1,1,2,2,3,3,4,4,5,5,6,6,7,7,8,8,9,9,10,10,11,11,12,12,13,13,14,14,15,15,16,16,17,17,18,18,19,19,20,20,21,21,22,22,23,23,24,24,25,25,26,26,27,27,28,28,29,29,30,30,31,31,32,32,33,33,34,34,35,35,37,37,38,38,39,39,40,40,41,41,42,42,43,43,45,45,46,46,47,47,48,48,49,49,50,50,51,51,53,53,55,55,56,56,57,57,62,62],"right_children":[2,4,6,8,10,12,14,16,18,20,22,24,26,28,30,32,34,36,38,40,42,44,46,48,50,52,54,56,58,60,62,64,66,68,70,72,-1,74,76,78,80,82,84,86,-1,88,90,92,94,96,98,100,-1,102,-1,104,106,108,-1,-1,-1,-1,110,-1,-1,-1,-1,-1,-1,-1,-1,-1,-1,-1,-1,-1,-1,-1,-1,-1,-1,-1,-1,-1,-1,-1,-1,-1,-1,-1,-1,-1,-1,-1,-1,-1,-1,-1,-1,-1,-1,-1,-1,-1,-1,-1,-1,-1,-1,-1,-1],"split_conditions":[-7.1428575E-2,-8.523809E0,7.152174E0,6.857143E-1,-1.5000917E-2,3.1333926E0,3.0315545E0,1.8E1,7E0,-2.6099603E0,5.5E-1,1.5935468E2,3.5030565E0,3.410074E0,7.2980003E0,-2.52E1,-1.1283626E1,3.9049152E2,9.7931033E-1,-2.9221788E-1,6.7537315E1,1.4E1,9.8333335E-1,-5.0436663E-3,7.3030305E0,3.9671817E0,6.6E0,1.7115385E1,1.2575039E0,3.1944445E-1,6.777778E1,6.666667E-2,-3.2218418E0,-6.3E0,-1.9690278E-1,1.4109848E-1,6.0090255E-2,9.111111E0,-5.149538E-1,7.03125E1,-2.5996205E-1,-2.9411766E-1,-1.4285715E-1,8.736842E0,5.45837E-2,1.9E1,7.5333336E1,1.1396772E0,1.4705883E-1,-4.8267657E-1,2.1083333E0,3.1666666E-1,-4.6507968E-3,0E0,4.6844813E-3,7E0,6E0,9.675863E1,3.8377732E-2,-7.874831E-3,3.1329744E-2,1.1736754E-2,0E0,-2.7054643E-2,-7.027888E-2,-5.6061424E-2,-2.6867766E-2,-6.130142E-2,-3.4303744E-3,-4.4692505E-2,-7.1015256E-3,-5.4538805E-2,3.820628E-2,-1.4456023E-2,3.9690595E-2,-7.057341E-2,-1.6258478E-2,3.951964E-2,-4.0210914E-2,-7.103476E-2,-3.3830393E-2,1.9047732E-2,-4.197596E-2,-2.5274515E-2,-6.6703646E-3,-2.902095E-3,1.4990698E-2,-1.5357575E-2,4.078384E-2,3.9359555E-2,-2.3642557E-2,-2.246148E-2,3.4027275E-2,1.0373884E-2,-2.2941252E-2,6.5559186E-3,4.620689E-2,-5.19178E-3,1.0328424E-2,2.1471088E-3,4.4743367E-2,2.876364E-2,5.90962E-2,7.6228427E-3,2.895914E-2,2.8948247E-2,5.556643E-2,7.5865135E-4,-8.070093E-2,1.4235936E-2,5.6189317E-2],"split_indices":[37,37,37,41,40,41,40,14,14,40,44,32,40,26,32,39,37,32,41,27,32,10,44,40,24,41,39,37,40,36,15,44,40,39,40,35,0,30,22,19,35,36,36,24,0,11,19,21,25,28,37,44,0,21,0,17,17,3,0,0,0,0,38,0,0,0,0,0,0,0,0,0,0,0,0,0,0,0,0,0,0,0,0,0,0,0,0,0,0,0,0,0,0,0,0,0,0,0,0,0,0,0,0,0,0,0,0,0,0,0,0],"split_type":[0,0,0,0,0,0,0,0,0,0,0,0,0,0,0,0,0,0,0,0,0,0,0,0,0,0,0,0,0,0,0,0,0,0,0,0,0,0,0,0,0,0,0,0,0,0,0,0,0,0,0,0,0,0,0,0,0,0,0,0,0,0,0,0,0,0,0,0,0,0,0,0,0,0,0,0,0,0,0,0,0,0,0,0,0,0,0,0,0,0,0,0,0,0,0,0,0,0,0,0,0,0,0,0,0,0,0,0,0,0,0],"sum_hessian":[2.9513403E3,1.3763771E3,1.5749634E3,5.097404E2,8.666367E2,8.488507E2,7.261126E2,4.626424E2,4.7097984E1,4.9190778E2,3.7472894E2,7.8510565E2,6.374506E1,5.5009314E2,1.7601947E2,2.8731033E2,1.7533209E2,1.8943268E1,2.8154716E1,5.270149E1,4.392063E2,1.8505367E2,1.8967528E2,2.3881105E2,5.4629456E2,2.4678219E1,3.906684E1,5.3760986E2,1.2483284E1,7.834573E0,1.6818489E2,2.9856033E1,2.5745428E2,1.0765968E2,6.76724E1,1.2604634E1,6.3386335E0,8.167915E0,1.9986801E1,1.1376262E1,4.1325226E1,5.379796E1,3.8540836E2,1.784488E2,6.604858E0,1.7671371E2,1.2961567E1,1.01090004E2,1.3772105E2,4.5277317E1,5.0101727E2,1.8666506E1,6.011715E0,3.5711636E1,3.3552039E0,3.9982315E2,1.3778673E2,9.370333E0,3.1129513E0,3.8681955E0,3.9663773E0,4.967805E0,1.6321709E2,9.121436E0,2.0734598E1,2.515534E1,2.3229895E2,1.0443711E2,3.222576E0,4.6473816E1,2.1198587E1,6.6949406E0,5.9096932E0,3.4844255E0,4.68349E0,7.1801534E0,1.2806647E1,4.430562E0,6.9456997E0,1.9290058E1,2.2035168E1,3.9236777E0,4.987428E1,1.5210107E2,2.3330728E2,8.665831E1,9.179049E1,1.7218224E2,4.531475E0,9.896566E0,3.0649998E0,9.592663E1,5.163373E0,1.0158681E2,3.613425E1,1.6310478E1,2.8966839E1,1.7197937E2,3.290379E2,5.234332E0,1.3432173E1,5.9455914E0,2.9766047E1,8.951677E1,3.103064E2,7.210404E1,6.5682686E1,4.090621E0,5.2797112E0,3.3382604E0,1.5987883E2],"tree_param":{"num_deleted":"0","num_feature":"45","num_nodes":"111","size_leaf_vector":"1"}},{"base_weights":[5.347947E-3,-5.1650244E-1,3.062273E-1,-9.433253E-1,-4.192792E-1,1.1148412E-1,7.4649394E-1,-1.2889506E0,-7.992607E-1,-5.5659664E-1,-2.0217171E-1,5.2267462E-2,7.2619915E-1,6.240105E-1,1.0468891E0,-1.5252024E-2,-1.3448312E0,-1.009904E0,-4.3063596E-1,-7.565126E-1,-3.302482E-1,-2.3832066E-1,7.3417366E-1,-1.5293343E-1,1.5746544E-1,5.4100513E-1,1.124793E0,-4.590897E-1,6.5013313E-1,1.0662433E0,1.4159849E-3,-3.135019E-2,-1.3904989E0,-0E0,-1.087956E0,-1.8547566E-1,-1.063322E0,-7.8033465E-1,1.3256529E-2,-2.2961634E-1,-7.5043887E-1,-7.7338576E-1,-1.9370396E-1,-3.8474612E-3,5.380073E-2,-1.0129165E-1,-6.457833E-1,7.6825574E-2,4.1119614E-1,6.341463E-1,-8.376487E-2,5.9604775E-2,1.7289184E-2,1.5529777E-1,-7.274603E-2,1.9253592E-1,7.0807344E-1,8.041367E-1,1.1484654E0,-7.354105E-2,-3.695441E-2,3.7945285E-2,-3.7207577E-2,-5.9997834E-2,-2.9543212E-2,-1.756355E-2,4.933191E-2,-6.393913E-2,-9.585283E-3,-3.704984E-2,-7.505208E-2,-1.6480414E-2,2.1337083E-2,-5.9872925E-2,-2.7088208E-2,1.1447555E-2,-5.1486213E-2,-1.9849008E-2,-4.2962953E-3,-1.1671176E-2,2.6246782E-3,-4.90334E-2,-1.2062044E-2,-9.6442236E-4,1.4773424E-2,-2.9491808E-3,2.521039E-2,-8.430259E-3,3.490875E-2,-5.6635704E-2,2.280893E-2,-5.8294996E-3,2.0278748E-2,-5.4599685E-3,4.398542E-2,8.226252E-3,3.7838023E-2,4.47216E-2,7.7477875E-3,5.801902E-2,2.4415342E-2],"categories":[],"categories_nodes":[],"categories_segments":[],"categories_sizes":[],"default_left":[0,0,0,0,0,0,0,0,0,0,0,0,0,0,0,0,0,0,0,0,0,0,0,0,0,0,0,0,0,0,0,0,0,0,0,0,0,0,0,0,0,0,0,0,0,0,0,0,0,0,0,0,0,0,0,0,0,0,0,0,0,0,0,0,0,0,0,0,0,0,0,0,0,0,0,0,0,0,0,0,0,0,0,0,0,0,0,0,0,0,0,0,0,0,0,0,0,0,0,0,0],"id":13,"left_children":[1,3,5,7,9,11,13,15,17,19,21,23,25,27,29,-1,31,33,35,37,39,41,43,45,47,49,51,53,55,57,-1,-1,59,61,63,65,67,69,-1,71,73,75,77,-1,-1,79,81,83,85,87,89,-1,-1,91,-1,93,95,97,99,-1,-1,-1,-1,-1,-1,-1,-1,-1,-1,-1,-1,-1,-1,-1,-1,-1,-1,-1,-1,-1,-1,-1,-1,-1,-1,-1,-1,-1,-1,-1,-1,-1,-1,-1,-1,-1,-1,-1,-1,-1,-1],"loss_changes":[4.6592175E2,4.4498047E1,1.6122466E2,8.735718E0,2.6219742E1,4.744014E1,2.0407623E1,2.5641785E0,1.062014E1,2.4156387E1,1.1804468E1,2.5774595E1,7.6819153E0,1.1990128E1,3.1209412E0,0E0,6.848221E-1,7.2277603E0,8.1100855E0,7.2352295E0,1.0558386E1,7.704998E0,3.7784247E0,1.0154103E1,1.6071447E1,4.7821884E0,1.2819176E0,6.603733E0,1.0467575E1,2.3765564E0,0E0,0E0,1.2808838E0,4.7806687E0,3.810936E0,8.154581E0,2.3979225E0,6.6155243E0,0E0,1.3798026E1,3.7339935E0,6.7725534E0,6.68626E0,0E0,0E0,7.4973273E0,4.7880793E0,1.2653725E1,8.376865E0,3.7766457E0,6.9078283E0,0E0,0E0,5.6318974E-1,0E0,9.897228E0,9.242691E0,2.2392273E0,2.1896362E-1,0E0,0E0,0E0,0E0,0E0,0E0,0E0,0E0,0E0,0E0,0E0,0E0,0E0,0E0,0E0,0E0,0E0,0E0,0E0,0E0,0E0,0E0,0E0,0E0,0E0,0E0,0E0,0E0,0E0,0E0,0E0,0E0,0E0,0E0,0E0,0E0,0E0,0E0,0E0,0E0,0E0,0E0],"parents":[2147483647,0,0,1,1,2,2,3,3,4,4,5,5,6,6,7,7,8,8,9,9,10,10,11,11,12,12,13,13,14,14,16,16,17,17,18,18,19,19,20,20,21,21,22,22,23,23,24,24,25,25,26,26,27,27,28,28,29,29,32,32,33,33,34,34,35,35,36,36,37,37,39,39,40,40,41,41,42,42,45,45,46,46,47,47,48,48,49,49,50,50,53,53,55,55,56,56,57,57,58,58],"right_children":[2,4,6,8,10,12,14,16,18,20,22,24,26,28,30,-1,32,34,36,38,40,42,44,46,48,50,52,54,56,58,-1,-1,60,62,64,66,68,70,-1,72,74,76,78,-1,-1,80,82,84,86,88,90,-1,-1,92,-1,94,96,98,100,-1,-1,-1,-1,-1,-1,-1,-1,-1,-1,-1,-1,-1,-1,-1,-1,-1,-1,-1,-1,-1,-1,-1,-1,-1,-1,-1,-1,-1,-1,-1,-1,-1,-1,-1,-1,-1,-1,-1,-1,-1,-1],"split_conditions":[-2.6309524E0,-2.1454735E0,9.9E0,-7.5167455E-2,-6.5E0,2.5290835E0,2.9859462E0,-7.098415E-1,-8.625E0,-1.5009097E0,2.30068E0,-1.460049E-1,2.7058823E0,-2.8653125E2,1.1765492E2,-1.5252024E-2,-2.5E-1,-1.0348115E0,2.1851852E0,2E0,1E0,3.1206898E1,1.8439024E2,1.1676726E2,6.04E0,-3.7971428E-1,1.1257558E0,-3.3184963E-1,-2.201443E-1,1.277145E0,1.4159849E-3,-3.135019E-2,1.0625E1,6.789906E1,3.9880937E-1,3.250442E0,8.767354E-1,3.75E-1,1.3256529E-2,2.0029709E-1,-1.6E1,-2E-1,-1.8055555E-1,-3.8474612E-3,5.380073E-2,1.9166666E0,2.5801563E0,4.168651E-2,2.5E-1,6.465E1,-1.0544254E0,5.9604775E-2,1.7289184E-2,-9.774338E-1,-7.274603E-2,2.6E1,-4.4E1,7.305882E1,1.8333334E0,-7.354105E-2,-3.695441E-2,3.7945285E-2,-3.7207577E-2,-5.9997834E-2,-2.9543212E-2,-1.756355E-2,4.933191E-2,-6.393913E-2,-9.585283E-3,-3.704984E-2,-7.505208E-2,-1.6480414E-2,2.1337083E-2,-5.9872925E-2,-2.7088208E-2,1.1447555E-2,-5.1486213E-2,-1.9849008E-2,-4.2962953E-3,-1.1671176E-2,2.6246782E-3,-4.90334E-2,-1.2062044E-2,-9.6442236E-4,1.4773424E-2,-2.9491808E-3,2.521039E-2,-8.430259E-3,3.490875E-2,-5.6635704E-2,2.280893E-2,-5.8294996E-3,2.0278748E-2,-5.4599685E-3,4.398542E-2,8.226252E-3,3.7838023E-2,4.47216E-2,7.7477875E-3,5.801902E-2,2.4415342E-2],"split_indices":[37,41,39,42,39,40,41,28,39,20,40,40,25,32,1,0,42,28,31,33,8,32,32,1,37,27,28,26,42,20,0,0,24,5,22,29,22,31,0,42,39,38,38,0,0,37,27,42,44,18,28,0,0,26,0,37,34,18,31,0,0,0,0,0,0,0,0,0,0,0,0,0,0,0,0,0,0,0,0,0,0,0,0,0,0,0,0,0,0,0,0,0,0,0,0,0,0,0,0,0,0],"split_type":[0,0,0,0,0,0,0,0,0,0,0,0,0,0,0,0,0,0,0,0,0,0,0,0,0,0,0,0,0,0,0,0,0,0,0,0,0,0,0,0,0,0,0,0,0,0,0,0,0,0,0,0,0,0,0,0,0,0,0,0,0,0,0,0,0,0,0,0,0,0,0,0,0,0,0,0,0,0,0,0,0,0,0,0,0,0,0,0,0,0,0,0,0,0,0,0,0,0,0,0,0],"sum_hessian":[2.9655159E3,1.0841311E3,1.8813848E3,1.9932726E2,8.848038E2,1.3054329E3,5.759519E2,5.6099007E1,1.4322826E2,5.407578E2,3.44046E2,1.1918658E3,1.1356698E2,4.115545E2,1.6439743E2,3.4581664E0,5.264084E1,8.9865456E1,5.3362793E1,2.8566663E2,2.5509117E2,3.320779E2,1.1968068E1,4.0346198E2,7.8840393E2,7.9321106E1,3.4245872E1,9.211766E0,4.0234274E2,1.6118962E2,3.2078073E0,4.160673E0,4.8480164E1,6.4636755E0,8.340178E1,3.9505836E1,1.3856956E1,2.7948386E2,6.1827655E0,2.0724283E2,4.784834E1,2.4129534E1,3.079484E2,3.6914132E0,8.276654E0,3.6647086E2,3.6991116E1,5.9955286E2,1.8885103E2,6.915629E1,1.0164821E1,3.0916231E1,3.3296416E0,6.1568637E0,3.0549028E0,4.589842E1,3.5644434E2,4.135498E1,1.1983464E2,4.190202E1,6.578145E0,3.2302318E0,3.233444E0,6.674762E1,1.6654163E1,3.5298496E1,4.2073417E0,1.064394E1,3.2130158E0,2.670733E2,1.2410569E1,1.8040887E2,2.6833956E1,1.3567227E1,3.428111E1,4.856467E0,1.9273066E1,1.05450676E2,2.0249771E2,1.9718361E2,1.6928726E2,1.9323542E1,1.7667574E1,4.1678937E2,1.8276353E2,3.1071795E1,1.5777922E2,4.8725247E0,6.428376E1,3.1441126E0,7.0207076E0,3.015541E0,3.1413229E0,3.2377235E1,1.352118E1,2.9831734E1,3.2661258E2,3.583836E1,5.5166206E0,1.1681704E2,3.0176005E0],"tree_param":{"num_deleted":"0","num_feature":"45","num_nodes":"101","size_leaf_vector":"1"}},{"base_weights":[-8.107423E-3,-3.0189788E-1,4.547227E-1,-6.699637E-1,-1.5913638E-1,3.2886815E-1,9.346758E-1,-2.0119001E-1,-7.6593924E-1,5.750889E-1,-2.1261893E-1,1.5386847E-1,5.654597E-1,2.4771422E-1,9.907042E-1,-3.9162716E-1,5.747876E-1,-8.905378E-1,-4.5244712E-1,-2.6685783E-1,7.636767E-1,-3.247358E-1,-4.1806974E-2,-3.975548E-3,3.5793948E-1,6.394886E-1,2.6438296E-1,-3.7191074E-2,6.4599705E-1,