{"learner":{"attributes":{"best_iteration":"154","best_score":"0.46578049553615125"},"feature_names":["home_prior_adj_oe","away_prior_adj_oe","home_prior_adj_de","away_prior_adj_de","home_prior_adj_tempo","away_prior_adj_tempo","home_prior_barthag","away_prior_barthag","home_prior_rank","away_prior_rank","home_prior_win_pct","away_prior_win_pct","neutral_site","conference_game","home_rank","away_rank","home_ranked","away_ranked","home_roster_bpm","away_roster_bpm","home_roster_obpm","away_roster_obpm","home_roster_dbpm","away_roster_dbpm","home_top5_bpm","away_top5_bpm","home_depth_count","away_depth_count","home_star_count","away_star_count","home_run_games","home_run_win_pct","home_run_avg_margin","home_run_avg_pts_for","home_run_avg_pts_against","home_run_recent_win_pct","home_run_recent_avg_margin","home_home_win_pct","home_sos","home_conf_win_pct","away_run_games","away_run_win_pct","away_run_avg_margin","away_run_avg_pts_for","away_run_avg_pts_against","away_run_recent_win_pct","away_run_recent_avg_margin","away_away_win_pct","away_sos","away_conf_win_pct","home_blend_adj_oe","home_blend_adj_de","home_blend_barthag","home_blend_adj_tempo","away_blend_adj_oe","away_blend_adj_de","away_blend_barthag","away_blend_adj_tempo","diff_blend_adj_oe","diff_blend_adj_de","diff_blend_adj_tempo","diff_blend_barthag","diff_prior_rank","diff_prior_win_pct","diff_run_win_pct","diff_run_avg_margin","diff_run_recent_win_pct","diff_run_recent_avg_margin","diff_roster_bpm","diff_top5_bpm","diff_sos","diff_conf_win_pct","season_progress"],"feature_types":["float","float","float","float","float","float","float","float","float","float","float","float","int","int","int","int","int","int","float","float","float","float","float","float","float","float","int","int","int","int","int","float","float","float","float","float","float","float","float","float","int","float","float","float","float","float","float","float","float","float","float","float","float","float","float","float","float","float","float","float","float","float","float","float","float","float","float","float","float","float","float","float","float"],"gradient_booster":{"model":{"cats":{"enc":[],"feature_segments":[],"sorted_idx":[]},"gbtree_model_param":{"num_parallel_tree":"1","num_trees":"205"},"iteration_indptr":[0,1,2,3,4,5,6,7,8,9,10,11,12,13,14,15,16,17,18,19,20,21,22,23,24,25,26,27,28,29,30,31,32,33,34,35,36,37,38,39,40,41,42,43,44,45,46,47,48,49,50,51,52,53,54,55,56,57,58,59,60,61,62,63,64,65,66,67,68,69,70,71,72,73,74,75,76,77,78,79,80,81,82,83,84,85,86,87,88,89,90,91,92,93,94,95,96,97,98,99,100,101,102,103,104,105,106,107,108,109,110,111,112,113,114,115,116,117,118,119,120,121,122,123,124,125,126,127,128,129,130,131,132,133,134,135,136,137,138,139,140,141,142,143,144,145,146,147,148,149,150,151,152,153,154,155,156,157,158,159,160,161,162,163,164,165,166,167,168,169,170,171,172,173,174,175,176,177,178,179,180,181,182,183,184,185,186,187,188,189,190,191,192,193,194,195,196,197,198,199,200,201,202,203,204,205],"tree_info":[0,0,0,0,0,0,0,0,0,0,0,0,0,0,0,0,0,0,0,0,0,0,0,0,0,0,0,0,0,0,0,0,0,0,0,0,0,0,0,0,0,0,0,0,0,0,0,0,0,0,0,0,0,0,0,0,0,0,0,0,0,0,0,0,0,0,0,0,0,0,0,0,0,0,0,0,0,0,0,0,0,0,0,0,0,0,0,0,0,0,0,0,0,0,0,0,0,0,0,0,0,0,0,0,0,0,0,0,0,0,0,0,0,0,0,0,0,0,0,0,0,0,0,0,0,0,0,0,0,0,0,0,0,0,0,0,0,0,0,0,0,0,0,0,0,0,0,0,0,0,0,0,0,0,0,0,0,0,0,0,0,0,0,0,0,0,0,0,0,0,0,0,0,0,0,0,0,0,0,0,0,0,0,0,0,0,0,0,0,0,0,0,0,0,0,0,0,0,0,0,0,0,0,0,0],"trees":[{"base_weights":[-7.924937E-3,-1.0938926E0,8.488282E-1,-2.0536768E0,-7.5715595E-1,2.3262729E-1,1.160141E0,-2.471837E0,-1.8221494E0,-1.0137234E0,-4.028674E-1,3.1563663E-1,-2.2098471E-1,9.47798E-1,1.4069973E0,-1.2826905E-1,-8.870442E-2,-3.54876E-2,-9.3559794E-2,-5.857866E-2,-3.3601575E-2,-2.9829284E-2,2.4834655E-3,-1.1262684E-2,2.064327E-2,-4.377314E-3,-6.351256E-2,-5.1186755E-3,4.8108287E-2,5.666229E-2,7.2972E-2],"categories":[],"categories_nodes":[],"categories_segments":[],"categories_sizes":[],"default_left":[0,0,0,0,0,0,0,0,0,0,0,0,0,0,0,0,0,0,0,0,0,0,0,0,0,0,0,0,0,0,0],"id":0,"left_children":[1,3,5,7,9,11,13,15,17,19,21,23,25,27,29,-1,-1,-1,-1,-1,-1,-1,-1,-1,-1,-1,-1,-1,-1,-1,-1],"loss_changes":[1.8788169E3,2.8599585E2,2.1611896E2,1.7396484E1,5.9528656E1,1.4395748E1,3.771991E1,1.8658447E-1,6.7290955E0,1.9659576E1,2.458015E1,1.7045547E1,8.044058E0,6.313629E0,3.0299072E0,0E0,0E0,0E0,0E0,0E0,0E0,0E0,0E0,0E0,0E0,0E0,0E0,0E0,0E0,0E0,0E0],"parents":[2147483647,0,0,1,1,2,2,3,3,4,4,5,5,6,6,7,7,8,8,9,9,10,10,11,11,12,12,13,13,14,14],"right_children":[2,4,6,8,10,12,14,16,18,20,22,24,26,28,30,-1,-1,-1,-1,-1,-1,-1,-1,-1,-1,-1,-1,-1,-1,-1,-1],"split_conditions":[1.7929459E-1,-2.7922652E0,1.546884E0,-4.344921E0,-8.323296E-1,1E0,3.6216655E0,3.976777E-1,1E-1,-1.2268438E0,3.9E0,-1.5763792E0,7.86E1,9.870132E1,3.8043563E0,-1.2826905E-1,-8.870442E-2,-3.54876E-2,-9.3559794E-2,-5.857866E-2,-3.3601575E-2,-2.9829284E-2,2.4834655E-3,-1.1262684E-2,2.064327E-2,-4.377314E-3,-6.351256E-2,-5.1186755E-3,4.8108287E-2,5.666229E-2,7.2972E-2],"split_indices":[68,68,68,68,68,12,68,20,72,69,46,20,34,50,69,0,0,0,0,0,0,0,0,0,0,0,0,0,0,0,0],"split_type":[0,0,0,0,0,0,0,0,0,0,0,0,0,0,0,0,0,0,0,0,0,0,0,0,0,0,0,0,0,0,0],"sum_hessian":[2.0173269E3,8.895843E2,1.1277426E3,2.2964438E2,6.5993994E2,3.7921234E2,7.485302E2,7.823556E1,1.5140881E2,3.815134E2,2.7842654E2,3.2099588E2,5.8216457E1,4.0521417E2,3.4331604E2,6.650022E1,1.1735333E1,7.133242E0,1.4427557E2,2.5909775E2,1.22415634E2,1.9489857E2,8.352796E1,4.8552067E1,2.7244382E2,5.269395E1,5.52251E0,5.292405E0,3.9992175E2,5.913688E1,2.8417917E2],"tree_param":{"num_deleted":"0","num_feature":"73","num_nodes":"31","size_leaf_vector":"1"}},{"base_weights":[5.0072144E-3,-1.2122824E0,6.449713E-1,-1.8777454E0,-8.2216835E-1,2.7392825E-1,1.1920873E0,-2.2758813E0,-1.6543361E0,-1.0241454E0,-5.112895E-1,4.1144863E-3,5.004374E-1,9.2660666E-1,1.3485452E0,-5.510987E-2,-1.168524E-1,-8.48561E-2,-4.8024576E-2,-5.3011388E-2,1.9858962E-2,-7.50935E-2,-2.0687314E-2,3.351504E-3,-1.9701958E-2,-1.3766909E-2,2.7167035E-2,5.0116766E-2,2.0954903E-2,3.0256411E-2,6.8266414E-2],"categories":[],"categories_nodes":[],"categories_segments":[],"categories_sizes":[],"default_left":[0,0,0,0,0,0,0,0,0,0,0,0,0,0,0,0,0,0,0,0,0,0,0,0,0,0,0,0,0,0,0],"id":1,"left_children":[1,3,5,7,9,11,13,15,17,19,21,23,25,27,29,-1,-1,-1,-1,-1,-1,-1,-1,-1,-1,-1,-1,-1,-1,-1,-1],"loss_changes":[1.5861614E3,1.8031592E2,2.7045593E2,1.8826294E1,2.7211548E1,4.8636497E1,2.0908081E1,3.5455933E0,3.1315002E0,1.4233887E1,1.6300465E1,9.131775E0,1.458419E1,7.2500916E0,3.177124E0,0E0,0E0,0E0,0E0,0E0,0E0,0E0,0E0,0E0,0E0,0E0,0E0,0E0,0E0,0E0,0E0],"parents":[2147483647,0,0,1,1,2,2,3,3,4,4,5,5,6,6,7,7,8,8,9,9,10,10,11,11,12,12,13,13,14,14],"right_children":[2,4,6,8,10,12,14,16,18,20,22,24,26,28,30,-1,-1,-1,-1,-1,-1,-1,-1,-1,-1,-1,-1,-1,-1,-1,-1],"split_conditions":[-6.078346E-1,-2.8136332E0,2.528446E0,-4.498387E0,-1.361573E0,7.336028E-1,3.75567E0,1.02890335E2,1.6381788E0,8.845977E0,-3.616362E0,1E0,-4.173282E0,1E0,-9.590909E0,-5.510987E-2,-1.168524E-1,-8.48561E-2,-4.8024576E-2,-5.3011388E-2,1.9858962E-2,-7.50935E-2,-2.0687314E-2,3.351504E-3,-1.9701958E-2,-1.3766909E-2,2.7167035E-2,5.0116766E-2,2.0954903E-2,3.0256411E-2,6.8266414E-2],"split_indices":[69,69,69,69,69,69,69,51,22,65,18,12,58,12,32,0,0,0,0,0,0,0,0,0,0,0,0,0,0,0,0],"split_type":[0,0,0,0,0,0,0,0,0,0,0,0,0,0,0,0,0,0,0,0,0,0,0,0,0,0,0,0,0,0,0],"sum_hessian":[2.0341632E3,7.005608E2,1.3336024E3,2.5740515E2,4.4315564E2,7.9567505E2,5.3792737E2,8.9059074E1,1.6834608E2,2.6704276E2,1.7611287E2,3.6379193E2,4.318831E2,2.0227127E2,3.356561E2,5.434523E0,8.362455E1,1.5707025E2,1.1275836E1,2.607477E2,6.29504E0,1.4404875E1,1.61708E2,3.1508545E2,4.8706482E1,2.2226994E1,4.096561E2,1.749881E2,2.7283167E1,8.359913E0,3.2729617E2],"tree_param":{"num_deleted":"0","num_feature":"73","num_nodes":"31","size_leaf_vector":"1"}},{"base_weights":[-8.311046E-3,-9.463414E-1,7.685111E-1,-1.7568272E0,-6.296811E-1,2.397238E-1,1.1044352E0,-2.1241152E0,-1.5732726E0,-8.519756E-1,-3.1762165E-1,3.1804326E-1,-1.6212389E-1,8.8584864E-1,1.3378046E0,-1.0947452E-1,-5.049112E-2,-2.8783923E-2,-8.107507E-2,-4.8977345E-2,-2.8422311E-2,-2.3245258E-2,4.5686155E-3,6.9429576E-3,2.524489E-2,-1.8998254E-2,2.1530043E-2,-1.4223883E-2,4.5228776E-2,6.1976712E-2,7.242017E-2],"categories":[],"categories_nodes":[],"categories_segments":[],"categories_sizes":[],"default_left":[0,0,0,0,0,0,0,0,0,0,0,0,0,0,0,0,0,0,0,0,0,0,0,0,0,0,0,0,0,0,0],"id":2,"left_children":[1,3,5,7,9,11,13,15,17,19,21,23,25,27,29,-1,-1,-1,-1,-1,-1,-1,-1,-1,-1,-1,-1,-1,-1,-1,-1],"loss_changes":[1.4811284E3,2.3497943E2,1.9708887E2,1.3685181E1,4.5657196E1,1.3704132E1,3.3253845E1,3.5116882E0,7.319275E0,1.3280914E1,1.6820683E1,1.2024921E1,9.342695E0,8.078552E0,1.4838867E0,0E0,0E0,0E0,0E0,0E0,0E0,0E0,0E0,0E0,0E0,0E0,0E0,0E0,0E0,0E0,0E0],"parents":[2147483647,0,0,1,1,2,2,3,3,4,4,5,5,6,6,7,7,8,8,9,9,10,10,11,11,12,12,13,13,14,14],"right_children":[2,4,6,8,10,12,14,16,18,20,22,24,26,28,30,-1,-1,-1,-1,-1,-1,-1,-1,-1,-1,-1,-1,-1,-1,-1,-1],"split_conditions":[1.3015871E-1,-2.7015665E0,1.718475E0,-4.344921E0,-8.323296E-1,1E0,3.6216655E0,5E0,1E-1,-1.2268438E0,6.296296E-1,4.6666667E-1,1.236108E0,9.908886E1,5.466134E0,-1.0947452E-1,-5.049112E-2,-2.8783923E-2,-8.107507E-2,-4.8977345E-2,-2.8422311E-2,-2.3245258E-2,4.5686155E-3,6.9429576E-3,2.524489E-2,-1.8998254E-2,2.1530043E-2,-1.4223883E-2,4.5228776E-2,6.1976712E-2,7.242017E-2],"split_indices":[68,68,68,68,68,12,68,36,72,69,41,41,68,50,68,0,0,0,0,0,0,0,0,0,0,0,0,0,0,0,0],"split_type":[0,0,0,0,0,0,0,0,0,0,0,0,0,0,0,0,0,0,0,0,0,0,0,0,0,0,0,0,0,0,0],"sum_hessian":[2.0305884E3,9.1980884E2,1.1107795E3,2.5704453E2,6.6276434E2,4.3229828E2,6.7848126E2,8.194928E1,1.7509525E2,3.858528E2,2.769115E2,3.6216943E2,7.012884E1,3.530343E2,3.2544696E2,7.641159E1,5.5376863E0,8.766832E0,1.6632841E2,2.6418002E2,1.21672806E2,2.0367392E2,7.323757E1,1.8604243E2,1.7612701E2,5.1667427E1,1.8461407E1,5.2524743E0,3.4778183E2,1.7927109E2,1.4617586E2],"tree_param":{"num_deleted":"0","num_feature":"73","num_nodes":"31","size_leaf_vector":"1"}},{"base_weights":[1.1374828E-2,-7.786068E-1,8.5182506E-1,-1.7551752E0,-4.98357E-1,4.5229208E-1,1.1400138E0,-2.052895E0,-1.5670341E0,-7.813525E-1,-1.9862984E-1,-2.7241498E-1,4.9876943E-1,9.2659014E-1,1.2999684E0,-1.0672089E-1,-5.7792276E-2,-7.9992495E-2,-2.6225815E-2,1.7152788E-2,-4.0221658E-2,-1.7282236E-2,7.7189454E-3,3.255148E-2,-3.9486356E-2,1.9941673E-2,3.8993645E-2,4.790682E-2,-2.0576124E-3,3.331262E-2,6.585525E-2],"categories":[],"categories_nodes":[],"categories_segments":[],"categories_sizes":[],"default_left":[0,0,0,0,0,0,0,0,0,0,0,0,0,0,0,0,0,0,0,0,0,0,0,0,0,0,0,0,0,0,0],"id":3,"left_children":[1,3,5,7,9,11,13,15,17,19,21,23,25,27,29,-1,-1,-1,-1,-1,-1,-1,-1,-1,-1,-1,-1,-1,-1,-1,-1],"loss_changes":[1.3548165E3,2.8676196E2,1.1317108E2,9.531494E0,6.91942E1,1.4175072E1,1.8154846E1,3.5811768E0,4.0066833E0,1.1237915E1,2.078646E1,1.2755776E1,1.0570412E1,7.7475586E0,2.454956E0,0E0,0E0,0E0,0E0,0E0,0E0,0E0,0E0,0E0,0E0,0E0,0E0,0E0,0E0,0E0,0E0],"parents":[2147483647,0,0,1,1,2,2,3,3,4,4,5,5,6,6,7,7,8,8,9,9,10,10,11,11,12,12,13,13,14,14],"right_children":[2,4,6,8,10,12,14,16,18,20,22,24,26,28,30,-1,-1,-1,-1,-1,-1,-1,-1,-1,-1,-1,-1,-1,-1,-1,-1],"split_conditions":[5.442173E-1,-2.8335338E0,2.2140732E0,-4.344921E0,-8.323296E-1,1.01701775E2,3.6216655E0,4.466386E-1,8.157895E-2,9.671768E1,3.9E0,-3.5476813E0,1.718475E0,7.058824E-1,-1.1236572E0,-1.0672089E-1,-5.7792276E-2,-7.9992495E-2,-2.6225815E-2,1.7152788E-2,-4.0221658E-2,-1.7282236E-2,7.7189454E-3,3.255148E-2,-3.9486356E-2,1.9941673E-2,3.8993645E-2,4.790682E-2,-2.0576124E-3,3.331262E-2,6.585525E-2],"split_indices":[68,68,68,68,68,50,68,20,64,2,46,19,68,47,58,0,0,0,0,0,0,0,0,0,0,0,0,0,0,0,0],"split_type":[0,0,0,0,0,0,0,0,0,0,0,0,0,0,0,0,0,0,0,0,0,0,0,0,0,0,0,0,0,0,0],"sum_hessian":[2.03856E3,1.0508076E3,9.877525E2,2.330597E2,8.1774786E2,4.1513837E2,5.7261414E2,8.62044E1,1.468553E2,4.1961575E2,3.981321E2,2.459669E1,3.9054166E2,2.4848466E2,3.241295E2,7.765625E1,8.548151E0,1.4176245E2,5.0928555E0,8.074169E0,4.115416E2,2.8128967E2,1.16842445E2,8.669367E0,1.5927322E1,2.901604E2,1.0038127E2,2.4075E2,7.7346606E0,9.737739E0,3.1439175E2],"tree_param":{"num_deleted":"0","num_feature":"73","num_nodes":"31","size_leaf_vector":"1"}},{"base_weights":[1.0672254E-2,-7.658875E-1,7.93041E-1,-1.3488587E0,-4.198025E-1,4.4451976E-1,1.1620859E0,-1.7310243E0,-1.040355E0,-6.940878E-1,-2.1026981E-1,2.59126E-1,6.7769754E-1,9.3854225E-1,1.2813675E0,-9.007478E-2,-6.837788E-2,-2.7246693E-2,-5.7039835E-2,-1.35968765E-2,-4.0875163E-2,-3.5195001E-3,-2.7415082E-2,1.7522508E-2,-1.0524437E-2,-1.5685635E-2,3.6017053E-2,3.362983E-2,5.3625166E-2,6.45907E-2,2.6050461E-2],"categories":[],"categories_nodes":[],"categories_segments":[],"categories_sizes":[],"default_left":[0,0,0,0,0,0,0,0,0,0,0,0,0,0,0,0,0,0,0,0,0,0,0,0,0,0,0,0,0,0,0],"id":4,"left_children":[1,3,5,7,9,11,13,15,17,19,21,23,25,27,29,-1,-1,-1,-1,-1,-1,-1,-1,-1,-1,-1,-1,-1,-1,-1,-1],"loss_changes":[1.2231605E3,2.0309564E2,1.2831934E2,4.222809E1,3.628804E1,2.2104912E1,1.1544067E1,1.476654E0,9.688858E0,1.3974884E1,1.7012928E1,1.2532902E1,9.921997E0,5.2765045E0,1.640686E0,0E0,0E0,0E0,0E0,0E0,0E0,0E0,0E0,0E0,0E0,0E0,0E0,0E0,0E0,0E0,0E0],"parents":[2147483647,0,0,1,1,2,2,3,3,4,4,5,5,6,6,7,7,8,8,9,9,10,10,11,11,12,12,13,13,14,14],"right_children":[2,4,6,8,10,12,14,16,18,20,22,24,26,28,30,-1,-1,-1,-1,-1,-1,-1,-1,-1,-1,-1,-1,-1,-1,-1,-1],"split_conditions":[3.846344E-1,-2.046112E0,2.5135248E0,-3.3858001E0,-8.323296E-1,1.4536073E0,3.6216655E0,3E0,6.936364E1,-8.8E0,3.9501008E-2,1E0,1.0115278E2,3.3333334E-1,7.6281995E-1,-9.007478E-2,-6.837788E-2,-2.7246693E-2,-5.7039835E-2,-1.35968765E-2,-4.0875163E-2,-3.5195001E-3,-2.7415082E-2,1.7522508E-2,-1.0524437E-2,-1.5685635E-2,3.6017053E-2,3.362983E-2,5.3625166E-2,6.45907E-2,2.6050461E-2],"split_indices":[68,68,68,68,68,68,68,15,34,67,61,12,50,72,56,0,0,0,0,0,0,0,0,0,0,0,0,0,0,0,0],"split_type":[0,0,0,0,0,0,0,0,0,0,0,0,0,0,0,0,0,0,0,0,0,0,0,0,0,0,0,0,0,0,0],"sum_hessian":[2.011243E3,1.0093152E3,1.00192786E3,3.7479547E2,6.345197E2,5.165655E2,4.8536234E2,1.6520685E2,2.0958861E2,2.735906E2,3.609291E2,2.8918332E2,2.2738219E2,1.7225282E2,3.1310953E2,1.34833E2,3.037386E1,3.6580265E1,1.7300835E2,6.2798416E1,2.1079219E2,2.5635272E2,1.04576385E2,2.4249329E2,4.6690037E1,9.018188E0,2.18364E2,5.996833E1,1.122845E2,3.080468E2,5.0627017E0],"tree_param":{"num_deleted":"0","num_feature":"73","num_nodes":"31","size_leaf_vector":"1"}},{"base_weights":[2.3331096E-2,-8.01284E-1,7.321379E-1,-1.4870783E0,-5.2252287E-1,2.7487618E-1,1.0328492E0,-9.23678E-2,-1.2837956E0,-6.316852E-1,-1.4870027E-1,3.220768E-1,-1.9582528E-1,8.5381806E-1,1.2506802E0,-6.670383E-2,-1.3337182E-2,6.3234605E-3,-3.3516258E-2,-3.6999786E-3,-4.1691523E-2,1.9859796E-2,2.95908E-3,3.0735286E-3,-8.291671E-2,9.966812E-3,4.4325043E-2,4.749024E-2,6.536092E-2],"categories":[],"categories_nodes":[],"categories_segments":[],"categories_sizes":[],"default_left":[0,0,0,0,0,0,0,0,0,0,0,0,0,0,0,0,0,0,0,0,0,0,0,0,0,0,0,0,0],"id":5,"left_children":[1,3,5,7,9,11,13,-1,15,17,19,21,23,25,27,-1,-1,-1,-1,-1,-1,-1,-1,-1,-1,-1,-1,-1,-1],"loss_changes":[1.1797732E3,1.7737903E2,1.4884601E2,1.7015198E1,2.6963974E1,9.67688E0,2.42406E1,0E0,8.454468E0,1.5201691E1,7.6171217E0,7.698574E0,1.5243478E1,7.470154E0,3.5132446E0,0E0,0E0,0E0,0E0,0E0,0E0,0E0,0E0,0E0,0E0,0E0,0E0,0E0,0E0],"parents":[2147483647,0,0,1,1,2,2,3,3,4,4,5,5,6,6,8,8,9,9,10,10,11,11,12,12,13,13,14,14],"right_children":[2,4,6,8,10,12,14,-1,16,18,20,22,24,26,28,-1,-1,-1,-1,-1,-1,-1,-1,-1,-1,-1,-1,-1,-1],"split_conditions":[1.3015871E-1,-2.7015665E0,1.718475E0,-4.183373E0,-1.78972E-1,9.6666664E-1,3.7446694E0,-9.23678E-2,7.826087E-1,1.0102389E2,6.607356E-1,7.657601E-2,7.6833336E1,2.2727273E-1,3.8043563E0,-6.670383E-2,-1.3337182E-2,6.3234605E-3,-3.3516258E-2,-3.6999786E-3,-4.1691523E-2,1.9859796E-2,2.95908E-3,3.0735286E-3,-8.291671E-2,9.966812E-3,4.4325043E-2,4.749024E-2,6.536092E-2],"split_indices":[68,68,68,68,69,72,68,0,31,51,52,70,44,31,69,0,0,0,0,0,0,0,0,0,0,0,0,0,0],"split_type":[0,0,0,0,0,0,0,0,0,0,0,0,0,0,0,0,0,0,0,0,0,0,0,0,0,0,0,0,0],"sum_hessian":[2.0164642E3,9.319621E2,1.0845022E3,2.679851E2,6.63977E2,4.311468E2,6.5335535E2,9.3570595E1,1.7441452E2,5.131666E2,1.5081035E2,3.9233292E2,3.8813858E1,3.615681E2,2.9178726E2,1.658073E2,8.607228E0,2.4649904E1,4.8851672E2,1.3711453E2,1.3695821E1,3.0444907E2,8.7883865E1,3.376351E1,5.0503445E0,1.7680012E1,3.438881E2,4.925229E1,2.4253499E2],"tree_param":{"num_deleted":"0","num_feature":"73","num_nodes":"29","size_leaf_vector":"1"}},{"base_weights":[4.5236503E-3,-7.968804E-1,5.81051E-1,-1.3508681E0,-5.3531843E-1,3.240593E-1,1.1621307E0,-1.6538683E0,-1.1768658E0,-7.679958E-1,-3.7430525E-1,1.2160277E-1,5.771023E-1,1.0660306E0,6.75754E-2,-8.5428156E-2,-4.2915657E-2,-7.1637586E-2,-4.595668E-2,7.552461E-3,-4.0352013E-2,-2.4956664E-2,2.353056E-3,8.34045E-3,-1.9179676E-2,-1.1233105E-2,3.0212272E-2,4.4021353E-2,5.7626277E-2],"categories":[],"categories_nodes":[],"categories_segments":[],"categories_sizes":[],"default_left":[0,0,0,0,0,0,0,0,0,0,0,0,0,0,0,0,0,0,0,0,0,0,0,0,0,0,0,0,0],"id":6,"left_children":[1,3,5,7,9,11,13,15,17,19,21,23,25,27,-1,-1,-1,-1,-1,-1,-1,-1,-1,-1,-1,-1,-1,-1,-1],"loss_changes":[9.233617E2,1.20243225E2,1.7306082E2,1.1867523E1,2.0942993E1,4.12267E1,4.7953796E0,2.4043884E0,9.891617E0,8.505646E0,1.7895756E1,1.0320742E1,7.973572E0,2.6542664E0,0E0,0E0,0E0,0E0,0E0,0E0,0E0,0E0,0E0,0E0,0E0,0E0,0E0,0E0,0E0],"parents":[2147483647,0,0,1,1,2,2,3,3,4,4,5,5,6,6,7,7,8,8,9,9,10,10,11,11,12,12,13,13],"right_children":[2,4,6,8,10,12,14,16,18,20,22,24,26,28,-1,-1,-1,-1,-1,-1,-1,-1,-1,-1,-1,-1,-1,-1,-1],"split_conditions":[-2.378244E-1,-2.8680115E0,3.291216E0,-4.498387E0,-1.6405206E0,1.4687608E0,5.7134066E0,5.6E0,-1.2764953E-2,1.0089456E2,1.3987521E0,6.4227736E-1,-4.836977E0,1.0821259E2,6.75754E-2,-8.5428156E-2,-4.2915657E-2,-7.1637586E-2,-4.595668E-2,7.552461E-3,-4.0352013E-2,-2.4956664E-2,2.353056E-3,8.34045E-3,-1.9179676E-2,-1.1233105E-2,3.0212272E-2,4.4021353E-2,5.7626277E-2],"split_indices":[69,69,69,69,69,69,69,36,70,51,18,38,58,50,0,0,0,0,0,0,0,0,0,0,0,0,0,0,0],"split_type":[0,0,0,0,0,0,0,0,0,0,0,0,0,0,0,0,0,0,0,0,0,0,0,0,0,0,0,0,0],"sum_hessian":[1.9965273E3,8.351158E2,1.1614116E3,2.6637897E2,5.687368E2,8.064681E2,3.5494348E2,9.3858376E1,1.7252058E2,2.3080853E2,3.3792828E2,4.490581E2,3.5741E2,2.4020688E2,1.1473662E2,8.662925E1,7.229127E0,8.408796E1,8.843262E1,9.184741E0,2.216238E2,2.607384E2,7.7189896E1,4.129721E2,3.6086018E1,1.1344702E1,3.460653E2,8.027831E1,1.5992856E2],"tree_param":{"num_deleted":"0","num_feature":"73","num_nodes":"29","size_leaf_vector":"1"}},{"base_weights":[1.9719422E-2,-6.513564E-1,7.219744E-1,-1.1965867E0,-3.4460163E-1,3.6694553E-1,1.0076764E0,-1.4766048E0,-9.4802445E-1,-5.778545E-1,-1.5202193E-1,-4.4340618E-2,3.925181E-1,7.943914E-1,1.181909E0,-7.879772E-2,-5.6901164E-2,-4.9670648E-2,1.3955258E-2,-7.4062306E-3,-3.5814986E-2,7.3505226E-3,-1.5434501E-2,1.3438828E-2,3.1214664E-2,4.228891E-2,1.273966E-2,2.6583513E-2,5.9887208E-2],"categories":[],"categories_nodes":[],"categories_segments":[],"categories_sizes":[],"default_left":[0,0,0,0,0,0,0,0,0,0,0,0,0,0,0,0,0,0,0,0,0,0,0,0,0,0,0,0,0],"id":7,"left_children":[1,3,5,7,9,11,13,15,17,19,21,-1,23,25,27,-1,-1,-1,-1,-1,-1,-1,-1,-1,-1,-1,-1,-1,-1],"loss_changes":[9.3252356E2,1.6865543E2,9.757501E1,2.3676453E1,2.8992638E1,1.4178253E1,1.8747253E1,3.6224976E0,1.1248154E1,1.7234383E1,1.679093E1,0E0,1.1932533E1,6.4368286E0,2.198822E0,0E0,0E0,0E0,0E0,0E0,0E0,0E0,0E0,0E0,0E0,0E0,0E0,0E0,0E0],"parents":[2147483647,0,0,1,1,2,2,3,3,4,4,5,5,6,6,7,7,8,8,9,9,10,10,12,12,13,13,14,14],"right_children":[2,4,6,8,10,12,14,16,18,20,22,-1,24,26,28,-1,-1,-1,-1,-1,-1,-1,-1,-1,-1,-1,-1,-1,-1],"split_conditions":[3.846344E-1,-2.147169E0,2.1334994E0,-3.3858001E0,-8.323296E-1,-1.845105E-1,3.6216655E0,-1.480727E-1,2.5057235E-1,-2.2619048E-1,1.0660928E2,-4.4340618E-2,1.4536073E0,3.539862E0,3.8446066E-1,-7.879772E-2,-5.6901164E-2,-4.9670648E-2,1.3955258E-2,-7.4062306E-3,-3.5814986E-2,7.3505226E-3,-1.5434501E-2,1.3438828E-2,3.1214664E-2,4.228891E-2,1.273966E-2,2.6583513E-2,5.9887208E-2],"split_indices":[68,68,68,68,68,61,68,18,70,64,55,0,68,25,52,0,0,0,0,0,0,0,0,0,0,0,0,0,0],"split_type":[0,0,0,0,0,0,0,0,0,0,0,0,0,0,0,0,0,0,0,0,0,0,0,0,0,0,0,0,0],"sum_hessian":[1.9767483E3,1.0107778E3,9.659706E2,3.6276587E2,6.480119E2,4.319011E2,5.3406946E2,1.6807635E2,1.946895E2,2.9191907E2,3.5609283E2,7.88192E0,4.2401917E2,2.4288174E2,2.9118774E2,1.2689248E2,4.1183872E1,1.880075E2,6.6819887E0,7.181123E1,2.2010785E2,1.22225105E2,2.3386772E2,2.7812384E2,1.4589534E2,2.210756E2,2.1806133E1,7.8947988E0,2.8329294E2],"tree_param":{"num_deleted":"0","num_feature":"73","num_nodes":"29","size_leaf_vector":"1"}},{"base_weights":[1.237361E-2,-6.4134204E-1,7.1052855E-1,-1.2162459E0,-3.839386E-1,2.6429224E-1,9.1808754E-1,-1.5856841E0,-1.0685037E0,-6.402769E-1,-2.3247924E-1,3.458494E-1,-1.7323224E-1,7.430627E-1,1.1623104E0,-8.446755E-2,-5.5379976E-2,-3.5064135E-2,-5.894189E-2,-2.2115959E-2,-3.968821E-2,-7.2918E-3,-3.3766117E-2,2.6445896E-3,2.5497213E-2,2.9194877E-2,-1.9110799E-2,3.7963025E-2,-1.4541954E-2,4.3758824E-2,6.0331203E-2],"categories":[],"categories_nodes":[],"categories_segments":[],"categories_sizes":[],"default_left":[0,0,0,0,0,0,0,0,0,0,0,0,0,0,0,0,0,0,0,0,0,0,0,0,0,0,0,0,0,0,0],"id":8,"left_children":[1,3,5,7,9,11,13,15,17,19,21,23,25,27,29,-1,-1,-1,-1,-1,-1,-1,-1,-1,-1,-1,-1,-1,-1,-1,-1],"loss_changes":[9.135422E2,1.5233511E2,8.929407E1,1.5456787E1,2.7545403E1,1.109833E1,2.716278E1,2.254959E0,8.352661E0,7.5755463E0,1.7147434E1,1.2457003E1,7.956367E0,6.75795E0,2.2167053E0,0E0,0E0,0E0,0E0,0E0,0E0,0E0,0E0,0E0,0E0,0E0,0E0,0E0,0E0,0E0,0E0],"parents":[2147483647,0,0,1,1,2,2,3,3,4,4,5,5,6,6,7,7,8,8,9,9,10,10,11,11,12,12,13,13,14,14],"right_children":[2,4,6,8,10,12,14,16,18,20,22,24,26,28,30,-1,-1,-1,-1,-1,-1,-1,-1,-1,-1,-1,-1,-1,-1,-1,-1],"split_conditions":[3.846344E-1,-2.4207337E0,1.546884E0,-4.344921E0,-1.2659972E0,1E0,3.8043563E0,3.3174627E0,-1.2790909E1,-1.3793103E-1,1.3692307E-1,6.9833336E1,-3.5560343E-2,7.2893616E1,3.6216655E0,-8.446755E-2,-5.5379976E-2,-3.5064135E-2,-5.894189E-2,-2.2115959E-2,-3.968821E-2,-7.2918E-3,-3.3766117E-2,2.6445896E-3,2.5497213E-2,2.9194877E-2,-1.9110799E-2,3.7963025E-2,-1.4541954E-2,4.3758824E-2,6.0331203E-2],"split_indices":[68,68,68,68,69,12,69,21,65,64,64,43,63,5,68,0,0,0,0,0,0,0,0,0,0,0,0,0,0,0,0],"split_type":[0,0,0,0,0,0,0,0,0,0,0,0,0,0,0,0,0,0,0,0,0,0,0,0,0,0,0,0,0,0,0],"sum_hessian":[1.9996354E3,1.0326521E3,9.669832E2,3.180909E2,7.145612E2,3.0786075E2,6.5912244E2,8.7894875E1,2.3019603E2,2.6394998E2,4.5061127E2,2.598595E2,4.8001247E1,3.8654968E2,2.7257275E2,6.997819E1,1.791669E1,5.5093304E1,1.7510272E2,1.1725526E2,1.4669472E2,3.781755E2,7.243575E1,9.3990524E1,1.6586897E2,9.891764E0,3.8109486E1,3.809439E2,5.605758E0,3.9518116E1,2.3305466E2],"tree_param":{"num_deleted":"0","num_feature":"73","num_nodes":"31","size_leaf_vector":"1"}},{"base_weights":[1.8334916E-3,-6.098111E-1,6.771875E-1,-1.2703725E0,-4.034845E-1,2.392666E-1,9.230847E-1,-1.3171896E0,-4.8498172E-1,-6.776994E-1,-2.4223824E-1,3.1871876E-1,-1.700902E-1,7.499157E-1,1.1244684E0,-7.171834E-2,-5.3996224E-2,1.9484911E-2,-4.907344E-2,-3.9677948E-2,-1.7202405E-2,-1.04025025E-2,-4.699444E-2,-8.903447E-3,2.0291653E-2,2.8333101E-2,-1.6415184E-2,-1.5674196E-3,3.842734E-2,4.9005225E-2,6.1775316E-2],"categories":[],"categories_nodes":[],"categories_segments":[],"categories_sizes":[],"default_left":[0,0,0,0,0,0,0,0,0,0,0,0,0,0,0,0,0,0,0,0,0,0,0,0,0,0,0,0,0,0,0],"id":9,"left_children":[1,3,5,7,9,11,13,15,17,19,21,23,25,27,29,-1,-1,-1,-1,-1,-1,-1,-1,-1,-1,-1,-1,-1,-1,-1,-1],"loss_changes":[8.109208E2,1.3970929E2,1.0013614E2,8.174194E0,3.451909E1,1.1030169E1,1.9789703E1,4.597412E0,7.1564417E0,1.0840652E1,1.1544851E1,1.2333267E1,6.5996027E0,4.8178406E0,2.955841E0,0E0,0E0,0E0,0E0,0E0,0E0,0E0,0E0,0E0,0E0,0E0,0E0,0E0,0E0,0E0,0E0],"parents":[2147483647,0,0,1,1,2,2,3,3,4,4,5,5,6,6,7,7,8,8,9,9,10,10,11,11,12,12,13,13,14,14],"right_children":[2,4,6,8,10,12,14,16,18,20,22,24,26,28,30,-1,-1,-1,-1,-1,-1,-1,-1,-1,-1,-1,-1,-1,-1,-1,-1],"split_conditions":[3.846344E-1,-2.8335338E0,1.718475E0,1.6456182E0,-1.3776356E0,1E0,3.6216655E0,-3.5624418E0,4.0702763E0,4.389746E-1,3.809524E-1,6.5388885E1,-1.4E1,1.0022578E2,4.9589186E0,-7.171834E-2,-5.3996224E-2,1.9484911E-2,-4.907344E-2,-3.9677948E-2,-1.7202405E-2,-1.04025025E-2,-4.699444E-2,-8.903447E-3,2.0291653E-2,2.8333101E-2,-1.6415184E-2,-1.5674196E-3,3.842734E-2,4.9005225E-2,6.1775316E-2],"split_indices":[68,68,68,22,68,12,68,68,21,22,66,43,62,50,68,0,0,0,0,0,0,0,0,0,0,0,0,0,0,0,0],"split_type":[0,0,0,0,0,0,0,0,0,0,0,0,0,0,0,0,0,0,0,0,0,0,0,0,0,0,0,0,0,0,0],"sum_hessian":[1.9611083E3,1.029067E3,9.3204126E2,2.4358382E2,7.854832E2,3.360126E2,5.960286E2,2.2912149E2,1.4462339E1,2.894398E2,4.9604343E2,2.8178632E2,5.4226273E1,3.2327032E2,2.7275833E2,1.4971524E2,7.940624E1,5.2416325E0,9.220707E0,2.1359229E2,7.58475E1,4.7424472E2,2.1798693E1,4.1713608E1,2.4007272E2,9.018086E0,4.5208183E1,7.3886843E0,3.1588162E2,1.23247574E2,1.4951074E2],"tree_param":{"num_deleted":"0","num_feature":"73","num_nodes":"31","size_leaf_vector":"1"}},{"base_weights":[-3.4519131E-3,-5.0384104E-1,7.315635E-1,-9.558565E-1,-2.2683372E-1,4.305445E-1,1.0009592E0,-1.2426349E0,-6.999608E-1,-5.018209E-1,-1.0009077E-1,-3.5549697E-1,4.6166372E-1,8.794092E-1,6.1064698E-2,-6.4300634E-2,-1.3655859E-2,-5.8125183E-3,-3.9327573E-2,-3.1141713E-2,-5.0765515E-4,-1.4014456E-3,-2.6636243E-2,1.0434942E-2,-5.332606E-2,2.6666751E-2,5.1630093E-3,7.385867E-4,4.5051694E-2],"categories":[],"categories_nodes":[],"categories_segments":[],"categories_sizes":[],"default_left":[0,0,0,0,0,0,0,0,0,0,0,0,0,0,0,0,0,0,0,0,0,0,0,0,0,0,0,0,0],"id":10,"left_children":[1,3,5,7,9,11,13,15,17,19,21,23,25,27,-1,-1,-1,-1,-1,-1,-1,-1,-1,-1,-1,-1,-1,-1,-1],"loss_changes":[7.188564E2,1.4528189E2,6.3619415E1,3.1331543E1,2.5071423E1,9.36689E0,9.878906E0,8.185181E0,1.173439E1,1.34634285E1,1.5394669E1,6.2267914E0,9.180939E0,4.989975E0,0E0,0E0,0E0,0E0,0E0,0E0,0E0,0E0,0E0,0E0,0E0,0E0,0E0,0E0,0E0],"parents":[2147483647,0,0,1,1,2,2,3,3,4,4,5,5,6,6,7,7,8,8,9,9,10,10,11,11,12,12,13,13],"right_children":[2,4,6,8,10,12,14,16,18,20,22,24,26,28,-1,-1,-1,-1,-1,-1,-1,-1,-1,-1,-1,-1,-1,-1,-1],"split_conditions":[8.582724E-1,-1.8613716E0,2.5590577E0,-3.0278497E0,-8.931252E-1,1.0049645E2,4.9589186E0,1.7480003E0,-1.2481482E1,2.5079281E0,1E0,9.93242E1,9.5454544E-1,-5.832712E0,6.1064698E-2,-6.4300634E-2,-1.3655859E-2,-5.8125183E-3,-3.9327573E-2,-3.1141713E-2,-5.0765515E-4,-1.4014456E-3,-2.6636243E-2,1.0434942E-2,-5.332606E-2,2.6666751E-2,5.1630093E-3,7.385867E-4,4.5051694E-2],"split_indices":[68,69,68,68,68,50,68,22,65,24,12,50,37,60,0,0,0,0,0,0,0,0,0,0,0,0,0,0,0],"split_type":[0,0,0,0,0,0,0,0,0,0,0,0,0,0,0,0,0,0,0,0,0,0,0,0,0,0,0,0,0],"sum_hessian":[1.9525692E3,1.1619673E3,7.906019E2,4.404452E2,7.2152216E2,3.747881E2,4.1581384E2,2.056875E2,2.3475769E2,2.2645242E2,4.950697E2,1.3753399E1,3.610347E2,2.7148923E2,1.443246E2,1.9646765E2,9.219855E0,3.0778194E1,2.0397949E2,1.813475E2,4.5104927E1,4.254932E2,6.9576515E1,7.9839754E0,5.7694235E0,3.0022955E2,6.0805134E1,6.778205E0,2.6471103E2],"tree_param":{"num_deleted":"0","num_feature":"73","num_nodes":"29","size_leaf_vector":"1"}},{"base_weights":[-4.369988E-3,-5.2141804E-1,6.4127755E-1,-8.6664444E-1,-1.8029521E-1,3.541516E-1,9.5927984E-1,-1.2423787E0,-6.865084E-1,-1.1885317E-1,-5.91883E-1,2.0199521E-1,5.4914916E-1,8.245751E-1,1.2033134E0,-7.0465975E-2,-5.335444E-2,-1.9652871E-2,-3.809985E-2,-1.1980418E-2,9.378678E-3,-3.5657134E-2,2.5588859E-2,1.2511996E-2,-2.7466541E-2,-2.7588904E-2,2.9797984E-2,4.213552E-2,7.097049E-4,6.109298E-2,3.359754E-2],"categories":[],"categories_nodes":[],"categories_segments":[],"categories_sizes":[],"default_left":[0,0,0,0,0,0,0,0,0,0,0,0,0,0,0,0,0,0,0,0,0,0,0,0,0,0,0,0,0,0,0],"id":11,"left_children":[1,3,5,7,9,11,13,15,17,19,21,23,25,27,29,-1,-1,-1,-1,-1,-1,-1,-1,-1,-1,-1,-1,-1,-1,-1,-1],"loss_changes":[6.5206714E2,1.27486084E2,7.883386E1,3.5417328E1,1.3692413E1,1.3408413E1,1.2327667E1,3.3158875E0,7.705185E0,1.771676E1,9.832369E0,9.504172E0,1.0637768E1,3.8483582E0,4.0737915E-1,0E0,0E0,0E0,0E0,0E0,0E0,0E0,0E0,0E0,0E0,0E0,0E0,0E0,0E0,0E0,0E0],"parents":[2147483647,0,0,1,1,2,2,3,3,4,4,5,5,6,6,7,7,8,8,9,9,10,10,11,11,12,12,13,13,14,14],"right_children":[2,4,6,8,10,12,14,16,18,20,22,24,26,28,30,-1,-1,-1,-1,-1,-1,-1,-1,-1,-1,-1,-1,-1,-1,-1,-1],"split_conditions":[5.442173E-1,-1.3776356E0,2.5590577E0,-3.3858001E0,1E0,1.546884E0,4.9589186E0,-4.344921E0,6.9818184E1,4.6153846E-1,6.875E-1,1.2416667E1,1.0115278E2,7.1634705E1,2.1E1,-7.0465975E-2,-5.335444E-2,-1.9652871E-2,-3.809985E-2,-1.1980418E-2,9.378678E-3,-3.5657134E-2,2.5588859E-2,1.2511996E-2,-2.7466541E-2,-2.7588904E-2,2.9797984E-2,4.213552E-2,7.097049E-4,6.109298E-2,3.359754E-2],"split_indices":[68,68,68,68,12,68,68,68,34,47,48,65,50,5,14,0,0,0,0,0,0,0,0,0,0,0,0,0,0,0,0],"split_type":[0,0,0,0,0,0,0,0,0,0,0,0,0,0,0,0,0,0,0,0,0,0,0,0,0,0,0,0,0,0,0],"sum_hessian":[1.9513207E3,1.0837657E3,8.67555E2,5.377316E2,5.4603406E2,4.571868E2,4.1036816E2,1.7216713E2,3.655645E2,4.7644226E2,6.9591835E1,2.58235E2,1.9895181E2,2.6749927E2,1.4286891E2,8.428567E1,8.788147E1,7.633902E1,2.892255E2,3.421527E2,1.3428954E2,6.3103115E1,6.48872E0,2.434053E2,1.4829681E1,7.5871572E0,1.9136465E2,2.6148428E2,6.014976E0,1.3661302E2,6.2558913E0],"tree_param":{"num_deleted":"0","num_feature":"73","num_nodes":"31","size_leaf_vector":"1"}},{"base_weights":[-2.4892255E-3,-5.342112E-1,5.993266E-1,-1.1037906E0,-3.5822326E-1,2.322874E-1,8.3512396E-1,-1.3832579E0,-9.466852E-1,-5.164654E-1,-1.5850307E-1,3.6817953E-1,6.0699202E-2,6.3044643E-1,1.0527302E0,-7.354532E-2,-4.198727E-2,-5.099563E-2,-1.3190572E-3,-2.8199336E-2,-4.3193456E-3,-1.6355116E-2,5.315645E-3,4.0282635E-3,2.4120508E-2,-5.7631034E-2,5.5192565E-3,3.4827348E-2,1.222687E-2,1.0230765E-2,5.3516265E-2],"categories":[],"categories_nodes":[],"categories_segments":[],"categories_sizes":[],"default_left":[0,0,0,0,0,0,0,0,0,0,0,0,0,0,0,0,0,0,0,0,0,0,0,0,0,0,0,0,0,0,0],"id":12,"left_children":[1,3,5,7,9,11,13,15,17,19,21,23,25,27,29,-1,-1,-1,-1,-1,-1,-1,-1,-1,-1,-1,-1,-1,-1,-1,-1],"loss_changes":[6.147365E2,1.0170447E2,7.768298E1,9.00177E0,2.4529213E1,8.189072E0,2.3578125E1,2.53656E0,1.0457809E1,8.775719E0,1.5545794E1,6.3779297E0,9.546384E0,7.0093765E0,3.5917358E0,0E0,0E0,0E0,0E0,0E0,0E0,0E0,0E0,0E0,0E0,0E0,0E0,0E0,0E0,0E0,0E0],"parents":[2147483647,0,0,1,1,2,2,3,3,4,4,5,5,6,6,7,7,8,8,9,9,10,10,11,11,12,12,13,13,14,14],"right_children":[2,4,6,8,10,12,14,16,18,20,22,24,26,28,30,-1,-1,-1,-1,-1,-1,-1,-1,-1,-1,-1,-1,-1,-1,-1,-1],"split_conditions":[3.2622412E-1,-2.8335338E0,1.718475E0,-4.344921E0,-8.323296E-1,3.8E0,3.587224E0,8.4125E1,1.6381788E0,2E0,1.6E0,4.3026116E-1,9.84314E1,1E0,1.1111111E-1,-7.354532E-2,-4.198727E-2,-5.099563E-2,-1.3190572E-3,-2.8199336E-2,-4.3193456E-3,-1.6355116E-2,5.315645E-3,4.0282635E-3,2.4120508E-2,-5.7631034E-2,5.5192565E-3,3.4827348E-2,1.222687E-2,1.0230765E-2,5.3516265E-2],"split_indices":[68,68,68,68,68,67,69,43,22,15,42,48,51,12,35,0,0,0,0,0,0,0,0,0,0,0,0,0,0,0,0],"split_type":[0,0,0,0,0,0,0,0,0,0,0,0,0,0,0,0,0,0,0,0,0,0,0,0,0,0,0,0,0,0,0],"sum_hessian":[1.9190791E3,1.01902185E3,9.0005725E2,2.3915712E2,7.7986475E2,3.5299652E2,5.470607E2,8.3025665E1,1.5613145E2,4.3395062E2,3.4591412E2,1.9602374E2,1.5697276E2,2.8414987E2,2.6291086E2,6.986821E1,1.3157458E1,1.4442299E2,1.1708454E1,3.9028268E2,4.3667923E1,2.1143999E2,1.3447415E2,5.6456383E1,1.3956735E2,5.2227817E0,1.5174998E2,2.4168817E2,4.246172E1,5.715716E0,2.5719516E2],"tree_param":{"num_deleted":"0","num_feature":"73","num_nodes":"31","size_leaf_vector":"1"}},{"base_weights":[2.1706857E-3,-5.555021E-1,5.572281E-1,-1.103517E0,-3.791945E-1,2.0980193E-1,8.39083E-1,-1.3393254E0,-9.6508074E-1,-4.543262E-1,3.5949133E-2,2.8236985E-1,-1.5435885E-1,6.4028156E-1,1.0483087E0,-6.941189E-2,-2.8680338E-2,-5.1246375E-2,-5.032691E-3,-2.931647E-2,-1.5560399E-2,4.3016996E-2,-5.6632995E-3,5.2033067E-3,2.3213789E-2,-1.8583288E-2,1.8503478E-2,3.608485E-2,8.015198E-3,4.479746E-2,5.858202E-2],"categories":[],"categories_nodes":[],"categories_segments":[],"categories_sizes":[],"default_left":[0,0,0,0,0,0,0,0,0,0,0,0,0,0,0,0,0,0,0,0,0,0,0,0,0,0,0,0,0,0,0],"id":13,"left_children":[1,3,5,7,9,11,13,15,17,19,21,23,25,27,29,-1,-1,-1,-1,-1,-1,-1,-1,-1,-1,-1,-1,-1,-1,-1,-1],"loss_changes":[5.9546625E2,9.2140045E1,9.413757E1,6.0796204E0,2.2752777E1,1.1508505E1,2.1281708E1,2.1274872E0,7.5747223E0,1.1372635E1,1.397715E1,1.1633984E1,8.391462E0,1.0563171E1,3.5786133E0,0E0,0E0,0E0,0E0,0E0,0E0,0E0,0E0,0E0,0E0,0E0,0E0,0E0,0E0,0E0,0E0],"parents":[2147483647,0,0,1,1,2,2,3,3,4,4,5,5,6,6,7,7,8,8,9,9,10,10,11,11,12,12,13,13,14,14],"right_children":[2,4,6,8,10,12,14,16,18,20,22,24,26,28,30,-1,-1,-1,-1,-1,-1,-1,-1,-1,-1,-1,-1,-1,-1,-1,-1],"split_conditions":[1.3015871E-1,-2.8335338E0,1.812123E0,-4.344921E0,6.11662E-2,1E0,3.587224E0,5.3E0,1.7063879E0,-1.3055186E0,1.688404E-1,4.642857E-1,1.236108E0,1E0,4.8710923E0,-6.941189E-2,-2.8680338E-2,-5.1246375E-2,-5.032691E-3,-2.931647E-2,-1.5560399E-2,4.3016996E-2,-5.6632995E-3,5.2033067E-3,2.3213789E-2,-1.8583288E-2,1.8503478E-2,3.608485E-2,8.015198E-3,4.479746E-2,5.858202E-2],"split_indices":[68,68,68,68,69,12,69,36,22,68,69,41,68,12,68,0,0,0,0,0,0,0,0,0,0,0,0,0,0,0,0],"split_type":[0,0,0,0,0,0,0,0,0,0,0,0,0,0,0,0,0,0,0,0,0,0,0,0,0,0,0,0,0,0,0],"sum_hessian":[1.9217103E3,9.585064E2,9.6320386E2,2.3189223E2,7.266142E2,4.3235913E2,5.308447E2,8.230292E1,1.4958931E2,6.1538904E2,1.1122517E2,3.6093353E2,7.14256E1,2.7453046E2,2.5631427E2,7.647433E1,5.828592E0,1.3962157E2,9.967748E0,3.181511E2,2.9723795E2,1.6418707E1,9.480646E1,1.8334302E2,1.7759052E2,5.0840744E1,2.0584856E1,2.3410828E2,4.0422176E1,1.1872321E2,1.3759106E2],"tree_param":{"num_deleted":"0","num_feature":"73","num_nodes":"31","size_leaf_vector":"1"}},{"base_weights":[-1.1098733E-2,-5.140732E-1,4.4568884E-1,-8.5143775E-1,-2.7656695E-1,2.3334152E-1,9.531234E-1,-1.2012612E0,-7.2820216E-1,-3.7552196E-1,6.0019743E-2,7.303217E-2,3.816763E-1,8.375424E-1,1.1853395E0,-6.254776E-2,-2.6439918E-2,-3.7888568E-2,-0E0,1.049023E-2,-2.0617478E-2,2.256856E-2,-8.50419E-3,-3.4854215E-2,5.332201E-3,-1.5156209E-2,2.0989126E-2,3.145483E-2,4.7439676E-2,3.3124108E-2,6.0773548E-2],"categories":[],"categories_nodes":[],"categories_segments":[],"categories_sizes":[],"default_left":[0,0,0,0,0,0,0,0,0,0,0,0,0,0,0,0,0,0,0,0,0,0,0,0,0,0,0,0,0,0,0],"id":14,"left_children":[1,3,5,7,9,11,13,15,17,19,21,23,25,27,29,-1,-1,-1,-1,-1,-1,-1,-1,-1,-1,-1,-1,-1,-1,-1,-1],"loss_changes":[4.3517917E2,7.189072E1,1.0660637E2,1.4961884E1,1.7731441E1,1.6600342E1,6.6515503E0,2.3389282E0,5.954178E0,8.9561E0,1.1020641E1,8.7786455E0,9.62793E0,3.8575592E0,4.951172E-1,0E0,0E0,0E0,0E0,0E0,0E0,0E0,0E0,0E0,0E0,0E0,0E0,0E0,0E0,0E0,0E0],"parents":[2147483647,0,0,1,1,2,2,3,3,4,4,5,5,6,6,7,7,8,8,9,9,10,10,11,11,12,12,13,13,14,14],"right_children":[2,4,6,8,10,12,14,16,18,20,22,24,26,28,30,-1,-1,-1,-1,-1,-1,-1,-1,-1,-1,-1,-1,-1,-1,-1,-1],"split_conditions":[6.7226E-3,-2.2006054E0,3.291216E0,-4.380141E0,1.3987521E0,1.3165762E0,5.7134066E0,6.25E-1,4.552904E0,-1.2571428E1,3.555859E0,-1.415E1,-6.2E1,1.1773125E-1,6.874465E-1,-6.254776E-2,-2.6439918E-2,-3.7888568E-2,-0E0,1.049023E-2,-2.0617478E-2,2.256856E-2,-8.50419E-3,-3.4854215E-2,5.332201E-3,-1.5156209E-2,2.0989126E-2,3.145483E-2,4.7439676E-2,3.3124108E-2,6.0773548E-2],"split_indices":[69,69,69,69,18,69,69,35,21,42,19,32,62,61,18,0,0,0,0,0,0,0,0,0,0,0,0,0,0,0,0],"split_type":[0,0,0,0,0,0,0,0,0,0,0,0,0,0,0,0,0,0,0,0,0,0,0,0,0,0,0,0,0,0,0],"sum_hessian":[1.8920947E3,9.00565E2,9.915297E2,3.70824E2,5.2974097E2,7.001805E2,2.9134927E2,9.4112335E1,2.7671167E2,4.0952414E2,1.20216866E2,3.375489E2,3.626316E2,1.9789049E2,9.345877E1,8.6696625E1,7.4157095E0,2.6583035E2,1.0881303E1,2.3802485E1,3.8572165E2,4.431706E1,7.58998E1,1.3166349E1,3.2438254E2,1.8610281E1,3.440213E2,7.149236E1,1.2639813E2,6.5257587E0,8.6933014E1],"tree_param":{"num_deleted":"0","num_feature":"73","num_nodes":"31","size_leaf_vector":"1"}},{"base_weights":[-9.473794E-3,-3.598859E-1,6.86039E-1,-7.6465714E-1,-9.8698825E-2,5.060992E-1,1.0106868E0,-1.0318778E0,-5.179867E-1,-2.8267258E-1,1.43381385E-2,-1.9414371E-1,5.321003E-1,8.486854E-1,5.712215E-2,-6.292038E-2,-4.518867E-2,-4.2858548E-3,-3.018783E-2,-1.1445235E-2,-3.842203E-2,-4.994871E-3,1.2866984E-2,-3.85104E-2,2.1821598E-2,6.0323933E-3,2.8571282E-2,6.2132063E-3,4.573427E-2],"categories":[],"categories_nodes":[],"categories_segments":[],"categories_sizes":[],"default_left":[0,0,0,0,0,0,0,0,0,0,0,0,0,0,0,0,0,0,0,0,0,0,0,0,0,0,0,0,0],"id":15,"left_children":[1,3,5,7,9,11,13,15,17,19,21,23,25,27,-1,-1,-1,-1,-1,-1,-1,-1,-1,-1,-1,-1,-1,-1,-1],"loss_changes":[4.5771262E2,1.3188644E2,3.6090027E1,3.1580475E1,1.5845273E1,7.5472565E0,3.594574E0,5.430954E0,9.399391E0,7.293627E0,1.3134382E1,5.8786716E0,6.217972E0,4.7702103E0,0E0,0E0,0E0,0E0,0E0,0E0,0E0,0E0,0E0,0E0,0E0,0E0,0E0,0E0,0E0],"parents":[2147483647,0,0,1,1,2,2,3,3,4,4,5,5,6,6,7,7,8,8,9,9,10,10,11,11,12,12,13,13],"right_children":[2,4,6,8,10,12,14,16,18,20,22,24,26,28,-1,-1,-1,-1,-1,-1,-1,-1,-1,-1,-1,-1,-1,-1,-1],"split_conditions":[1.236108E0,-1.5158927E0,3.6216655E0,-2.8335338E0,-7.887899E-1,-4.294245E0,4.9589186E0,-4.344921E0,-1.25E1,1E0,4.022507E-1,1.6E1,6.655556E1,-2.284194E0,5.712215E-2,-6.292038E-2,-4.518867E-2,-4.2858548E-3,-3.018783E-2,-1.1445235E-2,-3.842203E-2,-4.994871E-3,1.2866984E-2,-3.85104E-2,2.1821598E-2,6.0323933E-3,2.8571282E-2,6.2132063E-3,4.573427E-2],"split_indices":[68,68,68,68,20,58,68,68,67,12,68,30,44,23,0,0,0,0,0,0,0,0,0,0,0,0,0,0,0],"split_type":[0,0,0,0,0,0,0,0,0,0,0,0,0,0,0,0,0,0,0,0,0,0,0,0,0,0,0,0,0],"sum_hessian":[1.8761775E3,1.2480256E3,6.2815186E2,4.8856613E2,7.594595E2,4.0599268E2,2.2215916E2,2.327918E2,2.5577434E2,2.8880225E2,4.7065723E2,1.4166189E1,3.9182648E2,1.0332086E2,1.1883831E2,8.062206E1,1.5216972E2,4.287167E1,2.1290266E2,2.6153137E2,2.7270859E1,3.2027338E2,1.5038385E2,7.3702364E0,6.795953E0,3.47592E1,3.570673E2,8.994503E0,9.4326355E1],"tree_param":{"num_deleted":"0","num_feature":"73","num_nodes":"29","size_leaf_vector":"1"}},{"base_weights":[8.149981E-3,-4.7944677E-1,5.000403E-1,-9.167985E-1,-3.2232127E-1,1.4216442E-1,7.44465E-1,-1.2101725E0,-7.78788E-1,-4.6701136E-1,-1.6910039E-1,1.8648411E-1,-3.6291096E-1,5.729306E-1,1.0079482E0,-6.272091E-2,-2.339612E-2,-2.1127267E-2,-4.5069903E-2,-1.6003808E-2,-3.362466E-2,-1.3712828E-2,3.765948E-3,-2.929608E-3,1.3936067E-2,2.1108445E-2,-4.5778334E-2,3.020233E-2,-2.5416228E-3,8.184606E-3,5.1491488E-2],"categories":[],"categories_nodes":[],"categories_segments":[],"categories_sizes":[],"default_left":[0,0,0,0,0,0,0,0,0,0,0,0,0,0,0,0,0,0,0,0,0,0,0,0,0,0,0,0,0,0,0],"id":16,"left_children":[1,3,5,7,9,11,13,15,17,19,21,23,25,27,29,-1,-1,-1,-1,-1,-1,-1,-1,-1,-1,-1,-1,-1,-1,-1,-1],"loss_changes":[4.470632E2,6.3899918E1,8.0980316E1,8.846222E0,1.5161026E1,8.51144E0,2.4167389E1,1.7656479E0,6.946869E0,1.0377556E1,8.70654E0,7.9127913E0,1.3734472E1,6.6127777E0,3.6971588E0,0E0,0E0,0E0,0E0,0E0,0E0,0E0,0E0,0E0,0E0,0E0,0E0,0E0,0E0,0E0,0E0],"parents":[2147483647,0,0,1,1,2,2,3,3,4,4,5,5,6,6,7,7,8,8,9,9,10,10,11,11,12,12,13,13,14,14],"right_children":[2,4,6,8,10,12,14,16,18,20,22,24,26,28,30,-1,-1,-1,-1,-1,-1,-1,-1,-1,-1,-1,-1,-1,-1,-1,-1],"split_conditions":[1.3015871E-1,-2.7015665E0,1.546884E0,-4.344921E0,-1.0230885E0,6.5331775E-1,3.7446694E0,2.0142857E1,-1.2790909E1,-8.3333336E-2,3.9E0,4.301139E-1,-1.8571428E0,6.363636E-1,3.8446066E-1,-6.272091E-2,-2.339612E-2,-2.1127267E-2,-4.5069903E-2,-1.6003808E-2,-3.362466E-2,-1.3712828E-2,3.765948E-3,-2.929608E-3,1.3936067E-2,2.1108445E-2,-4.5778334E-2,3.020233E-2,-2.5416228E-3,8.184606E-3,5.1491488E-2],"split_indices":[68,68,68,68,68,38,68,46,65,64,46,38,65,47,52,0,0,0,0,0,0,0,0,0,0,0,0,0,0,0,0],"split_type":[0,0,0,0,0,0,0,0,0,0,0,0,0,0,0,0,0,0,0,0,0,0,0,0,0,0,0,0,0,0,0],"sum_hessian":[1.8619657E3,9.349744E2,9.269913E2,2.4567581E2,6.8929865E2,3.7699802E2,5.499933E2,7.58805E1,1.697953E2,3.5312946E2,3.361692E2,3.473475E2,2.965051E1,3.3527472E2,2.1471854E2,7.0833374E1,5.047129E0,4.4823334E1,1.2497198E2,2.0767226E2,1.454572E2,2.3524649E2,1.0092269E2,9.478427E1,2.5256323E2,1.227224E1,1.7378271E1,3.1952725E2,1.5747479E1,5.7542057E0,2.0896434E2],"tree_param":{"num_deleted":"0","num_feature":"73","num_nodes":"31","size_leaf_vector":"1"}},{"base_weights":[-7.6103206E-3,-3.1503496E-1,7.0339596E-1,-9.498885E-1,-1.9909509E-1,5.373835E-1,9.8530185E-1,-1.2638503E0,-7.6045626E-1,-4.113437E-1,-6.0472157E-2,-2.516437E-2,5.6680983E-1,5.950536E-4,1.0130408E0,-6.722869E-2,-3.197818E-2,-2.5475426E-2,-5.0143432E-2,-6.988238E-3,-2.4204249E-2,-3.2813754E-2,-1.4439131E-3,9.372729E-3,3.0980615E-2,3.641495E-2,5.429193E-2],"categories":[],"categories_nodes":[],"categories_segments":[],"categories_sizes":[],"default_left":[0,0,0,0,0,0,0,0,0,0,0,0,0,0,0,0,0,0,0,0,0,0,0,0,0,0,0],"id":17,"left_children":[1,3,5,7,9,11,13,15,17,19,21,-1,23,-1,25,-1,-1,-1,-1,-1,-1,-1,-1,-1,-1,-1,-1],"loss_changes":[4.0376147E2,9.463182E1,2.5411774E1,1.065863E1,3.205813E1,1.11117325E1,5.426758E0,2.6251068E0,7.04438E0,8.38401E0,1.2374679E1,0E0,6.6973343E0,0E0,3.1615753E0,0E0,0E0,0E0,0E0,0E0,0E0,0E0,0E0,0E0,0E0,0E0,0E0],"parents":[2147483647,0,0,1,1,2,2,3,3,4,4,5,5,6,6,7,7,8,8,9,9,10,10,12,12,14,14],"right_children":[2,4,6,8,10,12,14,16,18,20,22,-1,24,-1,26,-1,-1,-1,-1,-1,-1,-1,-1,-1,-1,-1,-1],"split_conditions":[1.4536073E0,-3.0278497E0,3.8043563E0,-4.344921E0,-1.003265E0,-4.949337E0,-2.1495917E0,3E0,-1.02E1,-9.5E0,-1.845105E-1,-2.516437E-2,1.0124355E2,5.950536E-4,8.9189225E-1,-6.722869E-2,-3.197818E-2,-2.5475426E-2,-5.0143432E-2,-6.988238E-3,-2.4204249E-2,-3.2813754E-2,-1.4439131E-3,9.372729E-3,3.0980615E-2,3.641495E-2,5.429193E-2],"split_indices":[68,68,69,68,69,58,59,32,65,65,61,0,54,0,18,0,0,0,0,0,0,0,0,0,0,0,0],"split_type":[0,0,0,0,0,0,0,0,0,0,0,0,0,0,0,0,0,0,0,0,0,0,0,0,0,0,0],"sum_hessian":[1.8453591E3,1.2888041E3,5.5655505E2,1.977772E2,1.0910269E3,3.5233078E2,2.0422427E2,7.209256E1,1.25684654E2,4.2998248E2,6.610444E2,9.152396E0,3.4317838E2,5.7980003E0,1.9842627E2,6.2674473E1,9.418085E0,6.3481895E1,6.220276E1,9.1745926E1,3.3823657E2,3.2133232E1,6.2891113E2,4.2718002E1,3.004604E2,4.292134E1,1.5550493E2],"tree_param":{"num_deleted":"0","num_feature":"73","num_nodes":"27","size_leaf_vector":"1"}},{"base_weights":[1.20072635E-2,-3.111525E-1,5.7354885E-1,-9.443122E-1,-1.8222055E-1,4.1275054E-1,9.2096436E-1,-1.1429375E0,-7.9075825E-1,-3.4669405E-1,-1.8082116E-2,2.1791033E-1,5.35635E-1,7.3514724E-1,1.078377E0,-5.9117444E-2,-2.9516468E-2,-4.227282E-2,-2.6361535E-3,1.1867086E-2,-1.929077E-2,-1.050145E-2,5.1278872E-3,-4.8517134E-2,1.329826E-2,-2.1685738E-2,2.8538635E-2,-1.3516968E-3,3.8994335E-2,5.5047788E-2,2.4483452E-2],"categories":[],"categories_nodes":[],"categories_segments":[],"categories_sizes":[],"default_left":[0,0,0,0,0,0,0,0,0,0,0,0,0,0,0,0,0,0,0,0,0,0,0,0,0,0,0,0,0,0,0],"id":18,"left_children":[1,3,5,7,9,11,13,15,17,19,21,23,25,27,29,-1,-1,-1,-1,-1,-1,-1,-1,-1,-1,-1,-1,-1,-1,-1,-1],"loss_changes":[3.3458768E2,9.523714E1,3.7113205E1,4.9293213E0,2.6238922E1,1.0880127E1,5.229782E0,9.4597626E-1,4.5068054E0,1.1208527E1,1.1346936E1,1.0514821E1,9.886368E0,3.5304146E0,7.958069E-1,0E0,0E0,0E0,0E0,0E0,0E0,0E0,0E0,0E0,0E0,0E0,0E0,0E0,0E0,0E0,0E0],"parents":[2147483647,0,0,1,1,2,2,3,3,4,4,5,5,6,6,7,7,8,8,9,9,10,10,11,11,12,12,13,13,14,14],"right_children":[2,4,6,8,10,12,14,16,18,20,22,24,26,28,30,-1,-1,-1,-1,-1,-1,-1,-1,-1,-1,-1,-1,-1,-1,-1,-1],"split_conditions":[9.3090844E-1,-3.0278497E0,3.6216655E0,-4.183373E0,-7.3453903E-1,1.718475E0,4.9589186E0,5.3E0,1.7063879E0,-7.9365373E0,4.2857143E-1,9.84314E1,1.7391305E-1,-1.1236572E0,2E1,-5.9117444E-2,-2.9516468E-2,-4.227282E-2,-2.6361535E-3,1.1867086E-2,-1.929077E-2,-1.050145E-2,5.1278872E-3,-4.8517134E-2,1.329826E-2,-2.1685738E-2,2.8538635E-2,-1.3516968E-3,3.8994335E-2,5.5047788E-2,2.4483452E-2],"split_indices":[68,68,68,68,68,68,68,36,22,58,45,51,31,58,14,0,0,0,0,0,0,0,0,0,0,0,0,0,0,0,0],"split_type":[0,0,0,0,0,0,0,0,0,0,0,0,0,0,0,0,0,0,0,0,0,0,0,0,0,0,0,0,0,0,0],"sum_hessian":[1.8416589E3,1.169116E3,6.7254297E2,1.9659186E2,9.725241E2,4.6144363E2,2.1109933E2,8.2622894E1,1.1396897E2,4.8490634E2,4.8761774E2,1.7985712E2,2.8158652E2,9.970659E1,1.11392746E2,7.5889984E1,6.732911E0,1.0584352E2,8.125449E0,2.996348E1,4.5494287E2,1.8822534E2,2.993924E2,6.164095E0,1.7369302E2,9.353754E0,2.7223276E2,5.426208E0,9.428038E1,1.0627672E2,5.116022E0],"tree_param":{"num_deleted":"0","num_feature":"73","num_nodes":"31","size_leaf_vector":"1"}},{"base_weights":[3.4611237E-3,-3.6128977E-1,5.0774795E-1,-7.2375816E-1,-1.6951773E-1,3.475365E-1,9.4836867E-1,-9.5270973E-1,-5.5419976E-1,-9.6733294E-2,-3.3959866E-1,2.1437685E-1,4.8309472E-1,6.7701507E-1,1.0199064E0,-4.922377E-2,-6.4420514E-3,-1.721219E-4,-3.255017E-2,-1.1540181E-2,2.8050125E-3,-3.9767932E-2,-9.426194E-3,-4.287235E-2,1.2016061E-2,1.55824E-2,3.3609603E-2,7.035342E-3,4.048544E-2,8.863802E-3,5.231316E-2],"categories":[],"categories_nodes":[],"categories_segments":[],"categories_sizes":[],"default_left":[0,0,0,0,0,0,0,0,0,0,0,0,0,0,0,0,0,0,0,0,0,0,0,0,0,0,0,0,0,0,0],"id":19,"left_children":[1,3,5,7,9,11,13,15,17,19,21,23,25,27,29,-1,-1,-1,-1,-1,-1,-1,-1,-1,-1,-1,-1,-1,-1,-1,-1],"loss_changes":[3.343962E2,7.310716E1,5.341098E1,1.3470581E1,8.481333E0,9.960022E0,3.075409E0,3.777359E0,1.1237335E1,9.987474E0,1.3960831E1,8.079673E0,8.672905E0,3.033556E0,3.2050934E0,0E0,0E0,0E0,0E0,0E0,0E0,0E0,0E0,0E0,0E0,0E0,0E0,0E0,0E0,0E0,0E0],"parents":[2147483647,0,0,1,1,2,2,3,3,4,4,5,5,6,6,7,7,8,8,9,9,10,10,11,11,12,12,13,13,14,14],"right_children":[2,4,6,8,10,12,14,16,18,20,22,24,26,28,30,-1,-1,-1,-1,-1,-1,-1,-1,-1,-1,-1,-1,-1,-1,-1,-1],"split_conditions":[5.442173E-1,-2.046112E0,3.6216655E0,-3.3858001E0,1E-1,1.718475E0,3.8611856E0,3E0,-1.44E1,-6.634425E-1,1.0512718E2,-7.1989055E0,2.7097707E0,6.5E1,-1.8551208E0,-4.922377E-2,-6.4420514E-3,-1.721219E-4,-3.255017E-2,-1.1540181E-2,2.8050125E-3,-3.9767932E-2,-9.426194E-3,-4.287235E-2,1.2016061E-2,1.55824E-2,3.3609603E-2,7.035342E-3,4.048544E-2,8.863802E-3,5.231316E-2],"split_indices":[68,68,68,68,66,68,69,28,67,68,51,58,59,34,59,0,0,0,0,0,0,0,0,0,0,0,0,0,0,0,0],"split_type":[0,0,0,0,0,0,0,0,0,0,0,0,0,0,0,0,0,0,0,0,0,0,0,0,0,0,0,0,0,0,0],"sum_hessian":[1.8158958E3,1.0537809E3,7.621149E2,3.6347714E2,6.903037E2,5.6037573E2,2.0173917E2,1.5243646E2,2.1104068E2,4.8493665E2,2.0536708E2,2.843632E2,2.7601254E2,4.45637E1,1.5717546E2,1.4647264E2,5.963819E0,3.185763E1,1.7918304E2,2.584023E2,2.2653436E2,4.9900734E1,1.5546635E2,5.872026E0,2.7849118E2,1.4642867E2,1.295839E2,9.397169E0,3.516653E1,5.1166325E0,1.5205884E2],"tree_param":{"num_deleted":"0","num_feature":"73","num_nodes":"31","size_leaf_vector":"1"}},{"base_weights":[-2.0596704E-3,-2.721264E-1,5.802596E-1,-6.852956E-1,-1.0248681E-1,4.5090532E-1,1.0563447E0,-9.5655525E-1,-4.9032626E-1,-2.48849E-1,-3.8027389E-3,2.598286E-1,5.750902E-1,3.0348612E-2,5.4122914E-2,-5.2438386E-2,-2.8001977E-2,-9.245659E-3,-3.1374183E-2,5.135923E-3,-1.6243776E-2,6.516223E-3,-9.414956E-3,-2.2009706E-2,1.9169113E-2,8.011669E-3,3.0934447E-2],"categories":[],"categories_nodes":[],"categories_segments":[],"categories_sizes":[],"default_left":[0,0,0,0,0,0,0,0,0,0,0,0,0,0,0,0,0,0,0,0,0,0,0,0,0,0,0],"id":20,"left_children":[1,3,5,7,9,11,13,15,17,19,21,23,25,-1,-1,-1,-1,-1,-1,-1,-1,-1,-1,-1,-1,-1,-1],"loss_changes":[2.8473584E2,8.656239E1,3.469693E1,1.8412598E1,1.2660985E1,1.0515121E1,6.014252E-1,4.7062225E0,8.665569E0,9.499281E0,1.3048569E1,1.5780139E1,4.767807E0,0E0,0E0,0E0,0E0,0E0,0E0,0E0,0E0,0E0,0E0,0E0,0E0,0E0,0E0],"parents":[2147483647,0,0,1,1,2,2,3,3,4,4,5,5,6,6,7,7,8,8,9,9,10,10,11,11,12,12],"right_children":[2,4,6,8,10,12,14,16,18,20,22,24,26,-1,-1,-1,-1,-1,-1,-1,-1,-1,-1,-1,-1,-1,-1],"split_conditions":[1.236108E0,-2.046112E0,4.5939307E0,-3.3858001E0,-6.338322E-1,1.2E1,-4.1666668E-2,6.2049615E-1,1.0686296E2,-9.222222E0,3.75E-2,6.659709E1,1.0124355E2,3.0348612E-2,5.4122914E-2,-5.2438386E-2,-2.8001977E-2,-9.245659E-3,-3.1374183E-2,5.135923E-3,-1.6243776E-2,6.516223E-3,-9.414956E-3,-2.2009706E-2,1.9169113E-2,8.011669E-3,3.0934447E-2],"split_indices":[68,68,68,68,69,30,63,48,51,67,64,4,54,0,0,0,0,0,0,0,0,0,0,0,0,0,0],"split_type":[0,0,0,0,0,0,0,0,0,0,0,0,0,0,0,0,0,0,0,0,0,0,0,0,0,0,0],"sum_hessian":[1.8087391E3,1.2361464E3,5.7259283E2,3.5875186E2,8.7739453E2,4.519526E2,1.206402E2,1.4817616E2,2.105757E2,3.5231998E2,5.250745E2,1.7956418E2,2.7238843E2,8.167253E0,1.12472946E2,1.18679306E2,2.9496857E1,6.6213394E1,1.443623E2,6.2346466E1,2.899735E2,3.0389627E2,2.2117824E2,2.6432478E1,1.531317E2,2.6566633E1,2.4582181E2],"tree_param":{"num_deleted":"0","num_feature":"73","num_nodes":"27","size_leaf_vector":"1"}},{"base_weights":[-1.1745773E-2,-3.5120264E-1,4.45081E-1,-7.906392E-1,-2.0714208E-1,2.957184E-1,9.001819E-1,-6.6344514E-2,-7.166544E-1,-4.1592333E-1,-1.1703452E-1,3.596806E-1,-5.5503916E-2,5.0351904E-3,9.2759824E-1,-4.5683663E-2,-2.8812392E-2,5.435834E-4,-2.5866335E-2,-3.1752966E-3,-2.2739558E-2,1.1448806E-2,2.629815E-2,-1.6635781E-2,1.5109732E-2,3.927485E-2,5.3782076E-2],"categories":[],"categories_nodes":[],"categories_segments":[],"categories_sizes":[],"default_left":[0,0,0,0,0,0,0,0,0,0,0,0,0,0,0,0,0,0,0,0,0,0,0,0,0,0,0],"id":21,"left_children":[1,3,5,7,9,11,13,-1,15,17,19,21,23,-1,25,-1,-1,-1,-1,-1,-1,-1,-1,-1,-1,-1,-1],"loss_changes":[2.7580087E2,6.433823E1,5.114598E1,8.819687E0,1.4384914E1,1.2909935E1,3.89534E0,0E0,5.500969E0,1.0072063E1,9.675593E0,1.0336643E1,8.910044E0,0E0,2.7606964E0,0E0,0E0,0E0,0E0,0E0,0E0,0E0,0E0,0E0,0E0,0E0,0E0],"parents":[2147483647,0,0,1,1,2,2,3,3,4,4,5,5,6,6,8,8,9,9,10,10,11,11,12,12,14,14],"right_children":[2,4,6,8,10,12,14,-1,16,18,20,22,24,-1,26,-1,-1,-1,-1,-1,-1,-1,-1,-1,-1,-1,-1],"split_conditions":[4.5335037E-1,-2.8136332E0,3.6216655E0,-5.844968E0,-1.5158927E0,1E0,3.8446066E-1,-6.6344514E-2,7.404E1,6.936364E1,1E0,1.812123E0,2.9E1,5.0351904E-3,5.2593E0,-4.5683663E-2,-2.8812392E-2,5.435834E-4,-2.5866335E-2,-3.1752966E-3,-2.2739558E-2,1.1448806E-2,2.629815E-2,-1.6635781E-2,1.5109732E-2,3.927485E-2,5.3782076E-2],"split_indices":[68,69,68,69,68,12,52,0,43,34,12,68,30,0,69,0,0,0,0,0,0,0,0,0,0,0,0],"split_type":[0,0,0,0,0,0,0,0,0,0,0,0,0,0,0,0,0,0,0,0,0,0,0,0,0,0,0],"sum_hessian":[1.7765754E3,1.019477E3,7.5709845E2,2.5042087E2,7.6905615E2,5.714274E2,1.8567105E2,2.8143911E1,2.2227696E2,2.3042668E2,5.3862946E2,4.8361536E2,8.7812065E1,6.431951E0,1.792391E2,8.990398E1,1.3237297E2,4.4219334E1,1.8620735E2,4.6622495E2,7.24045E1,2.7244296E2,2.111724E2,4.96688E1,3.814326E1,9.5017044E1,8.422205E1],"tree_param":{"num_deleted":"0","num_feature":"73","num_nodes":"27","size_leaf_vector":"1"}},{"base_weights":[-5.678993E-3,-3.155086E-1,4.4433674E-1,-7.926802E-1,-2.1274263E-1,2.949785E-1,8.8304263E-1,-1.0662147E0,-6.336179E-1,3.5904083E-1,-2.3327711E-1,3.5582718E-1,-1.6178507E-2,6.84398E-1,1.0342155E0,-2.42645E-2,-5.5300247E-2,-3.537055E-2,1.7325303E-2,6.719627E-2,4.5075016E-3,-9.50089E-3,-2.743877E-2,1.1524944E-2,2.5145218E-2,-6.1973542E-2,4.703611E-3,1.3381869E-2,4.1641887E-2,5.2847892E-2,2.6053617E-2],"categories":[],"categories_nodes":[],"categories_segments":[],"categories_sizes":[],"default_left":[0,0,0,0,0,0,0,0,0,0,0,0,0,0,0,0,0,0,0,0,0,0,0,0,0,0,0,0,0,0,0],"id":22,"left_children":[1,3,5,7,9,11,13,15,17,19,21,23,25,27,29,-1,-1,-1,-1,-1,-1,-1,-1,-1,-1,-1,-1,-1,-1,-1,-1],"loss_changes":[2.4809798E2,5.1416634E1,4.7157425E1,7.257324E0,1.027179E1,1.0318375E1,4.6332855E0,8.4778595E-1,8.9931755E0,7.7713203E0,1.1278698E1,8.186577E0,1.230008E1,4.775635E0,4.8187256E-1,0E0,0E0,0E0,0E0,0E0,0E0,0E0,0E0,0E0,0E0,0E0,0E0,0E0,0E0,0E0,0E0],"parents":[2147483647,0,0,1,1,2,2,3,3,4,4,5,5,6,6,7,7,8,8,9,9,10,10,11,11,12,12,13,13,14,14],"right_children":[2,4,6,8,10,12,14,16,18,20,22,24,26,28,30,-1,-1,-1,-1,-1,-1,-1,-1,-1,-1,-1,-1,-1,-1,-1,-1],"split_conditions":[5.668553E-1,-3.0278497E0,3.6216655E0,-4.344921E0,-1.35E1,1E0,3.533196E0,3.504308E-1,1.7063879E0,7.692308E-2,1E0,1.812123E0,-8.4E0,6.6875E1,6.9400096E-1,-2.42645E-2,-5.5300247E-2,-3.537055E-2,1.7325303E-2,6.719627E-2,4.5075016E-3,-9.50089E-3,-2.743877E-2,1.1524944E-2,2.5145218E-2,-6.1973542E-2,4.703611E-3,1.3381869E-2,4.1641887E-2,5.2847892E-2,2.6053617E-2],"split_indices":[68,68,68,68,46,12,24,38,22,37,12,68,36,34,56,0,0,0,0,0,0,0,0,0,0,0,0,0,0,0,0],"split_type":[0,0,0,0,0,0,0,0,0,0,0,0,0,0,0,0,0,0,0,0,0,0,0,0,0,0,0,0,0,0,0],"sum_hessian":[1.7774827E3,1.0530165E3,7.244662E2,1.8523436E2,8.677821E2,5.4188184E2,1.8258437E2,6.578101E1,1.19453354E2,2.934396E1,8.384382E2,4.5339536E2,8.848647E1,8.157789E1,1.01006485E2,5.2238464E0,6.0557167E1,1.11443115E2,8.010236E0,5.3560514E0,2.398791E1,7.390263E2,9.941186E1,2.4655037E2,2.0684499E2,6.543829E0,8.194264E1,2.2338058E1,5.9239834E1,9.551848E1,5.488001E0],"tree_param":{"num_deleted":"0","num_feature":"73","num_nodes":"31","size_leaf_vector":"1"}},{"base_weights":[4.4973977E-3,-2.5024727E-1,5.6393516E-1,-7.1178216E-1,-1.399166E-1,4.47512E-1,9.7708523E-1,-9.934918E-1,-5.705451E-1,-2.6044908E-1,1.42708225E-2,3.4361282E-1,6.3512844E-1,1.003672E0,1.49631975E-2,-5.240449E-2,-1.7008951E-2,-3.182259E-2,7.091343E-3,-1.8002821E-2,-3.796716E-3,4.2078667E-3,-1.7803712E-2,-1.883553E-2,1.9496126E-2,4.5601137E-2,2.5919467E-2,1.7713392E-2,5.1560115E-2],"categories":[],"categories_nodes":[],"categories_segments":[],"categories_sizes":[],"default_left":[0,0,0,0,0,0,0,0,0,0,0,0,0,0,0,0,0,0,0,0,0,0,0,0,0,0,0,0,0],"id":23,"left_children":[1,3,5,7,9,11,13,15,17,19,21,23,25,27,-1,-1,-1,-1,-1,-1,-1,-1,-1,-1,-1,-1,-1,-1,-1],"loss_changes":[2.5269542E2,6.1841843E1,2.6108002E1,8.610466E0,1.8324818E1,8.161339E0,1.7488785E0,2.2423325E0,7.5970573E0,1.0092068E1,1.1197543E1,9.568962E0,4.345276E0,1.5666275E0,0E0,0E0,0E0,0E0,0E0,0E0,0E0,0E0,0E0,0E0,0E0,0E0,0E0,0E0,0E0],"parents":[2147483647,0,0,1,1,2,2,3,3,4,4,5,5,6,6,7,7,8,8,9,9,10,10,11,11,12,12,13,13],"right_children":[2,4,6,8,10,12,14,16,18,20,22,24,26,28,-1,-1,-1,-1,-1,-1,-1,-1,-1,-1,-1,-1,-1,-1,-1],"split_conditions":[1.236108E0,-2.7015665E0,4.429836E0,-4.183373E0,-2.9089543E-1,2E1,2.1E1,5.3E0,1.6456182E0,-3.945823E-2,1E0,-4.4E1,4.5131072E-1,4.3693674E-1,1.49631975E-2,-5.240449E-2,-1.7008951E-2,-3.182259E-2,7.091343E-3,-1.8002821E-2,-3.796716E-3,4.2078667E-3,-1.7803712E-2,-1.883553E-2,1.9496126E-2,4.5601137E-2,2.5919467E-2,1.7713392E-2,5.1560115E-2],"split_indices":[68,68,68,68,68,40,14,36,22,20,12,62,38,52,0,0,0,0,0,0,0,0,0,0,0,0,0,0,0],"split_type":[0,0,0,0,0,0,0,0,0,0,0,0,0,0,0,0,0,0,0,0,0,0,0,0,0,0,0,0,0],"sum_hessian":[1.7709193E3,1.2170839E3,5.538354E2,2.3358678E2,9.8349713E2,4.3389236E2,1.1994302E2,7.575152E1,1.5783525E2,5.519681E2,4.3152902E2,2.8141397E2,1.5247838E2,1.148114E2,5.1316185E0,6.921022E1,6.5412984E0,1.4469537E2,1.3139876E1,3.5748972E2,1.9447838E2,3.6390128E2,6.7627754E1,1.6437843E1,2.6497614E2,4.2945824E1,1.09532555E2,5.3809977E0,1.09430405E2],"tree_param":{"num_deleted":"0","num_feature":"73","num_nodes":"29","size_leaf_vector":"1"}},{"base_weights":[5.5976184E-3,-3.293148E-1,3.767739E-1,-7.8478336E-1,-2.1698499E-1,1.894084E-1,7.044938E-1,-1.0480876E0,-6.255948E-1,-1.8097134E-2,-2.732071E-1,2.5038195E-1,-1.1216571E-1,5.747516E-1,1.011463E0,-5.6391593E-2,-2.2941198E-2,-3.4853615E-2,1.1988522E-2,2.8989697E-3,-3.6651045E-2,-1.5141966E-2,1.6867148E-2,1.5625192E-2,-4.5521683E-3,-1.5330611E-3,-5.703768E-2,2.1667182E-2,3.7003383E-2,5.1948935E-2,2.4227202E-2],"categories":[],"categories_nodes":[],"categories_segments":[],"categories_sizes":[],"default_left":[0,0,0,0,0,0,0,0,0,0,0,0,0,0,0,0,0,0,0,0,0,0,0,0,0,0,0,0,0,0,0],"id":24,"left_children":[1,3,5,7,9,11,13,15,17,19,21,23,25,27,29,-1,-1,-1,-1,-1,-1,-1,-1,-1,-1,-1,-1,-1,-1,-1,-1],"loss_changes":[2.1762727E2,4.680603E1,5.0772133E1,6.783493E0,8.23671E0,9.786766E0,1.1269211E1,2.4562225E0,7.376545E0,9.055437E0,1.0523045E1,9.412968E0,7.3546996E0,4.576248E0,6.2062836E-1,0E0,0E0,0E0,0E0,0E0,0E0,0E0,0E0,0E0,0E0,0E0,0E0,0E0,0E0,0E0,0E0],"parents":[2147483647,0,0,1,1,2,2,3,3,4,4,5,5,6,6,7,7,8,8,9,9,10,10,11,11,12,12,13,13,14,14],"right_children":[2,4,6,8,10,12,14,16,18,20,22,24,26,28,30,-1,-1,-1,-1,-1,-1,-1,-1,-1,-1,-1,-1,-1,-1,-1,-1],"split_conditions":[1.573359E-1,-3.0278497E0,2.5590577E0,-4.344921E0,6.936364E1,1E0,4.9589186E0,3E0,1.6381788E0,1.03922606E-1,9.5E1,9.947396E-2,8.042857E1,4.8333332E-1,1.9E1,-5.6391593E-2,-2.2941198E-2,-3.4853615E-2,1.1988522E-2,2.8989697E-3,-3.6651045E-2,-1.5141966E-2,1.6867148E-2,1.5625192E-2,-4.5521683E-3,-1.5330611E-3,-5.703768E-2,2.1667182E-2,3.7003383E-2,5.1948935E-2,2.4227202E-2],"split_indices":[68,68,68,68,34,12,68,32,22,61,62,70,34,72,14,0,0,0,0,0,0,0,0,0,0,0,0,0,0,0,0],"split_type":[0,0,0,0,0,0,0,0,0,0,0,0,0,0,0,0,0,0,0,0,0,0,0,0,0,0,0,0,0,0,0],"sum_hessian":[1.748624E3,9.1913324E2,8.294907E2,1.8047533E2,7.3865796E2,5.289565E2,3.005342E2,6.56596E1,1.14815735E2,1.6347159E2,5.7518634E2,4.4041324E2,8.854327E1,2.1349673E2,8.703748E1,5.687862E1,8.780975E0,1.0634212E2,8.473613E0,1.4845338E2,1.5018208E1,5.4919946E2,2.5986862E1,3.7293567E2,6.747758E1,8.308658E1,5.4566846E0,1.1734686E2,9.6149864E1,8.161403E1,5.4234543E0],"tree_param":{"num_deleted":"0","num_feature":"73","num_nodes":"31","size_leaf_vector":"1"}},{"base_weights":[-1.1751433E-2,-1.4249966E-1,4.791338E-1,-5.90301E-1,-7.7051505E-2,2.6180118E-1,6.4648974E-1,-7.3759925E-1,-3.4354308E-1,6.044888E-1,-1.0148862E-1,3.345695E-1,-2.8540516E-1,3.007421E-1,7.751626E-1,-3.2769565E-2,-6.2020905E-2,-3.146658E-2,1.0929798E-4,-1.9308094E-2,3.76486E-2,-1.8352328E-2,-2.9216986E-3,1.1816677E-2,4.1118782E-2,7.408753E-3,-4.5252237E-2,2.5818277E-2,-1.863584E-2,4.0269982E-2,5.6283246E-3],"categories":[],"categories_nodes":[],"categories_segments":[],"categories_sizes":[],"default_left":[0,0,0,0,0,0,0,0,0,0,0,0,0,0,0,0,0,0,0,0,0,0,0,0,0,0,0,0,0,0,0],"id":25,"left_children":[1,3,5,7,9,11,13,15,17,19,21,23,25,27,29,-1,-1,-1,-1,-1,-1,-1,-1,-1,-1,-1,-1,-1,-1,-1,-1],"loss_changes":[1.1198113E2,4.0281776E1,1.3085678E1,6.0140533E0,2.0061209E1,6.533944E0,8.839737E0,3.4912758E0,6.7525406E0,6.4573717E0,1.3235315E1,6.563198E0,5.406317E0,8.602039E0,2.8136368E0,0E0,0E0,0E0,0E0,0E0,0E0,0E0,0E0,0E0,0E0,0E0,0E0,0E0,0E0,0E0,0E0],"parents":[2147483647,0,0,1,1,2,2,3,3,4,4,5,5,6,6,7,7,8,8,9,9,10,10,11,11,12,12,13,13,14,14],"right_children":[2,4,6,8,10,12,14,16,18,20,22,24,26,28,30,-1,-1,-1,-1,-1,-1,-1,-1,-1,-1,-1,-1,-1,-1,-1,-1],"split_conditions":[7.1177535E0,-1.9444445E-1,1.330177E-1,3.3333334E-1,3.3333335E-2,6.428571E0,7.294444E1,8.377778E1,6.955E1,-1.3781233E0,-1.9372954E0,2.0977983E0,1E0,6.785714E-1,3.539862E0,-3.2769565E-2,-6.2020905E-2,-3.146658E-2,1.0929798E-4,-1.9308094E-2,3.76486E-2,-1.8352328E-2,-2.9216986E-3,1.1816677E-2,4.1118782E-2,7.408753E-3,-4.5252237E-2,2.5818277E-2,-1.863584E-2,4.0269982E-2,5.6283246E-3],"split_indices":[65,61,61,35,72,42,33,34,44,20,20,20,12,31,25,0,0,0,0,0,0,0,0,0,0,0,0,0,0,0,0],"split_type":[0,0,0,0,0,0,0,0,0,0,0,0,0,0,0,0,0,0,0,0,0,0,0,0,0,0,0,0,0,0,0],"sum_hessian":[1.7431942E3,1.3772694E3,3.659249E2,1.7440811E2,1.2028613E3,1.6056848E2,2.053564E2,1.07714935E2,6.669318E1,4.0673256E1,1.162188E3,1.4222635E2,1.8342138E1,5.6812904E1,1.485435E2,9.472951E1,1.2985427E1,3.622095E1,3.0472227E1,5.005218E0,3.5668037E1,1.6076338E2,1.0014246E3,1.1979177E2,2.2434574E1,1.1143903E1,7.198235E0,4.3323597E1,1.3489305E1,1.4171024E2,6.833272E0],"tree_param":{"num_deleted":"0","num_feature":"73","num_nodes":"31","size_leaf_vector":"1"}},{"base_weights":[-1.2432418E-2,-2.2001624E-1,5.325205E-1,-5.3729296E-1,-7.965678E-2,3.6300078E-1,8.6410594E-1,-9.512561E-1,-4.5281845E-1,-1.8384564E-1,7.82477E-2,-3.262666E-2,3.902453E-1,5.581279E-1,9.5365804E-1,-5.301218E-2,-1.415576E-2,-2.401448E-2,1.609713E-2,3.629609E-2,-1.0315018E-2,-3.0107785E-2,5.7910443E-3,6.78868E-3,2.4255453E-2,3.7061777E-2,-1.6061943E-2,4.1720442E-2,5.4213982E-2],"categories":[],"categories_nodes":[],"categories_segments":[],"categories_sizes":[],"default_left":[0,0,0,0,0,0,0,0,0,0,0,0,0,0,0,0,0,0,0,0,0,0,0,0,0,0,0,0,0],"id":26,"left_children":[1,3,5,7,9,11,13,15,17,19,21,-1,23,25,27,-1,-1,-1,-1,-1,-1,-1,-1,-1,-1,-1,-1,-1,-1],"loss_changes":[1.9540749E2,5.561419E1,2.6344482E1,1.2834404E1,1.4318858E1,9.004307E0,3.7076263E0,4.2157784E0,6.991661E0,1.0804983E1,8.85897E0,0E0,7.3463936E0,6.5512457E0,8.0849457E-1,0E0,0E0,0E0,0E0,0E0,0E0,0E0,0E0,0E0,0E0,0E0,0E0,0E0,0E0],"parents":[2147483647,0,0,1,1,2,2,3,3,4,4,5,5,6,6,7,7,8,8,9,9,10,10,12,12,13,13,14,14],"right_children":[2,4,6,8,10,12,14,16,18,20,22,-1,24,26,28,-1,-1,-1,-1,-1,-1,-1,-1,-1,-1,-1,-1,-1,-1],"split_conditions":[1.4536073E0,-1.9352816E0,3.8043563E0,-4.344921E0,1.3015871E-1,-4.949337E0,8.9189225E-1,4.466386E-1,2.4679653E-1,-5E-1,1.1111111E-1,-3.262666E-2,1.0692389E2,-1.8090773E0,5.7134066E0,-5.301218E-2,-1.415576E-2,-2.401448E-2,1.609713E-2,3.629609E-2,-1.0315018E-2,-3.0107785E-2,5.7910443E-3,6.78868E-3,2.4255453E-2,3.7061777E-2,-1.6061943E-2,4.1720442E-2,5.4213982E-2],"split_indices":[68,69,69,68,68,58,18,20,70,66,41,0,55,21,69,0,0,0,0,0,0,0,0,0,0,0,0,0,0],"split_type":[0,0,0,0,0,0,0,0,0,0,0,0,0,0,0,0,0,0,0,0,0,0,0,0,0,0,0,0,0],"sum_hessian":[1.7256239E3,1.2501831E3,4.7544086E2,3.8235196E2,8.678311E2,3.1618887E2,1.5925198E2,6.2860867E1,3.194911E2,5.231285E2,3.4470267E2,7.565476E0,3.0862338E2,3.7946606E1,1.21305374E2,5.341178E1,9.449088E0,3.0904236E2,1.0448745E1,1.1738864E1,5.113896E2,1.7113363E1,3.2758932E2,8.475468E1,2.2386873E2,3.1630991E1,6.3156157E0,6.767552E1,5.362985E1],"tree_param":{"num_deleted":"0","num_feature":"73","num_nodes":"29","size_leaf_vector":"1"}},{"base_weights":[8.338098E-3,-2.9812363E-1,3.502309E-1,-7.612762E-1,-2.2249882E-1,2.3136777E-1,8.363062E-1,-5.9240926E-2,-6.552009E-1,1.865811E-1,-2.55271E-1,1.01967275E-1,3.777572E-1,5.225156E-1,9.2652494E-1,-4.0530887E-2,-1.8318856E-2,-6.6632675E-3,2.9198293E-2,-2.7154898E-2,-1.0641681E-2,-5.169294E-3,1.28728105E-2,-1.1570237E-2,2.114748E-2,6.1380374E-3,3.5317764E-2,2.050105E-2,4.8429824E-2],"categories":[],"categories_nodes":[],"categories_segments":[],"categories_sizes":[],"default_left":[0,0,0,0,0,0,0,0,0,0,0,0,0,0,0,0,0,0,0,0,0,0,0,0,0,0,0,0,0],"id":27,"left_children":[1,3,5,7,9,11,13,-1,15,17,19,21,23,25,27,-1,-1,-1,-1,-1,-1,-1,-1,-1,-1,-1,-1,-1,-1],"loss_changes":[1.8030658E2,3.151062E1,4.670253E1,4.7343063E0,1.0532078E1,1.23253975E1,3.880745E0,0E0,4.2442703E0,7.5352006E0,8.654839E0,1.120249E1,8.560326E0,2.6314096E0,2.1201248E0,0E0,0E0,0E0,0E0,0E0,0E0,0E0,0E0,0E0,0E0,0E0,0E0,0E0,0E0],"parents":[2147483647,0,0,1,1,2,2,3,3,4,4,5,5,6,6,8,8,9,9,10,10,11,11,12,12,13,13,14,14],"right_children":[2,4,6,8,10,12,14,-1,16,18,20,22,24,26,28,-1,-1,-1,-1,-1,-1,-1,-1,-1,-1,-1,-1,-1,-1],"split_conditions":[1.3015871E-1,-3.4645855E0,3.6216655E0,-5.844968E0,-1.44E1,1.4536073E0,3.8611856E0,-5.9240926E-2,7.8454544E1,2.857143E-1,-2.8680115E0,4.7054672E-1,2.6666668E-1,2.3333333E-1,-5.7276595E-2,-4.0530887E-2,-1.8318856E-2,-6.6632675E-3,2.9198293E-2,-2.7154898E-2,-1.0641681E-2,-5.169294E-3,1.28728105E-2,-1.1570237E-2,2.114748E-2,6.1380374E-3,3.5317764E-2,2.050105E-2,4.8429824E-2],"split_indices":[68,68,68,69,67,68,69,0,43,35,69,48,31,72,59,0,0,0,0,0,0,0,0,0,0,0,0,0,0],"split_type":[0,0,0,0,0,0,0,0,0,0,0,0,0,0,0,0,0,0,0,0,0,0,0,0,0,0,0,0,0],"sum_hessian":[1.7188131E3,9.062844E2,8.125286E2,1.2575126E2,7.8053314E2,6.542278E2,1.5830084E2,2.2960632E1,1.0279063E2,5.7317745E1,7.232154E2,3.485276E2,3.0570023E2,3.711408E1,1.2118677E2,6.542982E1,3.7360806E1,3.1985943E1,2.5331802E1,9.1110985E1,6.3210443E2,1.500498E2,1.9847777E2,2.0675507E1,2.8502472E2,1.2388125E1,2.4725954E1,1.0116094E1,1.1107067E2],"tree_param":{"num_deleted":"0","num_feature":"73","num_nodes":"29","size_leaf_vector":"1"}},{"base_weights":[9.747778E-3,-1.0081166E-1,4.3851325E-1,-5.259938E-1,-3.5285633E-2,4.8597333E-1,-2.864911E-1,-7.228028E-1,-2.714814E-1,1.3400793E-2,-3.6029863E-1,2.9817927E-1,7.2239316E-1,1.9034371E-1,-4.4801995E-2,-2.3332046E-2,-5.0861742E-2,-2.6303101E-2,7.5412146E-3,-6.134746E-3,8.180011E-3,-3.28527E-2,-8.487684E-3,2.2566905E-2,-3.825449E-3,4.2418372E-2,2.2677796E-2,-1.448784E-2,3.2171723E-2],"categories":[],"categories_nodes":[],"categories_segments":[],"categories_sizes":[],"default_left":[0,0,0,0,0,0,0,0,0,0,0,0,0,0,0,0,0,0,0,0,0,0,0,0,0,0,0,0,0],"id":28,"left_children":[1,3,5,7,9,11,13,15,17,19,21,23,25,27,-1,-1,-1,-1,-1,-1,-1,-1,-1,-1,-1,-1,-1,-1,-1],"loss_changes":[8.123367E1,3.7862206E1,1.2247833E1,8.79842E0,1.8729233E1,1.4344627E1,6.660226E0,7.0367966E0,8.82456E0,2.1036745E1,8.524065E0,1.0745138E1,4.404297E0,3.0767062E0,0E0,0E0,0E0,0E0,0E0,0E0,0E0,0E0,0E0,0E0,0E0,0E0,0E0,0E0,0E0],"parents":[2147483647,0,0,1,1,2,2,3,3,4,4,5,5,6,6,7,7,8,8,9,9,10,10,11,11,12,12,13,13],"right_children":[2,4,6,8,10,12,14,16,18,20,22,24,26,28,-1,-1,-1,-1,-1,-1,-1,-1,-1,-1,-1,-1,-1,-1,-1],"split_conditions":[7.1177535E0,-1.845105E-1,3.1278417E0,-3.4094064E0,1E0,1.4340584E0,1E0,1.4457282E0,-7.887899E-1,-2.0842922E-1,-2.1666667E0,-1.8244355E0,2.5461024E-1,6.336182E0,-4.4801995E-2,-2.3332046E-2,-5.0861742E-2,-2.6303101E-2,7.5412146E-3,-6.134746E-3,8.180011E-3,-3.28527E-2,-8.487684E-3,2.2566905E-2,-3.825449E-3,4.2418372E-2,2.2677796E-2,-1.448784E-2,3.2171723E-2],"split_indices":[65,61,19,59,12,18,12,19,20,20,65,19,23,24,0,0,0,0,0,0,0,0,0,0,0,0,0,0,0],"split_type":[0,0,0,0,0,0,0,0,0,0,0,0,0,0,0,0,0,0,0,0,0,0,0,0,0,0,0,0,0],"sum_hessian":[1.7109985E3,1.3606733E3,3.5032513E2,1.8055344E2,1.18012E3,3.2924014E2,2.1085016E1,1.00559814E2,7.999362E1,1.0269375E3,1.531825E2,1.8498567E2,1.4425446E2,1.2124218E1,8.960798E0,5.5338604E1,4.522121E1,4.9902035E1,3.0091585E1,5.3851044E2,4.88427E2,5.8735123E1,9.444738E1,1.3135492E2,5.3630756E1,9.650539E1,4.774906E1,5.9545183E0,6.1696997E0],"tree_param":{"num_deleted":"0","num_feature":"73","num_nodes":"29","size_leaf_vector":"1"}},{"base_weights":[4.694378E-3,-1.6231872E-1,4.7107127E-1,-7.9612803E-1,-1.0019204E-1,2.9871574E-1,8.2486606E-1,-9.065968E-1,-5.60213E-1,-1.8062527E-1,7.9270914E-2,-1.5645495E-1,3.672078E-1,6.2166876E-1,9.858865E-1,-1.4246217E-2,-4.822774E-2,-0E0,-4.533669E-2,-1.0168622E-2,1.4885972E-2,1.0761528E-2,-9.092203E-3,5.413281E-3,-6.995951E-2,2.2019364E-2,-1.8924837E-4,-3.515585E-3,3.479488E-2,2.6433572E-2,5.132414E-2],"categories":[],"categories_nodes":[],"categories_segments":[],"categories_sizes":[],"default_left":[0,0,0,0,0,0,0,0,0,0,0,0,0,0,0,0,0,0,0,0,0,0,0,0,0,0,0,0,0,0,0],"id":29,"left_children":[1,3,5,7,9,11,13,15,17,19,21,23,25,27,29,-1,-1,-1,-1,-1,-1,-1,-1,-1,-1,-1,-1,-1,-1,-1,-1],"loss_changes":[1.3237178E2,4.9086887E1,2.6969566E1,2.248169E0,1.6487682E1,9.528231E0,4.0049744E0,2.264843E0,7.4875937E0,8.627974E0,1.2584385E1,1.3490873E1,7.211506E0,3.581211E0,7.7744293E-1,0E0,0E0,0E0,0E0,0E0,0E0,0E0,0E0,0E0,0E0,0E0,0E0,0E0,0E0,0E0,0E0],"parents":[2147483647,0,0,1,1,2,2,3,3,4,4,5,5,6,6,7,7,8,8,9,9,10,10,11,11,12,12,13,13,14,14],"right_children":[2,4,6,8,10,12,14,16,18,20,22,24,26,28,30,-1,-1,-1,-1,-1,-1,-1,-1,-1,-1,-1,-1,-1,-1,-1,-1],"split_conditions":[1.4536073E0,-3.5624418E0,3.7446694E0,-3.7461266E-1,1.3015871E-1,1.0124355E2,4.8710923E0,4E0,5.2102363E-1,2.23557E-1,4.0164833E0,7.2525024E-1,1.918392E0,-1.9E1,6.364763E-2,-1.4246217E-2,-4.822774E-2,-0E0,-4.533669E-2,-1.0168622E-2,1.4885972E-2,1.0761528E-2,-9.092203E-3,5.413281E-3,-6.995951E-2,2.2019364E-2,-1.8924837E-4,-3.515585E-3,3.479488E-2,2.6433572E-2,5.132414E-2],"split_indices":[68,68,68,22,68,54,68,40,52,70,65,22,19,46,20,0,0,0,0,0,0,0,0,0,0,0,0,0,0,0,0],"split_type":[0,0,0,0,0,0,0,0,0,0,0,0,0,0,0,0,0,0,0,0,0,0,0,0,0,0,0,0,0,0,0],"sum_hessian":[1.6970697E3,1.2499062E3,4.471634E2,1.1038161E2,1.1395247E3,3.021125E2,1.4505089E2,7.295375E1,3.7427856E1,7.8724243E2,3.5228223E2,3.9155617E1,2.6295688E2,6.6550446E1,7.850045E1,6.873056E0,6.6080696E1,1.4651957E1,2.27759E1,7.5225366E2,3.4988747E1,2.3202705E2,1.2025519E2,3.2965828E1,6.1897855E0,2.197024E2,4.3254498E1,6.3218756E0,6.022857E1,7.7461042E0,7.075435E1],"tree_param":{"num_deleted":"0","num_feature":"73","num_nodes":"31","size_leaf_vector":"1"}},{"base_weights":[8.821802E-3,-8.934747E-2,3.923339E-1,-4.5196256E-1,-3.0520603E-2,4.4168085E-1,-3.8202396E-1,2.47088E-2,-4.8738018E-1,-1.8038581E-1,6.3112035E-2,2.9529095E-1,7.5194997E-1,-4.0086553E-2,-5.9444845E-2,1.8262794E-2,-2.5753586E-2,-5.7607293E-3,-3.506971E-2,1.1044575E-2,-3.642703E-3,2.0506892E-3,2.4011973E-2,4.81296E-2,2.2222765E-2,-3.183896E-2,1.4209302E-2],"categories":[],"categories_nodes":[],"categories_segments":[],"categories_sizes":[],"default_left":[0,0,0,0,0,0,0,0,0,0,0,0,0,0,0,0,0,0,0,0,0,0,0,0,0,0,0],"id":30,"left_children":[1,3,5,7,9,11,13,-1,15,17,19,21,23,25,-1,-1,-1,-1,-1,-1,-1,-1,-1,-1,-1,-1,-1],"loss_changes":[6.37434E1,2.8676956E1,1.3361752E1,6.531555E0,1.6307695E1,1.4435333E1,5.647979E0,0E0,4.490303E0,1.5012666E1,1.536068E1,1.0400839E1,6.123787E0,3.2993314E0,0E0,0E0,0E0,0E0,0E0,0E0,0E0,0E0,0E0,0E0,0E0,0E0,0E0],"parents":[2147483647,0,0,1,1,2,2,3,3,4,4,5,5,6,6,8,8,9,9,10,10,11,11,12,12,13,13],"right_children":[2,4,6,8,10,12,14,-1,16,18,20,22,24,26,-1,-1,-1,-1,-1,-1,-1,-1,-1,-1,-1,-1,-1],"split_conditions":[7.1177535E0,-1.8065204E-1,3.1278417E0,1.0241543E2,-7.784122E-1,2.2374074E0,1E1,2.47088E-2,6.4E1,1.3182502E0,1.729283E0,7.007692E1,1.3220218E-1,4.073424E0,-5.9444845E-2,1.8262794E-2,-2.5753586E-2,-5.7607293E-3,-3.506971E-2,1.1044575E-2,-3.642703E-3,2.0506892E-3,2.4011973E-2,4.81296E-2,2.2222765E-2,-3.183896E-2,1.4209302E-2],"split_indices":[65,61,19,51,20,18,14,0,43,25,25,34,23,18,0,0,0,0,0,0,0,0,0,0,0,0,0],"split_type":[0,0,0,0,0,0,0,0,0,0,0,0,0,0,0,0,0,0,0,0,0,0,0,0,0,0,0],"sum_hessian":[1.6903563E3,1.3462556E3,3.4410065E2,1.8674661E2,1.159509E3,3.2401138E2,2.0089287E1,6.1691422E0,1.8057747E2,4.4592236E2,7.135867E2,2.21689E2,1.0232237E2,1.4934112E1,5.1551757E0,5.1831884E0,1.7539429E2,3.9760083E2,4.8321514E1,3.303494E2,3.8323727E2,9.409061E1,1.275984E2,5.9267155E1,4.305522E1,5.0275693E0,9.906542E0],"tree_param":{"num_deleted":"0","num_feature":"73","num_nodes":"27","size_leaf_vector":"1"}},{"base_weights":[3.9955473E-4,-9.5706195E-2,3.8301176E-1,-3.330212E-1,-2.1644915E-2,2.8758475E-1,7.210095E-1,-1.12331256E-1,-5.1002765E-1,1.7871171E-1,-1.08017154E-1,3.2363808E-1,-4.87602E-1,-7.6281964E-3,8.119813E-1,-8.829204E-3,3.8680673E-2,-2.0532588E-2,-4.397716E-2,-2.6575167E-2,1.0856421E-2,-1.7473584E-2,1.0078408E-4,-3.0410269E-3,1.9917278E-2,-4.7815844E-2,-0E0,2.032294E-2,4.952281E-2],"categories":[],"categories_nodes":[],"categories_segments":[],"categories_sizes":[],"default_left":[0,0,0,0,0,0,0,0,0,0,0,0,0,0,0,0,0,0,0,0,0,0,0,0,0,0,0,0,0],"id":31,"left_children":[1,3,5,7,9,11,13,15,17,19,21,23,25,-1,27,-1,-1,-1,-1,-1,-1,-1,-1,-1,-1,-1,-1,-1,-1],"loss_changes":[6.218407E1,2.369836E1,1.0643753E1,1.2415699E1,1.7851913E1,7.5948143E0,6.059906E0,8.294341E0,6.0290985E0,8.55743E0,1.919939E1,7.3981457E0,2.7528536E0,0E0,4.3184853E0,0E0,0E0,0E0,0E0,0E0,0E0,0E0,0E0,0E0,0E0,0E0,0E0,0E0,0E0],"parents":[2147483647,0,0,1,1,2,2,3,3,4,4,5,5,6,6,7,7,8,8,9,9,10,10,11,11,12,12,14,14],"right_children":[2,4,6,8,10,12,14,16,18,20,22,24,26,-1,28,-1,-1,-1,-1,-1,-1,-1,-1,-1,-1,-1,-1,-1,-1],"split_conditions":[7.1177535E0,-1.5943526E0,1.9666666E1,-1.3254224E0,-3.8430968E-1,5.769231E-1,-1.8E1,5.740741E-1,1.101098E0,2.6080158E-1,4.345702E-1,-8.77202E-1,6.7083336E1,-7.6281964E-3,1.8705248E0,-8.829204E-3,3.8680673E-2,-2.0532588E-2,-4.397716E-2,-2.6575167E-2,1.0856421E-2,-1.7473584E-2,1.0078408E-4,-3.0410269E-3,1.9917278E-2,-4.7815844E-2,-0E0,2.032294E-2,4.952281E-2],"split_indices":[65,24,65,25,23,64,62,48,25,52,24,24,43,0,24,0,0,0,0,0,0,0,0,0,0,0,0,0,0],"split_type":[0,0,0,0,0,0,0,0,0,0,0,0,0,0,0,0,0,0,0,0,0,0,0,0,0,0,0,0,0],"sum_hessian":[1.6883282E3,1.3497758E3,3.3855246E2,3.1989325E2,1.0298826E3,2.6568753E2,7.286495E1,1.4335687E2,1.7653638E2,3.0956393E2,7.203186E2,2.5455965E2,1.1127869E1,6.704781E0,6.616017E1,1.3451479E2,8.84208E0,1.4099873E2,3.5537636E1,1.5093319E1,2.944706E2,2.2509842E2,4.9522015E2,4.122994E1,2.1332971E2,5.163002E0,5.9648666E0,2.1391981E1,4.476819E1],"tree_param":{"num_deleted":"0","num_feature":"73","num_nodes":"29","size_leaf_vector":"1"}},{"base_weights":[-3.840377E-3,-1.6098373E-1,4.4842464E-1,-5.944751E-1,-8.066443E-2,3.326878E-1,9.1682744E-1,-6.3119215E-1,2.6371578E-2,-3.8016792E-2,-3.603771E-1,-2.2693002E-1,3.587376E-1,7.481122E-1,5.157722E-2,-4.6746887E-2,-2.5207553E-2,-6.507169E-3,3.819429E-3,-2.3805778E-2,2.7577996E-2,9.781733E-3,-4.3508407E-2,-7.266434E-4,2.0159839E-2,3.2306506E-4,4.3403428E-2],"categories":[],"categories_nodes":[],"categories_segments":[],"categories_sizes":[],"default_left":[0,0,0,0,0,0,0,0,0,0,0,0,0,0,0,0,0,0,0,0,0,0,0,0,0,0,0],"id":32,"left_children":[1,3,5,7,9,11,13,15,-1,17,19,21,23,25,-1,-1,-1,-1,-1,-1,-1,-1,-1,-1,-1,-1,-1],"loss_changes":[1.1961856E2,4.3390587E1,2.3095085E1,8.375E0,1.253833E1,5.19265E0,7.000809E-1,6.691025E0,0E0,9.683876E0,1.4949247E1,4.5856953E0,5.5994186E0,3.3314075E0,0E0,0E0,0E0,0E0,0E0,0E0,0E0,0E0,0E0,0E0,0E0,0E0,0E0],"parents":[2147483647,0,0,1,1,2,2,3,3,4,4,5,5,6,6,7,7,9,9,10,10,11,11,12,12,13,13],"right_children":[2,4,6,8,10,12,14,16,-1,18,20,22,24,26,-1,-1,-1,-1,-1,-1,-1,-1,-1,-1,-1,-1,-1],"split_conditions":[1.4536073E0,-2.7922652E0,4.5939307E0,2.23557E-1,1E0,2.1428572E-1,5.7134066E0,-4.344921E0,2.6371578E-2,-3.02704E-1,6.875E-1,2.9411765E-2,1.0439289E2,6.25E1,5.157722E-2,-4.6746887E-2,-2.5207553E-2,-6.507169E-3,3.819429E-3,-2.3805778E-2,2.7577996E-2,9.781733E-3,-4.3508407E-2,-7.266434E-4,2.0159839E-2,3.2306506E-4,4.3403428E-2],"split_indices":[68,68,68,70,12,31,69,68,0,69,48,61,50,34,0,0,0,0,0,0,0,0,0,0,0,0,0],"split_type":[0,0,0,0,0,0,0,0,0,0,0,0,0,0,0,0,0,0,0,0,0,0,0,0,0,0,0],"sum_hessian":[1.6814874E3,1.2485375E3,4.329499E2,1.9397708E2,1.0545604E3,3.487112E2,8.4238686E1,1.8833975E2,5.6373434E0,9.1633997E2,1.3822044E2,1.49965105E1,3.337147E2,3.7491985E1,4.6746696E1,5.3434795E1,1.3490495E2,5.080012E2,4.0833878E2,1.23175224E2,1.5045216E1,9.3769045E0,5.619606E0,3.5349678E1,2.9836502E2,5.482567E0,3.200942E1],"tree_param":{"num_deleted":"0","num_feature":"73","num_nodes":"27","size_leaf_vector":"1"}},{"base_weights":[1.7334005E-2,-1.3392141E-1,3.9142615E-1,-3.6425054E-1,-1.0311203E-3,2.944836E-1,9.5351994E-1,-6.664882E-1,-2.649485E-1,5.755512E-2,-3.5579512E-1,9.009986E-2,4.150247E-1,2.1930845E-2,9.9946666E-1,-3.888626E-2,-1.2669995E-2,-5.2818103E-4,-1.7918367E-2,-7.7551475E-4,1.3293973E-2,-6.5495665E-3,-4.3271285E-2,-1.6863484E-2,1.0915911E-2,1.6119985E-3,2.2813544E-2,2.9798402E-2,5.2841116E-2],"categories":[],"categories_nodes":[],"categories_segments":[],"categories_sizes":[],"default_left":[0,0,0,0,0,0,0,0,0,0,0,0,0,0,0,0,0,0,0,0,0,0,0,0,0,0,0,0,0],"id":33,"left_children":[1,3,5,7,9,11,13,15,17,19,21,23,25,-1,27,-1,-1,-1,-1,-1,-1,-1,-1,-1,-1,-1,-1,-1,-1],"loss_changes":[9.456311E1,3.637552E1,2.5816208E1,1.2784794E1,1.5756016E1,1.0063087E1,1.0783005E0,4.600876E0,7.7850475E0,9.910365E0,1.2101069E1,8.52452E0,4.0191345E0,0E0,6.739197E-1,0E0,0E0,0E0,0E0,0E0,0E0,0E0,0E0,0E0,0E0,0E0,0E0,0E0,0E0],"parents":[2147483647,0,0,1,1,2,2,3,3,4,4,5,5,6,6,7,7,8,8,9,9,10,10,11,11,12,12,14,14],"right_children":[2,4,6,8,10,12,14,16,18,20,22,24,26,-1,28,-1,-1,-1,-1,-1,-1,-1,-1,-1,-1,-1,-1,-1,-1],"split_conditions":[1.236108E0,-1.5158927E0,4.8710923E0,-3.5624418E0,1E0,1.1E1,6.364763E-2,6.2049615E-1,-2.7380952E-1,5E-1,7.463636E1,6.735711E1,1.0112609E2,2.1930845E-2,6.05E1,-3.888626E-2,-1.2669995E-2,-5.2818103E-4,-1.7918367E-2,-7.7551475E-4,1.3293973E-2,-6.5495665E-3,-4.3271285E-2,-1.6863484E-2,1.0915911E-2,1.6119985E-3,2.2813544E-2,2.9798402E-2,5.2841116E-2],"split_indices":[68,68,68,68,12,30,20,48,64,47,34,5,54,0,34,0,0,0,0,0,0,0,0,0,0,0,0,0,0],"split_type":[0,0,0,0,0,0,0,0,0,0,0,0,0,0,0,0,0,0,0,0,0,0,0,0,0,0,0,0,0],"sum_hessian":[1.668833E3,1.1886178E3,4.8021518E2,4.3396475E2,7.5465314E2,4.1102823E2,6.918695E1,1.0565929E2,3.2830545E2,6.481694E2,1.0648374E2,1.5343991E2,2.575883E2,6.7103148E0,6.247663E1,8.235723E1,2.3302055E1,8.8768166E1,2.395373E2,4.801961E2,1.6797325E2,7.4898445E1,3.1585299E1,3.485454E1,1.1858537E2,2.5465158E1,2.3212314E2,9.4101515E0,5.3066483E1],"tree_param":{"num_deleted":"0","num_feature":"73","num_nodes":"29","size_leaf_vector":"1"}},{"base_weights":[-1.5453395E-3,-7.705607E-2,4.1347295E-1,-4.0675843E-1,-2.1063061E-2,9.389704E-2,5.9536916E-1,-9.440517E-1,-3.2773793E-1,-6.986067E-2,2.0208405E-1,6.2948775E-1,-9.478088E-2,6.750334E-1,-2.7278012E-1,-5.344717E-2,-2.1596601E-2,1.0013315E-2,-1.8522587E-2,2.7848918E-2,-4.253007E-3,8.9952146E-4,2.003576E-2,4.2124115E-2,3.3569295E-4,-4.896122E-2,2.7951892E-3,2.4564119E-2,4.145612E-2,-4.4216827E-2,3.555145E-2],"categories":[],"categories_nodes":[],"categories_segments":[],"categories_sizes":[],"default_left":[0,0,0,0,0,0,0,0,0,0,0,0,0,0,0,0,0,0,0,0,0,0,0,0,0,0,0,0,0,0,0],"id":34,"left_children":[1,3,5,7,9,11,13,15,17,19,21,23,25,27,29,-1,-1,-1,-1,-1,-1,-1,-1,-1,-1,-1,-1,-1,-1,-1,-1],"loss_changes":[5.2622967E1,2.6196415E1,1.4898884E1,8.313583E0,1.3249593E1,9.726762E0,1.1588692E1,1.0338974E0,4.181511E0,9.522919E0,7.930257E0,3.2325048E0,9.620247E0,3.733223E0,9.3206215E0,0E0,0E0,0E0,0E0,0E0,0E0,0E0,0E0,0E0,0E0,0E0,0E0,0E0,0E0,0E0,0E0],"parents":[2147483647,0,0,1,1,2,2,3,3,4,4,5,5,6,6,7,7,8,8,9,9,10,10,11,11,12,12,13,13,14,14],"right_children":[2,4,6,8,10,12,14,16,18,20,22,24,26,28,30,-1,-1,-1,-1,-1,-1,-1,-1,-1,-1,-1,-1,-1,-1,-1,-1],"split_conditions":[9.8E0,-1.6915156E-1,7.405E1,-1.49E1,8.064516E-2,2.56309E-1,3E0,6.818182E-1,1.0714286E-1,-4.0718E0,4.616696E-1,7.1428575E-2,1.0423931E2,1.5974821E-1,6.721492E0,-5.344717E-2,-2.1596601E-2,1.0013315E-2,-1.8522587E-2,2.7848918E-2,-4.253007E-3,8.9952146E-4,2.003576E-2,4.2124115E-2,3.3569295E-4,-4.896122E-2,2.7951892E-3,2.4564119E-2,4.145612E-2,-4.4216827E-2,3.555145E-2],"split_indices":[67,61,33,36,63,56,29,37,31,25,24,47,0,61,24,0,0,0,0,0,0,0,0,0,0,0,0,0,0,0,0],"split_type":[0,0,0,0,0,0,0,0,0,0,0,0,0,0,0,0,0,0,0,0,0,0,0,0,0,0,0,0,0,0,0],"sum_hessian":[1.6782452E3,1.4207935E3,2.5745178E2,2.0509383E2,1.2156996E3,9.413344E1,1.6331833E2,2.473024E1,1.8036359E2,9.984866E2,2.1721306E2,2.4051977E1,7.008147E1,1.4990059E2,1.341774E1,1.8850554E1,5.879685E0,1.3047528E1,1.6731606E2,2.2638353E1,9.758482E2,1.1355915E2,1.0365391E2,1.7539827E1,6.5121484E0,9.498014E0,6.058345E1,7.057601E1,7.932458E1,8.399308E0,5.018431E0],"tree_param":{"num_deleted":"0","num_feature":"73","num_nodes":"31","size_leaf_vector":"1"}},{"base_weights":[-1.911266E-2,-1.6805187E-1,4.198865E-1,-4.5358315E-1,-6.9694795E-2,3.2471454E-1,9.2211413E-1,-8.5175365E-1,-3.7541857E-1,-8.478142E-2,7.4897236E-1,-3.132489E-2,3.4448272E-1,2.2411752E-2,9.8402655E-1,-4.6183895E-2,-1.5812395E-2,-3.2801982E-2,-1.3404258E-2,-2.189623E-3,-1.7058853E-2,6.030638E-2,1.5910748E-2,1.9759538E-2,1.3928033E-3,1.958561E-2,5.234448E-2],"categories":[],"categories_nodes":[],"categories_segments":[],"categories_sizes":[],"default_left":[0,0,0,0,0,0,0,0,0,0,0,0,0,0,0,0,0,0,0,0,0,0,0,0,0,0,0],"id":35,"left_children":[1,3,5,7,9,11,13,15,17,19,21,-1,23,-1,25,-1,-1,-1,-1,-1,-1,-1,-1,-1,-1,-1,-1],"loss_changes":[1.0796115E2,3.4551033E1,1.9566185E1,9.377876E0,1.1344208E1,6.831127E0,1.3496284E0,1.5397301E0,7.736271E0,9.437816E0,2.7338505E0,0E0,5.5157547E0,0E0,1.5787277E0,0E0,0E0,0E0,0E0,0E0,0E0,0E0,0E0,0E0,0E0,0E0,0E0],"parents":[2147483647,0,0,1,1,2,2,3,3,4,4,5,5,6,6,7,7,8,8,9,9,10,10,12,12,14,14],"right_children":[2,4,6,8,10,12,14,16,18,20,22,-1,24,-1,26,-1,-1,-1,-1,-1,-1,-1,-1,-1,-1,-1,-1],"split_conditions":[1.4536073E0,-2.085797E0,4.8710923E0,-4.344921E0,3.5176283E-1,-6.22864E0,6.05E1,-7.5E-2,-5.4390305E-1,1E0,6.672962E1,-3.132489E-2,1E0,2.2411752E-2,6.364763E-2,-4.6183895E-2,-1.5812395E-2,-3.2801982E-2,-1.3404258E-2,-2.189623E-3,-1.7058853E-2,6.030638E-2,1.5910748E-2,1.9759538E-2,1.3928033E-3,1.958561E-2,5.234448E-2],"split_indices":[68,68,68,68,63,60,34,61,19,12,5,0,12,0,20,0,0,0,0,0,0,0,0,0,0,0,0],"split_type":[0,0,0,0,0,0,0,0,0,0,0,0,0,0,0,0,0,0,0,0,0,0,0,0,0,0,0],"sum_hessian":[1.6494873E3,1.2322627E3,4.1722467E2,3.145355E2,9.177272E2,3.5230807E2,6.491659E1,4.977997E1,2.6475552E2,9.021212E2,1.5605946E1,6.444779E0,3.4586328E2,8.640094E0,5.6276493E1,4.3081978E1,6.6979904E0,7.157646E1,1.9317908E2,7.7912616E2,1.22995026E2,6.5851145E0,9.020831E0,2.9763312E2,4.8230167E1,6.246072E0,5.0030422E1],"tree_param":{"num_deleted":"0","num_feature":"73","num_nodes":"27","size_leaf_vector":"1"}},{"base_weights":[7.886547E-3,-3.137875E-1,1.8764783E-1,-8.317873E-1,-2.593744E-1,1.1513413E-1,7.069118E-1,-9.38231E-1,-1.1641726E-2,1.472703E-1,-2.9429495E-1,4.2675972E-2,2.7576572E-1,4.150816E-2,7.769101E-1,-2.3132829E-2,-5.055985E-2,4.143578E-2,-8.5986406E-4,-2.6078632E-2,-1.10609075E-2,6.3196146E-3,-1.03503475E-2,1.8027576E-2,-6.1529367E-3,3.7079968E-2,-3.5435773E-2,1.2096995E-2,4.1985806E-2],"categories":[],"categories_nodes":[],"categories_segments":[],"categories_sizes":[],"default_left":[0,0,0,0,0,0,0,0,0,0,0,0,0,0,0,0,0,0,0,0,0,0,0,0,0,0,0,0,0],"id":36,"left_children":[1,3,5,7,9,11,13,15,-1,17,19,21,23,25,27,-1,-1,-1,-1,-1,-1,-1,-1,-1,-1,-1,-1,-1,-1],"loss_changes":[9.500836E1,1.6274113E1,3.9536133E1,3.1934853E0,7.6488724E0,1.074006E1,5.8864365E0,9.9935913E-1,0E0,4.882667E0,7.995804E0,1.3397925E1,9.7864895E0,7.595743E0,3.5988083E0,0E0,0E0,0E0,0E0,0E0,0E0,0E0,0E0,0E0,0E0,0E0,0E0,0E0,0E0],"parents":[2147483647,0,0,1,1,2,2,3,3,4,4,5,5,6,6,7,7,9,9,10,10,11,11,12,12,13,13,14,14],"right_children":[2,4,6,8,10,12,14,16,-1,18,20,22,24,26,28,-1,-1,-1,-1,-1,-1,-1,-1,-1,-1,-1,-1,-1,-1],"split_conditions":[-8.323296E-1,-4.183373E0,3.75567E0,8.4545456E1,-1.64E1,1.4536073E0,-1.0412862E0,4.0215817E-1,-1.1641726E-2,-3.543494E0,-2.7015665E0,5E0,2.2763927E0,-2.681376E-1,6.90625E1,-2.3132829E-2,-5.055985E-2,4.143578E-2,-8.5986406E-4,-2.6078632E-2,-1.10609075E-2,6.3196146E-3,-1.03503475E-2,1.8027576E-2,-6.1529367E-3,3.7079968E-2,-3.5435773E-2,1.2096995E-2,4.1985806E-2],"split_indices":[68,68,69,43,67,68,20,38,0,24,68,67,20,24,44,0,0,0,0,0,0,0,0,0,0,0,0,0,0],"split_type":[0,0,0,0,0,0,0,0,0,0,0,0,0,0,0,0,0,0,0,0,0,0,0,0,0,0,0,0,0],"sum_hessian":[1.6412456E3,5.879091E2,1.0533365E3,5.435337E1,5.335557E2,9.2550653E2,1.2782999E2,4.5528755E1,8.824617E0,4.171457E1,4.918412E2,6.391053E2,2.864012E2,1.2454945E1,1.15375046E2,7.2149124E0,3.8313843E1,7.443375E0,3.4271194E1,1.17839714E2,3.7400146E2,4.792961E2,1.5980916E2,2.3647572E2,4.992549E1,6.5176315E0,5.9373126E0,1.279909E1,1.0257596E2],"tree_param":{"num_deleted":"0","num_feature":"73","num_nodes":"29","size_leaf_vector":"1"}},{"base_weights":[3.849078E-3,-2.2376347E-1,2.1275494E-1,-7.802513E-1,-1.7861143E-1,1.2850343E-1,6.993137E-1,-9.4027245E-1,-2.7445868E-1,-3.9862806E-1,-1.2313394E-1,-2.5581443E-1,1.578969E-1,2.587691E-1,8.196931E-1,-1.9114645E-2,-5.016994E-2,1.6506614E-2,-3.432631E-2,-2.2615017E-2,1.9548481E-2,-8.170705E-3,1.100017E-2,-2.2941245E-2,2.2920763E-2,-4.5832954E-3,1.0013295E-2,-1.7124612E-3,3.2158006E-2,4.3183796E-2,8.073932E-3],"categories":[],"categories_nodes":[],"categories_segments":[],"categories_sizes":[],"default_left":[0,0,0,0,0,0,0,0,0,0,0,0,0,0,0,0,0,0,0,0,0,0,0,0,0,0,0,0,0,0,0],"id":37,"left_children":[1,3,5,7,9,11,13,15,17,19,21,23,25,27,29,-1,-1,-1,-1,-1,-1,-1,-1,-1,-1,-1,-1,-1,-1,-1,-1],"loss_changes":[7.7551834E1,1.9371685E1,3.4698814E1,4.3228607E0,8.726437E0,8.237523E0,6.3174515E0,1.0126266E0,4.1302867E0,6.320776E0,8.038519E0,7.714919E0,7.1743927E0,3.29292E0,2.5852203E0,0E0,0E0,0E0,0E0,0E0,0E0,0E0,0E0,0E0,0E0,0E0,0E0,0E0,0E0,0E0,0E0],"parents":[2147483647,0,0,1,1,2,2,3,3,4,4,5,5,6,6,7,7,8,8,9,9,10,10,11,11,12,12,13,13,14,14],"right_children":[2,4,6,8,10,12,14,16,18,20,22,24,26,28,30,-1,-1,-1,-1,-1,-1,-1,-1,-1,-1,-1,-1,-1,-1,-1,-1],"split_conditions":[-1.78972E-1,-4.498387E0,3.75567E0,6.956522E-1,-4.1427984E0,3.504308E-1,1.0732738E2,3.8923037E-1,7.282143E1,8.6687304E-2,1.1E1,5.3030305E-2,6.5703705E1,3.7089279E0,7.692308E-1,-1.9114645E-2,-5.016994E-2,1.6506614E-2,-3.432631E-2,-2.2615017E-2,1.9548481E-2,-8.170705E-3,1.100017E-2,-2.2941245E-2,2.2920763E-2,-4.5832954E-3,1.0013295E-2,-1.7124612E-3,3.2158006E-2,4.3183796E-2,8.073932E-3],"split_indices":[69,69,69,37,59,38,50,38,33,64,27,63,43,59,41,0,0,0,0,0,0,0,0,0,0,0,0,0,0,0,0],"split_type":[0,0,0,0,0,0,0,0,0,0,0,0,0,0,0,0,0,0,0,0,0,0,0,0,0,0,0,0,0,0,0],"sum_hessian":[1.6289891E3,7.793269E2,8.496623E2,5.709911E1,7.222278E2,7.25505E2,1.2415732E2,4.257321E1,1.4525898E1,1.4382967E2,5.7839813E2,5.075688E1,6.747481E2,2.7499498E1,9.6657814E1,5.205089E0,3.7368126E1,5.869804E0,8.656094E0,1.351938E2,8.635867E0,5.183637E2,6.0034424E1,3.991046E1,1.0846421E1,9.7416916E1,5.773312E2,1.5973654E1,1.1525846E1,9.016855E1,6.489264E0],"tree_param":{"num_deleted":"0","num_feature":"73","num_nodes":"31","size_leaf_vector":"1"}},{"base_weights":[2.4694083E-2,-9.1901235E-2,4.4631213E-1,-3.5611543E-1,-3.2616528E-3,3.4233782E-1,8.5796386E-1,-8.191017E-1,-2.754677E-1,-9.3784295E-2,1.4129487E-1,-3.4823485E-2,3.6789608E-1,1.45018445E-2,8.9983296E-1,-4.668984E-2,-1.9109989E-2,2.6087721E-3,-1.7623518E-2,-3.8682997E-2,-3.2636565E-3,8.715288E-3,-3.0128827E-2,-2.161809E-2,1.9596305E-2,5.296407E-2,3.310077E-2],"categories":[],"categories_nodes":[],"categories_segments":[],"categories_sizes":[],"default_left":[0,0,0,0,0,0,0,0,0,0,0,0,0,0,0,0,0,0,0,0,0,0,0,0,0,0,0],"id":38,"left_children":[1,3,5,7,9,11,13,15,17,19,21,-1,23,-1,25,-1,-1,-1,-1,-1,-1,-1,-1,-1,-1,-1,-1],"loss_changes":[8.043722E1,2.9969059E1,1.4758972E1,1.16716385E1,1.2579437E1,7.786663E0,1.2993813E0,1.8673363E0,7.000351E0,1.1336434E1,9.145425E0,0E0,5.526325E0,0E0,1.5965309E0,0E0,0E0,0E0,0E0,0E0,0E0,0E0,0E0,0E0,0E0,0E0,0E0],"parents":[2147483647,0,0,1,1,2,2,3,3,4,4,5,5,6,6,7,7,8,8,9,9,10,10,12,12,14,14],"right_children":[2,4,6,8,10,12,14,16,18,20,22,-1,24,-1,26,-1,-1,-1,-1,-1,-1,-1,-1,-1,-1,-1,-1],"split_conditions":[1.718475E0,-2.0050027E0,4.5939307E0,-4.344921E0,1.6785715E0,2.4135874E-1,6.521704E1,3.3174627E0,-1.44E1,6.5E1,1.8571428E1,-3.4823485E-2,-4.4496565E0,1.45018445E-2,4.6666667E-1,-4.668984E-2,-1.9109989E-2,2.6087721E-3,-1.7623518E-2,-3.8682997E-2,-3.2636565E-3,8.715288E-3,-3.0128827E-2,-2.161809E-2,1.9596305E-2,5.296407E-2,3.310077E-2],"split_indices":[68,68,68,68,42,52,53,21,67,34,36,0,59,0,64,0,0,0,0,0,0,0,0,0,0,0,0],"split_type":[0,0,0,0,0,0,0,0,0,0,0,0,0,0,0,0,0,0,0,0,0,0,0,0,0,0,0],"sum_hessian":[1.6337213E3,1.2802285E3,3.534928E2,3.2056183E2,9.596667E2,2.8386835E2,6.962445E1,4.601281E1,2.74549E2,5.907663E2,3.6890036E2,6.0921493E0,2.7777618E2,5.4887547E0,6.41357E1,3.536312E1,1.0649689E1,5.2059914E1,2.224891E2,2.2584114E1,5.681822E2,3.540871E2,1.4813262E1,7.4811573E0,2.7029504E2,3.607441E1,2.8061289E1],"tree_param":{"num_deleted":"0","num_feature":"73","num_nodes":"27","size_leaf_vector":"1"}},{"base_weights":[2.414089E-3,-1.953181E-1,2.2045054E-1,-3.590783E-1,-8.087287E-2,1.3053732E-1,5.6674063E-1,-5.07555E-2,-3.2242382E-1,-1.567117E-1,1.6404228E-1,-3.5077104E-1,1.5921074E-1,3.4102076E-1,7.903169E-1,-2.378592E-2,-9.250662E-3,-5.4482543E-3,-3.4970917E-2,1.1268788E-2,-3.5603438E-2,3.069859E-3,-4.6432316E-2,-2.1966558E-2,9.21744E-3,2.9785141E-2,-0E0,4.394603E-2,1.4895033E-3],"categories":[],"categories_nodes":[],"categories_segments":[],"categories_sizes":[],"default_left":[0,0,0,0,0,0,0,0,0,0,0,0,0,0,0,0,0,0,0,0,0,0,0,0,0,0,0,0,0],"id":39,"left_children":[1,3,5,7,9,11,13,-1,15,17,19,21,23,25,27,-1,-1,-1,-1,-1,-1,-1,-1,-1,-1,-1,-1,-1,-1],"loss_changes":[6.993813E1,1.5865768E1,2.3884064E1,7.935993E0,9.353843E0,8.512599E0,7.6181793E0,0E0,6.8462334E0,9.801687E0,6.502449E0,8.396032E0,8.790036E0,7.0330324E0,5.183941E0,0E0,0E0,0E0,0E0,0E0,0E0,0E0,0E0,0E0,0E0,0E0,0E0,0E0,0E0],"parents":[2147483647,0,0,1,1,2,2,3,3,4,4,5,5,6,6,8,8,9,9,10,10,11,11,12,12,13,13,14,14],"right_children":[2,4,6,8,10,12,14,-1,16,18,20,22,24,26,28,-1,-1,-1,-1,-1,-1,-1,-1,-1,-1,-1,-1,-1,-1],"split_conditions":[6.11662E-2,-1.9352816E0,3.291216E0,-5.844968E0,6.3333335E0,1.01701775E2,3.4927008E0,-5.07555E-2,7.4333336E1,5.8E0,1.8571428E1,1.01601074E2,-1.16E1,-1.834929E0,6.4258426E-1,-2.378592E-2,-9.250662E-3,-5.4482543E-3,-3.4970917E-2,1.1268788E-2,-3.5603438E-2,3.069859E-3,-4.6432316E-2,-2.1966558E-2,9.21744E-3,2.9785141E-2,-0E0,4.394603E-2,1.4895033E-3],"split_indices":[69,69,69,69,42,50,24,0,43,46,36,1,36,21,48,0,0,0,0,0,0,0,0,0,0,0,0,0,0],"split_type":[0,0,0,0,0,0,0,0,0,0,0,0,0,0,0,0,0,0,0,0,0,0,0,0,0,0,0,0,0],"sum_hessian":[1.6201547E3,8.4945197E2,7.707027E2,3.4819992E2,5.0125204E2,6.131626E2,1.5754015E2,1.6868572E1,3.3133133E2,3.8332315E2,1.1792891E2,3.3647022E1,5.7951556E2,7.987345E1,7.766669E1,1.55106E2,1.7622534E2,3.53599E2,2.9724134E1,1.110141E2,6.914814E0,2.0059988E1,1.3587034E1,2.2533525E1,5.5698206E2,4.532288E1,3.4550568E1,6.930525E1,8.361439E0],"tree_param":{"num_deleted":"0","num_feature":"73","num_nodes":"29","size_leaf_vector":"1"}},{"base_weights":[2.5832541E-3,-1.9246878E-1,2.2012207E-1,-5.0116855E-1,-1.292678E-1,1.4170101E-1,6.3944453E-1,-9.558949E-1,-4.0947485E-1,-1.7607385E-1,1.2270655E-1,-2.8377196E-1,1.7565395E-1,4.8040488E-1,9.4344753E-1,-5.445496E-2,-2.4080334E-2,-2.3322018E-2,1.3096434E-2,5.9900637E-4,-1.3611751E-2,1.1435699E-2,-3.0472795E-2,-4.3018162E-2,3.7313474E-3,3.780737E-2,7.812896E-3,2.7663667E-2,-2.2585895E-2,2.8952567E-2,5.1633038E-2],"categories":[],"categories_nodes":[],"categories_segments":[],"categories_sizes":[],"default_left":[0,0,0,0,0,0,0,0,0,0,0,0,0,0,0,0,0,0,0,0,0,0,0,0,0,0,0,0,0,0,0],"id":40,"left_children":[1,3,5,7,9,11,13,15,17,19,21,23,25,27,29,-1,-1,-1,-1,-1,-1,-1,-1,-1,-1,-1,-1,-1,-1,-1,-1],"loss_changes":[6.905797E1,1.6608774E1,2.5139084E1,5.524807E0,8.443987E0,9.426741E0,5.2434196E0,7.9850197E-1,4.8369656E0,1.0926746E1,8.798586E0,1.0101267E1,6.576067E0,5.7986526E0,5.4859924E-1,0E0,0E0,0E0,0E0,0E0,0E0,0E0,0E0,0E0,0E0,0E0,0E0,0E0,0E0,0E0,0E0],"parents":[2147483647,0,0,1,1,2,2,3,3,4,4,5,5,6,6,7,7,8,8,9,9,10,10,11,11,12,12,13,13,14,14],"right_children":[2,4,6,8,10,12,14,16,18,20,22,24,26,28,30,-1,-1,-1,-1,-1,-1,-1,-1,-1,-1,-1,-1,-1,-1,-1,-1],"split_conditions":[5.422693E-2,-3.0278497E0,3.6216655E0,-5.324552E0,-2.326348E-2,1.1111111E-1,5.5827236E0,-5.2383876E-1,1.7063879E0,-7E0,1.8743285E0,7.285714E1,6.4059784E1,2.15E1,1.0539366E0,-5.445496E-2,-2.4080334E-2,-2.3322018E-2,1.3096434E-2,5.9900637E-4,-1.3611751E-2,1.1435699E-2,-3.0472795E-2,-4.3018162E-2,3.7313474E-3,3.780737E-2,7.812896E-3,2.7663667E-2,-2.2585895E-2,2.8952567E-2,5.1633038E-2],"split_indices":[68,68,68,68,69,41,68,18,22,67,21,34,5,36,22,0,0,0,0,0,0,0,0,0,0,0,0,0,0,0,0],"split_type":[0,0,0,0,0,0,0,0,0,0,0,0,0,0,0,0,0,0,0,0,0,0,0,0,0,0,0,0,0,0,0],"sum_hessian":[1.6254573E3,8.568419E2,7.686154E2,1.4416557E2,7.1267633E2,6.488457E2,1.1976974E2,2.2427567E1,1.21738E2,6.016193E2,1.1105704E2,4.7190186E1,6.016555E2,8.054284E1,3.9226894E1,1.6333239E1,6.0943274E0,1.12635605E2,9.102394E0,2.0349582E2,3.9812347E2,9.773107E1,1.3325965E1,1.765895E1,2.9531235E1,1.8058296E1,5.8359717E2,7.5179436E1,5.3634095E0,9.408583E0,2.9818312E1],"tree_param":{"num_deleted":"0","num_feature":"73","num_nodes":"31","size_leaf_vector":"1"}},{"base_weights":[-4.9005453E-3,-8.726088E-2,5.107465E-1,-3.0695614E-1,2.896042E-2,4.1315675E-1,4.9262196E-2,-8.201192E-1,-2.479963E-1,2.687603E-3,3.795242E-1,-1.9065095E-2,4.39458E-1,-4.5254648E-2,-4.1768188E-3,-1.9117609E-2,-6.549695E-3,2.2071553E-2,-1.0461367E-3,3.3932913E-2,-7.7747717E-3,1.5635677E-2,3.0318512E-2],"categories":[],"categories_nodes":[],"categories_segments":[],"categories_sizes":[],"default_left":[0,0,0,0,0,0,0,0,0,0,0,0,0,0,0,0,0,0,0,0,0,0,0],"id":41,"left_children":[1,3,5,7,9,11,-1,13,15,17,19,-1,21,-1,-1,-1,-1,-1,-1,-1,-1,-1,-1],"loss_changes":[6.849164E1,3.5569054E1,9.737061E0,1.4268879E1,8.349071E0,4.0619755E0,0E0,2.8955307E0,6.7180195E0,8.841096E0,1.0276486E1,0E0,3.5416794E0,0E0,0E0,0E0,0E0,0E0,0E0,0E0,0E0,0E0,0E0],"parents":[2147483647,0,0,1,1,2,2,3,3,4,4,5,5,7,7,8,8,9,9,10,10,12,12],"right_children":[2,4,6,8,10,12,-1,14,16,18,20,-1,22,-1,-1,-1,-1,-1,-1,-1,-1,-1,-1],"split_conditions":[2.5590577E0,-1.361573E0,5.5976763E0,-4.627241E0,6.7741936E-1,-5.832712E0,4.9262196E-2,1.833178E0,7.4E1,-1.39E1,8.5E-1,-1.9065095E-2,5E-1,-4.5254648E-2,-4.1768188E-3,-1.9117609E-2,-6.549695E-3,2.2071553E-2,-1.0461367E-3,3.3932913E-2,-7.7747717E-3,1.5635677E-2,3.0318512E-2],"split_indices":[68,69,69,69,10,60,0,60,43,46,37,0,72,0,0,0,0,0,0,0,0,0,0],"split_type":[0,0,0,0,0,0,0,0,0,0,0,0,0,0,0,0,0,0,0,0,0,0,0],"sum_hessian":[1.6116974E3,1.3906106E3,2.2108682E2,4.80857E2,9.0975354E2,1.8509904E2,3.598778E1,4.804927E1,4.328077E2,8.475289E2,6.222468E1,5.3771386E0,1.7972191E2,4.2752697E1,5.296577E0,2.0001009E2,2.3279762E2,4.2592106E1,8.0493677E2,3.985811E1,2.2366573E1,1.0412637E2,7.5595535E1],"tree_param":{"num_deleted":"0","num_feature":"73","num_nodes":"23","size_leaf_vector":"1"}},{"base_weights":[-1.5259964E-3,-1.0044804E-1,3.738776E-1,-4.346764E-1,-4.735302E-2,2.8824127E-1,8.6268413E-1,-4.8356634E-2,-3.5657337E-1,-1.0333967E-2,-2.9053408E-1,-3.4645253E-1,3.274869E-1,9.5056E-1,6.029807E-1,-2.1140927E-2,1.8946568E-2,-4.878962E-3,4.809841E-3,1.0288353E-2,-2.0761177E-2,2.276259E-2,-4.821652E-2,3.4162264E-2,1.3332868E-2,5.1354088E-2,3.0137617E-2,4.787564E-3,4.6791185E-2],"categories":[],"categories_nodes":[],"categories_segments":[],"categories_sizes":[],"default_left":[0,0,0,0,0,0,0,0,0,0,0,0,0,0,0,0,0,0,0,0,0,0,0,0,0,0,0,0,0],"id":42,"left_children":[1,3,5,7,9,11,13,-1,15,17,19,21,23,25,27,-1,-1,-1,-1,-1,-1,-1,-1,-1,-1,-1,-1,-1,-1],"loss_changes":[5.953363E1,2.2460999E1,1.3629189E1,6.7445107E0,9.8417845E0,7.2386246E0,3.9334488E-1,0E0,7.628557E0,8.870679E0,9.050286E0,8.910708E0,5.568495E0,1.4167213E-1,2.4157553E0,0E0,0E0,0E0,0E0,0E0,0E0,0E0,0E0,0E0,0E0,0E0,0E0,0E0,0E0],"parents":[2147483647,0,0,1,1,2,2,3,3,4,4,5,5,6,6,8,8,9,9,10,10,11,11,12,12,13,13,14,14],"right_children":[2,4,6,8,10,12,14,-1,16,18,20,22,24,26,28,-1,-1,-1,-1,-1,-1,-1,-1,-1,-1,-1,-1,-1,-1],"split_conditions":[1.718475E0,-2.7922652E0,4.9589186E0,-5.324552E0,1E0,-8.285714E0,8.5714287E-1,-4.8356634E-2,1.6456182E0,-2.378244E-1,-1.8E1,-7.65487E-1,2.56309E-1,1.5E1,5.8333726E0,-2.1140927E-2,1.8946568E-2,-4.878962E-3,4.809841E-3,1.0288353E-2,-2.0761177E-2,2.276259E-2,-4.821652E-2,3.4162264E-2,1.3332868E-2,5.1354088E-2,3.0137617E-2,4.787564E-3,4.6791185E-2],"split_indices":[68,68,68,68,12,32,31,0,22,69,62,22,56,30,58,0,0,0,0,0,0,0,0,0,0,0,0,0,0],"split_type":[0,0,0,0,0,0,0,0,0,0,0,0,0,0,0,0,0,0,0,0,0,0,0,0,0,0,0,0,0],"sum_hessian":[1.6018625E3,1.2685798E3,3.3328275E2,1.7265594E2,1.0959238E3,2.8512466E2,4.815809E1,2.0466354E1,1.5218959E2,9.5239594E2,1.4352795E2,1.5999487E1,2.6912518E2,3.3707314E1,1.4450774E1,1.4012956E2,1.206004E1,5.2415375E2,4.282422E2,2.852756E1,1.150004E2,7.0079465E0,8.991541E0,3.7563137E1,2.3156204E2,2.57922E1,7.915113E0,6.35473E0,8.096045E0],"tree_param":{"num_deleted":"0","num_feature":"73","num_nodes":"29","size_leaf_vector":"1"}},{"base_weights":[2.809802E-2,-2.4204502E-2,5.5210966E-1,-3.7109882E-1,3.126853E-2,1.5025245E-1,7.05154E-1,-6.917393E-1,-2.5854436E-1,1.2186849E-2,3.8393256E-1,-1.5998128E-1,7.129687E-1,3.8518104E-1,8.108388E-1,-4.0729508E-2,1.626451E-2,-2.216949E-3,-2.6091272E-2,-1.2625094E-2,2.1236965E-3,-1.2385891E-2,2.7485028E-2,1.1538964E-2,-5.238511E-2,4.9535587E-2,1.4585524E-2,3.9739486E-2,-1.3715907E-2,1.6036829E-2,4.2166974E-2],"categories":[],"categories_nodes":[],"categories_segments":[],"categories_sizes":[],"default_left":[0,0,0,0,0,0,0,0,0,0,0,0,0,0,0,0,0,0,0,0,0,0,0,0,0,0,0,0,0,0,0],"id":43,"left_children":[1,3,5,7,9,11,13,15,17,19,21,23,25,27,29,-1,-1,-1,-1,-1,-1,-1,-1,-1,-1,-1,-1,-1,-1,-1,-1],"loss_changes":[4.3658436E1,2.7890268E1,8.699417E0,6.937418E0,8.355142E0,7.3831124E0,3.0931244E0,6.6971817E0,8.364301E0,9.492647E0,6.843193E0,9.807015E0,1.3358035E0,7.8396745E0,8.431053E-1,0E0,0E0,0E0,0E0,0E0,0E0,0E0,0E0,0E0,0E0,0E0,0E0,0E0,0E0,0E0,0E0],"parents":[2147483647,0,0,1,1,2,2,3,3,4,4,5,5,6,6,7,7,8,8,9,9,10,10,11,11,12,12,13,13,14,14],"right_children":[2,4,6,8,10,12,14,16,18,20,22,24,26,28,30,-1,-1,-1,-1,-1,-1,-1,-1,-1,-1,-1,-1,-1,-1,-1,-1],"split_conditions":[3.291216E0,-2.8136332E0,8.532556E-2,-4.498387E0,1.12493484E2,7.775E1,6.0790675E-3,5.3E0,-8.2E0,-4.2391925E0,-1.9352816E0,8.388343E-2,6.024866E-1,5.9090906E-1,6.452895E1,-4.0729508E-2,1.626451E-2,-2.216949E-3,-2.6091272E-2,-1.2625094E-2,2.1236965E-3,-1.2385891E-2,2.7485028E-2,1.1538964E-2,-5.238511E-2,4.9535587E-2,1.4585524E-2,3.9739486E-2,-1.3715907E-2,1.6036829E-2,4.2166974E-2],"split_indices":[69,69,61,69,2,33,20,36,67,59,69,70,59,31,4,0,0,0,0,0,0,0,0,0,0,0,0,0,0,0,0],"split_type":[0,0,0,0,0,0,0,0,0,0,0,0,0,0,0,0,0,0,0,0,0,0,0,0,0,0,0,0,0,0,0],"sum_hessian":[1.5895453E3,1.4459822E3,1.4356305E2,1.9881682E2,1.2471654E3,4.0322136E1,1.0324092E2,5.0089527E1,1.487273E2,1.1843989E3,6.2766464E1,2.633903E1,1.3983105E1,2.7021387E1,7.621953E1,4.4956444E1,5.1330824E0,8.286036E1,6.586693E1,1.2051758E2,1.0638813E3,1.2819774E1,4.994669E1,1.8724283E1,7.614746E0,7.4692917E0,6.5138135E0,1.663564E1,1.0385748E1,5.6073613E0,7.061217E1],"tree_param":{"num_deleted":"0","num_feature":"73","num_nodes":"31","size_leaf_vector":"1"}},{"base_weights":[-7.719238E-3,-9.294497E-2,3.421412E-1,-5.054869E-1,-5.536692E-2,2.4774384E-1,8.231769E-1,-3.2990995E-1,-7.450223E-1,-9.29634E-2,1.5083033E-1,2.864765E-1,-3.4784374E-1,1.5394104E-2,8.992044E-1,1.6760083E-2,-2.608402E-2,-1.8244019E-3,-4.1734062E-2,-7.171639E-2,-4.189573E-3,1.3652054E-2,-1.8308304E-2,-1.5998853E-2,1.6216373E-2,1.9452227E-2,-3.841223E-2,1.9660912E-2,4.7682386E-2],"categories":[],"categories_nodes":[],"categories_segments":[],"categories_sizes":[],"default_left":[0,0,0,0,0,0,0,0,0,0,0,0,0,0,0,0,0,0,0,0,0,0,0,0,0,0,0,0,0],"id":44,"left_children":[1,3,5,7,9,11,13,15,17,19,21,23,25,-1,27,-1,-1,-1,-1,-1,-1,-1,-1,-1,-1,-1,-1,-1,-1],"loss_changes":[4.695982E1,1.9561628E1,1.3694744E1,4.0816708E0,9.022653E0,6.078578E0,1.5610275E0,8.214418E0,2.650034E0,1.1840399E1,1.1418823E1,5.7122993E0,5.335595E0,0E0,6.714592E-1,0E0,0E0,0E0,0E0,0E0,0E0,0E0,0E0,0E0,0E0,0E0,0E0,0E0,0E0],"parents":[2147483647,0,0,1,1,2,2,3,3,4,4,5,5,6,6,7,7,8,8,9,9,10,10,11,11,12,12,14,14],"right_children":[2,4,6,8,10,12,14,16,18,20,22,24,26,-1,28,-1,-1,-1,-1,-1,-1,-1,-1,-1,-1,-1,-1,-1,-1],"split_conditions":[1.812123E0,-3.3858001E0,4.8710923E0,7.62E1,4.1096854E0,3.1278417E0,6.05E1,-1.575E1,6.531579E1,9.775537E1,8.833333E-1,2.2727273E-1,7.777778E-1,1.5394104E-2,1.3182502E0,1.6760083E-2,-2.608402E-2,-1.8244019E-3,-4.1734062E-2,-7.171639E-2,-4.189573E-3,1.3652054E-2,-1.8308304E-2,-1.5998853E-2,1.6216373E-2,1.9452227E-2,-3.841223E-2,1.9660912E-2,4.7682386E-2],"split_indices":[68,68,68,34,25,19,34,65,44,51,72,31,35,0,24,0,0,0,0,0,0,0,0,0,0,0,0,0,0],"split_type":[0,0,0,0,0,0,0,0,0,0,0,0,0,0,0,0,0,0,0,0,0,0,0,0,0,0,0,0,0],"sum_hessian":[1.5736976E3,1.2662583E3,3.0743936E2,1.0445128E2,1.161807E3,2.5844553E2,4.899385E1,6.1884983E1,4.2566296E1,9.835144E2,1.782926E2,2.4330937E2,1.5136153E1,7.1175833E0,4.187627E1,1.3565789E1,4.8319195E1,5.064684E0,3.7501614E1,5.550074E0,9.779643E2,1.4474274E2,3.3549866E1,1.3700614E1,2.2960875E2,5.439097E0,9.697056E0,5.0453205E0,3.6830948E1],"tree_param":{"num_deleted":"0","num_feature":"73","num_nodes":"29","size_leaf_vector":"1"}},{"base_weights":[-2.936409E-3,-1.6788599E-1,1.9772047E-1,-7.576621E-1,-1.3774255E-1,1.5434706E-1,8.35815E-1,-8.835287E-1,-7.0264596E-3,5.8637816E-1,-1.5212299E-1,2.0217915E-1,-9.3175426E-2,5.0740164E-2,6.0410887E-1,-2.9286845E-2,-5.485454E-2,5.055065E-2,-2.051955E-3,-2.0881059E-2,-5.6248396E-3,7.4726082E-3,2.3658684E-2,3.5101898E-2,-8.222099E-3,-4.820773E-3,4.0912572E-2],"categories":[],"categories_nodes":[],"categories_segments":[],"categories_sizes":[],"default_left":[0,0,0,0,0,0,0,0,0,0,0,0,0,0,0,0,0,0,0,0,0,0,0,0,0,0,0],"id":45,"left_children":[1,3,5,7,9,11,13,15,-1,17,19,21,23,-1,25,-1,-1,-1,-1,-1,-1,-1,-1,-1,-1,-1,-1],"loss_changes":[5.223113E1,1.5208956E1,1.947043E1,3.016058E0,8.643519E0,7.936366E0,1.0883045E0,1.3736534E0,0E0,4.4407487E0,8.427153E0,7.8732643E0,6.2104707E0,0E0,3.4955225E0,0E0,0E0,0E0,0E0,0E0,0E0,0E0,0E0,0E0,0E0,0E0,0E0],"parents":[2147483647,0,0,1,1,2,2,3,3,4,4,5,5,6,6,7,7,9,9,10,10,11,11,12,12,14,14],"right_children":[2,4,6,8,10,12,14,16,-1,18,20,22,24,-1,26,-1,-1,-1,-1,-1,-1,-1,-1,-1,-1,-1,-1],"split_conditions":[1.3015871E-1,-4.344921E0,4.9589186E0,4.466386E-1,-2.2274508E0,1E0,4.6666667E-1,-4.181818E-1,-7.0264596E-3,1.05657646E2,-3.616362E0,1.0997846E2,6.585714E1,5.0740164E-2,2.05E1,-2.9286845E-2,-5.485454E-2,5.055065E-2,-2.051955E-3,-2.0881059E-2,-5.6248396E-3,7.4726082E-3,2.3658684E-2,3.5101898E-2,-8.222099E-3,-4.820773E-3,4.0912572E-2],"split_indices":[68,68,68,20,23,12,64,64,0,1,18,54,33,0,67,0,0,0,0,0,0,0,0,0,0,0,0],"split_type":[0,0,0,0,0,0,0,0,0,0,0,0,0,0,0,0,0,0,0,0,0,0,0,0,0,0,0],"sum_hessian":[1.5761497E3,8.65406E2,7.107436E2,4.074527E1,8.2466077E2,6.6681647E2,4.392713E1,3.3349754E1,7.3955126E0,1.5148218E1,8.095125E2,5.593189E2,