{"learner":{"attributes":{"best_iteration":"84","best_score":"0.5328607596636137"},"feature_names":["team_a_prior_adj_oe","team_b_prior_adj_oe","team_a_prior_adj_de","team_b_prior_adj_de","team_a_prior_adj_tempo","team_b_prior_adj_tempo","team_a_prior_barthag","team_b_prior_barthag","conference_game","team_a_rank","team_b_rank","team_a_ranked","team_b_ranked","team_a_run_games","team_a_run_avg_pts_for","team_a_run_avg_pts_against","team_b_run_games","team_b_run_avg_pts_for","team_b_run_avg_pts_against","team_a_roster_bpm","team_a_roster_obpm","team_a_roster_dbpm","team_a_top5_bpm","team_a_depth_count","team_a_star_count","team_b_roster_bpm","team_b_roster_obpm","team_b_roster_dbpm","team_b_top5_bpm","team_b_depth_count","team_b_star_count","travel_advantage","tz_advantage","is_home","is_away","diff_prior_rank","diff_prior_win_pct","diff_run_win_pct","diff_run_avg_margin","diff_run_recent_win_pct","diff_run_recent_avg_margin","diff_roster_bpm","diff_top5_bpm","diff_sos","diff_conf_win_pct","season_progress"],"feature_types":["float","float","float","float","float","float","float","float","int","int","int","int","int","int","float","float","int","float","float","float","float","float","float","float","float","float","float","float","float","float","float","float","float","int","int","float","float","float","float","float","float","float","float","float","float","float"],"gradient_booster":{"model":{"cats":{"enc":[],"feature_segments":[],"sorted_idx":[]},"gbtree_model_param":{"num_parallel_tree":"1","num_trees":"135"},"iteration_indptr":[0,1,2,3,4,5,6,7,8,9,10,11,12,13,14,15,16,17,18,19,20,21,22,23,24,25,26,27,28,29,30,31,32,33,34,35,36,37,38,39,40,41,42,43,44,45,46,47,48,49,50,51,52,53,54,55,56,57,58,59,60,61,62,63,64,65,66,67,68,69,70,71,72,73,74,75,76,77,78,79,80,81,82,83,84,85,86,87,88,89,90,91,92,93,94,95,96,97,98,99,100,101,102,103,104,105,106,107,108,109,110,111,112,113,114,115,116,117,118,119,120,121,122,123,124,125,126,127,128,129,130,131,132,133,134,135],"tree_info":[0,0,0,0,0,0,0,0,0,0,0,0,0,0,0,0,0,0,0,0,0,0,0,0,0,0,0,0,0,0,0,0,0,0,0,0,0,0,0,0,0,0,0,0,0,0,0,0,0,0,0,0,0,0,0,0,0,0,0,0,0,0,0,0,0,0,0,0,0,0,0,0,0,0,0,0,0,0,0,0,0,0,0,0,0,0,0,0,0,0,0,0,0,0,0,0,0,0,0,0,0,0,0,0,0,0,0,0,0,0,0,0,0,0,0,0,0,0,0,0,0,0,0,0,0,0,0,0,0,0,0,0,0,0,0],"trees":[{"base_weights":[-1.1032149E-2,-5.931417E-1,8.277495E-1,-1.2104673E-1,-1.0856138E0,3.8894665E-1,1.2705036E0,-6.086047E-1,3.019184E-1,-1.5458369E0,-7.147979E-1,-3.3193864E-2,6.604944E-1,8.469741E-1,1.5316592E0,-1.3170418E0,-5.062385E-1,1.2504065E0,2.1241905E-1,-1.7020501E0,-1.3267286E0,-1.6217822E0,-6.443521E-1,-2.3683703E-1,4.9276808E-1,-3.9777777E-1,7.52367E-1,6.49078E-1,1.0445415E0,-2.2352941E-1,1.5561818E0,-1.6201258E0,-9.7179484E-1,-5.7744807E-1,3.9259258E-1,-2.5263159E-2,1.3748918E0,4.2456407E-3,4.210687E-1,-3.2380953E-2,-1.7135384E0,-1.3657387E0,-2.4615385E-1,-1.0000001E-2,-1.7212766E0,-7.324052E-1,-3.161972E-1,2.5470087E-1,-3.786865E-1,1.3640553E-1,8.914894E-1,-7.3333335E-1,1.6571428E-1,6.458904E-1,1.3607973E0,2.0941177E-1,7.8218925E-1,1.9710144E-1,1.1311897E0,-4.631579E-2,2.5263159E-2,1.2373333E0,1.6519357E0,-8.4689654E-2,-3.2222223E-2,-5.4788735E-2,1.0000001E-2,-1.31316725E-2,-3.4822404E-2,-5.1428575E-2,2.9517243E-2,-3.4782607E-3,7.537736E-2,-1.1713901E-2,1.5429554E-2,-1.2337662E-3,2.7813122E-2,-9.354717E-2,-7.981912E-2,-3.5800003E-2,-7.1813844E-2,1.92E-2,-5.4444443E-2,-5.2666664E-2,-8.9999996E-2,-1.8064518E-2,-4.0961996E-2,-3.177778E-2,-1.2582781E-3,-4.833333E-3,3.0338982E-2,-3.204651E-2,-3.8845146E-3,4.372093E-2,-2.1348314E-3,5.8E-2,2.414634E-2,1.7272728E-2,-4.7708333E-2,-5.090909E-3,4.631579E-2,3.898331E-2,1.1826484E-2,4.7058826E-3,7.0763886E-2,2.4661655E-2,-3.6097564E-2,5.5849057E-2,3.171875E-2,2.7924528E-2,-3.9E-2,5.8036607E-2,1.12000005E-2,4.247525E-2,7.302752E-2,7.75404E-2,9.188049E-2],"categories":[],"categories_nodes":[],"categories_segments":[],"categories_sizes":[],"default_left":[0,0,0,0,0,0,0,0,0,0,0,0,0,0,0,0,0,0,0,0,0,0,0,0,0,0,0,0,0,0,0,0,0,0,0,0,0,0,0,0,0,0,0,0,0,0,0,0,0,0,0,0,0,0,0,0,0,0,0,0,0,0,0,0,0,0,0,0,0,0,0,0,0,0,0,0,0,0,0,0,0,0,0,0,0,0,0,0,0,0,0,0,0,0,0,0,0,0,0,0,0,0,0,0,0,0,0,0,0,0,0,0,0,0,0,0,0],"id":0,"left_children":[1,3,5,7,9,11,13,15,17,19,21,23,25,27,29,31,33,35,37,39,41,43,45,47,49,51,53,55,57,59,61,63,65,67,69,-1,71,73,75,-1,77,79,81,-1,83,85,87,89,91,93,95,97,99,101,103,105,107,109,111,-1,-1,113,115,-1,-1,-1,-1,-1,-1,-1,-1,-1,-1,-1,-1,-1,-1,-1,-1,-1,-1,-1,-1,-1,-1,-1,-1,-1,-1,-1,-1,-1,-1,-1,-1,-1,-1,-1,-1,-1,-1,-1,-1,-1,-1,-1,-1,-1,-1,-1,-1,-1,-1,-1,-1,-1,-1],"loss_changes":[2.1646921E3,6.082418E2,3.5220398E2,2.760337E2,2.172395E2,1.04829025E2,9.839844E1,4.424028E1,6.0432335E1,1.696582E1,4.4172424E1,3.848953E1,5.441681E1,1.2719589E1,2.4476929E1,6.3020477E0,3.5128082E1,1.4222778E1,2.8460106E1,2.6426392E0,9.714264E0,6.607315E0,1.8784882E1,1.8184898E1,1.402006E1,8.6870165E0,3.2105774E1,1.0051987E1,1.2255692E1,4.863715E0,1.4458984E1,1.5316849E0,5.9746056E0,1.8658722E1,1.1945442E1,0E0,1.1314438E1,2.401746E1,1.980262E1,0E0,2.65979E0,9.458038E0,5.666386E0,0E0,2.9005432E-1,1.6367493E1,1.3115895E1,7.3466463E0,1.5803352E1,7.2912574E0,4.431568E0,7.180114E0,3.7377636E0,2.3699966E1,4.9088135E0,1.1567697E1,5.7846527E0,6.5046854E0,3.7689972E0,0E0,0E0,9.890564E0,4.692993E0,0E0,0E0,0E0,0E0,0E0,0E0,0E0,0E0,0E0,0E0,0E0,0E0,0E0,0E0,0E0,0E0,0E0,0E0,0E0,0E0,0E0,0E0,0E0,0E0,0E0,0E0,0E0,0E0,0E0,0E0,0E0,0E0,0E0,0E0,0E0,0E0,0E0,0E0,0E0,0E0,0E0,0E0,0E0,0E0,0E0,0E0,0E0,0E0,0E0,0E0,0E0,0E0,0E0,0E0],"parents":[2147483647,0,0,1,1,2,2,3,3,4,4,5,5,6,6,7,7,8,8,9,9,10,10,11,11,12,12,13,13,14,14,15,15,16,16,17,17,18,18,19,19,20,20,21,21,22,22,23,23,24,24,25,25,26,26,27,27,28,28,29,29,30,30,31,31,32,32,33,33,34,34,36,36,37,37,38,38,40,40,41,41,42,42,44,44,45,45,46,46,47,47,48,48,49,49,50,50,51,51,52,52,53,53,54,54,55,55,56,56,57,57,58,58,61,61,62,62],"right_children":[2,4,6,8,10,12,14,16,18,20,22,24,26,28,30,32,34,36,38,40,42,44,46,48,50,52,54,56,58,60,62,64,66,68,70,-1,72,74,76,-1,78,80,82,-1,84,86,88,90,92,94,96,98,100,102,104,106,108,110,112,-1,-1,114,116,-1,-1,-1,-1,-1,-1,-1,-1,-1,-1,-1,-1,-1,-1,-1,-1,-1,-1,-1,-1,-1,-1,-1,-1,-1,-1,-1,-1,-1,-1,-1,-1,-1,-1,-1,-1,-1,-1,-1,-1,-1,-1,-1,-1,-1,-1,-1,-1,-1,-1,-1,-1,-1,-1],"split_conditions":[2E0,1E0,1E0,-5.023684E0,-7.017857E0,6.1147184E0,7.017857E0,-2.440732E0,3.3333335E-2,-2.52706E-1,-2.8712757E0,5.227526E-1,-8.9105016E-1,4.9267337E-4,-1.4825029E0,-3.7151657E-2,8.651381E-1,-8.742811E-1,4.9267337E-4,-1.6806823E0,1.3702197E0,-2.6143333E-1,7.1428575E-2,1E0,1.25E-1,5E-1,2.4396296E0,6.74E1,-7.243223E-1,8.67742E0,9.7E0,1.1367432E2,8.514286E1,-4.9822833E2,-2.1913044E0,-2.5263159E-2,1E0,-1.1299062E-2,1E0,-3.2380953E-2,-1.65E1,6.83E1,2.5E-1,-1.0000001E-2,-2E-1,-1.9435717E0,-6.4415834E-3,7.092593E1,-5.2185945E-4,4.4871002E1,7.8333336E-1,1.0227095E2,-1.2103156E0,5.1326715E2,-2.4345239E-1,6E0,8.384615E0,7.575E1,1.4664162E0,-4.631579E-2,2.5263159E-2,1.11189865E-1,2.0065987E0,-8.4689654E-2,-3.2222223E-2,-5.4788735E-2,1.0000001E-2,-1.31316725E-2,-3.4822404E-2,-5.1428575E-2,2.9517243E-2,-3.4782607E-3,7.537736E-2,-1.1713901E-2,1.5429554E-2,-1.2337662E-3,2.7813122E-2,-9.354717E-2,-7.981912E-2,-3.5800003E-2,-7.1813844E-2,1.92E-2,-5.4444443E-2,-5.2666664E-2,-8.9999996E-2,-1.8064518E-2,-4.0961996E-2,-3.177778E-2,-1.2582781E-3,-4.833333E-3,3.0338982E-2,-3.204651E-2,-3.8845146E-3,4.372093E-2,-2.1348314E-3,5.8E-2,2.414634E-2,1.7272728E-2,-4.7708333E-2,-5.090909E-3,4.631579E-2,3.898331E-2,1.1826484E-2,4.7058826E-3,7.0763886E-2,2.4661655E-2,-3.6097564E-2,5.5849057E-2,3.171875E-2,2.7924528E-2,-3.9E-2,5.8036607E-2,1.12000005E-2,4.247525E-2,7.302752E-2,7.75404E-2,9.188049E-2],"split_indices":[38,34,33,38,38,38,38,41,45,41,41,42,42,43,41,43,41,19,43,27,41,28,38,34,39,45,41,17,42,29,40,0,17,31,22,0,33,41,33,0,38,17,45,0,39,25,43,15,43,31,45,1,42,31,43,40,29,15,27,0,0,41,41,0,0,0,0,0,0,0,0,0,0,0,0,0,0,0,0,0,0,0,0,0,0,0,0,0,0,0,0,0,0,0,0,0,0,0,0,0,0,0,0,0,0,0,0,0,0,0,0,0,0,0,0,0,0],"split_type":[0,0,0,0,0,0,0,0,0,0,0,0,0,0,0,0,0,0,0,0,0,0,0,0,0,0,0,0,0,0,0,0,0,0,0,0,0,0,0,0,0,0,0,0,0,0,0,0,0,0,0,0,0,0,0,0,0,0,0,0,0,0,0,0,0,0,0,0,0,0,0,0,0,0,0,0,0,0,0,0,0,0,0,0,0,0,0,0,0,0,0,0,0,0,0,0,0,0,0,0,0,0,0,0,0,0,0,0,0,0,0,0,0,0,0,0,0],"sum_hessian":[4.4315E3,2.61625E3,1.81525E3,1.3365E3,1.27975E3,9.1275E2,9.025E2,6.2075E2,7.1575E2,5.695E2,7.1025E2,3.575E2,5.5525E2,3.46E2,5.565E2,7.675E1,5.44E2,6.05E1,6.5525E2,3.2825E2,2.4125E2,4.95E1,6.6075E2,2.5825E2,9.925E1,4.4E1,5.1125E2,1.7525E2,1.7075E2,7.5E0,5.49E2,3.875E1,3.8E1,5.045E2,3.95E1,3.75E0,5.675E1,3.2875E2,3.265E2,4.25E0,3.24E2,2.325E2,8.75E0,3.5E0,4.6E1,5.1975E2,1.41E2,5.75E1,2.0075E2,5.325E1,4.6E1,2.75E1,1.65E1,4.37E2,7.425E1,4.15E1,1.3375E2,1.625E1,1.545E2,3.75E0,3.75E0,1.3025E2,4.1875E2,3.525E1,3.5E0,3.45E1,3.5E0,1.395E2,3.65E2,4.25E0,3.525E1,4.75E0,5.2E1,1.8425E2,1.445E2,7.6E1,2.505E2,1.315E2,1.925E2,2.4E1,2.085E2,5.25E0,3.5E0,6.5E0,3.95E1,9.975E1,4.2E2,6.65E1,7.45E1,2.9E1,2.85E1,1.065E2,9.425E1,9.75E0,4.35E1,2.65E1,1.95E1,4.5E0,2.3E1,1.275E1,3.75E0,3.285E2,1.085E2,3.25E0,7.1E1,3.225E1,9.25E0,3.875E1,9.5E1,1.225E1,4E0,1.4925E2,5.25E0,4.95E1,8.075E1,2.775E2,1.4125E2],"tree_param":{"num_deleted":"0","num_feature":"46","num_nodes":"117","size_leaf_vector":"1"}},{"base_weights":[-1.1595291E-3,-5.72012E-1,8.1117636E-1,-8.4934615E-2,-1.0001866E0,1.2032312E0,3.1922746E-1,-5.2186966E-1,3.3327547E-1,-1.4663507E0,-7.073376E-1,8.827795E-1,1.4750087E0,-5.7973336E-2,5.9507525E-1,-7.8218967E-1,-1.9437563E-1,2.7657163E-1,1.4683369E0,-1.4975644E0,-4.1152486E-1,-8.112137E-1,-2.9205757E-1,7.147121E-1,1.0854146E0,1.3341048E0,1.6779034E0,-2.1310279E-1,3.693012E-1,4.6882394E-1,1.3053882E0,-1.2520189E0,-6.2951106E-1,-2.681681E-1,8.4197444E-1,-1.9862095E-1,3.821678E-1,1.9944591E-2,1.6554285E0,-1.6897838E0,-1.345926E0,2.9862935E-2,-8.6913043E-1,-1.5086374E0,-7.511792E-1,-4.4231415E-1,4.413004E-2,8.708328E-1,3.82276E-1,1.0045757E0,1.5817692E0,8.8794416E-1,1.4135606E0,-0E0,1.7092483E0,-1.2206912E-1,-6.603143E-1,5.223927E-2,7.4783206E-1,2.541529E-1,8.6018384E-1,1.3421655E-2,1.379497E0,-6.743795E-2,-1.0023884E-2,1.9015493E-2,-3.393708E-2,-2.6948705E-2,-3.927242E-3,1.1211279E-2,7.032669E-2,5.2025383E-3,-3.1226909E-2,4.4604182E-2,1.5278115E-2,8.740155E-2,3.8985964E-2,-4.4718437E-2,-8.621704E-2,-4.490564E-2,-7.0963554E-2,-1.9800132E-3,-6.1456647E-2,-1.9432501E-3,-8.173331E-2,-5.0708976E-2,-3.3173073E-2,1.7315656E-2,-3.116487E-2,-3.721291E-2,1.0809904E-2,4.6226483E-2,-1.5789699E-2,-1.7482799E-3,3.142828E-2,5.152266E-2,-1.1565868E-2,8.487537E-2,2.6279757E-2,-5.1774964E-4,4.872414E-2,6.2329877E-2,7.753927E-2,9.000384E-2,7.578491E-2,-1.3425611E-2,1.2465247E-2,-4.2492595E-2,2.7570356E-2,-2.9029591E-2,1.6113771E-2,6.422675E-2,2.082233E-2,-3.6306E-2,1.7882973E-2,3.5301484E-2,6.744242E-2,4.1486334E-2,7.646651E-2],"categories":[],"categories_nodes":[],"categories_segments":[],"categories_sizes":[],"default_left":[0,0,0,0,0,0,0,0,0,0,0,0,0,0,0,0,0,0,0,0,0,0,0,0,0,0,0,0,0,0,0,0,0,0,0,0,0,0,0,0,0,0,0,0,0,0,0,0,0,0,0,0,0,0,0,0,0,0,0,0,0,0,0,0,0,0,0,0,0,0,0,0,0,0,0,0,0,0,0,0,0,0,0,0,0,0,0,0,0,0,0,0,0,0,0,0,0,0,0,0,0,0,0,0,0,0,0,0,0,0,0,0,0,0,0,0,0,0,0],"id":1,"left_children":[1,3,5,7,9,11,13,15,17,19,21,23,25,27,29,31,33,35,37,39,41,43,45,47,49,51,53,55,57,59,61,63,65,67,69,71,73,-1,75,77,79,-1,81,83,85,87,89,91,93,95,97,99,101,-1,103,105,107,109,111,113,115,-1,117,-1,-1,-1,-1,-1,-1,-1,-1,-1,-1,-1,-1,-1,-1,-1,-1,-1,-1,-1,-1,-1,-1,-1,-1,-1,-1,-1,-1,-1,-1,-1,-1,-1,-1,-1,-1,-1,-1,-1,-1,-1,-1,-1,-1,-1,-1,-1,-1,-1,-1,-1,-1,-1,-1,-1,-1],"loss_changes":[2.0471637E3,5.4053986E2,3.508545E2,2.2205638E2,1.870846E2,8.672168E1,8.431498E1,5.041562E1,3.9379715E1,1.6683594E1,3.6293182E1,1.49730835E1,1.3089478E1,2.2777157E1,4.116188E1,2.2738739E1,2.0410492E1,2.9832062E1,4.9816093E0,1.244751E1,8.273444E0,2.7056702E1,8.732927E0,1.2976929E1,6.5727386E0,1.0135437E1,1.1666321E1,1.0109049E1,1.0859151E1,3.3181366E1,4.837982E0,7.7038956E0,1.2800476E1,1.2628107E1,5.7104626E0,1.4070168E1,1.8568657E1,0E0,3.6909485E-1,4.3289185E0,8.1293335E0,0E0,3.4053326E0,9.524757E0,1.362439E1,1.7223083E1,7.398458E0,1.1513458E1,8.786205E0,6.1830444E0,2.244339E0,4.182499E0,4.1190796E0,0E0,7.3535156E-1,1.1542398E1,1.0200546E1,8.875906E0,6.671583E0,2.6519638E1,9.441742E0,0E0,3.843155E0,0E0,0E0,0E0,0E0,0E0,0E0,0E0,0E0,0E0,0E0,0E0,0E0,0E0,0E0,0E0,0E0,0E0,0E0,0E0,0E0,0E0,0E0,0E0,0E0,0E0,0E0,0E0,0E0,0E0,0E0,0E0,0E0,0E0,0E0,0E0,0E0,0E0,0E0,0E0,0E0,0E0,0E0,0E0,0E0,0E0,0E0,0E0,0E0,0E0,0E0,0E0,0E0,0E0,0E0,0E0,0E0],"parents":[2147483647,0,0,1,1,2,2,3,3,4,4,5,5,6,6,7,7,8,8,9,9,10,10,11,11,12,12,13,13,14,14,15,15,16,16,17,17,18,18,19,19,20,20,21,21,22,22,23,23,24,24,25,25,26,26,27,27,28,28,29,29,30,30,31,31,32,32,33,33,34,34,35,35,36,36,38,38,39,39,40,40,42,42,43,43,44,44,45,45,46,46,47,47,48,48,49,49,50,50,51,51,52,52,54,54,55,55,56,56,57,57,58,58,59,59,60,60,62,62],"right_children":[2,4,6,8,10,12,14,16,18,20,22,24,26,28,30,32,34,36,38,40,42,44,46,48,50,52,54,56,58,60,62,64,66,68,70,72,74,-1,76,78,80,-1,82,84,86,88,90,92,94,96,98,100,102,-1,104,106,108,110,112,114,116,-1,118,-1,-1,-1,-1,-1,-1,-1,-1,-1,-1,-1,-1,-1,-1,-1,-1,-1,-1,-1,-1,-1,-1,-1,-1,-1,-1,-1,-1,-1,-1,-1,-1,-1,-1,-1,-1,-1,-1,-1,-1,-1,-1,-1,-1,-1,-1,-1,-1,-1,-1,-1,-1,-1,-1,-1,-1],"split_conditions":[2E0,1.0365727E1,0E0,-4.720238E0,-8.208333E0,8.208333E0,6.5E0,-1.1758172E-1,2.8672256E0,1.3085091E0,3.7619048E-1,1.915911E-1,1.7333334E1,6.0955554E-1,2.3601456E0,-2.3600843E0,1.792558E0,-7.258755E-1,1.5137215E0,-1.65E1,8.384615E0,-2.8712757E0,7.575758E-3,-1.8931113E2,2.8672256E0,1.5E-1,-1.1742759E0,8.1488245E2,1.25E-1,1.9E1,2.2230089E0,-0E0,3E0,-2.51634E-1,-2.4987898E0,1.0867178E2,7.285714E0,1.9944591E-2,7.0181816E1,6.7304344E1,1.5E-1,2.9862935E-2,1.6270384E0,-1.0499418E0,-5.1666665E0,1.25479904E2,3.263554E-1,3.056676E0,-2.6331747E-1,8.514286E1,7.118117E1,-1.4303242E0,2.593869E-1,-0E0,-4.0415794E-1,5.0246305E0,8.833333E-1,-2.3950887E0,5.833333E-1,-9.355319E-1,1.3571896E1,1.3421655E-2,1.1E1,-6.743795E-2,-1.0023884E-2,1.9015493E-2,-3.393708E-2,-2.6948705E-2,-3.927242E-3,1.1211279E-2,7.032669E-2,5.2025383E-3,-3.1226909E-2,4.4604182E-2,1.5278115E-2,8.740155E-2,3.8985964E-2,-4.4718437E-2,-8.621704E-2,-4.490564E-2,-7.0963554E-2,-1.9800132E-3,-6.1456647E-2,-1.9432501E-3,-8.173331E-2,-5.0708976E-2,-3.3173073E-2,1.7315656E-2,-3.116487E-2,-3.721291E-2,1.0809904E-2,4.6226483E-2,-1.5789699E-2,-1.7482799E-3,3.142828E-2,5.152266E-2,-1.1565868E-2,8.487537E-2,2.6279757E-2,-5.1774964E-4,4.872414E-2,6.2329877E-2,7.753927E-2,9.000384E-2,7.578491E-2,-1.3425611E-2,1.2465247E-2,-4.2492595E-2,2.7570356E-2,-2.9029591E-2,1.6113771E-2,6.422675E-2,2.082233E-2,-3.6306E-2,1.7882973E-2,3.5301484E-2,6.744242E-2,4.1486334E-2,7.646651E-2],"split_indices":[38,31,31,38,38,38,38,41,41,42,42,41,40,42,41,41,41,41,22,40,23,41,37,31,41,45,41,31,39,16,42,39,13,37,25,1,29,0,15,17,45,0,42,26,38,31,6,25,42,17,5,20,41,0,27,38,45,25,45,42,38,0,13,0,0,0,0,0,0,0,0,0,0,0,0,0,0,0,0,0,0,0,0,0,0,0,0,0,0,0,0,0,0,0,0,0,0,0,0,0,0,0,0,0,0,0,0,0,0,0,0,0,0,0,0,0,0,0,0],"split_type":[0,0,0,0,0,0,0,0,0,0,0,0,0,0,0,0,0,0,0,0,0,0,0,0,0,0,0,0,0,0,0,0,0,0,0,0,0,0,0,0,0,0,0,0,0,0,0,0,0,0,0,0,0,0,0,0,0,0,0,0,0,0,0,0,0,0,0,0,0,0,0,0,0,0,0,0,0,0,0,0,0,0,0,0,0,0,0,0,0,0,0,0,0,0,0,0,0,0,0,0,0,0,0,0,0,0,0,0,0,0,0,0,0,0,0,0,0,0,0],"sum_hessian":[4.4126675E3,2.5917717E3,1.8208959E3,1.2131565E3,1.3786154E3,1.0124125E3,8.0848346E2,5.932918E2,6.198647E2,5.302314E2,8.483839E2,4.6672037E2,5.456921E2,3.4168402E2,4.6679944E2,3.2960226E2,2.6368954E2,5.916401E2,2.8224583E1,5.144924E2,1.5739048E1,6.7767865E2,1.7070529E2,2.578652E2,2.0885516E2,3.268047E2,2.1888739E2,2.5121231E2,9.04717E1,3.9788077E2,6.891869E1,7.891285E1,2.5068942E2,2.4694383E2,1.6745703E1,1.0723675E2,4.8440332E2,4.7484226E0,2.347616E1,2.2212271E2,2.9236966E2,4.7481413E0,1.0990907E1,5.1666813E1,6.260118E2,1.1796395E2,5.2741337E1,1.7415643E2,8.370878E1,1.823776E2,2.647757E1,5.143281E1,2.7537186E2,3.9975834E0,2.148898E2,2.0996811E2,4.1244205E1,4.999635E1,4.0475353E1,2.5817178E2,1.3970897E2,4.995232E0,6.3923462E1,7.19187E1,6.9941454E0,1.12463875E1,2.3944304E2,1.0072544E2,1.462184E2,8.747912E0,7.9977903E0,6.2992783E1,4.4243965E1,6.1707012E1,4.2269632E2,2.0226927E1,3.2492325E0,1.0488035E1,2.1163467E2,4.3202457E1,2.491672E2,3.7463083E0,7.2445984E0,4.246388E0,4.7420425E1,1.5364458E2,4.7236725E2,2.174499E1,9.621896E1,8.748872E0,4.3992466E1,1.6690869E2,7.2477465E0,3.123881E1,5.2469967E1,1.788793E2,3.4982865E0,2.3230059E1,3.2475107E0,4.495267E0,4.6937546E1,1.2910335E2,1.4626852E2,1.4025462E2,7.4635185E1,1.5097911E2,5.8989002E1,3.599503E1,5.2491765E0,1.4498552E1,3.54978E1,1.4237945E1,2.6237408E1,2.398999E1,2.341818E2,1.0821948E2,3.148949E1,1.5233499E1,4.868996E1],"tree_param":{"num_deleted":"0","num_feature":"46","num_nodes":"119","size_leaf_vector":"1"}},{"base_weights":[4.625577E-3,-4.9813625E-1,7.762507E-1,-5.899705E-2,-9.827022E-1,3.985857E-1,1.1615841E0,-4.1023907E-1,4.3721634E-1,-1.4020813E0,-6.9087553E-1,-3.1018117E-1,5.0186884E-1,8.0560416E-1,1.3891733E0,-8.584554E-1,-2.4018341E-1,3.8007045E-1,1.5041232E0,-1.6188151E0,-1.261188E0,-8.852929E-1,-4.382975E-1,-8.116135E-3,-6.596979E-1,2.1593146E-1,7.3613316E-1,6.6081125E-1,1.149036E0,1.0785286E0,1.4854273E0,-1.1734929E0,-6.3685626E-1,-4.306486E-1,1.369468E-1,-3.8804308E-2,4.9518016E-1,8.005657E-2,3.2284882E-2,-1.6482111E0,4.6983126E-4,-1.2947485E0,-2.3719567E-1,-1.0139337E0,-5.2885157E-1,-4.9898767E-1,6.006956E-1,-4.5364714E-1,2.4455741E-1,-1.1119348E0,-3.512529E-1,1.523845E-1,9.41565E-1,1.8004802E-1,8.4866834E-1,-2.8631518E-2,6.9118875E-1,1.1936365E0,-1.4476756E-3,-1.2310858E-2,1.1295861E0,-1.6503025E-2,1.5096995E0,-6.209442E-2,-3.4261872E-3,-1.4927481E-2,-4.316989E-2,-3.6977585E-2,-4.598391E-3,-1.748358E-2,2.2050966E-2,-1.2944899E-2,8.56849E-3,8.569072E-3,3.578871E-2,-7.0303015E-2,-8.538889E-2,-4.213694E-2,-6.755411E-2,2.1789735E-2,-3.7325755E-2,-7.300788E-2,-4.694855E-2,-1.3435113E-2,-4.145177E-2,-2.706939E-2,3.352287E-2,-1.03249E-2,4.7184143E-2,-3.768685E-2,1.7729579E-2,-3.0848807E-2,2.4209471E-2,-3.7088104E-2,-7.4559584E-2,-3.069712E-2,1.822895E-2,2.7628193E-2,9.885987E-4,-1.5209379E-2,6.082789E-2,2.8674636E-2,-1.07680885E-2,3.0497054E-2,5.541555E-2,3.925129E-2,1.105928E-2,6.6093385E-2,3.4301538E-2,2.5171658E-2,6.0688883E-2,6.943817E-2,8.362621E-2],"categories":[],"categories_nodes":[],"categories_segments":[],"categories_sizes":[],"default_left":[0,0,0,0,0,0,0,0,0,0,0,0,0,0,0,0,0,0,0,0,0,0,0,0,0,0,0,0,0,0,0,0,0,0,0,0,0,0,0,0,0,0,0,0,0,0,0,0,0,0,0,0,0,0,0,0,0,0,0,0,0,0,0,0,0,0,0,0,0,0,0,0,0,0,0,0,0,0,0,0,0,0,0,0,0,0,0,0,0,0,0,0,0,0,0,0,0,0,0,0,0,0,0,0,0,0,0,0,0,0,0,0,0],"id":2,"left_children":[1,3,5,7,9,11,13,15,17,19,21,23,25,27,29,31,33,35,37,39,41,43,45,47,49,51,53,55,57,59,61,63,65,67,69,71,73,-1,-1,75,-1,77,79,81,83,85,87,89,91,93,95,97,99,101,103,-1,105,107,-1,-1,109,-1,111,-1,-1,-1,-1,-1,-1,-1,-1,-1,-1,-1,-1,-1,-1,-1,-1,-1,-1,-1,-1,-1,-1,-1,-1,-1,-1,-1,-1,-1,-1,-1,-1,-1,-1,-1,-1,-1,-1,-1,-1,-1,-1,-1,-1,-1,-1,-1,-1,-1,-1],"loss_changes":[1.7100723E3,5.6775757E2,2.5246338E2,2.4440149E2,1.5408716E2,6.458899E1,6.834802E1,6.2270462E1,3.467141E1,1.353241E1,3.6318634E1,1.1795924E1,5.122505E1,1.5867523E1,1.3783813E1,1.4800003E1,4.2957653E1,2.672953E1,1.1662064E0,9.792236E0,1.0523285E1,1.869162E1,2.1003597E1,7.051202E0,6.7091637E0,1.5780079E1,2.6141571E1,9.412193E0,5.335739E0,9.000336E0,1.8088074E1,6.7111435E0,9.944561E0,4.1378807E1,2.9882975E1,5.601906E0,3.0793121E1,0E0,0E0,1.338501E-1,0E0,6.513916E0,4.284982E0,8.735443E0,8.600821E0,1.5771194E1,5.3882995E0,5.8219285E0,8.487318E0,1.5444412E0,6.35566E0,1.6967968E1,9.942936E0,1.1425132E1,2.0871689E1,0E0,1.0093506E1,5.088318E0,0E0,0E0,5.709976E0,0E0,5.080261E0,0E0,0E0,0E0,0E0,0E0,0E0,0E0,0E0,0E0,0E0,0E0,0E0,0E0,0E0,0E0,0E0,0E0,0E0,0E0,0E0,0E0,0E0,0E0,0E0,0E0,0E0,0E0,0E0,0E0,0E0,0E0,0E0,0E0,0E0,0E0,0E0,0E0,0E0,0E0,0E0,0E0,0E0,0E0,0E0,0E0,0E0,0E0,0E0,0E0,0E0],"parents":[2147483647,0,0,1,1,2,2,3,3,4,4,5,5,6,6,7,7,8,8,9,9,10,10,11,11,12,12,13,13,14,14,15,15,16,16,17,17,18,18,19,19,20,20,21,21,22,22,23,23,24,24,25,25,26,26,27,27,28,28,29,29,30,30,31,31,32,32,33,33,34,34,35,35,36,36,39,39,41,41,42,42,43,43,44,44,45,45,46,46,47,47,48,48,49,49,50,50,51,51,52,52,53,53,54,54,56,56,57,57,60,60,62,62],"right_children":[2,4,6,8,10,12,14,16,18,20,22,24,26,28,30,32,34,36,38,40,42,44,46,48,50,52,54,56,58,60,62,64,66,68,70,72,74,-1,-1,76,-1,78,80,82,84,86,88,90,92,94,96,98,100,102,104,-1,106,108,-1,-1,110,-1,112,-1,-1,-1,-1,-1,-1,-1,-1,-1,-1,-1,-1,-1,-1,-1,-1,-1,-1,-1,-1,-1,-1,-1,-1,-1,-1,-1,-1,-1,-1,-1,-1,-1,-1,-1,-1,-1,-1,-1,-1,-1,-1,-1,-1,-1,-1,-1,-1,-1,-1],"split_conditions":[2.6E0,1E0,1E0,-3.3E0,-8.3E0,-5.138622E-1,8.3E0,-7.629503E-1,2.8672256E0,-1.7333334E1,3.5872192E-3,4.95558E-1,1.7293233E-1,6.704153E-1,7.23E1,-2.3600843E0,-1E0,1E0,-6.555299E1,1.1290972E0,2.6442882E-1,4.7789726E-2,2.0065987E0,1.2E1,-2.016136E0,2.4396296E0,6E0,-1.7293233E-1,1.420083E0,6.8666664E1,-1.4825029E0,1.5972222E-1,-1.818882E0,-1.8518518E-1,1E0,-0E0,-1.5816584E-2,8.005657E-2,3.2284882E-2,7.5833335E0,4.6983126E-4,1.0332144E2,2.3203067E2,-2.7438223E0,3.4759103E2,2.0689656E-1,6.972222E1,9.736842E0,3.3333335E-2,1.0519266E0,2.51634E-1,1E0,-2E-1,1E0,3.1609195E-1,-2.8631518E-2,9.558824E0,-1.3824445E2,-1.4476756E-3,-1.2310858E-2,7.826087E-2,-1.6503025E-2,1.7857143E1,-6.209442E-2,-3.4261872E-3,-1.4927481E-2,-4.316989E-2,-3.6977585E-2,-4.598391E-3,-1.748358E-2,2.2050966E-2,-1.2944899E-2,8.56849E-3,8.569072E-3,3.578871E-2,-7.0303015E-2,-8.538889E-2,-4.213694E-2,-6.755411E-2,2.1789735E-2,-3.7325755E-2,-7.300788E-2,-4.694855E-2,-1.3435113E-2,-4.145177E-2,-2.706939E-2,3.352287E-2,-1.03249E-2,4.7184143E-2,-3.768685E-2,1.7729579E-2,-3.0848807E-2,2.4209471E-2,-3.7088104E-2,-7.4559584E-2,-3.069712E-2,1.822895E-2,2.7628193E-2,9.885987E-4,-1.5209379E-2,6.082789E-2,2.8674636E-2,-1.07680885E-2,3.0497054E-2,5.541555E-2,3.925129E-2,1.105928E-2,6.6093385E-2,3.4301538E-2,2.5171658E-2,6.0688883E-2,6.943817E-2,8.362621E-2],"split_indices":[40,34,33,40,40,41,40,41,41,40,43,7,37,41,14,41,22,33,31,41,43,42,41,16,42,41,16,37,27,18,41,43,42,37,33,41,43,0,0,29,0,1,31,41,31,37,18,23,37,27,37,34,20,34,37,0,23,31,0,0,37,0,40,0,0,0,0,0,0,0,0,0,0,0,0,0,0,0,0,0,0,0,0,0,0,0,0,0,0,0,0,0,0,0,0,0,0,0,0,0,0,0,0,0,0,0,0,0,0,0,0,0,0],"split_type":[0,0,0,0,0,0,0,0,0,0,0,0,0,0,0,0,0,0,0,0,0,0,0,0,0,0,0,0,0,0,0,0,0,0,0,0,0,0,0,0,0,0,0,0,0,0,0,0,0,0,0,0,0,0,0,0,0,0,0,0,0,0,0,0,0,0,0,0,0,0,0,0,0,0,0,0,0,0,0,0,0,0,0,0,0,0,0,0,0,0,0,0,0,0,0,0,0,0,0,0,0,0,0,0,0,0,0,0,0,0,0,0,0],"sum_hessian":[4.405974E3,2.6678975E3,1.7380765E3,1.4002476E3,1.26765E3,8.789308E2,8.5914575E2,8.20111E2,5.801365E2,5.18449E2,7.49201E2,1.1141163E2,7.6751917E2,3.3700455E2,5.221412E2,2.2429631E2,5.958147E2,5.520191E2,2.8117403E1,1.9983952E2,3.1860947E2,4.2170233E2,3.274987E2,6.046496E1,5.0946674E1,3.4669736E2,4.2082178E2,2.3932085E2,9.768371E1,1.2664816E2,3.95493E2,9.0660934E1,1.3363538E2,3.95962E2,1.9985272E2,1.18953026E2,4.3306607E2,2.4380537E1,3.7368655E0,1.9634381E2,3.495699E0,3.081481E2,1.0461377E1,3.083079E2,1.1339444E2,3.100064E2,1.7492254E1,2.173707E1,3.8727886E1,1.947037E1,3.1476305E1,3.2001962E2,2.6677729E1,7.141547E1,3.494063E2,5.244193E0,2.3407666E2,9.418918E1,3.4945333E0,4.4855022E0,1.2216266E2,4.9972277E0,3.904958E2,8.5174385E1,5.4865494E0,5.4703285E1,7.893209E1,2.0631128E2,1.8965073E2,7.6672325E1,1.2318039E2,5.822449E1,6.0728535E1,1.7638693E2,2.5667914E2,4.3952347E1,1.5239146E2,3.6113697E1,2.720344E2,4.4841948E0,5.977183E0,4.1494526E1,2.6681335E2,6.1941837E1,5.1452602E1,2.9976068E2,1.0245735E1,5.2479653E0,1.2244288E1,1.5990966E1,5.7461057E0,7.9943447E0,3.0733541E1,1.1482452E1,7.987917E0,2.3232637E1,8.243667E0,7.867737E1,2.4134225E2,4.7391157E0,2.1938614E1,3.56977E1,3.5717766E1,1.8398053E2,1.6542578E2,1.943844E2,3.969225E1,7.3755875E1,2.0433302E1,1.54470005E1,1.0671566E2,2.298907E2,1.6060509E2],"tree_param":{"num_deleted":"0","num_feature":"46","num_nodes":"113","size_leaf_vector":"1"}},{"base_weights":[1.3443941E-2,-7.1039784E-1,5.27619E-1,-2.957631E-1,-1.0650249E0,1.1359485E-1,9.680915E-1,-6.517278E-1,-3.424752E-2,-1.301608E0,-7.1274495E-1,-2.509884E-1,5.2630395E-1,6.5129286E-1,1.3598826E0,-2.1986237E-1,-8.756668E-1,-2.67641E-1,2.5871375E-1,-1.483934E0,-1.0917072E0,-2.6529002E-1,-7.945684E-1,-5.186965E-1,4.21254E-2,-3.9665943E-1,6.056221E-1,4.0201315E-1,8.521939E-1,-0E0,1.3813655E0,4.1712117E-1,-4.6645242E-1,-1.5072802E0,-7.513004E-1,-1.1725223E0,-1.9527744E-1,-9.514063E-2,3.9412543E-1,-1.1939425E0,-1.5553831E0,-1.1654598E0,-2.6390025E-1,3.573676E-1,-5.5210435E-1,-9.1086453E-1,-4.4310755E-1,-1.1846575E0,-3.7865502E-1,-2.464692E-1,2.7628627E-1,5.743622E-1,-6.118332E-1,-4.573816E-1,6.65038E-1,2.7260473E-1,6.658011E-1,7.7983713E-1,1.4609619E0,-4.4887308E-2,4.7986373E-2,1.2053832E0,1.5063931E0,-1.7990246E-2,3.842869E-2,-1.4906627E-3,-3.899378E-2,-8.157249E-2,-2.3341646E-2,-5.924387E-2,-3.2002106E-2,-1.0492377E-2,-6.8793386E-2,-1.2054451E-2,4.834765E-2,-1.8102188E-2,1.6566155E-2,-6.0336622E-3,2.4247795E-2,-4.316475E-2,-7.013667E-2,-7.8364395E-2,-3.41419E-2,-6.1685592E-2,-3.0255442E-2,-3.538486E-2,3.7757017E-2,6.261067E-2,-1.313212E-3,-3.3314914E-2,2.2522507E-2,1.3631463E-2,-4.669129E-2,3.0091787E-2,-2.89125E-2,-1.563015E-2,-6.6012315E-2,2.204687E-2,-2.0366801E-2,2.8077602E-2,-1.6989667E-2,9.548622E-3,4.194791E-2,-1.0849304E-2,5.4444876E-2,-1.723762E-2,-6.1568983E-2,5.439022E-2,-3.4874283E-2,2.8477028E-2,6.2120553E-2,1.4912868E-2,-5.104164E-2,6.3201846E-3,4.059201E-2,2.3437595E-2,4.371783E-2,2.8327538E-2,7.781455E-2,2.3705775E-2,6.3945435E-2,1.7180818E-3,7.6112E-2],"categories":[],"categories_nodes":[],"categories_segments":[],"categories_sizes":[],"default_left":[0,0,0,0,0,0,0,0,0,0,0,0,0,0,0,0,0,0,0,0,0,0,0,0,0,0,0,0,0,0,0,0,0,0,0,0,0,0,0,0,0,0,0,0,0,0,0,0,0,0,0,0,0,0,0,0,0,0,0,0,0,0,0,0,0,0,0,0,0,0,0,0,0,0,0,0,0,0,0,0,0,0,0,0,0,0,0,0,0,0,0,0,0,0,0,0,0,0,0,0,0,0,0,0,0,0,0,0,0,0,0,0,0,0,0,0,0,0,0,0,0,0,0],"id":3,"left_children":[1,3,5,7,9,11,13,15,17,19,21,23,25,27,29,31,33,35,37,39,41,43,45,47,49,51,53,55,57,59,61,63,65,67,69,71,73,75,77,79,81,83,85,87,89,91,93,95,97,99,101,103,105,107,109,111,113,115,117,-1,-1,119,121,-1,-1,-1,-1,-1,-1,-1,-1,-1,-1,-1,-1,-1,-1,-1,-1,-1,-1,-1,-1,-1,-1,-1,-1,-1,-1,-1,-1,-1,-1,-1,-1,-1,-1,-1,-1,-1,-1,-1,-1,-1,-1,-1,-1,-1,-1,-1,-1,-1,-1,-1,-1,-1,-1,-1,-1,-1,-1,-1,-1],"loss_changes":[1.6408203E3,2.687741E2,4.69875E2,7.8624374E1,8.10791E1,2.0028261E2,1.5390393E2,3.4311264E1,3.3483532E1,2.0652466E1,1.4279465E1,5.55258E1,4.5963623E1,3.421292E1,1.6148193E1,1.9629795E1,1.7117142E1,1.7488914E1,1.0465415E1,4.3327637E0,1.6503815E1,1.15253315E1,1.3208725E1,3.386718E1,2.2919287E1,1.0783041E1,3.6665283E1,1.034642E1,1.5478363E1,9.254511E0,9.981323E0,9.857256E0,1.2180233E1,3.881897E0,8.64106E0,3.4460468E0,1.3672855E1,7.02768E0,7.452282E0,3.1365967E0,1.2679443E0,8.805969E0,1.1438271E1,7.181511E0,5.342561E0,7.156769E0,1.2459969E1,6.9474335E0,7.392769E0,1.1614486E1,8.728727E0,4.185487E0,6.272253E0,1.2206488E1,2.9184082E1,7.2231455E0,7.7958755E0,9.571304E0,2.2590103E0,0E0,0E0,1.1754486E1,7.1711426E0,0E0,0E0,0E0,0E0,0E0,0E0,0E0,0E0,0E0,0E0,0E0,0E0,0E0,0E0,0E0,0E0,0E0,0E0,0E0,0E0,0E0,0E0,0E0,0E0,0E0,0E0,0E0,0E0,0E0,0E0,0E0,0E0,0E0,0E0,0E0,0E0,0E0,0E0,0E0,0E0,0E0,0E0,0E0,0E0,0E0,0E0,0E0,0E0,0E0,0E0,0E0,0E0,0E0,0E0,0E0,0E0,0E0,0E0,0E0,0E0],"parents":[2147483647,0,0,1,1,2,2,3,3,4,4,5,5,6,6,7,7,8,8,9,9,10,10,11,11,12,12,13,13,14,14,15,15,16,16,17,17,18,18,19,19,20,20,21,21,22,22,23,23,24,24,25,25,26,26,27,27,28,28,29,29,30,30,31,31,32,32,33,33,34,34,35,35,36,36,37,37,38,38,39,39,40,40,41,41,42,42,43,43,44,44,45,45,46,46,47,47,48,48,49,49,50,50,51,51,52,52,53,53,54,54,55,55,56,56,57,57,58,58,61,61,62,62],"right_children":[2,4,6,8,10,12,14,16,18,20,22,24,26,28,30,32,34,36,38,40,42,44,46,48,50,52,54,56,58,60,62,64,66,68,70,72,74,76,78,80,82,84,86,88,90,92,94,96,98,100,102,104,106,108,110,112,114,116,118,-1,-1,120,122,-1,-1,-1,-1,-1,-1,-1,-1,-1,-1,-1,-1,-1,-1,-1,-1,-1,-1,-1,-1,-1,-1,-1,-1,-1,-1,-1,-1,-1,-1,-1,-1,-1,-1,-1,-1,-1,-1,-1,-1,-1,-1,-1,-1,-1,-1,-1,-1,-1,-1,-1,-1,-1,-1,-1,-1,-1,-1,-1,-1],"split_conditions":[-1.8055556E0,2.4926706E1,1E0,-8.357142E0,-7.017857E0,5.0246305E0,7.017857E0,1E1,1.0290128E-2,-2.8793514E-1,6.5833336E1,7.5763674E-3,-2.201838E-1,-2.5378068E-3,-1.3705868E0,7.292308E1,-1.7434067E1,-2.440732E0,-3.6078432E-1,7.23E1,6.751278E1,-1.8E0,5.6774676E-2,8.3333336E-2,-5.2185945E-4,6.2E1,-1.2659241E0,2.1361151E-1,2.8672256E0,8E0,2.52706E-1,-4.404537E-2,-2.8452124E2,3.7879057E-2,-2.1525104E0,8.375E0,1.1247211E2,-7.398538E-1,1E0,8.636364E0,1.2988673E0,2.1973214E-1,1.1290972E0,7.092593E1,6.825624E1,2E0,6.7333336E1,-1.858941E-1,6.2703705E1,-4.4871002E1,2.182826E0,-1.0566315E-1,-2.27E-1,-1.9555556E0,2.3601456E0,3.875E0,-1.2735434E0,-2.6331747E-1,6.848148E1,-4.4887308E-2,4.7986373E-2,-2.0833333E-1,-1.6806892E0,-1.7990246E-2,3.842869E-2,-1.4906627E-3,-3.899378E-2,-8.157249E-2,-2.3341646E-2,-5.924387E-2,-3.2002106E-2,-1.0492377E-2,-6.8793386E-2,-1.2054451E-2,4.834765E-2,-1.8102188E-2,1.6566155E-2,-6.0336622E-3,2.4247795E-2,-4.316475E-2,-7.013667E-2,-7.8364395E-2,-3.41419E-2,-6.1685592E-2,-3.0255442E-2,-3.538486E-2,3.7757017E-2,6.261067E-2,-1.313212E-3,-3.3314914E-2,2.2522507E-2,1.3631463E-2,-4.669129E-2,3.0091787E-2,-2.89125E-2,-1.563015E-2,-6.6012315E-2,2.204687E-2,-2.0366801E-2,2.8077602E-2,-1.6989667E-2,9.548622E-3,4.194791E-2,-1.0849304E-2,5.4444876E-2,-1.723762E-2,-6.1568983E-2,5.439022E-2,-3.4874283E-2,2.8477028E-2,6.2120553E-2,1.4912868E-2,-5.104164E-2,6.3201846E-3,4.059201E-2,2.3437595E-2,4.371783E-2,2.8327538E-2,7.781455E-2,2.3705775E-2,6.3945435E-2,1.7180818E-3,7.6112E-2],"split_indices":[38,31,33,38,38,38,38,16,43,41,14,41,43,43,41,15,38,41,42,17,4,28,43,45,43,17,42,41,41,16,41,43,31,41,42,23,3,20,33,29,21,43,41,18,4,16,15,26,15,31,41,41,26,28,41,30,20,42,17,0,0,43,21,0,0,0,0,0,0,0,0,0,0,0,0,0,0,0,0,0,0,0,0,0,0,0,0,0,0,0,0,0,0,0,0,0,0,0,0,0,0,0,0,0,0,0,0,0,0,0,0,0,0,0,0,0,0,0,0,0,0,0,0],"split_type":[0,0,0,0,0,0,0,0,0,0,0,0,0,0,0,0,0,0,0,0,0,0,0,0,0,0,0,0,0,0,0,0,0,0,0,0,0,0,0,0,0,0,0,0,0,0,0,0,0,0,0,0,0,0,0,0,0,0,0,0,0,0,0,0,0,0,0,0,0,0,0,0,0,0,0,0,0,0,0,0,0,0,0,0,0,0,0,0,0,0,0,0,0,0,0,0,0,0,0,0,0,0,0,0,0,0,0,0,0,0,0,0,0,0,0,0,0,0,0,0,0,0,0],"sum_hessian":[4.4066997E3,1.8299581E3,2.5767417E3,8.4457983E2,9.853783E2,1.329014E3,1.2477278E3,3.5690305E2,4.876768E2,5.877082E2,3.9767007E2,7.057292E2,6.232848E2,6.9150275E2,5.5622504E2,1.2270169E2,2.3420135E2,2.7167178E2,2.16005E2,3.1100967E2,2.7669852E2,6.2322327E1,3.3534775E2,3.6862573E2,3.3710345E2,4.8908867E1,5.743759E2,3.101566E2,3.813462E2,8.734377E0,5.4749066E2,3.3937733E1,8.8763954E1,3.6566936E1,1.9763441E2,1.8888794E1,2.5278299E2,5.9660526E1,1.5634447E2,6.525757E1,2.457521E2,2.5357764E2,2.3120892E1,1.9466663E1,4.2855663E1,2.5056216E2,8.478558E1,6.2627945E1,3.0599777E2,1.5078586E2,1.8631761E2,8.484875E0,4.0423996E1,2.9961248E1,5.444147E2,2.0969666E2,1.0045993E2,3.4302078E2,3.8325405E1,4.495371E0,4.2390056E0,2.3215791E2,3.1533276E2,1.0474455E1,2.3463278E1,3.768209E1,5.1081863E1,3.20749E1,4.4920363E0,3.8203907E1,1.5943051E2,3.7341921E0,1.5154602E1,2.4404219E2,8.740794E0,3.6932068E1,2.2728458E1,2.323369E1,1.3311078E2,2.7430872E1,3.7826694E1,2.4154565E2,4.206448E0,2.2481451E2,2.8763123E1,1.638765E1,6.7332416E0,5.240178E0,1.4226484E1,3.886408E1,3.9915876E0,4.4788675E0,2.460833E2,9.229362E0,7.555622E1,8.971276E0,5.3656666E1,9.7422285E0,2.9625555E2,1.4981751E1,1.3580411E2,1.631044E2,2.3213207E1,3.4944284E0,4.9904456E0,2.9447369E1,1.0976625E1,3.4986565E0,2.6462593E1,4.690015E2,7.541318E1,2.064489E2,3.2477632E0,2.1947365E1,7.8512566E1,8.157061E1,2.6145016E2,4.461172E0,3.386423E1,2.2014557E1,2.1014336E2,3.4594736E0,3.118733E2],"tree_param":{"num_deleted":"0","num_feature":"46","num_nodes":"123","size_leaf_vector":"1"}},{"base_weights":[4.123398E-3,-6.960469E-1,4.791359E-1,-2.9686233E-1,-1.0959647E0,8.5794294E-1,4.437088E-2,-6.060518E-1,-6.823882E-2,-1.3368739E0,-8.0408704E-1,5.4208654E-1,1.2787272E0,-3.0412704E-1,4.3057042E-1,-7.2381765E-1,5.492865E-2,-2.6826164E-1,2.0322414E-1,-1.3601317E0,-2.5226223E-1,-9.92959E-1,-6.1817044E-1,3.2187018E-1,7.1644443E-1,1.0785127E0,1.444614E0,-5.259228E-1,-2.616979E-2,3.7071854E-2,6.4901394E-1,1.487926E-1,-7.9910755E-1,-5.7662208E-2,2.0542188E-1,-1.521649E-1,-7.0299244E-1,4.1720796E-1,-4.9574237E-2,-1.3719324E0,8.358608E-3,-5.410709E-2,3.1999347E-1,-1.2230767E0,-8.159772E-1,-4.8054588E-1,-9.0200835E-1,3.654096E-2,4.5607612E-1,6.510154E-1,1.3780656E0,1.9573174E-1,1.1395521E0,1.32427E0,8.014711E-2,-1.064457E0,-4.1748148E-1,-8.7576345E-2,9.014087E-1,3.152004E-1,-3.0567288E-1,5.3174126E-1,1.1377907E0,-6.4463057E-3,4.923631E-2,-6.7790076E-2,-3.569844E-2,-0E0,5.0316025E-2,-2.417176E-2,2.4609156E-3,1.7351808E-2,-3.8441792E-2,6.527246E-3,3.8903933E-2,1.9836028E-3,-6.805273E-2,-5.69659E-2,-7.3393136E-2,4.222178E-2,-1.2888694E-2,-1.5819905E-2,-6.4833395E-2,-2.3258261E-2,-4.8445232E-2,-3.4615293E-2,-1.082891E-2,-7.2763614E-2,-3.7866965E-2,-1.3887592E-2,1.6182434E-2,7.3970356E-3,2.6986957E-2,2.2444125E-2,3.8561862E-2,2.862661E-2,7.5460695E-2,5.0709993E-2,-3.697939E-2,4.56956E-2,6.6961594E-2,6.75874E-2,-1.0712064E-3,2.684159E-2,-6.2447578E-2,-2.6713097E-2,-5.1880637E-3,8.05195E-3,-1.2175381E-2,5.9801053E-2,7.5790486E-3,2.7473053E-2,-1.3544291E-2,-4.1308254E-2,-2.2702157E-3,3.8367376E-2,1.7614892E-2,5.2978224E-3,6.1887987E-2],"categories":[],"categories_nodes":[],"categories_segments":[],"categories_sizes":[],"default_left":[0,0,0,0,0,0,0,0,0,0,0,0,0,0,0,0,0,0,0,0,0,0,0,0,0,0,0,0,0,0,0,0,0,0,0,0,0,0,0,0,0,0,0,0,0,0,0,0,0,0,0,0,0,0,0,0,0,0,0,0,0,0,0,0,0,0,0,0,0,0,0,0,0,0,0,0,0,0,0,0,0,0,0,0,0,0,0,0,0,0,0,0,0,0,0,0,0,0,0,0,0,0,0,0,0,0,0,0,0,0,0,0,0,0,0,0,0,0,0],"id":4,"left_children":[1,3,5,7,9,11,13,15,17,19,21,23,25,27,29,31,33,35,37,39,41,43,45,47,49,51,53,55,57,59,61,63,65,-1,67,69,71,73,75,77,-1,-1,79,81,83,85,87,89,91,93,95,97,99,101,-1,103,105,107,109,111,113,115,117,-1,-1,-1,-1,-1,-1,-1,-1,-1,-1,-1,-1,-1,-1,-1,-1,-1,-1,-1,-1,-1,-1,-1,-1,-1,-1,-1,-1,-1,-1,-1,-1,-1,-1,-1,-1,-1,-1,-1,-1,-1,-1,-1,-1,-1,-1,-1,-1,-1,-1,-1,-1,-1,-1,-1,-1],"loss_changes":[1.4574937E3,2.8230206E2,4.2989172E2,6.2658066E1,6.0893066E1,1.845498E2,1.6392719E2,2.946434E1,2.7850708E1,1.1673767E1,1.3360748E1,3.0336914E1,1.8028992E1,3.9394756E1,4.957183E1,2.122821E1,1.0657883E1,1.4712194E1,1.1821933E1,8.862366E0,5.861452E0,6.8528595E0,7.466812E0,1.3530067E1,1.815303E1,1.4455353E1,3.7476196E0,2.0184746E1,1.6250826E1,1.9875128E1,2.051149E1,6.2902265E0,1.2813309E1,0E0,8.66203E0,1.5713125E1,4.5806274E0,1.2025024E1,1.1934745E1,8.529541E0,0E0,0E0,2.5425167E0,5.015251E0,5.577942E0,7.6387634E0,3.9447784E0,1.0462951E1,6.0680923E0,9.416428E0,3.0469894E0,1.5392106E1,1.0120758E1,7.183258E0,0E0,1.8122765E1,1.0796448E1,1.0461936E1,3.5950975E0,1.5991415E1,1.2512724E1,1.2364571E1,7.0383377E0,0E0,0E0,0E0,0E0,0E0,0E0,0E0,0E0,0E0,0E0,0E0,0E0,0E0,0E0,0E0,0E0,0E0,0E0,0E0,0E0,0E0,0E0,0E0,0E0,0E0,0E0,0E0,0E0,0E0,0E0,0E0,0E0,0E0,0E0,0E0,0E0,0E0,0E0,0E0,0E0,0E0,0E0,0E0,0E0,0E0,0E0,0E0,0E0,0E0,0E0,0E0,0E0,0E0,0E0,0E0,0E0],"parents":[2147483647,0,0,1,1,2,2,3,3,4,4,5,5,6,6,7,7,8,8,9,9,10,10,11,11,12,12,13,13,14,14,15,15,16,16,17,17,18,18,19,19,20,20,21,21,22,22,23,23,24,24,25,25,26,26,27,27,28,28,29,29,30,30,31,31,32,32,34,34,35,35,36,36,37,37,38,38,39,39,42,42,43,43,44,44,45,45,46,46,47,47,48,48,49,49,50,50,51,51,52,52,53,53,55,55,56,56,57,57,58,58,59,59,60,60,61,61,62,62],"right_children":[2,4,6,8,10,12,14,16,18,20,22,24,26,28,30,32,34,36,38,40,42,44,46,48,50,52,54,56,58,60,62,64,66,-1,68,70,72,74,76,78,-1,-1,80,82,84,86,88,90,92,94,96,98,100,102,-1,104,106,108,110,112,114,116,118,-1,-1,-1,-1,-1,-1,-1,-1,-1,-1,-1,-1,-1,-1,-1,-1,-1,-1,-1,-1,-1,-1,-1,-1,-1,-1,-1,-1,-1,-1,-1,-1,-1,-1,-1,-1,-1,-1,-1,-1,-1,-1,-1,-1,-1,-1,-1,-1,-1,-1,-1,-1,-1,-1,-1,-1],"split_conditions":[-2.0763159E0,1E0,0E0,-8.502748E0,-8.208333E0,7.017857E0,4.720238E0,1.5972222E-1,-1.4765756E-2,1.1290972E0,-5.2185945E-4,-3.5872192E-3,2.593869E-1,4.9267337E-4,1.5134538E-2,1E-1,5.8466667E1,-7.2278275E1,5.833333E-1,1.4285715E-1,-1.430644E0,-1.6E-1,-9E-1,7.2727275E-1,2.8672256E0,1.00634834E2,2.74522E0,1.6666668E-2,2.3601456E0,-1.0318896E0,2.4396296E0,-4.1125435E-2,-3.12706E0,-5.7662208E-2,3.8333333E-1,-5.9122806E0,9.874766E1,4.1666668E-2,8.0166664E1,7.385714E1,8.358608E-3,-5.410709E-2,-8.562044E-1,-1.590896E0,-6.5185183E-1,9E0,6.558758E1,-6.5883756E-2,6.7E1,-4.190484E-3,1.0056368E0,-2.5846744E0,3.3333334E-1,8.176923E1,8.014711E-2,-6.2892514E-1,-2.842457E-1,-6.685068E-1,9.192307E0,5.1326715E2,1.07209175E2,6.848148E1,2.7777778E-2,-6.4463057E-3,4.923631E-2,-6.7790076E-2,-3.569844E-2,-0E0,5.0316025E-2,-2.417176E-2,2.4609156E-3,1.7351808E-2,-3.8441792E-2,6.527246E-3,3.8903933E-2,1.9836028E-3,-6.805273E-2,-5.69659E-2,-7.3393136E-2,4.222178E-2,-1.2888694E-2,-1.5819905E-2,-6.4833395E-2,-2.3258261E-2,-4.8445232E-2,-3.4615293E-2,-1.082891E-2,-7.2763614E-2,-3.7866965E-2,-1.3887592E-2,1.6182434E-2,7.3970356E-3,2.6986957E-2,2.2444125E-2,3.8561862E-2,2.862661E-2,7.5460695E-2,5.0709993E-2,-3.697939E-2,4.56956E-2,6.6961594E-2,6.75874E-2,-1.0712064E-3,2.684159E-2,-6.2447578E-2,-2.6713097E-2,-5.1880637E-3,8.05195E-3,-1.2175381E-2,5.9801053E-2,7.5790486E-3,2.7473053E-2,-1.3544291E-2,-4.1308254E-2,-2.2702157E-3,3.8367376E-2,1.7614892E-2,5.2978224E-3,6.1887987E-2],"split_indices":[38,34,31,38,38,38,38,43,41,41,43,43,41,43,41,45,14,31,45,39,19,37,28,38,41,0,41,45,41,28,41,21,41,0,43,38,1,43,15,17,0,0,28,26,27,23,5,41,17,41,19,22,39,17,0,27,21,27,23,31,0,17,39,0,0,0,0,0,0,0,0,0,0,0,0,0,0,0,0,0,0,0,0,0,0,0,0,0,0,0,0,0,0,0,0,0,0,0,0,0,0,0,0,0,0,0,0,0,0,0,0,0,0,0,0,0,0,0,0],"split_type":[0,0,0,0,0,0,0,0,0,0,0,0,0,0,0,0,0,0,0,0,0,0,0,0,0,0,0,0,0,0,0,0,0,0,0,0,0,0,0,0,0,0,0,0,0,0,0,0,0,0,0,0,0,0,0,0,0,0,0,0,0,0,0,0,0,0,0,0,0,0,0,0,0,0,0,0,0,0,0,0,0,0,0,0,0,0,0,0,0,0,0,0,0,0,0,0,0,0,0,0,0,0,0,0,0,0,0,0,0,0,0,0,0,0,0,0,0,0,0],"sum_hessian":[4.380321E3,1.770266E3,2.610055E3,8.869422E2,8.833237E2,1.3941449E3,1.2159099E3,3.7615015E2,5.1079208E2,4.817638E2,4.0155994E2,7.9780707E2,5.963378E2,6.391283E2,5.767816E2,3.193146E2,5.6835537E1,2.9431287E2,2.1647922E2,4.71311E2,1.0452773E1,1.9677657E2,2.0478336E2,3.5405292E2,4.4375415E2,2.7388315E2,3.2245468E2,3.5478003E2,2.843483E2,2.0647331E2,3.7030832E2,2.5179516E1,2.9413507E2,5.483771E0,5.135177E1,2.335282E2,6.0784664E1,1.1710212E2,9.937709E1,4.6786328E2,3.4477293E0,3.973777E0,6.478996E0,8.273107E1,1.140455E2,1.3996423E2,6.481913E1,1.1390402E2,2.4014888E2,4.0576257E2,3.799156E1,1.8090786E1,2.5579236E2,1.8888228E2,1.335724E2,5.7833393E1,2.9694662E2,2.6764343E2,1.670485E1,1.1418624E2,9.228707E1,3.0050125E2,6.980707E1,1.9445396E1,5.7341194E0,3.6881332E1,2.5725375E2,4.161672E1,9.735048E0,8.79495E1,1.455787E2,3.2450643E0,5.75396E1,6.617438E1,5.0927746E1,9.388192E1,5.495168E0,1.406735E2,3.271898E2,3.2450128E0,3.233983E0,6.710657E0,7.602042E1,3.604796E1,7.799754E1,7.655156E1,6.341267E1,1.1414739E1,5.3404392E1,5.422689E1,5.9677135E1,5.2126755E1,1.8802213E2,1.534044E2,2.5235818E2,6.17735E0,3.1814213E1,9.660111E0,8.430675E0,1.2294306E2,1.3284929E2,1.8517107E2,3.711216E0,5.7216372E0,5.211176E1,2.1565034E2,8.129629E1,1.0290255E2,1.6474089E2,1.1469845E1,5.2350054E0,8.174543E1,3.244081E1,2.9911245E1,6.2375828E1,1.2826189E2,1.7223935E2,6.4361663E0,6.33709E1],"tree_param":{"num_deleted":"0","num_feature":"46","num_nodes":"119","size_leaf_vector":"1"}},{"base_weights":[3.9018446E-3,-6.4391994E-1,5.039285E-1,-2.646183E-1,-1.0344303E0,8.8155895E-1,6.734711E-2,-6.130187E-1,-1.6155615E-2,-1.2720273E0,-6.966317E-1,5.9017754E-1,1.2357087E0,-2.6143235E-1,4.8591346E-1,-7.141781E-1,1.8773915E-1,-2.404035E-1,2.3966622E-1,-1.2998458E0,-3.6487466E-1,-2.6764992E-1,-7.736733E-1,3.6083624E-1,7.5971484E-1,4.0726018E-1,1.2650893E0,-1.1045024E0,-1.7430754E-1,3.6073622E-1,1.0890092E0,-1.176183E0,-5.998264E-1,7.5425905E-1,-2.1741365E-1,-2.8867796E-1,1.0585641E0,3.0381507E-1,-6.151951E-1,-7.491234E-2,-1.204015E0,2.3063181E-2,-6.6358453E-1,1.885308E-1,-5.4964757E-1,-8.0009043E-1,2.8055358E-1,-2.5355127E-1,4.0804744E-1,3.5418227E-1,8.6677974E-1,-2.8636685E-2,7.9177725E-1,1.1538266E0,1.5037128E0,-1.2139208E0,3.0307163E-2,-3.6737177E-1,2.0494556E-2,5.3778136E-1,-1.0758072E-2,7.1965255E-2,1.1827631E0,2.0029098E-3,-6.1837118E-2,-3.2356314E-2,2.1616293E-2,-2.9133635E-3,6.1089154E-2,-2.4207827E-2,2.7222961E-2,-3.439544E-2,-6.092977E-3,6.606417E-2,1.5346122E-2,6.0189967E-3,2.8416475E-2,-1.5345613E-2,-7.501408E-2,-6.494687E-2,-4.6165403E-2,-5.372367E-2,-3.1438519E-3,-9.946641E-3,4.821892E-2,2.3246607E-2,-3.376294E-2,-4.4495866E-2,-2.6303062E-2,4.121954E-2,-1.362371E-2,-5.4493327E-2,3.6565703E-4,2.1934945E-2,-1.921277E-2,-3.6977355E-3,2.9775916E-2,1.7829882E-2,4.5825202E-2,6.0705256E-2,5.5193915E-3,6.8864704E-4,5.95325E-2,3.0551368E-2,7.6291345E-2,-8.034329E-3,-6.523725E-2,-3.6152244E-2,-1.4587521E-2,-1.5505823E-2,7.2065643E-3,1.440037E-2,4.5421157E-2,-1.4398441E-2,2.0241948E-2,-2.0172311E-2,3.3326052E-2,6.184286E-2,-2.4715706E-3],"categories":[],"categories_nodes":[],"categories_segments":[],"categories_sizes":[],"default_left":[0,0,0,0,0,0,0,0,0,0,0,0,0,0,0,0,0,0,0,0,0,0,0,0,0,0,0,0,0,0,0,0,0,0,0,0,0,0,0,0,0,0,0,0,0,0,0,0,0,0,0,0,0,0,0,0,0,0,0,0,0,0,0,0,0,0,0,0,0,0,0,0,0,0,0,0,0,0,0,0,0,0,0,0,0,0,0,0,0,0,0,0,0,0,0,0,0,0,0,0,0,0,0,0,0,0,0,0,0,0,0,0,0,0,0,0,0,0,0],"id":5,"left_children":[1,3,5,7,9,11,13,15,17,19,21,23,25,27,29,31,33,35,37,39,41,43,45,47,49,51,53,55,57,59,61,63,65,67,69,71,73,75,77,-1,79,-1,81,83,85,87,89,91,93,95,97,-1,99,101,103,105,-1,107,109,111,113,115,117,-1,-1,-1,-1,-1,-1,-1,-1,-1,-1,-1,-1,-1,-1,-1,-1,-1,-1,-1,-1,-1,-1,-1,-1,-1,-1,-1,-1,-1,-1,-1,-1,-1,-1,-1,-1,-1,-1,-1,-1,-1,-1,-1,-1,-1,-1,-1,-1,-1,-1,-1,-1,-1,-1,-1,-1],"loss_changes":[1.4173678E3,2.8191846E2,4.069972E2,8.3752785E1,7.4253784E1,1.3571399E2,1.5793939E2,3.282454E1,3.255322E1,1.3230835E1,1.257753E1,2.793666E1,1.3837952E1,4.6886723E1,3.757939E1,1.803267E1,1.0746558E1,1.920105E1,1.4681766E1,8.056335E0,4.7317457E0,7.9999084E0,9.4635315E0,9.161949E0,1.7705338E1,8.7743025E0,1.3279541E1,1.200869E1,2.1998135E1,2.7666183E1,8.004112E0,5.3120193E0,1.4421165E1,7.5775204E0,5.8296537E0,1.932049E1,1.6001358E0,1.1856005E1,4.464385E0,0E0,8.296448E0,0E0,3.1780362E0,7.468336E0,5.1969547E0,7.3205566E0,2.9000318E0,5.071385E0,7.2179832E0,9.304847E0,7.905899E0,0E0,4.4271107E0,1.653357E1,2.3961792E0,5.066551E0,0E0,7.5820465E0,1.1934204E1,2.5954636E1,1.5805035E1,2.6769524E0,5.4272766E0,0E0,0E0,0E0,0E0,0E0,0E0,0E0,0E0,0E0,0E0,0E0,0E0,0E0,0E0,0E0,0E0,0E0,0E0,0E0,0E0,0E0,0E0,0E0,0E0,0E0,0E0,0E0,0E0,0E0,0E0,0E0,0E0,0E0,0E0,0E0,0E0,0E0,0E0,0E0,0E0,0E0,0E0,0E0,0E0,0E0,0E0,0E0,0E0,0E0,0E0,0E0,0E0,0E0,0E0,0E0,0E0],"parents":[2147483647,0,0,1,1,2,2,3,3,4,4,5,5,6,6,7,7,8,8,9,9,10,10,11,11,12,12,13,13,14,14,15,15,16,16,17,17,18,18,19,19,20,20,21,21,22,22,23,23,24,24,25,25,26,26,27,27,28,28,29,29,30,30,31,31,32,32,33,33,34,34,35,35,36,36,37,37,38,38,40,40,42,42,43,43,44,44,45,45,46,46,47,47,48,48,49,49,50,50,52,52,53,53,54,54,55,55,57,57,58,58,59,59,60,60,61,61,62,62],"right_children":[2,4,6,8,10,12,14,16,18,20,22,24,26,28,30,32,34,36,38,40,42,44,46,48,50,52,54,56,58,60,62,64,66,68,70,72,74,76,78,-1,80,-1,82,84,86,88,90,92,94,96,98,-1,100,102,104,106,-1,108,110,112,114,116,118,-1,-1,-1,-1,-1,-1,-1,-1,-1,-1,-1,-1,-1,-1,-1,-1,-1,-1,-1,-1,-1,-1,-1,-1,-1,-1,-1,-1,-1,-1,-1,-1,-1,-1,-1,-1,-1,-1,-1,-1,-1,-1,-1,-1,-1,-1,-1,-1,-1,-1,-1,-1,-1,-1,-1,-1],"split_conditions":[-1.4152046E0,1E0,0E0,-8.208333E0,-7.017857E0,7.017857E0,5.9130435E0,2.0171958E-1,6.4408E-3,1.2666667E0,6.5833336E1,-4.453075E-3,-1.2659241E0,1E0,2.1530628E0,-2.2230089E0,6.682143E1,1.1247211E2,3E1,-1.89E1,8.583333E0,-1.9297146E0,4.3333335E0,-1.3805529E0,-2.6331747E-1,8.583333E0,1.89E1,6.13171E-1,-5.2185945E-4,-1E0,-1.4219055E-1,-1.7623487E0,8.98E1,-4.2948717E-1,7.3529415E-2,-6.303333E-1,6.9315025E1,-3.3E0,1.0344827E0,-7.491234E-2,5.9718203E-2,2.3063181E-2,7.557895E1,-1.4309677E0,-6.5E0,5.1590446E-2,3.1555527E2,-6.944445E-2,-3.5628445E1,1.4E1,-4.2857143E-1,-2.8636685E-2,7.557895E1,-3E-1,6.5611115E1,-7.592111E-1,3.0307163E-2,-1.4219055E-1,6.95E1,3.1609195E-1,4.9267337E-4,9.347826E0,1.1493737E2,2.0029098E-3,-6.1837118E-2,-3.2356314E-2,2.1616293E-2,-2.9133635E-3,6.1089154E-2,-2.4207827E-2,2.7222961E-2,-3.439544E-2,-6.092977E-3,6.606417E-2,1.5346122E-2,6.0189967E-3,2.8416475E-2,-1.5345613E-2,-7.501408E-2,-6.494687E-2,-4.6165403E-2,-5.372367E-2,-3.1438519E-3,-9.946641E-3,4.821892E-2,2.3246607E-2,-3.376294E-2,-4.4495866E-2,-2.6303062E-2,4.121954E-2,-1.362371E-2,-5.4493327E-2,3.6565703E-4,2.1934945E-2,-1.921277E-2,-3.6977355E-3,2.9775916E-2,1.7829882E-2,4.5825202E-2,6.0705256E-2,5.5193915E-3,6.8864704E-4,5.95325E-2,3.0551368E-2,7.6291345E-2,-8.034329E-3,-6.523725E-2,-3.6152244E-2,-1.4587521E-2,-1.5505823E-2,7.2065643E-3,1.440037E-2,4.5421157E-2,-1.4398441E-2,2.0241948E-2,-2.0172311E-2,3.3326052E-2,6.184286E-2,-2.4715706E-3],"split_indices":[38,34,31,38,38,38,38,43,43,42,14,43,42,16,42,42,18,3,16,40,23,25,40,21,42,29,40,6,43,28,43,25,17,37,36,42,5,40,24,0,43,0,17,26,38,43,31,37,31,16,38,0,14,43,14,25,0,43,18,37,43,23,3,0,0,0,0,0,0,0,0,0,0,0,0,0,0,0,0,0,0,0,0,0,0,0,0,0,0,0,0,0,0,0,0,0,0,0,0,0,0,0,0,0,0,0,0,0,0,0,0,0,0,0,0,0,0,0,0],"split_type":[0,0,0,0,0,0,0,0,0,0,0,0,0,0,0,0,0,0,0,0,0,0,0,0,0,0,0,0,0,0,0,0,0,0,0,0,0,0,0,0,0,0,0,0,0,0,0,0,0,0,0,0,0,0,0,0,0,0,0,0,0,0,0,0,0,0,0,0,0,0,0,0,0,0,0,0,0,0,0,0,0,0,0,0,0,0,0,0,0,0,0,0,0,0,0,0,0,0,0,0,0,0,0,0,0,0,0,0,0,0,0,0,0,0,0,0,0,0,0],"sum_hessian":[4.373604E3,1.9050205E3,2.4685837E3,9.6736005E2,9.376604E2,1.3229883E3,1.1455955E3,4.019152E2,5.654449E2,5.4867664E2,3.8898376E2,7.2743243E2,5.955558E2,6.416907E2,5.039048E2,3.570431E2,4.487208E1,3.0155737E2,2.638875E2,5.3182465E2,1.685195E1,6.010119E1,3.2888257E2,3.107645E2,4.1666794E2,2.102331E1,5.745325E2,5.890141E1,5.827893E2,4.1875323E2,8.515155E1,6.88231E1,2.8822E2,1.8453686E1,2.6418394E1,2.9157608E2,9.981303E0,2.4617603E2,1.7711483E1,1.681082E2,3.6371646E2,4.2417192E0,1.261023E1,2.2950901E1,3.7150288E1,3.211705E2,7.712064E0,2.1712908E1,2.8905157E2,8.812327E1,3.2854468E2,5.713113E0,1.5310197E1,3.9609848E2,1.78434E2,5.5688244E1,3.2131658E0,2.9251318E2,2.9027612E2,2.834767E2,1.3527652E2,7.426205E0,7.772535E1,3.2020547E0,6.562104E1,2.7603998E2,1.2180017E1,6.981599E0,1.1472087E1,1.9934727E1,6.4836674E0,8.4832146E1,2.0674393E2,6.7359858E0,3.2453172E0,1.4644954E2,9.972649E1,1.4218727E1,3.4927554E0,2.6882764E2,9.488884E1,6.921036E0,5.689195E0,1.5716617E1,7.234285E0,3.7074249E0,3.344286E1,2.399141E2,8.125642E1,3.732112E0,3.9799519E0,4.498008E0,1.72149E1,2.7883685E2,1.0214711E1,3.18679E1,5.6255367E1,3.008176E1,2.9846292E2,8.878623E0,6.431574E0,1.2521503E1,3.8357697E2,5.1148224E0,1.7331918E2,4.728212E0,5.0960033E1,4.9555054E1,2.4295811E2,7.837641E1,2.118997E2,1.7057426E2,1.1290244E2,8.147736E1,5.3799164E1,4.21172E0,3.214485E0,7.453078E1,3.1945708E0],"tree_param":{"num_deleted":"0","num_feature":"46","num_nodes":"119","size_leaf_vector":"1"}},{"base_weights":[-1.38657215E-5,-4.446263E-1,6.4465636E-1,-8.009291E-2,-8.41253E-1,2.967714E-1,9.953508E-1,-4.5466375E-1,2.4410576E-1,-1.2086171E0,-5.5691665E-1,2.0093063E-1,9.4918543E-1,6.610356E-1,1.2045114E0,-5.256887E-1,3.222405E-1,1.0813524E0,1.6700587E-1,-1.3465248E0,-1.0209845E0,-7.3361677E-1,-3.2722986E-1,-1.07094675E-1,3.544774E-1,4.3921193E-1,1.1647779E0,4.7809374E-1,8.528368E-1,8.67594E-2,1.2238994E0,-5.8552253E-1,3.0314034E-1,6.37933E-1,-1.9389734E-1,-3.4186237E-3,1.1761849E0,-1.3288242E-1,2.8417268E-1,-1.0657059E0,-1.4273288E0,-1.0793903E0,-2.671315E-1,-1.3397858E0,-6.6878057E-1,-1.749712E-1,-5.406835E-1,-5.8585756E-2,-8.4162885E-1,-2.2071127E-2,4.6330762E-1,-1.0801024E-1,8.4090996E-1,-0E0,1.2130091E0,2.1938582E-1,7.521524E-1,4.3832526E-1,9.3049866E-1,4.0055726E-2,-4.1868657E-2,1.1276567E0,1.4372244E0,-4.555276E-2,-2.2304608E-2,4.775853E-2,-4.6338323E-3,-3.6703937E-3,4.4451613E-2,-2.168632E-2,3.4197684E-2,8.45863E-3,6.397811E-2,-2.981551E-2,-5.3409396E-5,-3.0448956E-3,1.9421786E-2,-5.54891E-2,-2.0529241E-3,-7.2049744E-2,-1.46576315E-2,-5.5564083E-2,8.855822E-3,2.7999688E-2,-3.595472E-2,-1.833698E-2,-7.0895754E-2,2.320267E-2,-3.488597E-2,1.8073594E-2,-1.2318302E-2,-4.4022266E-2,-1.7040914E-2,-7.8802155E-3,1.3462581E-2,7.97841E-3,-6.1296266E-2,-3.5579287E-2,5.5904253E-3,-1.3948063E-2,2.5385657E-2,1.6049773E-2,-2.6733337E-2,6.68113E-2,6.224138E-3,4.8689183E-2,6.977279E-2,-3.1033402E-2,1.726554E-2,3.17845E-2,6.585106E-2,-7.020394E-3,3.701174E-2,6.0116937E-3,4.8157487E-2,1.4448048E-3,5.750677E-2,7.280144E-2,2.5498006E-2],"categories":[],"categories_nodes":[],"categories_segments":[],"categories_sizes":[],"default_left":[0,0,0,0,0,0,0,0,0,0,0,0,0,0,0,0,0,0,0,0,0,0,0,0,0,0,0,0,0,0,0,0,0,0,0,0,0,0,0,0,0,0,0,0,0,0,0,0,0,0,0,0,0,0,0,0,0,0,0,0,0,0,0,0,0,0,0,0,0,0,0,0,0,0,0,0,0,0,0,0,0,0,0,0,0,0,0,0,0,0,0,0,0,0,0,0,0,0,0,0,0,0,0,0,0,0,0,0,0,0,0,0,0,0,0,0,0,0,0],"id":6,"left_children":[1,3,5,7,9,11,13,15,17,19,21,23,25,27,29,31,33,35,37,39,41,43,45,47,49,51,53,55,57,59,61,63,65,67,69,-1,71,73,75,77,79,81,83,85,87,89,91,93,95,97,99,101,103,-1,105,107,109,111,113,-1,-1,115,117,-1,-1,-1,-1,-1,-1,-1,-1,-1,-1,-1,-1,-1,-1,-1,-1,-1,-1,-1,-1,-1,-1,-1,-1,-1,-1,-1,-1,-1,-1,-1,-1,-1,-1,-1,-1,-1,-1,-1,-1,-1,-1,-1,-1,-1,-1,-1,-1,-1,-1,-1,-1,-1,-1,-1,-1],"loss_changes":[1.2499066E3,3.730022E2,2.1671967E2,1.6359825E2,1.282381E2,5.566127E1,6.095581E1,3.4678757E1,4.6306313E1,1.2314392E1,2.8008728E1,3.7040306E1,1.1888725E1,1.150499E1,1.1540405E1,2.8630676E1,8.780579E0,6.798065E0,2.3330738E1,5.1900635E0,9.810776E0,1.4380753E1,9.773228E0,9.147472E0,2.1453789E1,8.009258E0,4.3687973E0,1.2375965E1,4.800667E0,7.5529604E0,9.087402E0,2.3742767E1,1.027579E1,6.067974E0,4.6310606E0,0E0,5.48024E0,1.1335915E1,1.7215397E1,3.1256409E0,3.0462952E0,8.916306E0,7.2092247E0,2.1073227E0,1.2080399E1,6.9810624E0,8.173012E0,8.006898E0,6.4366617E0,1.1016965E1,1.3525543E1,3.101249E0,7.0687904E0,0E0,1.7353897E0,1.0055616E1,4.6223145E0,5.107804E0,3.446724E0,0E0,0E0,9.061066E0,1.8868103E0,0E0,0E0,0E0,0E0,0E0,0E0,0E0,0E0,0E0,0E0,0E0,0E0,0E0,0E0,0E0,0E0,0E0,0E0,0E0,0E0,0E0,0E0,0E0,0E0,0E0,0E0,0E0,0E0,0E0,0E0,0E0,0E0,0E0,0E0,0E0,0E0,0E0,0E0,0E0,0E0,0E0,0E0,0E0,0E0,0E0,0E0,0E0,0E0,0E0,0E0,0E0,0E0,0E0,0E0,0E0,0E0],"parents":[2147483647,0,0,1,1,2,2,3,3,4,4,5,5,6,6,7,7,8,8,9,9,10,10,11,11,12,12,13,13,14,14,15,15,16,16,17,17,18,18,19,19,20,20,21,21,22,22,23,23,24,24,25,25,26,26,27,27,28,28,29,29,30,30,31,31,32,32,33,33,34,34,36,36,37,37,38,38,39,39,40,40,41,41,42,42,43,43,44,44,45,45,46,46,47,47,48,48,49,49,50,50,51,51,52,52,54,54,55,55,56,56,57,57,58,58,61,61,62,62],"right_children":[2,4,6,8,10,12,14,16,18,20,22,24,26,28,30,32,34,36,38,40,42,44,46,48,50,52,54,56,58,60,62,64,66,68,70,-1,72,74,76,78,80,82,84,86,88,90,92,94,96,98,100,102,104,-1,106,108,110,112,114,-1,-1,116,118,-1,-1,-1,-1,-1,-1,-1,-1,-1,-1,-1,-1,-1,-1,-1,-1,-1,-1,-1,-1,-1,-1,-1,-1,-1,-1,-1,-1,-1,-1,-1,-1,-1,-1,-1,-1,-1,-1,-1,-1,-1,-1,-1,-1,-1,-1,-1,-1,-1,-1,-1,-1,-1,-1,-1,-1],"split_conditions":[2E0,1E0,1E0,-5.023684E0,-7.017857E0,2.2230089E0,7.017857E0,8.8960886E-1,1E0,-2.52706E-1,3.5872192E-3,5.0246305E0,7.017857E0,2.5775514E-3,-1.3705868E0,2.3E-1,1.7E1,-6.2892616E-1,-3.7619048E-1,7.2375E1,6.781244E1,-2.8712757E0,7.4181816E1,1.01E2,7.1083336E1,1.0811391E2,-2.8166667E-1,7.357143E1,-3.2857144E-1,6.789005E1,1.8444445E1,-3.4149054E-1,6.594118E1,1.0287047E2,1.7361835E0,-3.4186237E-3,1E0,-1.4619882E-1,1E0,4.4117647E-1,1.4673363E0,-3.2E0,4E0,1.0243955E2,6.35E1,6.95E1,-9.84127E-2,5.227526E-1,6.595652E1,-6.9638175E-1,-1.0760974E0,9.181818E0,4.4117647E-1,-0E0,1.1066828E2,7.0125E1,1.1274978E2,-1.2857143E0,6.457872E1,4.0055726E-2,-4.1868657E-2,-3.262214E-1,1.6E1,-4.555276E-2,-2.2304608E-2,4.775853E-2,-4.6338323E-3,-3.6703937E-3,4.4451613E-2,-2.168632E-2,3.4197684E-2,8.45863E-3,6.397811E-2,-2.981551E-2,-5.3409396E-5,-3.0448956E-3,1.9421786E-2,-5.54891E-2,-2.0529241E-3,-7.2049744E-2,-1.46576315E-2,-5.5564083E-2,8.855822E-3,2.7999688E-2,-3.595472E-2,-1.833698E-2,-7.0895754E-2,2.320267E-2,-3.488597E-2,1.8073594E-2,-1.2318302E-2,-4.4022266E-2,-1.7040914E-2,-7.8802155E-3,1.3462581E-2,7.97841E-3,-6.1296266E-2,-3.5579287E-2,5.5904253E-3,-1.3948063E-2,2.5385657E-2,1.6049773E-2,-2.6733337E-2,6.68113E-2,6.224138E-3,4.8689183E-2,6.977279E-2,-3.1033402E-2,1.726554E-2,3.17845E-2,6.585106E-2,-7.020394E-3,3.701174E-2,6.0116937E-3,4.8157487E-2,1.4448048E-3,5.750677E-2,7.280144E-2,2.5498006E-2],"split_indices":[38,34,33,38,38,42,38,42,13,41,43,38,38,43,41,43,13,21,42,17,4,41,17,35,18,0,43,14,42,5,38,37,18,0,41,0,33,37,33,24,21,40,13,1,17,15,42,42,17,42,41,23,30,0,0,18,0,28,5,0,0,43,35,0,0,0,0,0,0,0,0,0,0,0,0,0,0,0,0,0,0,0,0,0,0,0,0,0,0,0,0,0,0,0,0,0,0,0,0,0,0,0,0,0,0,0,0,0,0,0,0,0,0,0,0,0,0,0,0],"split_type":[0,0,0,0,0,0,0,0,0,0,0,0,0,0,0,0,0,0,0,0,0,0,0,0,0,0,0,0,0,0,0,0,0,0,0,0,0,0,0,0,0,0,0,0,0,0,0,0,0,0,0,0,0,0,0,0,0,0,0,0,0,0,0,0,0,0,0,0,0,0,0,0,0,0,0,0,0,0,0,0,0,0,0,0,0,0,0,0,0,0,0,0,0,0,0,0,0,0,0,0,0,0,0,0,0,0,0,0,0,0,0,0,0,0,0,0,0,0,0],"sum_hessian":[4.358791E3,2.579939E3,1.7788519E3,1.3451171E3,1.2348219E3,8.940728E2,8.8477905E2,6.240322E2,7.2108484E2,5.3718E2,6.9764197E2,7.808289E2,1.132439E2,3.422989E2,5.4248016E2,5.721757E2,5.185649E1,5.9595913E1,6.6148895E2,3.0574884E2,2.3143117E2,3.928159E2,3.0482605E2,2.596349E2,5.2119403E2,3.4689247E1,7.855465E1,1.7725005E2,1.6504884E2,9.430452E0,5.3304974E2,5.3403735E2,3.813839E1,3.214995E1,1.9706545E1,4.4819927E0,5.5113922E1,1.8556024E2,4.759287E2,7.1766014E1,2.3398283E2,2.1426614E2,1.7165014E1,3.590692E1,3.5690897E2,1.7925197E2,1.2557407E2,2.446913E2,1.4943607E1,1.16833336E2,4.0436072E2,1.4888807E1,1.980044E1,3.2315195E0,7.532313E1,9.229249E1,8.4957565E1,2.7295233E1,1.377536E2,5.4550343E0,3.9754183E0,3.7198264E2,1.6106711E2,1.5826935E2,3.75768E2,1.3968132E1,2.417026E1,8.468597E0,2.3681349E1,1.5964796E1,3.7417479E0,5.4666195E0,4.96473E1,4.0143307E1,1.4541693E2,1.10308075E2,3.6562064E2,6.8633026E1,3.132991E0,2.3084267E2,3.1401749E0,2.0915282E2,5.1133323E0,5.902579E0,1.1262435E1,3.187147E0,3.2719772E1,8.42969E0,3.4847928E2,2.041266E1,1.5883931E2,4.506318E1,8.0510895E1,1.8856288E2,5.612841E1,4.2349563E0,1.0708652E1,1.8416328E1,9.841701E1,2.2399727E1,3.8196097E2,7.430581E0,7.458226E0,1.1112729E1,8.687712E0,3.556953E1,3.9753597E1,1.1415554E1,8.087693E1,7.2344315E1,1.2613248E1,9.4274235E0,1.7867807E1,5.636013E0,1.3211758E2,7.592559E0,3.6439008E2,1.5720107E2,3.8660514E0],"tree_param":{"num_deleted":"0","num_feature":"46","num_nodes":"119","size_leaf_vector":"1"}},{"base_weights":[7.924549E-4,-4.7950688E-1,5.3357345E-1,-5.3748824E-2,-8.1275016E-1,1.949813E-1,8.971941E-1,-3.347428E-1,2.906038E-1,-1.1103268E0,-5.494614E-1,-1.04945265E-2,5.627337E-1,6.4574003E-1,1.2198642E0,-9.5354414E-1,-2.2355112E-1,-2.2588773E-2,5.262703E-1,-1.2470133E0,-9.098883E-1,-1.2830434E0,-4.9779484E-1,-2.3127718E-1,1.9894496E-1,-1.4473517E-2,6.58781E-1,4.7240007E-1,8.680975E-1,1.2494438E0,4.2852825E-1,-1.0268015E0,3.2399502E-3,9.902989E-3,-5.025999E-1,-8.486331E-1,8.422783E-2,9.8416793E-1,4.0035906E-1,-1.3774544E0,-1.1037666E0,-9.9639577E-1,-2.1593466E-1,-2.1501942E-2,-1.3990612E0,-5.656915E-1,-1.4149329E-1,1.5311491E-1,-3.449638E-1,-1.1342893E-1,4.2742524E-1,3.7355074E-1,-5.375865E-1,1.4392385E-1,7.531042E-1,3.4454066E-1,7.356933E-1,9.9796146E-2,9.1139656E-1,1.1368617E0,1.3855096E0,-3.6642164E-1,1.030478E0,-5.5725515E-2,-1.1738413E-2,-6.4777965E-3,3.839333E-2,-5.317967E-2,-1.6229905E-2,-3.7717565E-3,-5.5978727E-2,1.4133434E-3,4.4917997E-2,5.386091E-2,-1.0663572E-2,2.600382E-2,1.2631081E-3,-3.378954E-2,-7.1299516E-2,-2.616842E-2,-5.7953086E-2,-5.635451E-2,-2.3325933E-2,-6.097862E-2,1.6242162E-3,-7.419356E-2,-2.4434414E-2,-3.502232E-2,-1.938992E-2,9.199979E-3,-2.5898883E-2,-9.405909E-3,2.1856276E-2,-2.506489E-2,-6.2244493E-3,-3.4620766E-2,-1.0200652E-3,7.646245E-3,3.784663E-2,-1.2691389E-2,3.347262E-2,-3.9994266E-2,3.8576007E-2,2.5629176E-2,-1.3113215E-2,2.5999246E-2,5.3196102E-2,6.565197E-3,2.8610433E-2,1.9180486E-2,4.505132E-2,-3.0892676E-2,2.2015246E-2,-6.3961633E-3,4.681067E-2,3.3048198E-3,5.8534134E-2,5.5744078E-2,7.305892E-2,-4.5496628E-2,1.3455856E-2,1.7565766E-2,6.900241E-2],"categories":[],"categories_nodes":[],"categories_segments":[],"categories_sizes":[],"default_left":[0,0,0,0,0,0,0,0,0,0,0,0,0,0,0,0,0,0,0,0,0,0,0,0,0,0,0,0,0,0,0,0,0,0,0,0,0,0,0,0,0,0,0,0,0,0,0,0,0,0,0,0,0,0,0,0,0,0,0,0,0,0,0,0,0,0,0,0,0,0,0,0,0,0,0,0,0,0,0,0,0,0,0,0,0,0,0,0,0,0,0,0,0,0,0,0,0,0,0,0,0,0,0,0,0,0,0,0,0,0,0,0,0,0,0,0,0,0,0,0,0,0,0],"id":7,"left_children":[1,3,5,7,9,11,13,15,17,19,21,23,25,27,29,31,33,35,37,39,41,43,45,47,49,51,53,55,57,59,61,63,-1,65,67,69,71,73,75,77,79,81,83,-1,85,87,89,91,93,95,97,99,101,103,105,107,109,111,113,115,117,119,121,-1,-1,-1,-1,-1,-1,-1,-1,-1,-1,-1,-1,-1,-1,-1,-1,-1,-1,-1,-1,-1,-1,-1,-1,-1,-1,-1,-1,-1,-1,-1,-1,-1,-1,-1,-1,-1,-1,-1,-1,-1,-1,-1,-1,-1,-1,-1,-1,-1,-1,-1,-1,-1,-1,-1,-1,-1,-1,-1,-1],"loss_changes":[1.1086823E3,3.2313177E2,2.5262152E2,9.7012344E1,9.934216E1,8.054496E1,7.93551E1,3.765908E1,3.3306667E1,1.5052734E1,2.496193E1,3.168342E1,2.1250824E1,2.099118E1,9.41626E0,6.4036713E0,3.0638409E1,1.7280748E1,1.4298515E1,4.826782E0,1.4475998E1,3.5688477E0,1.5263092E1,1.465638E1,2.5158638E1,1.1446954E1,1.571402E1,1.0290535E1,7.9020844E0,4.546753E0,8.684761E0,5.035431E0,0E0,2.7266846E1,2.089249E1,4.4951553E0,7.7519636E0,6.40226E0,9.075874E0,4.967865E0,4.7973022E0,1.4480133E1,7.3273344E0,0E0,2.0251389E0,1.2435089E1,1.2818236E1,7.5372543E0,8.770071E0,7.9424367E0,1.818525E1,6.1972737E0,8.888672E0,7.9662695E0,1.9324768E1,1.0298161E1,5.4805145E0,3.7308517E0,6.135071E0,8.261322E0,1.8695679E0,3.102426E0,1.7480574E0,0E0,0E0,0E0,0E0,0E0,0E0,0E0,0E0,0E0,0E0,0E0,0E0,0E0,0E0,0E0,0E0,0E0,0E0,0E0,0E0,0E0,0E0,0E0,0E0,0E0,0E0,0E0,0E0,0E0,0E0,0E0,0E0,0E0,0E0,0E0,0E0,0E0,0E0,0E0,0E0,0E0,0E0,0E0,0E0,0E0,0E0,0E0,0E0,0E0,0E0,0E0,0E0,0E0,0E0,0E0,0E0,0E0,0E0,0E0,0E0],"parents":[2147483647,0,0,1,1,2,2,3,3,4,4,5,5,6,6,7,7,8,8,9,9,10,10,11,11,12,12,13,13,14,14,15,15,16,16,17,17,18,18,19,19,20,20,21,21,22,22,23,23,24,24,25,25,26,26,27,27,28,28,29,29,30,30,31,31,33,33,34,34,35,35,36,36,37,37,38,38,39,39,40,40,41,41,42,42,44,44,45,45,46,46,47,47,48,48,49,49,50,50,51,51,52,52,53,53,54,54,55,55,56,56,57,57,58,58,59,59,60,60,61,61,62,62],"right_children":[2,4,6,8,10,12,14,16,18,20,22,24,26,28,30,32,34,36,38,40,42,44,46,48,50,52,54,56,58,60,62,64,-1,66,68,70,72,74,76,78,80,82,84,-1,86,88,90,92,94,96,98,100,102,104,106,108,110,112,114,116,118,120,122,-1,-1,-1,-1,-1,-1,-1,-1,-1,-1,-1,-1,-1,-1,-1,-1,-1,-1,-1,-1,-1,-1,-1,-1,-1,-1,-1,-1,-1,-1,-1,-1,-1,-1,-1,-1,-1,-1,-1,-1,-1,-1,-1,-1,-1,-1,-1,-1,-1,-1,-1,-1,-1,-1,-1,-1,-1,-1,-1,-1],"split_conditions":[4.1666666E-1,-3.1206898E1,1E0,-4.626374E0,-7.017857E0,8.511111E0,9.7E0,-2.1525104E0,-5.2185945E-4,-1.8492508E-1,-2.8712757E0,-2.5378068E-3,-1.6543892E-1,2.0461099E-1,4.3E1,1.5422077E-1,5.6666666E-1,-1.9591618E0,1.6666668E-2,-1.3928572E1,2.1973214E-1,6.613636E1,5.367239E-1,1E0,1.5134538E-2,6.927273E1,5E0,2.3937074E-2,-2.4979088E0,1.7333334E1,8.84375E0,-5.9122806E0,3.2399502E-3,5.6500244E-1,-3.4149054E-1,3.5379868E-2,1.2240051E0,1.8468883E0,-2.2714275E-1,4.0636208E1,1.3333334E-1,-8.2E0,7.322581E0,-2.1501942E-2,-3.0172276E0,2.5775514E-3,5.833333E-1,7.2E1,4.1666668E-2,1.0495483E2,2E-1,8.125E0,9.333333E0,1E0,3.5714287E-1,1.9E1,-2.6331747E-1,6.572727E1,-2.6470357E-1,-2.8166667E-1,7.6153846E0,9.0625E0,5E-1,-5.5725515E-2,-1.1738413E-2,-6.4777965E-3,3.839333E-2,-5.317967E-2,-1.6229905E-2,-3.7717565E-3,-5.5978727E-2,1.4133434E-3,4.4917997E-2,5.386091E-2,-1.0663572E-2,2.600382E-2,1.2631081E-3,-3.378954E-2,-7.1299516E-2,-2.616842E-2,-5.7953086E-2,-5.635451E-2,-2.3325933E-2,-6.097862E-2,1.6242162E-3,-7.419356E-2,-2.4434414E-2,-3.502232E-2,-1.938992E-2,9.199979E-3,-2.5898883E-2,-9.405909E-3,2.1856276E-2,-2.506489E-2,-6.2244493E-3,-3.4620766E-2,-1.0200652E-3,7.646245E-3,3.784663E-2,-1.2691389E-2,3.347262E-2,-3.9994266E-2,3.8576007E-2,2.5629176E-2,-1.3113215E-2,2.5999246E-2,5.3196102E-2,6.565197E-3,2.8610433E-2,1.9180486E-2,4.505132E-2,-3.0892676E-2,2.2015246E-2,-6.3961633E-3,4.681067E-2,3.3048198E-3,5.8534134E-2,5.5744078E-2,7.305892E-2,-4.5496628E-2,1.3455856E-2,1.7565766E-2,6.900241E-2],"split_indices":[38,31,33,38,38,38,40,42,43,41,41,43,43,41,35,43,45,42,45,38,43,18,41,34,41,17,16,43,19,40,29,38,0,42,37,28,41,28,27,31,45,40,29,0,42,43,45,18,42,2,39,29,23,34,37,13,42,17,43,43,23,23,45,0,0,0,0,0,0,0,0,0,0,0,0,0,0,0,0,0,0,0,0,0,0,0,0,0,0,0,0,0,0,0,0,0,0,0,0,0,0,0,0,0,0,0,0,0,0,0,0,0,0,0,0,0,0,0,0,0,0,0,0],"split_type":[0,0,0,0,0,0,0,0,0,0,0,0,0,0,0,0,0,0,0,0,0,0,0,0,0,0,0,0,0,0,0,0,0,0,0,0,0,0,0,0,0,0,0,0,0,0,0,0,0,0,0,0,0,0,0,0,0,0,0,0,0,0,0,0,0,0,0,0,0,0,0,0,0,0,0,0,0,0,0,0,0,0,0,0,0,0,0,0,0,0,0,0,0,0,0,0,0,0,0,0,0,0,0,0,0,0,0,0,0,0,0,0,0,0,0,0,0,0,0,0,0,0,0],"sum_hessian":[4.330557E3,2.2774026E3,2.0531545E3,1.0005465E3,1.2768561E3,1.0641047E3,9.8904974E2,5.51135E2,4.4941147E2,5.977099E2,6.791462E2,6.8312115E2,3.8098355E2,5.577282E2,4.3132156E2,8.265733E1,4.684777E2,1.9317218E2,2.562393E2,3.519688E2,2.4574109E2,4.298995E1,6.361562E2,3.3273672E2,3.5038443E2,5.4324192E1,3.2665936E2,3.1541727E2,2.4231093E2,4.151002E2,1.6221367E1,7.719405E1,5.4632783E0,2.5540785E2,2.1306982E2,2.143104E1,1.7174113E2,5.3622246E1,2.0261705E2,1.7934372E2,1.7262509E2,2.1798715E2,2.7753939E1,5.813751E0,3.7176197E1,5.3360455E2,1.0255168E2,7.566732E1,2.570694E2,1.4804543E2,2.02339E2,3.124365E1,2.3080544E1,5.113394E1,2.7552542E2,2.141237E2,1.0129356E2,1.3226868E1,2.2908406E2,2.3267389E2,1.824263E2,7.0871058E0,9.134262E0,6.901771E1,8.176345E0,2.1630644E2,3.910142E1,4.9988434E1,1.6308139E2,5.9886007E0,1.5442438E1,1.6177852E2,9.962613E0,4.9926483E1,3.6957603E0,1.5309998E2,4.951708E1,1.2701851E1,1.6664188E2,1.6083214E1,1.5654189E2,1.7380281E2,4.418434E1,4.810846E0,2.2943094E1,3.3331264E1,3.844933E0,3.0162354E2,2.3198099E2,5.513226E1,4.7419422E1,3.4364544E1,4.130278E1,1.4940338E2,1.0766603E2,1.9453354E1,1.2859207E2,1.1134729E2,9.0991714E1,9.950523E0,2.1293127E1,1.9615633E1,3.4649093E0,2.6797012E1,2.433693E1,1.5915262E2,1.16372795E2,1.1160708E2,1.0251663E2,3.3621113E1,6.767244E1,3.899718E0,9.327149E0,5.151638E0,2.2393242E2,7.3051696E0,2.2536871E2,4.3588367E1,1.3883794E2,3.672226E0,3.4148798E0,3.8823996E0,5.2518625E0],"tree_param":{"num_deleted":"0","num_feature":"46","num_nodes":"123","size_leaf_vector":"1"}},{"base_weights":[1.5563131E-2,-3.808717E-1,4.9517587E-1,-3.1102126E-2,-7.8872555E-1,1.7071015E-1,8.425969E-1,-3.4347245E-1,2.8510723E-1,-1.1180928E0,-6.183984E-1,-6.732228E-2,4.7233915E-1,6.559646E-1,1.1072878E0,-5.5065435E-1,7.618896E-2,2.2520109E-1,1.2612754E0,3.678853E-1,-1.1482601E0,-1.3708618E0,-5.5035967E-1,-2.686721E-1,1.6838713E-1,3.5475752E-1,9.667294E-1,5.6401914E-1,8.835392E-1,7.4120975E-1,1.2303064E0,-1.0708035E0,-4.502204E-1,1.5427105E-1,-7.2097075E-1,-2.3062935E-1,3.2919E-1,6.900227E-2,1.7124277E-2,5.011685E-2,-1.8878294E-2,-8.9352983E-1,-1.2774671E0,-2.1405434E-2,-7.094988E-2,5.59664E-1,-5.672586E-1,-3.8368773E-1,4.2836033E-2,-6.224887E-2,5.158547E-1,6.357085E-1,1.7062066E-1,5.4308283E-1,1.1615871E0,4.6490002E-1,7.8691757E-1,9.261841E-1,-3.873058E-2,8.418498E-1,-2.1206562E-1,-1.2314712E-3,1.2580621E0,-6.614705E-2,-3.8769156E-2,-3.4158465E-2,-1.3366343E-2,-5.744634E-3,1.909574E-2,-3.9545596E-3,-6.643511E-2,-3.7845597E-2,-2.8398486E-3,4.7925216E-4,2.2240696E-2,-4.7745723E-2,-9.4302755E-4,-3.0639142E-2,-6.5227784E-2,5.676065E-2,-1.41201615E-2,-2.972557E-2,7.851821E-3,-8.591785E-3,-3.3628486E-2,-5.6372466E-3,2.913101E-2,4.299916E-3,-3.5027888E-2,2.8598575E-2,-2.4515448E-2,2.0022223E-2,5.012569E-2,-1.3438116E-2,1.3663115E-2,3.551684E-2,-2.038316E-2,6.365834E-2,3.3615388E-2,1.0946281E-2,2.8523529E-2,-5.6926423E-4,4.3668624E-2,2.2074973E-2,4.9125686E-2,1.3188328E-2,4.9692493E-2,2.4681626E-2,-2.9781727E-2,6.408628E-2,2.1778239E-2],"categories":[],"categories_nodes":[],"categories_segments":[],"categories_sizes":[],"default_left":[0,0,0,0,0,0,0,0,0,0,0,0,0,0,0,0,0,0,0,0,0,0,0,0,0,0,0,0,0,0,0,0,0,0,0,0,0,0,0,0,0,0,0,0,0,0,0,0,0,0,0,0,0,0,0,0,0,0,0,0,0,0,0,0,0,0,0,0,0,0,0,0,0,0,0,0,0,0,0,0,0,0,0,0,0,0,0,0,0,0,0,0,0,0,0,0,0,0,0,0,0,0,0,0,0,0,0,0,0,0,0],"id":8,"left_children":[1,3,5,7,9,11,13,15,17,19,21,23,25,27,29,31,33,35,37,39,41,43,45,47,49,51,53,55,57,59,61,63,65,67,69,71,73,-1,-1,-1,-1,75,77,-1,-1,79,81,83,85,87,89,91,93,95,97,99,101,103,-1,105,107,-1,109,-1,-1,-1,-1,-1,-1,-1,-1,-1,-1,-1,-1,-1,-1,-1,-1,-1,-1,-1,-1,-1,-1,-1,-1,-1,-1,-1,-1,-1,-1,-1,-1,-1,-1,-1,-1,-1,-1,-1,-1,-1,-1,-1,-1,-1,-1,-1,-1],"loss_changes":[8.2233307E2,3.376564E2,2.2038776E2,1.26118256E2,6.044757E1,7.2836266E1,4.5769653E1,5.594359E1,3.666499E1,1.7135895E1,3.6059235E1,2.6971594E1,2.5528435E1,1.1007034E1,1.6410004E1,2.18479E1,1.3315132E1,2.8479895E1,3.3235626E0,4.2601213E0,1.0622437E1,1.8918533E0,1.278627E1,1.1031006E1,2.1046627E1,1.8596382E1,6.232338E0,8.338234E0,1.1914879E1,9.889553E0,1.0236328E1,3.8861923E0,1.5170631E1,1.2017323E1,7.1923494E0,1.0092603E1,1.799627E1,0E0,0E0,0E0,0E0,6.654648E0,3.310852E0,0E0,0E0,5.437425E0,1.3071915E1,1.3519028E1,7.108946E0,1.5071918E1,6.1986217E0,1.1814514E1,1.0037902E1,4.9127007E0,2.078865E0,7.0509224E0,8.464813E0,3.64711E0,0E0,7.6308746E0,3.0941873E0,0E0,4.7836E0,0E0,0E0,0E0,0E0,0E0,0E0,0E0,0E0,0E0,0E0,0E0,0E0,0E0,0E0,0E0,0E0,0E0,0E0,0E0,0E0,0E0,0E0,0E0,0E0,0E0,0E0,0E0,0E0,0E0,0E0,0E0,0E0,0E0,0E0,0E0,0E0,0E0,0E0,0E0,0E0,0E0,0E0,0E0,0E0,0E0,0E0,0E0,0E0],"parents":[2147483647,0,0,1,1,2,2,3,3,4,4,5,5,6,6,7,7,8,8,9,9,10,10,11,11,12,12,13,13,14,14,15,15,16,16,17,17,18,18,19,19,20,20,21,21,22,22,23,23,24,24,25,25,26,26,27,27,28,28,29,29,30,30,31,31,32,32,33,33,34,34,35,35,36,36,41,41,42,42,45,45,46,46,47,47,48,48,49,49,50,50,51,51,52,52,53,53,54,54,55,55,56,56,57,57,59,59,60,60,62,62],"right_children":[2,4,6,8,10,12,14,16,18,20,22,24,26,28,30,32,34,36,38,40,42,44,46,48,50,52,54,56,58,60,62,64,66,68,70,72,74,-1,-1,-1,-1,76,78,-1,-1,80,82,84,86,88,90,92,94,96,98,100,102,104,-1,106,108,-1,110,-1,-1,-1,-1,-1,-1,-1,-1,-1,-1,-1,-1,-1,-1,-1,-1,-1,-1,-1,-1,-1,-1,-1,-1,-1,-1,-1,-1,-1,-1,-1,-1,-1,-1,-1,-1,-1,-1,-1,-1,-1,-1,-1,-1,-1,-1,-1,-1],"split_conditions":[7.575758E-3,1E0,1E0,-1.7142858E-1,-2.6923078E-1,1.9774787E-1,2.6923078E-1,4.201308E-2,2.994317E0,-8.6E1,-2.994317E0,1.7293233E-1,2.4396296E0,5.1590446E-2,7.2375E1,-2.3600843E0,5.566123E1,-6.704216E-1,-8.9E1,2.5E-1,7.4125E1,6.537931E1,5.995E1,8.1666666E-1,1.7E1,6.942857E1,8.918519E-2,3.9196336E-1,1.1862925E2,-5.566123E1,-1.1299858E0,-3.3114024E-2,6.942857E1,-2.51634E-1,6E0,-2.440732E0,1E0,6.900227E-2,1.7124277E-2,5.011685E-2,-1.8878294E-2,-2.1396E-1,1.0206333E2,-2.1405434E-2,-7.094988E-2,-1.1903027E0,1E0,-4.923077E-1,4.1666668E-2,6.591946E2,6.897088E1,3.1609195E-1,3.1666666E-1,-4.2080805E-2,7.1305145E2,7.51634E-2,6.595652E1,6.45E1,-3.873058E-2,3.881916E-1,3.7187645E-1,-1.2314712E-3,8.24E1,-6.614705E-2,-3.8769156E-2,-3.4158465E-2,-1.3366343E-2,-5.744634E-3,1.909574E-2,-3.9545596E-3,-6.643511E-2,-3.7845597E-2,-2.8398486E-3,4.7925216E-4,2.2240696E-2,-4.7745723E-2,-9.4302755E-4,-3.0639142E-2,-6.5227784E-2,5.676065E-2,-1.41201615E-2,-2.972557E-2,7.851821E-3,-8.591785E-3,-3.3628486E-2,-5.6372466E-3,2.913101E-2,4.299916E-3,-3.5027888E-2,2.8598575E-2,-2.4515448E-2,2.0022223E-2,5.012569E-2,-1.3438116E-2,1.3663115E-2,3.551684E-2,-2.038316E-2,6.365834E-2,3.3615388E-2,1.0946281E-2,2.8523529E-2,-5.6926423E-4,4.3668624E-2,2.2074973E-2,4.9125686E-2,1.3188328E-2,4.9692493E-2,2.4681626E-2,-2.9781727E-2,6.408628E-2,2.1778239E-2],"split_indices":[37,34,33,39,37,41,37,41,41,35,41,37,41,43,14,41,31,41,35,45,17,17,17,45,16,17,20,41,1,31,41,43,14,37,16,41,33,0,0,0,0,20,1,0,0,25,11,27,43,31,4,37,45,20,31,37,14,17,0,6,7,0,15,0,0,0,0,0,0,0,0,0,0,0,0,0,0,0,0,0,0,0,0,0,0,0,0,0,0,0,0,0,0,0,0,0,0,0,0,0,0,0,0,0,0,0,0,0,0,0,0],"split_type":[0,0,0,0,0,0,0,0,0,0,0,0,0,0,0,0,0,0,0,0,0,0,0,0,0,0,0,0,0,0,0,0,0,0,0,0,0,0,0,0,0,0,0,0,0,0,0,0,0,0,0,0,0,0,0,0,0,0,0,0,0,0,0,0,0,0,0,0,0,0,0,0,0,0,0,0,0,0,0,0,0,0,0,0,0,0,0,0,0,0,0,0,0,0,0,0,0,0,0,0,0,0,0,0,0,0,0,0,0,0,0],"sum_hessian":[4.3229395E3,2.3666929E3,1.9562466E3,1.2747808E3,1.0919121E3,1.01246124E3,9.4378534E2,6.413989E2,6.3338184E2,3.7009525E2,7.2181683E2,5.661364E2,4.463248E2,5.557704E2,3.880149E2,4.2935672E2,2.1204218E2,5.9801556E2,3.5366272E1,7.0752177E0,3.6302002E2,5.8145756E1,6.636711E2,3.054751E2,2.6066132E2,3.6212085E2,8.420396E1,3.986316E2,1.5713881E2,9.956577E1,2.8844913E2,6.776145E1,3.6159528E2,1.9397424E2,1.806793E1,1.1067916E2,4.873364E2,3.0776936E1,4.5893364E0,3.708481E0,3.3667367E0,1.2509194E2,2.3792809E2,3.4061809E0,5.4739574E1,9.381814E0,6.5428925E2,2.2316646E2,8.230864E1,1.5699017E2,1.0367115E2,1.4218437E2,2.199365E2,2.7882963E1,5.6320995E1,2.7837665E2,1.2025496E2,1.5368794E2,3.4508605E0,9.025869E1,9.307088E0,6.1661377E0,2.82283E2,3.4499718E1,3.326173E1,1.5759134E2,2.0400392E2,8.890722E1,1.0506703E2,9.416749E0,8.651182E0,2.6504993E1,8.4174164E1,1.299844E2,3.57352E2,1.1669608E2,8.395855E0,1.0386364E1,2.2754172E2,5.436572E0,3.9452422E0,6.30869E2,2.342023E1,1.2986832E2,9.329815E1,6.436322E1,1.7945417E1,1.27976295E2,2.9013878E1,9.869742E1,4.9737315E0,8.806499E1,5.4119385E1,4.1157753E1,1.7877873E2,2.4016123E1,3.866839E0,4.439113E1,1.1929864E1,8.4805305E1,1.9357133E2,1.1722646E1,1.0853232E2,1.7106781E1,1.3658116E2,1.9497892E1,7.0760796E1,3.0845017E0,6.2225866E0,2.7372787E2,8.555102E0],"tree_param":{"num_deleted":"0","num_feature":"46","num_nodes":"111","size_leaf_vector":"1"}},{"base_weights":[1.0700301E-2,-3.627098E-1,6.262286E-1,-7.30008E-1,-7.647399E-2,3.32513E-1,9.2951083E-1,-4.137986E-1,-9.678458E-1,-3.526515E-1,2.863594E-1,1.4320083E-1,5.704365E-1,5.960361E-1,1.1097188E0,-4.7975463E-1,4.8536533E-1,-1.1250265E0,-7.57396E-1,-1.0566878E0,-3.0963588E-1,-6.3010454E-2,4.1548914E-1,-4.2424537E-2,4.449885E-1,1.5421298E-1,7.206294E-1,1.13367096E-1,6.935112E-1,3.1445017E-1,1.1355923E0,-1.639877E-1,-6.1577624E-1,5.1864088E-2,9.4972116E-1,-1.2221266E0,-9.344992E-1,-3.015703E-1,-8.756109E-1,-1.1763456E0,-6.541533E-3,-4.1227174E-1,-1.12886615E-1,-2.6818952E-1,2.9861933E-1,3.0054516E-1,7.561975E-1,-3.4028727E-1,4.3525737E-2,3.157736E-1,9.343226E-1,-3.9784965E-1,3.2932946E-1,3.9325356E-1,8.695208E-1,-1.4793374E-1,6.167853E-1,1.859219E-1,7.508658E-1,-3.2428432E-2,6.451025E-1,9.199734E-1,1.2334129E0,6.374852E-3,-2.1593278E-2,-5.0805654E-2,-2.235964E-2,3.6108308E-2,-2.8262839E-2,6.151439E-2,-3.284807E-3,-1.6328586E-2,-6.2930115E-2,5.1183086E-3,-5.0718E-2,-2.4959115E-2,3.100881E-2,-3.351216E-2,-4.9278285E-2,-6.303478E-2,-2.480924E-2,-9.920779E-3,-2.5177842E-2,-1.7019192E-2,3.7722706E-3,3.612791E-2,-1.913337E-2,2.2414153E-2,-2.5183279E-2,1.8569713E-2,-5.381515E-3,1.9439993E-3,4.7298666E-2,-2.3254698E-2,2.240667E-2,-2.552866E-3,2.4169356E-2,1.2107088E-2,5.917812E-2,5.1522333E-2,-0E0,1.1084542E-2,-3.9855074E-2,2.318294E-2,-1.2029903E-2,5.974632E-3,3.0969674E-2,5.0900657E-2,2.8906567E-2,4.8150975E-2,-1.6762907E-2,4.5854993E-2,-8.588031E-3,2.0133877E-2,-4.542762E-2,3.9080944E-2,1.6090479E-3,5.4516017E-2,2.411894E-3,4.8445307E-2,1.2678819E-2,4.685794E-2,6.540127E-2],"categories":[],"categories_nodes":[],"categories_segments":[],"categories_sizes":[],"default_left":[0,0,0,0,0,0,0,0,0,0,0,0,0,0,0,0,0,0,0,0,0,0,0,0,0,0,0,0,0,0,0,0,0,0,0,0,0,0,0,0,0,0,0,0,0,0,0,0,0,0,0,0,0,0,0,0,0,0,0,0,0,0,0,0,0,0,0,0,0,0,0,0,0,0,0,0,0,0,0,0,0,0,0,0,0,0,0,0,0,0,0,0,0,0,0,0,0,0,0,0,0,0,0,0,0,0,0,0,0,0,0,0,0,0,0,0,0,0,0,0,0,0,0],"id":9,"left_children":[1,3,5,7,9,11,13,15,17,19,21,23,25,27,29,31,33,35,37,39,41,43,45,47,49,51,53,55,57,59,61,63,65,67,69,71,73,75,77,79,-1,81,83,85,87,89,91,93,95,97,99,101,103,105,107,109,111,113,115,-1,117,119,121,-1,-1,-1,-1,-1,-1,-1,-1,-1,-1,-1,-1,-1,-1,-1,-1,-1,-1,-1,-1,-1,-1,-1,-1,-1,-1,-1,-1,-1,-1,-1,-1,-1,-1,-1,-1,-1,-1,-1,-1,-1,-1,-1,-1,-1,-1,-1,-1,-1,-1,-1,-1,-1,-1,-1,-1,-1,-1,-1,-1],"loss_changes":[9.862616E2,2.8063605E2,1.4389673E2,8.740869E1,1.506384E2,3.699942E1,4.7029297E1,3.0117683E1,2.1006104E1,2.5386017E1,2.9369411E1,2.5879452E1,2.2614365E1,1.30967865E1,1.0108643E1,2.0012077E1,6.862134E0,5.657501E0,1.5152786E1,5.099621E0,1.61762E1,1.3134134E1,1.8256187E1,7.3687916E0,1.0697361E1,9.619044E0,1.2581024E1,6.5453544E0,6.5804367E0,6.0711045E0,9.173218E0,1.1260398E1,2.1534416E1,8.359253E0,4.9402094E0,7.5181885E0,1.1175766E1,1.1420961E1,4.3273315E0,1.6552696E0,0E0,1.01560135E1,1.1963665E1,1.3056171E1,7.904629E0,1.0384777E1,1.6045341E1,6.5510645E0,9.33091E0,8.565532E0,3.1812992E0,6.1625295E0,5.8946342E0,5.159402E0,7.1694183E0,7.0736628E0,4.250161E0,6.3094954E0,4.529976E0,0E0,3.4991674E0,4.8481903E0,6.064209E0,0E0,0E0,0E0,0E0,0E0,0E0,0E0,0E0,0E0,0E0,0E0,0E0,0E0,0E0,0E0,0E0,0E0,0E0,0E0,0E0,0E0,0E0,0E0,0E0,0E0,0E0,0E0,0E0,0E0,0E0,0E0,0E0,0E0,0E0,0E0,0E0,0E0,0E0,0E0,0E0,0E0,0E0,0E0,0E0,0E0,0E0,0E0,0E0,0E0,0E0,0E0,0E0,0E0,0E0,0E0,0E0,0E0,0E0,0E0,0E0],"parents":[2147483647,0,0,1,1,2,2,3,3,4,4,5,5,6,6,7,7,8,8,9,9,10,10,11,11,12,12,13,13,14,14,15,15,16,16,17,17,18,18,19,19,20,20,21,21,22,22,23,23,24,24,25,25,26,26,27,27,28,28,29,29,30,30,31,31,32,32,33,33,34,34,35,35,36,36,37,37,38,38,39,39,41,41,42,42,43,43,44,44,45,45,46,46,47,47,48,48,49,49,50,50,51,51,52,52,53,53,54,54,55,55,56,56,57,57,58,58,60,60,61,61,62,62],"right_children":[2,4,6,8,10,12,14,16,18,20,22,24,26,28,30,32,34,36,38,40,42,44,46,48,50,52,54,56,58,60,62,64,66,68,70,72,74,76,78,80,-1,82,84,86,88,90,92,94,96,98,100,102,104,106,108,110,112,114,116,-1,118,120,122,-1,-1,-1,-1,-1,-1,-1,-1,-1,-1,-1,-1,-1,-1,-1,-1,-1,-1,-1,-1,-1,-1,-1,-1,-1,-1,-1,-1,-1,-1,-1,-1,-1,-1,-1,-1,-1,-1,-1,-1,-1,-1,-1,-1,-1,-1,-1,-1,-1,-1,-1,-1,-1,-1,-1,-1,-1,-1,-1,-1],"split_conditions":[2.8E0,-5.6666665E0,1E0,0E0,1E0,9.5E0,7.017857E0,1.015684E0,-1.1E1,-3.0172276E0,-1.6666667E-1,2.7728927E-1,7E0,-1.2455153E0,-1.2659241E0,1.1E1,-3.6463866E-1,-4.1687447E-1,2.3333333E-1,9.52381E-2,4E-1,1.5444015E-2,0E0,3E0,2.4878845E0,6.3E1,1E1,6.799347E1,2.3333333E-1,8.583333E0,7.385714E1,-3.0356348E2,-3.5E-1,7.144444E1,6.856518E1,3.5628445E1,1.0594608E2,3.5238096E-1,7.32E1,4.6848306E-1,-6.541533E-3,-6.810433E-1,7.194444E1,-9.324442E2,1.0130435E1,-2.4570599E-1,-8.455882E-2,4.8875855E-3,2.6E1,3.1E1,1.1E1,1.3824445E2,7.738461E1,7E-1,-5.650828E-1,9.451039E1,1.12183495E2,6.904762E0,2.4411764E0,-3.2428432E-2,-1.818882E0,-1.4266667E-1,9.7E0,6.374852E-3,-2.1593278E-2,-5.0805654E-2,-2.235964E-2,3.6108308E-2,-2.8262839E-2,6.151439E-2,-3.284807E-3,-1.6328586E-2,-6.2930115E-2,5.1183086E-3,-5.0718E-2,-2.4959115E-2,3.100881E-2,-3.351216E-2,-4.9278285E-2,-6.303478E-2,-2.480924E-2,-9.920779E-3,-2.5177842E-2,-1.7019192E-2,3.7722706E-3,3.612791E-2,-1.913337E-2,2.2414153E-2,-2.5183279E-2,1.8569713E-2,-5.381515E-3,1.9439993E-3,4.7298666E-2,-2.3254698E-2,2.240667E-2,-2.552866E-3,2.4169356E-2,1.2107088E-2,5.917812E-2,5.1522333E-2,-0E0,1.1084542E-2,-3.9855074E-2,2.318294E-2,-1.2029903E-2,5.974632E-3,3.0969674E-2,5.0900657E-2,2.8906567E-2,4.8150975E-2,-1.6762907E-2,4.5854993E-2,-8.588031E-3,2.0133877E-2,-4.542762E-2,3.9080944E-2,1.6090479E-3,5.4516017E-2,2.411894E-3,4.8445307E-2,1.2678819E-2,4.685794E-2,6.540127E-2],"split_indices":[38,38,33,31,33,40,38,42,40,42,39,42,16,20,42,16,20,21,45,39,40,42,20,40,42,15,38,4,45,29,14,31,37,17,4,31,1,42,17,20,0,27,18,31,23,27,36,36,16,16,9,31,15,45,27,1,3,38,30,0,42,27,40,0,0,0,0,0,0,0,0,0,0,0,0,0,0,0,0,0,0,0,0,0,0,0,0,0,0,0,0,0,0,0,0,0,0,0,0,0,0,0,0,0,0,0,0,0,0,0,0,0,0,0,0,0,0,0,0,0,0,0,0],"split_type":[0,0,0,0,0,0,0,0,0,0,0,0,0,0,0,0,0,0,0,0,0,0,0,0,0,0,0,0,0,0,0,0,0,0,0,0,0,0,0,0,0,0,0,0,0,0,0,0,0,0,0,0,0,0,0,0,0,0,0,0,0,0,0,0,0,0,0,0,0,0,0,0,0,0,0,0,0,0,0,0,0,0,0,0,0,0,0,0,0,0,0,0,0,0,0,0,0,0,0,0,0,0,0,0,0,0,0,0,0,0,0,0,0,0,0,0,0,0,0,0,0,0,0],"sum_hessian":[4.2888926E3,2.669618E3,1.6192748E3,1.1684111E3,1.5012068E3,8.238441E2,7.954307E2,5.0292456E2,6.654866E2,8.5256464E2,6.4864215E2,4.5991708E2,3.63927E2,2.807554E2,5.1467535E2,4.6909302E2,3.3831543E1,3.781975E2,2.8728906E2,4.7600353E1,8.049643E2,1.7497426E2,4.7366788E2,2.8509018E2,1.7482692E2,9.7214096E1,2.6671292E2,4.7708E1,2.330474E2,1.6753218E1,4.9792212E2,1.4211694E2,3.2697607E2,1.81834E1,1.5648143E1,2.4658766E2,1.3160983E2,6.006831E1,2.2722076E2,4.1817326E1,5.7830276E0,5.279508E2,2.770135E2,1.1197663E2,6.299763E1,3.5580603E2,1.1786183E2,6.3440376E1,2.216498E2,1.3976884E2,3.5058067E1,2.296691E1,7.4247185E1,8.47285E1,1.8198442E2,3.1740494E1,1.5967506E1,2.4267216E1,2.0878018E2,3.958946E0,1.2794272E1,1.5896146E2,3.3896066E2,6.8131775E1,7.3985176E1,9.5224655E1,2.3175142E2,8.712218E0,9.47118E0,1.2171852E1,3.4762912E0,1.0147199E1,2.3644046E2,9.302144E0,1.2230769E2,4.9930668E1,1.0137642E1,8.20246E1,1.4519617E2,3.631338E1,5.5039444E0,1.5921724E2,3.6873355E2,1.2533621E2,1.5167728E2,1.0957733E1,1.010189E2,5.357017E1,9.427459E0,3.0346683E2,5.2339214E1,2.5020555E1,9.284128E1,5.5233814E1,8.206562E0,1.829638E2,3.8685986E1,1.3012224E2,9.646601E0,3.1640644E1,3.4174235E0,9.0765705E0,1.3890338E1,6.037823E1,1.3868952E1,3.922003E1,4.5508465E1,1.1867215E2,6.331227E1,3.9052305E0,2.7835262E1,1.1537344E1,4.4301624E0,2.085953E1,3.4076853E0,1.9999553E2,8.784655E0,6.758576E0,6.035696E0,1.4752487E2,1.143658E1,7.1191345E1,2.6776932E2],"tree_param":{"num_deleted":"0","num_feature":"46","num_nodes":"123","size_leaf_vector":"1"}},{"base_weights":[1.6581219E-3,-5.4472446E-1,3.711521E-1,-2.522751E-1,-8.54853E-1,7.363356E-2,7.0531946E-1,-5.122434E-1,-7.048207E-2,-1.0473831E0,-5.5485725E-1,-2.0474154E-1,4.0123352E-1,4.5413303E-1,1.0522685E0,-2.857477E-1,-8.167609E-1,-2.6434135E-1,1.9633423E-1,-1.0679666E0,1.205686E-1,-1.5224724E-1,-6.2721664E-1,-8.622967E-1,-1.391061E-1,-4.9576232E-1,4.6802637E-1,4.1029355E-1,1.108078E0,8.662742E-1,1.200941E0,-3.3049604E-1,6.472207E-2,-1.0129493E0,-5.100337E-1,-5.0750697E-1,-6.4364836E-2,1.5635741E-1,6.71619E-2,-7.699707E-1,-1.1624591E0,-3.4357615E-2,3.72288E-2,2.514657E-1,-4.6733418E-1,-6.4954436E-1,2.4221614E-2,4.7815584E-2,-1.0013715E0,-1.7034031E-1,6.556877E-1,3.2640976E-1,-7.618645E-1,-2.1081924E-1,5.259885E-1,8.1321865E-1,3.6390513E-1,-6.670521E-3,1.228852E0,2.9479197E-1,9.411968E-1,9.5412445E-1,1.2655089E0,6.7953267E-3,-2.290538E-2,-3.929847E-3,-5.245613E-2,-4.4963337E-2,1.0856762E-2,-2.922712E-2,3.224904E-2,-2.0640312E-2,2.5486762E-3,3.5930242E-2,4.3361764E-3,-4.202493E-2,2.4474913E-3,-6.1867874E-2,-4.4281617E-2,4.329097E-2,-4.4544465E-3,-3.491996E-2,1.2197886E-2,-3.375755E-2,1.0428792E-2,-3.4397677E-2,4.443361E-2,-1.4133877E-2,-5.4662585E-2,-1.503893E-2,-2.201464E-3,4.8317656E-2,-3.1473E-3,4.6221714E-2,-3.7795078E-2,-3.5466184E-3,-5.8596887E-2,7.909759E-3,-5.7223964E-2,2.1726128E-2,4.3857824E-2,4.980884E-2,4.4055013E-3,1.0358455E-2,2.4390547E-2,6.609204E-2,2.1422246E-2,-8.980509E-3,4.9225174E-2,3.2270342E-2,5.2423727E-2,3.1759124E-2,6.0020108E-2,6.419948E-2,3.4232188E-2],"categories":[],"categories_nodes":[],"categories_segments":[],"categories_sizes":[],"default_left":[0,0,0,0,0,0,0,0,0,0,0,0,0,0,0,0,0,0,0,0,0,0,0,0,0,0,0,0,0,0,0,0,0,0,0,0,0,0,0,0,0,0,0,0,0,0,0,0,0,0,0,0,0,0,0,0,0,0,0,0,0,0,0,0,0,0,0,0,0,0,0,0,0,0,0,0,0,0,0,0,0,0,0,0,0,0,0,0,0,0,0,0,0,0,0,0,0,0,0,0,0,0,0,0,0,0,0,0,0,0,0,0,0,0,0],"id":10,"left_children":[1,3,5,7,9,11,13,15,17,19,21,23,25,27,29,31,33,35,37,39,41,43,45,47,49,51,53,55,57,59,61,63,-1,65,67,69,71,73,-1,75,77,-1,-1,79,81,83,-1,85,87,89,91,93,95,97,99,101,103,-1,105,107,109,111,113,-1,-1,-1,-1,-1,-1,-1,-1,-1,-1,-1,-1,-1,-1,-1,-1,-1,-1,-1,-1,-1,-1,-1,-1,-1,-1,-1,-1,-1,-1,-1,-1,-1,-1,-1,-1,-1,-1,-1,-1,-1,-1,-1,-1,-1,-1,-1,-1,-1,-1,-1,-1],"loss_changes":[8.5913025E2,1.5537741E2,2.5228781E2,4.173786E1,4.734845E1,1.2270189E2,1.03559265E2,2.475296E1,2.7073332E1,1.2383423E1,9.376183E0,3.11686E1,3.72603E1,1.9329254E1,1.26102295E1,1.520837E1,8.626823E0,1.4650938E1,9.733263E0,1.2912903E1,5.342998E0,6.686279E0,7.21463E0,8.456108E0,1.651218E1,9.747176E0,2.280117E1,1.1799622E1,6.714512E0,9.297348E0,2.9629822E0,1.2322868E1,0E0,2.9480743E0,1.794606E1,1.2483189E1,6.7973347E0,8.2332E0,0E0,7.220131E0,6.4734497E0,0E0,0E0,4.982124E0,5.0473213E0,6.172714E0,0E0,6.5489497E0,3.3246422E0,1.0471502E1,5.7637796E0,7.9488573E0,9.154188E0,1.6086731E1,1.6542908E1,8.6166115E0,1.12486725E1,0E0,2.185192E0,9.374637E0,5.488968E0,3.8876038E0,1.2329102E0,0E0,0E0,0E0,0E0,0E0,0E0,0E0,0E0,0E0,0E0,0E0,0E0,0E0,0E0,0E0,0E0,0E0,0E0,0E0,0E0,0E0,0E0,0E0,0E0,0E0,0E0,0E0,0E0,0E0,0E0,0E0,0E0,0E0,0E0,0E0,0E0,0E0,0E0,0E0,0E0,0E0,0E0,0E0,0E0,0E0,0E0,0E0,0E0,0E0,0E0,0E0,0E0],"parents":[2147483647,0,0,1,1,2,2,3,3,4,4,5,5,6,6,7,7,8,8,9,9,10,10,11,11,12,12,13,13,14,14,15,15,16,16,17,17,18,18,19,19,20,20,21,21,22,22,23,23,24,24,25,25,26,26,27,27,28,28,29,29,30,30,31,31,33,33,34,34,35,35,36,36,37,37,39,39,40,40,43,43,44,44,45,45,47,47,48,48,49,49,50,50,51,51,52,52,53,53,54,54,55,55,56,56,58,58,59,59,60,60,61,61,62,62],"right_children":[2,4,6,8,10,12,14,16,18,20,22,24,26,28,30,32,34,36,38,40,42,44,46,48,50,52,54,56,58,60,62,64,-1,66,68,70,72,74,-1,76,78,-1,-1,80,82,84,-1,86,88,90,92,94,96,98,100,102,104,-1,106,108,110,112,114,-1,-1,-1,-1,-1,-1,-1,-1,-1,-1,-1,-1,-1,-1,-1,-1,-1,-1,-1,-1,-1,-1,-1,-1,-1,-1,-1,-1,-1,-1,-1,-1,-1,-1,-1,-1,-1,-1,-1,-1,-1,-1,-1,-1,-1,-1,-1,-1,-1,-1,-1,-1],"split_conditions":[-2.0763159E0,1E0,1E0,-9.5E0,-7.017857E0,5.0246305E0,7.017857E0,1.7E1,-1.4765756E-2,1.3702197E0,6.5833336E1,2E0,-8.281483E-1,2.8672256E0,2.593869E-1,4.40695E0,-9.846154E0,-1.7142858E-1,1.2E1,7.23E1,6.7115746E1,-1.0999656E0,4.3333335E0,4.8521388E-1,2.4396296E0,1E0,-2.0833333E-1,7.285714E0,-1.4216436E-1,4.139701E-1,7.1818184E1,7.085714E1,6.472207E-2,-3.0059423E0,1.1589823E-2,1.5422077E-1,1E0,-9.3E1,6.71619E-2,7.70625E1,-9.7E0,-3.4357615E-2,3.72288E-2,-2.907119E0,-1.3333334E-2,7.1634705E1,2.4221614E-2,-1.1596667E0,1E0,7.5763674E-3,9.192307E0,1.818868E0,4.3E1,7.48125E1,1.61E1,4.3088236E0,1.5947713E0,-6.670521E-3,6.6E0,1.1112825E2,9.7E0,8.636364E0,1.9029331E0,6.7953267E-3,-2.290538E-2,-3.929847E-3,-5.245613E-2,-4.4963337E-2,1.0856762E-2,-2.922712E-2,3.224904E-2,-2.0640312E-2,2.5486762E-3,3.5930242E-2,4.3361764E-3,-4.202493E-2,2.4474913E-3,-6.1867874E-2,-4.4281617E-2,4.329097E-2,-4.4544465E-3,-3.491996E-2,1.2197886E-2,-3.375755E-2,1.0428792E-2,-3.4397677E-2,4.443361E-2,-1.4133877E-2,-5.4662585E-2,-1.503893E-2,-2.201464E-3,4.8317656E-2,-3.1473E-3,4.6221714E-2,-3.7795078E-2,-3.5466184E-3,-5.8596887E-2,7.909759E-3,-5.7223964E-2,2.1726128E-2,4.3857824E-2,4.980884E-2,4.4055013E-3,1.0358455E-2,2.4390547E-2,6.609204E-2,2.1422246E-2,-8.980509E-3,4.9225174E-2,3.2270342E-2,5.2423727E-2,3.1759124E-2,6.0020108E-2,6.419948E-2,3.4232188E-2],"split_indices":[38,34,33,40,38,38,38,13,41,41,14,16,41,41,41,22,38,39,9,17,4,26,40,7,41,34,43,23,22,6,14,15,0,25,43,43,33,35,0,18,40,0,0,19,37,4,0,20,34,41,23,25,35,17,40,38,38,0,40,2,40,23,25,0,0,0,0,0,0,0,0,0,0,0,0,0,0,0,0,0,0,0,0,0,0,0,0,0,0,0,0,0,0,0,0,0,0,0,0,0,0,0,0,0,0,0,0,0,0,0,0,0,0,0,0],"split_type":[0,0,0,0,0,0,0,0,0,0,0,0,0,0,0,0,0,0,0,0,0,0,0,0,0,0,0,0,0,0,0,0,0,0,0,0,0,0,0,0,0,0,0,0,0,0,0,0,0,0,0,0,0,0,0,0,0,0,0,0,0,0,0,0,0,0,0,0,0,0,0,0,0,0,0,0,0,0,0,0,0,0,0,0,0,0,0,0,0,0,0,0,0,0,0,0,0,0,0,0,0,0,0,0,0,0,0,0,0,0,0,0,0,0,0],"sum_hessian":[4.253626E3,1.7157485E3,2.5378772E3,8.84143E2,8.316056E2,1.343363E3,1.1945142E3,3.6286697E2,5.21276E2,5.048075E2,3.267981E2,7.262816E2,6.170814E2,6.943856E2,5.0012857E2,2.0939143E2,1.5347554E2,3.0213757E2,2.1913843E2,4.962333E2,8.574187E0,5.0469593E1,2.763285E2,6.467612E1,6.6160547E2,4.221636E1,5.7486505E2,6.5242816E2,4.195745E1,2.2550876E2,2.746198E2,2.0445572E2,4.9357142E0,9.200133E1,6.1474213E1,1.3542584E2,1.6671175E2,2.1293967E2,6.198765E0,1.21926605E2,3.7430673E2,3.6230416E0,4.951145E0,2.2072805E1,2.8396786E1,2.7138333E2,4.945147E0,8.564796E0,5.6111317E1,6.374656E2,2.4139952E1,1.0175337E1,3.204102E1,4.4879505E1,5.299856E2,6.542931E1,5.8699884E2,3.637136E0,3.8320316E1,2.686462E1,1.9864413E2,6.053713E1,2.1408269E2,4.3740734E1,1.6071498E2,3.6503518E0,8.835098E1,3.9976677E1,2.1497536E1,1.27484024E2,7.941809E0,4.1034115E1,1.2567763E2,2.2280836E1,1.9065883E2,1.1234674E2,9.5798645E0,2.9158447E2,8.272224E1,7.42661E0,1.4646195E1,2.155372E1,6.8430653E0,2.6384E2,7.543336E0,4.6013894E0,3.9634073E0,6.9457884E0,4.916553E1,3.1254013E2,3.249254E2,1.671046E1,7.4294896E0,6.707444E0,3.4678926E0,1.2461493E1,1.9579527E1,3.268481E1,1.2194697E1,4.2247018E2,1.0751539E2,5.183792E1,1.3591394E1,2.6070105E2,3.2629782E2,3.3636185E1,4.684132E0,1.6268978E1,1.0595643E1,5.4985237E1,1.4365889E2,2.8113678E1,3.242345E1,2.0614154E2,7.941147E0],"tree_param":{"num_deleted":"0","num_feature":"46","num_nodes":"115","size_leaf_vector":"1"}},{"base_weights":[6.931779E-3,-3.8631064E-1,4.7004446E-1,-9.0874694E-2,-7.268744E-1,6.928829E-1,1.3820295E-1,-3.1915E-1,2.0961626E-1,-1.0687463E0,-5.165029E-1,4.8158085E-1,9.8476726E-1,-2.4373215E-2,4.7189987E-1,-5.2179205E-1,-8.605606E-2,9.101921E-1,1.2448992E-1,-8.587525E-1,-1.176715E0,-9.2266536E-1,-4.381207E-1,3.367588E-1,6.833864E-1,8.9305055E-1,6.4775206E-2,-8.027942E-1,3.3777513E-2,-2.304924E-1,6.156284E-1,-7.6208687E-1,-3.0221486E-1,3.8525206E-1,-1.9687891E-1,-1.2904549E-2,1.0202662E0,-9.038678E-2,2.4200602E-1,-8.892536E-1,1.173821E-2,-1.2001121E0,-5.8240346E-3,-1.1524286E-1,-9.9898344E-1,-8.92618E-1,-3.768069E-1,1.925838E-1,5.09793E-1,7.4351364E-1,4.2878076E-2,6.6939795E-1,1.0092555E0,-1.0054345E0,-7.3904485E-2,-1.9191049E-1,2.4764054E-1,-9.9387044E-1,4.482562E-2,4.3984696E-1,1.06317E0,-5.37512E-2,-3.2089256E-2,1.6602514E-4,-3.1730987E-2,1.1543962E-2,5.1357288E-2,-2.064912E-2,1.5340637E-3,5.3235274E-2,1.756865E-2,-2.7079275E-2,2.9536427E-3,-1.6302085E-3,1.7308285E-2,2.36344E-3,-4.5983266E-2,-6.645713E-2,-5.5202395E-2,-5.9560597E-2,2.8705005E-2,-5.2773762E-2,-1.753798E-2,-5.170232E-2,-1.2344685E-2,-2.9817898E-2,-1.2265214E-2,4.4364847E-2,6.4508207E-3,-7.6753204E-4,3.0591205E-2,-6.377731E-4,3.9079707E-2,-2.0811718E-2,3.1544443E-2,3.5509024E-2,-3.0267337E-2,-1.5948536E-2,5.2113026E-2,-2.0191899E-2,-6.477652E-2,-3.5765227E-2,2.9684795E-2,-2.0884065E-2,-2.9751866E-3,7.4341567E-3,4.098981E-2,-2.8513536E-2,-8.036684E-2,5.1609583E-2,-7.263021E-3,1.2807014E-2,3.810567E-2,5.835547E-2,2.0684076E-3],"categories":[],"categories_nodes":[],"categories_segments":[],"categories_sizes":[],"default_left":[0,0,0,0,0,0,0,0,0,0,0,0,0,0,0,0,0,0,0,0,0,0,0,0,0,0,0,0,0,0,0,0,0,0,0,0,0,0,0,0,0,0,0,0,0,0,0,0,0,0,0,0,0,0,0,0,0,0,0,0,0,0,0,0,0,0,0,0,0,0,0,0,0,0,0,0,0,0,0,0,0,0,0,0,0,0,0,0,0,0,0,0,0,0,0,0,0,0,0,0,0,0,0,0,0,0,0,0,0,0,0,0,0,0,0],"id":11,"left_children":[1,3,5,7,9,11,13,15,17,19,21,23,25,27,29,31,33,35,37,39,41,43,45,47,49,51,-1,53,55,57,59,61,63,65,67,-1,69,71,73,75,-1,77,-1,79,81,83,85,87,89,91,93,95,97,99,101,103,105,107,109,111,113,-1,-1,-1,-1,-1,-1,-1,-1,-1,-1,-1,-1,-1,-1,-1,-1,-1,-1,-1,-1,-1,-1,-1,-1,-1,-1,-1,-1,-1,-1,-1,-1,-1,-1,-1,-1,-1,-1,-1,-1,-1,-1,-1,-1,-1,-1,-1,-1,-1,-1,-1,-1,-1,-1],"loss_changes":[7.714183E2,2.3032117E2,1.4366449E2,8.430316E1,7.579358E1,7.11275E1,4.2529907E1,3.2881454E1,3.1421001E1,7.9480896E0,2.0491577E1,1.9452652E1,1.251358E1,2.3967264E1,2.6097939E1,1.9352394E1,1.7095402E1,7.694187E0,1.201408E1,4.984871E0,6.27417E0,6.2902756E0,1.5027321E1,9.720287E0,1.0733582E1,9.026215E0,0E0,5.253895E0,2.377003E1,9.433027E0,1.6178604E1,5.8131714E0,2.005865E1,5.807248E0,1.3079724E1,0E0,1.0462456E0,1.14174385E1,8.829378E0,4.0525665E0,0E0,1.4868774E0,0E0,8.4419565E0,3.0185394E0,5.566532E0,1.3966408E1,9.41747E0,9.672844E0,7.494232E0,7.132573E0,7.3604546E0,1.1261032E1,4.300209E0,4.373259E0,7.084385E0,1.4103723E1,1.9476519E0,6.499557E0,8.889004E0,6.1335983E0,0E0,0E0,0E0,0E0,0E0,0E0,0E0,0E0,0E0,0E0,0E0,0E0,0E0,0E0,0E0,0E0,0E0,0E0,0E0,0E0,0E0,0E0,0E0,0E0,0E0,0E0,0E0,0E0,0E0,0E0,0E0,0E0,0E0,0E0,0E0,0E0,0E0,0E0,0E0,0E0,0E0,0E0,0E0,0E0,0E0,0E0,0E0,0E0,0E0,0E0,0E0,0E0,0E0,0E0],"parents":[2147483647,0,0,1,1,2,2,3,3,4,4,5,5,6,6,7,7,8,8,9,9,10,10,11,11,12,12,13,13,14,14,15,15,16,16,17,17,18,18,19,19,20,20,21,21,22,22,23,23,24,24,25,25,27,27,28,28,29,29,30,30,31,31,32,32,33,33,34,34,36,36,37,37,38,38,39,39,41,41,43,43,44,44,45,45,46,46,47,47,48,48,49,49,50,50,51,51,52,52,53,53,54,54,55,55,56,56,57,57,58,58,59,59,60,60],"right_children":[2,4,6,8,10,12,14,16,18,20,22,24,26,28,30,32,34,36,38,40,42,44,46,48,50,52,-1,54,56,58,60,62,64,66,68,-1,70,72,74,76,-1,78,-1,80,82,84,86,88,90,92,94,96,98,100,102,104,106,108,110,112,114,-1,-1,-1,-1,-1,-1,-1,-1,-1,-1,-1,-1,-1,-1,-1,-1,-1,-1,-1,-1,-1,-1,-1,-1,-1,-1,-1,-1,-1,-1,-1,-1,-1,-1,-1,-1,-1,-1,-1,-1,-1,-1,-1,-1,-1,-1,-1,-1,-1,-1,-1,-1,-1,-1],"split_conditions":[8E-1,1E0,1E0,-4.7E0,-9.7E0,9.7E0,1.02E1,-1.2239914E-1,1.6666668E-2,7.425E1,-1.6070023E0,2.0461099E-1,2.74522E0,-1.5972222E-1,7E0,-6.4415834E-3,-6.586331E2,-9.747899E-2,-1.9774787E-1,-7.09469E-2,1.1290972E0,6.5611115E1,7.4736843E0,5.3785313E-3,1.1274978E2,7.395E1,6.4775206E-2,3.3626917E-1,1.1111111E-1,7.270588E1,7.89E1,6.655E1,7.6625E1,6.971811E-1,8.370374E-3,-1.2904549E-2,0E0,-1.4285715E-1,-4.787235E-2,6.825E1,1.173821E-2,-2.075E1,-5.8240346E-3,-3.4109807E0,8.275E1,8.3315497E2,-2.3944631E-2,6.32E1,2.3333333E-1,-2.4345239E-1,6.897088E1,7.0637436E1,-1.4825029E0,7.017391E1,-1.6428572E0,-8.3874455E-3,1.6065954E0,1.1666667E-1,-7.3E1,3.5714287E-1,7.1305145E2,-5.37512E-2,-3.2089256E-2,1.6602514E-4,-3.1730987E-2,1.1543962E-2,5.1357288E-2,-2.064912E-2,1.5340637E-3,5.3235274E-2,1.756865E-2,-2.7079275E-2,2.9536427E-3,-1.6302085E-3,1.7308285E-2,2.36344E-3,-4.5983266E-2,-6.645713E-2,-5.5202395E-2,-5.9560597E-2,2.8705005E-2,-5.2773762E-2,-1.753798E-2,-5.170232E-2,-1.2344685E-2,-2.9817898E-2,-1.2265214E-2,4.4364847E-2,6.4508207E-3,-7.6753204E-4,3.0591205E-2,-6.377731E-4,3.9079707E-2,-2.0811718E-2,3.1544443E-2,3.5509024E-2,-3.0267337E-2,-1.5948536E-2,5.2113026E-2,-2.0191899E-2,-6.477652E-2,-3.5765227E-2,2.9684795E-2,-2.0884065E-2,-2.9751866E-3,7.4341567E-3,4.098981E-2,-2.8513536E-2,-8.036684E-2,5.1609583E-2,-7.263021E-3,1.2807014E-2,3.810567E-2,5.835547E-2,2.0684076E-3],"split_indices":[40,34,34,40,40,40,40,41,45,17,41,41,41,43,16,43,31,36,41,20,41,14,29,43,1,14,0,41,37,18,18,18,15,41,43,0,31,37,43,15,0,40,0,41,17,31,43,17,45,43,4,4,41,14,28,43,41,45,35,37,31,0,0,0,0,0,0,0,0,0,0,0,0,0,0,0,0,0,0,0,0,0,0,0,0,0,0,0,0,0,0,0,0,0,0,0,0,0,0,0,0,0,0,0,0,0,0,0,0,0,0,0,0,0,0],"split_type":[0,0,0,0,0,0,0,0,0,0,0,0,0,0,0,0,0,0,0,0,0,0,0,0,0,0,0,0,0,0,0,0,0,0,0,0,0,0,0,0,0,0,0,0,0,0,0,0,0,0,0,0,0,0,0,0,0,0,0,0,0,0,0,0,0,0,0,0,0,0,0,0,0,0,0,0,0,0,0,0,0,0,0,0,0,0,0,0,0,0,0,0,0,0,0,0,0,0,0,0,0,0,0,0,0,0,0,0,0,0,0,0,0,0,0],"sum_hessian":[4.2338296E3,2.2896074E3,1.9442222E3,1.2268698E3,1.0627377E3,1.1623146E3,7.8190765E2,6.9736786E2,5.2950183E2,4.031037E2,6.59634E2,6.7596204E2,4.863525E2,5.261811E2,2.5572658E2,3.7216003E2,3.252078E2,5.619112E1,4.7331073E2,1.4023453E2,2.6286917E2,1.0475672E2,5.5487726E2,3.9538525E2,2.805768E2,3.7875534E2,1.0759716E2,3.580466E1,4.903764E2,4.3218945E1,2.1250763E2,1.7629979E2,1.9586026E2,6.126804E1,2.6393976E2,4.644377E0,5.1546745E1,1.6711781E2,3.0619293E2,1.3669984E2,3.5346866E0,2.569721E2,5.8970757E0,9.376499E0,9.5380226E1,6.4152E1,4.9072525E2,2.1714626E2,1.78239E2,2.5620847E2,2.4368326E1,1.3211081E2,2.4664453E2,2.7611677E1,8.192983E0,2.3841449E2,2.5196191E2,1.0860157E1,3.2358788E1,1.5416306E2,5.8344574E1,4.652042E1,1.2977936E2,1.0241396E2,9.3446304E1,5.061162E1,1.0656417E1,1.3518518E2,1.2875456E2,4.7640415E1,3.9063275E0,4.1096973E1,1.2602084E2,8.412633E1,2.2206659E2,4.178582E0,1.3252127E2,1.0374636E2,1.5322574E2,3.4338148E0,5.9426847E0,8.701451E1,8.365709E0,5.2005394E1,1.2146608E1,1.8221375E2,3.085115E2,1.698539E1,2.0016087E2,2.8975336E1,1.4926366E2,1.2188418E1,2.4402005E2,1.3752551E1,1.0615776E1,1.2852043E2,3.590381E0,5.6966968E0,2.4094783E2,9.8733225E0,1.7738354E1,4.2184362E0,3.974547E0,8.705853E1,1.5135596E2,2.1603256E2,3.5929356E1,7.6620746E0,3.198082E0,4.5936894E0,2.77651E1,9.953096E1,5.4632107E1,5.2739727E1,5.604846E0],"tree_param":{"num_deleted":"0","num_feature":"46","num_nodes":"115","size_leaf_vector":"1"}},{"base_weights":[-1.10480385E-2,-3.2388747E-1,5.3133804E-1,-4.4455428E-2,-6.4298755E-1,7.632719E-1,1.7487003E-1,-3.712962E-1,1.7884497E-1,-1.0010653E0,-4.0784025E-1,5.482236E-1,9.752148E-1,-1.02231875E-1,3.413824E-1,-4.2376775E-1,4.8149058E-1,8.149944E-1,1.14526734E-1,-1.0250801E0,1.3535725E-1,-1.0860205E0,-3.6519083E-1,3.6504227E-1,7.598791E-1,1.1115327E0,7.5722146E-1,-3.2553628E-1,1.7338121E-1,5.507239E-1,1.5246E-1,-7.725163E-1,-3.0681375E-1,9.296881E-1,5.5734664E-2,-3.8763604E-1,9.5400155E-1,-1.0672472E-1,2.002632E-1,-7.528294E-1,-1.1194663E0,3.896343E-2,-2.7785739E-2,2.4155198E-2,-1.250952E0,-4.2084154E-1,-1.3455014E-2,-1.1229939E-2,4.6784908E-1,8.6079216E-1,4.197473E-1,7.8185093E-1,1.1858903E0,3.2436037E-1,8.726037E-1,-6.0390884E-1,1.313446E-2,-2.708978E-1,3.5916921E-1,-4.1987273E-1,6.208091E-1,3.2729793E-2,8.53078E-1,1.1087551E-2,-4.5400813E-2,-4.0774442E-2,-1.115048E-2,5.9290856E-2,1.32826E-3,-1.4491058E-2,6.6930495E-2,-5.231902E-2,8.879615E-3,5.0803073E-2,2.5190818E-3,-1.4459399E-2,6.834266E-3,-2.181474E-3,1.3841494E-2,1.27211455E-2,-3.9483916E-2,-5.8875944E-2,-3.9342523E-2,-2.0825962E-2,-6.872986E-2,-3.5876106E-2,-1.8944468E-2,-1.4203675E-2,1.9736556E-2,-1.13063175E-2,2.7123023E-2,4.8307363E-2,1.9455312E-2,1.1330483E-2,4.6271723E-2,-3.5897512E-2,2.8663306E-2,1.1796718E-2,4.351501E-2,4.265706E-2,6.1566442E-2,-4.0886186E-2,2.3225935E-2,4.749322E-2,1.4711431E-3,-5.1725406E-2,-1.7764E-2,2.0586912E-2,-2.5325721E-2,-3.951588E-2,1.7402194E-2,3.017131E-4,3.6684044E-2,1.9015746E-2,-5.2110888E-2,2.5517914E-2,5.9801202E-2,-9.390126E-3,1.2772809E-2,3.139984E-2,6.690285E-2],"categories":[],"categories_nodes":[],"categories_segments":[],"categories_sizes":[],"default_left":[0,0,0,0,0,0,0,0,0,0,0,0,0,0,0,0,0,0,0,0,0,0,0,0,0,0,0,0,0,0,0,0,0,0,0,0,0,0,0,0,0,0,0,0,0,0,0,0,0,0,0,0,0,0,0,0,0,0,0,0,0,0,0,0,0,0,0,0,0,0,0,0,0,0,0,0,0,0,0,0,0,0,0,0,0,0,0,0,0,0,0,0,0,0,0,0,0,0,0,0,0,0,0,0,0,0,0,0,0,0,0,0,0,0,0,0,0,0,0,0,0],"id":12,"left_children":[1,3,5,7,9,11,13,15,17,19,21,23,25,27,29,31,33,35,37,39,41,43,45,47,49,51,53,55,57,59,61,63,65,67,69,71,73,75,77,79,81,-1,-1,-1,83,85,87,89,91,93,95,97,99,101,103,105,107,109,111,113,115,117,119,-1,-1,-1,-1,-1,-1,-1,-1,-1,-1,-1,-1,-1,-1,-1,-1,-1,-1,-1,-1,-1,-1,-1,-1,-1,-1,-1,-1,-1,-1,-1,-1,-1,-1,-1,-1,-1,-1,-1,-1,-1,-1,-1,-1,-1,-1,-1,-1,-1,-1,-1,-1,-1,-1,-1,-1,-1,-1],"loss_changes":[7.1459924E2,2.380751E2,1.27134705E2,1.0410929E2,1.0443176E2,4.182776E1,2.814413E1,2.6108185E1,3.4480568E1,1.3691925E1,2.1279503E1,1.7659012E1,1.2886719E1,1.4166638E1,1.4900925E1,2.192958E1,6.3223605E0,1.3381035E1,1.465185E1,1.1390472E1,5.3534193E0,1.2066246E1,1.38769E1,9.788456E0,6.8832626E0,5.879486E0,8.766144E0,1.2045981E1,8.6042E0,1.252121E1,1.6805391E1,1.8629211E1,1.722791E1,3.6284294E0,8.726665E0,3.499206E0,3.7578926E0,9.629929E0,1.042164E1,4.996338E0,5.7625427E0,0E0,0E0,0E0,3.390171E0,7.260292E0,1.09777E1,6.609804E0,7.255127E0,6.4176254E0,9.3614235E0,2.3764305E0,2.232605E0,6.8131022E0,9.266136E0,6.9793587E0,1.22417E1,1.0211452E1,9.600578E0,6.7465987E0,9.913048E0,8.574156E0,2.1593323E0,0E0,0E0,0E0,0E0,0E0,0E0,0E0,0E0,0E0,0E0,0E0,0E0,0E0,0E0,0E0,0E0,0E0,0E0,0E0,0E0,0E0,0E0,0E0,0E0,0E0,0E0,0E0,0E0,0E0,0E0,0E0,0E0,0E0,0E0,0E0,0E0,0E0,0E0,0E0,0E0,0E0,0E0,0E0,0E0,0E0,0E0,0E0,0E0,0E0,0E0,0E0,0E0,0E0,0E0,0E0,0E0,0E0,0E0],"parents":[2147483647,0,0,1,1,2,2,3,3,4,4,5,5,6,6,7,7,8,8,9,9,10,10,11,11,12,12,13,13,14,14,15,15,16,16,17,17,18,18,19,19,20,20,21,21,22,22,23,23,24,24,25,25,26,26,27,27,28,28,29,29,30,30,31,31,32,32,33,33,34,34,35,35,36,36,37,37,38,38,39,39,40,40,44,44,45,45,46,46,47,47,48,48,49,49,50,50,51,51,52,52,53,53,54,54,55,55,56,56,57,57,58,58,59,59,60,60,61,61,62,62],"right_children":[2,4,6,8,10,12,14,16,18,20,22,24,26,28,30,32,34,36,38,40,42,44,46,48,50,52,54,56,58,60,62,64,66,68,70,72,74,76,78,80,82,-1,-1,-1,84,86,88,90,92,94,96,98,100,102,104,106,108,110,112,114,116,118,120,-1,-1,-1,-1,-1,-1,-1,-1,-1,-1,-1,-1,-1,-1,-1,-1,-1,-1,-1,-1,-1,-1,-1,-1,-1,-1,-1,-1,-1,-1,-1,-1,-1,-1,-1,-1,-1,-1,-1,-1,-1,-1,-1,-1,-1,-1,-1,-1,-1,-1,-1,-1,-1,-1,-1,-1,-1,-1],"split_conditions":[3.0059524E0,1E0,1E0,-5.6666665E0,-7.017857E0,9.7E0,1.5134538E-2,1.2666667E0,8.3333336E-2,1.3702197E0,-2.8712757E0,1.915911E-1,-1E0,1.7E1,6.95E1,-1.58E1,6.696374E1,-6.2892616E-1,-3.95295E-1,7.2375E1,8.84375E0,-9.859483E-1,1.015684E0,2.3333333E-1,-4.3674812E-1,2.1212122E-1,7.385714E1,8.666667E0,4.3333335E0,1E-1,2.651878E0,8.3333336E-2,-2.2230089E0,1.07321976E2,-3.415712E-1,1.0665153E2,0E0,-1.6722407E-2,6.848148E1,6.8416664E1,-8.2E0,3.896343E-2,-2.7785739E-2,2.4155198E-2,-2E-1,7.571429E0,2.0833334E-2,7.627778E1,-7.51286E2,6E-1,4E0,-8.184406E-1,-1.8497362E0,4.0987593E-1,3.940954E2,-5.438212E-1,-9.39125E-1,-1.513168E0,7.5111115E1,1.8931113E2,1.83E1,7.017857E0,1.28E1,1.1087551E-2,-4.5400813E-2,-4.0774442E-2,-1.115048E-2,5.9290856E-2,1.32826E-3,-1.4491058E-2,6.6930495E-2,-5.231902E-2,8.879615E-3,5.0803073E-2,2.5190818E-3,-1.4459399E-2,6.834266E-3,-2.181474E-3,1.3841494E-2,1.27211455E-2,-3.9483916E-2,-5.8875944E-2,-3.9342523E-2,-2.0825962E-2,-6.872986E-2,-3.5876106E-2,-1.8944468E-2,-1.4203675E-2,1.9736556E-2,-1.13063175E-2,2.7123023E-2,4.8307363E-2,1.9455312E-2,1.1330483E-2,4.6271723E-2,-3.5897512E-2,2.8663306E-2,1.1796718E-2,4.351501E-2,4.265706E-2,6.1566442E-2,-4.0886186E-2,2.3225935E-2,4.749322E-2,1.4711431E-3,-5.1725406E-2,-1.7764E-2,2.0586912E-2,-2.5325721E-2,-3.951588E-2,1.7402194E-2,3.017131E-4,3.6684044E-2,1.9015746E-2,-5.2110888E-2,2.5517914E-2,5.9801202E-2,-9.390126E-3,1.2772809E-2,3.139984E-2,6.690285E-2],"split_indices":[38,34,34,38,38,40,41,42,45,41,41,41,28,16,17,40,5,21,42,17,23,26,42,45,26,37,14,38,40,45,41,45,42,1,28,3,31,37,14,15,40,0,0,0,39,29,37,15,31,40,16,21,19,7,31,42,28,25,18,31,40,38,38,0,0,0,0,0,0,0,0,0,0,0,0,0,0,0,0,0,0,0,0,0,0,0,0,0,0,0,0,0,0,0,0,0,0,0,0,0,0,0,0,0,0,0,0,0,0,0,0,0,0,0,0,0,0,0,0,0,0],"split_type":[0,0,0,0,0,0,0,0,0,0,0,0,0,0,0,0,0,0,0,0,0,0,0,0,0,0,0,0,0,0,0,0,0,0,0,0,0,0,0,0,0,0,0,0,0,0,0,0,0,0,0,0,0,0,0,0,0,0,0,0,0,0,0,0,0,0,0,0,0,0,0,0,0,0,0,0,0,0,0,0,0,0,0,0,0,0,0,0,0,0,0,0,0,0,0,0,0,0,0,0,0,0,0,0,0,0,0,0,0,0,0,0,0,0,0,0,0,0,0,0,0],"sum_hessian":[4.2095664E3,2.6700896E3,1.5394767E3,1.4243E3,1.2457894E3,9.317907E2,6.07686E2,5.7803125E2,8.4626886E2,4.9235635E2,7.5343304E2,4.645215E2,4.6726923E2,2.2801683E2,3.7966916E2,5.451112E2,3.2920063E1,7.649154E1,7.6977734E2,4.8234933E2,1.0007041E1,4.2992294E1,7.1044073E2,2.5072438E2,2.1379712E2,2.8468762E2,1.825816E2,1.2606193E2,1.0195491E2,1.7894218E2,2.0072696E2,1.352738E2,4.0983737E2,1.5346332E1,1.7573732E1,7.6654406E0,6.8826096E1,2.1459154E2,5.551858E2,1.267584E2,3.555909E2,5.189121E0,4.81792E0,3.8479803E0,3.9144314E1,6.1297644E2,9.7464294E1,5.378602E1,1.9693837E2,1.6347214E2,5.0324986E1,5.4759266E1,2.2992836E2,3.9410263E1,1.4317134E2,6.892263E1,5.71393E1,2.9769672E1,7.2185234E1,1.1618732E1,1.6732346E2,1.7244661E2,2.828035E1,1.6059362E1,1.1921445E2,5.656635E1,3.5327103E2,1.162554E1,3.7207923E0,1.439297E1,3.1807616E0,3.2284808E0,4.4369597E0,6.418297E1,4.6431303E0,1.227782E2,9.181334E1,1.324401E2,4.227457E2,4.1694503E0,1.2258894E2,3.0033206E2,5.5258858E1,5.7199626E0,3.342435E1,7.3649536E1,5.393269E2,5.8938442E1,3.8525852E1,3.930378E1,1.4482238E1,2.5162998E1,1.7177538E2,1.5681272E1,1.4779086E2,5.4687963E0,4.485619E1,8.304045E0,4.6455223E1,3.0265875E1,1.9966249E2,3.701415E0,3.570885E1,1.3092917E2,1.2242166E1,2.392462E1,4.499801E1,3.2562153E1,2.4577145E1,1.6123451E1,1.3646221E1,3.7813354E1,3.4371883E1,5.182932E0,6.4358E0,1.4209917E2,2.5224295E1,8.6503296E1,8.594332E1,2.1024063E1,7.256286E0],"tree_param":{"num_deleted":"0","num_feature":"46","num_nodes":"121","size_leaf_vector":"1"}},{"base_weights":[-9.1122085E-4,-4.8934847E-1,2.99169E-1,-2.4653104E-1,-7.5941855E-1,5.401469E-3,6.4260894E-1,-7.574169E-1,-1.7049293E-1,-9.903665E-1,-5.1355726E-1,-3.01956E-1,2.3038842E-1,4.6148476E-1,1.009796E0,-8.249883E-1,4.140811E-2,-3.5910895E-1,1.6603623E-2,-4.563473E-1,-1.0481343E0,-5.3992206E-1,6.996767E-1,-4.3878758E-1,-8.917487E-2,-3.1616333E-1,2.999279E-1,9.264325E-1,4.0614206E-1,7.978508E-1,1.1159664E0,-1.044927E0,-5.409952E-1,2.8971866E-2,-5.305016E-1,-1.1753069E-1,3.0248064E-1,3.7177318E-1,-8.416964E-1,-1.0659857E0,4.691414E-3,-6.0906327E-1,-1.4790386E-1,5.6755222E-2,6.748784E-3,7.517262E-2,-5.812373E-1,3.536486E-1,-2.4187532E-1,-1.5627545E-1,-6.915656E-2,1.737821E-1,5.5866873E-1,6.9494146E-1,1.2412581E0,1.4291218E-1,4.8221785E-1,8.7798655E-1,-1.7651238E-2,-3.4199439E-3,1.1412566E0,-5.702236E-2,-1.2306844E-2,-4.763519E-2,-8.714548E-3,-1.6687814E-2,1.4537851E-2,-2.0522926E-2,-4.30307E-2,6.982367E-3,-1.338546E-2,1.0385994E-2,5.5326164E-2,4.6659242E-2,-3.469329E-2,-5.069071E-2,3.1248275E-3,-4.2914566E-2,-5.748524E-2,-2.771748E-2,-5.16839E-2,1.3923521E-2,-3.2872908E-2,1.0143185E-2,-3.446208E-2,-3.487498E-2,-1.0496323E-2,7.841504E-3,6.620758E-2,-1.7432528E-2,1.20021505E-2,-1.5148794E-4,-2.818267E-2,-1.9169616E-3,1.7609378E-2,1.9576686E-2,4.9452633E-2,4.0712886E-2,-1.7336654E-2,2.05077E-2,6.541445E-2,1.3046555E-2,-3.6780454E-2,1.1143221E-2,2.7504954E-2,3.200788E-2,5.0955046E-2,2.2773137E-2,-5.7213552E-2,2.9696245E-2,5.830043E-2],"categories":[],"categories_nodes":[],"categories_segments":[],"categories_sizes":[],"default_left":[0,0,0,0,0,0,0,0,0,0,0,0,0,0,0,0,0,0,0,0,0,0,0,0,0,0,0,0,0,0,0,0,0,0,0,0,0,0,0,0,0,0,0,0,0,0,0,0,0,0,0,0,0,0,0,0,0,0,0,0,0,0,0,0,0,0,0,0,0,0,0,0,0,0,0,0,0,0,0,0,0,0,0,0,0,0,0,0,0,0,0,0,0,0,