{"learner":{"attributes":{},"feature_names":["team_a_prior_adj_oe","team_b_prior_adj_oe","team_a_prior_adj_de","team_b_prior_adj_de","team_a_prior_adj_tempo","team_b_prior_adj_tempo","team_a_prior_barthag","team_b_prior_barthag","conference_game","team_a_ranked","team_b_ranked","team_a_run_games","team_a_run_avg_pts_for","team_a_run_avg_pts_against","team_b_run_games","team_b_run_avg_pts_for","team_b_run_avg_pts_against","team_a_roster_bpm","team_a_roster_obpm","team_a_roster_dbpm","team_a_top5_bpm","team_a_depth_count","team_a_star_count","team_b_roster_bpm","team_b_roster_obpm","team_b_roster_dbpm","team_b_top5_bpm","team_b_depth_count","team_b_star_count","travel_advantage","tz_advantage","is_home","is_away","diff_prior_rank","diff_prior_win_pct","diff_run_win_pct","diff_run_avg_margin","diff_run_recent_win_pct","diff_run_recent_avg_margin","diff_roster_bpm","diff_top5_bpm","diff_sos","diff_conf_win_pct","season_progress"],"feature_types":["float","float","float","float","float","float","float","float","int","int","int","int","float","float","int","float","float","float","float","float","float","float","float","float","float","float","float","float","float","float","float","int","int","float","float","float","float","float","float","float","float","float","float","float"],"gradient_booster":{"model":{"cats":{"enc":[],"feature_segments":[],"sorted_idx":[]},"gbtree_model_param":{"num_parallel_tree":"1","num_trees":"500"},"iteration_indptr":[0,1,2,3,4,5,6,7,8,9,10,11,12,13,14,15,16,17,18,19,20,21,22,23,24,25,26,27,28,29,30,31,32,33,34,35,36,37,38,39,40,41,42,43,44,45,46,47,48,49,50,51,52,53,54,55,56,57,58,59,60,61,62,63,64,65,66,67,68,69,70,71,72,73,74,75,76,77,78,79,80,81,82,83,84,85,86,87,88,89,90,91,92,93,94,95,96,97,98,99,100,101,102,103,104,105,106,107,108,109,110,111,112,113,114,115,116,117,118,119,120,121,122,123,124,125,126,127,128,129,130,131,132,133,134,135,136,137,138,139,140,141,142,143,144,145,146,147,148,149,150,151,152,153,154,155,156,157,158,159,160,161,162,163,164,165,166,167,168,169,170,171,172,173,174,175,176,177,178,179,180,181,182,183,184,185,186,187,188,189,190,191,192,193,194,195,196,197,198,199,200,201,202,203,204,205,206,207,208,209,210,211,212,213,214,215,216,217,218,219,220,221,222,223,224,225,226,227,228,229,230,231,232,233,234,235,236,237,238,239,240,241,242,243,244,245,246,247,248,249,250,251,252,253,254,255,256,257,258,259,260,261,262,263,264,265,266,267,268,269,270,271,272,273,274,275,276,277,278,279,280,281,282,283,284,285,286,287,288,289,290,291,292,293,294,295,296,297,298,299,300,301,302,303,304,305,306,307,308,309,310,311,312,313,314,315,316,317,318,319,320,321,322,323,324,325,326,327,328,329,330,331,332,333,334,335,336,337,338,339,340,341,342,343,344,345,346,347,348,349,350,351,352,353,354,355,356,357,358,359,360,361,362,363,364,365,366,367,368,369,370,371,372,373,374,375,376,377,378,379,380,381,382,383,384,385,386,387,388,389,390,391,392,393,394,395,396,397,398,399,400,401,402,403,404,405,406,407,408,409,410,411,412,413,414,415,416,417,418,419,420,421,422,423,424,425,426,427,428,429,430,431,432,433,434,435,436,437,438,439,440,441,442,443,444,445,446,447,448,449,450,451,452,453,454,455,456,457,458,459,460,461,462,463,464,465,466,467,468,469,470,471,472,473,474,475,476,477,478,479,480,481,482,483,484,485,486,487,488,489,490,491,492,493,494,495,496,497,498,499,500],"tree_info":[0,0,0,0,0,0,0,0,0,0,0,0,0,0,0,0,0,0,0,0,0,0,0,0,0,0,0,0,0,0,0,0,0,0,0,0,0,0,0,0,0,0,0,0,0,0,0,0,0,0,0,0,0,0,0,0,0,0,0,0,0,0,0,0,0,0,0,0,0,0,0,0,0,0,0,0,0,0,0,0,0,0,0,0,0,0,0,0,0,0,0,0,0,0,0,0,0,0,0,0,0,0,0,0,0,0,0,0,0,0,0,0,0,0,0,0,0,0,0,0,0,0,0,0,0,0,0,0,0,0,0,0,0,0,0,0,0,0,0,0,0,0,0,0,0,0,0,0,0,0,0,0,0,0,0,0,0,0,0,0,0,0,0,0,0,0,0,0,0,0,0,0,0,0,0,0,0,0,0,0,0,0,0,0,0,0,0,0,0,0,0,0,0,0,0,0,0,0,0,0,0,0,0,0,0,0,0,0,0,0,0,0,0,0,0,0,0,0,0,0,0,0,0,0,0,0,0,0,0,0,0,0,0,0,0,0,0,0,0,0,0,0,0,0,0,0,0,0,0,0,0,0,0,0,0,0,0,0,0,0,0,0,0,0,0,0,0,0,0,0,0,0,0,0,0,0,0,0,0,0,0,0,0,0,0,0,0,0,0,0,0,0,0,0,0,0,0,0,0,0,0,0,0,0,0,0,0,0,0,0,0,0,0,0,0,0,0,0,0,0,0,0,0,0,0,0,0,0,0,0,0,0,0,0,0,0,0,0,0,0,0,0,0,0,0,0,0,0,0,0,0,0,0,0,0,0,0,0,0,0,0,0,0,0,0,0,0,0,0,0,0,0,0,0,0,0,0,0,0,0,0,0,0,0,0,0,0,0,0,0,0,0,0,0,0,0,0,0,0,0,0,0,0,0,0,0,0,0,0,0,0,0,0,0,0,0,0,0,0,0,0,0,0,0,0,0,0,0,0,0,0,0,0,0,0,0,0,0,0,0,0,0,0,0,0,0,0,0,0,0,0,0,0,0,0,0,0,0,0,0,0,0,0,0,0,0,0,0,0,0,0,0,0,0,0,0,0,0,0,0,0,0,0,0,0,0,0,0,0,0,0,0,0,0,0,0,0,0,0,0],"trees":[{"base_weights":[-6.0392623E-3,-8.3285195E-1,6.003758E-1,-1.3813546E0,-4.8538157E-1,2.0801353E-1,9.9748707E-1,-2.036109E0,-1.2109795E0,-1.6627693E0,-4.1618437E-1,1.104089E-1,1.0999147E0,7.9952884E-1,1.3373266E0,-4.5635444E-3,-2.0894812E-2,-2.911811E-3,-1.3137038E-2,-1.946051E-2,-7.903725E-3,-5.180402E-3,1.2535346E-3,-2.5454292E-3,2.0520813E-3,-2.2000882E-3,1.2004009E-2,4.386217E-4,8.6308485E-3,1.1817313E-2,1.4495055E-2],"categories":[],"categories_nodes":[],"categories_segments":[],"categories_sizes":[],"default_left":[0,0,0,0,0,0,0,0,0,0,0,0,0,0,0,0,0,0,0,0,0,0,0,0,0,0,0,0,0,0,0],"id":0,"left_children":[1,3,5,7,9,11,13,15,17,19,21,23,25,27,29,-1,-1,-1,-1,-1,-1,-1,-1,-1,-1,-1,-1,-1,-1,-1,-1],"loss_changes":[1.5405916E3,2.4692914E2,2.75844E2,5.3382202E1,6.407922E1,7.74929E1,5.795294E1,7.42453E0,3.7455566E1,9.027145E0,4.173291E1,2.793573E1,1.2016533E1,2.6722443E1,3.6519775E0,0E0,0E0,0E0,0E0,0E0,0E0,0E0,0E0,0E0,0E0,0E0,0E0,0E0,0E0,0E0,0E0],"parents":[2147483647,0,0,1,1,2,2,3,3,4,4,5,5,6,6,7,7,8,8,9,9,10,10,11,11,12,12,13,13,14,14],"right_children":[2,4,6,8,10,12,14,16,18,20,22,24,26,28,30,-1,-1,-1,-1,-1,-1,-1,-1,-1,-1,-1,-1,-1,-1,-1,-1],"split_conditions":[0E0,-8E0,7.285714E0,-2.4841194E0,-2.6099603E0,2.6830845E0,2.251935E0,-1.2857143E0,1E-1,5.839907E-3,8.825849E-1,-4.646573E-1,-2.6285556E-1,-1.0250152E0,1.8394325E0,-4.5635444E-3,-2.0894812E-2,-2.911811E-3,-1.3137038E-2,-1.946051E-2,-7.903725E-3,-5.180402E-3,1.2535346E-3,-2.5454292E-3,2.0520813E-3,-2.2000882E-3,1.2004009E-2,4.386217E-4,8.6308485E-3,1.1817313E-2,1.4495055E-2],"split_indices":[36,36,36,40,39,39,40,26,43,41,39,39,20,40,17,0,0,0,0,0,0,0,0,0,0,0,0,0,0,0,0],"split_type":[0,0,0,0,0,0,0,0,0,0,0,0,0,0,0,0,0,0,0,0,0,0,0,0,0,0,0,0,0,0,0],"sum_hessian":[3.0705876E3,1.2991124E3,1.7714751E3,5.0254776E2,7.965647E2,8.919589E2,8.795162E2,1.01385155E2,4.011626E2,4.285827E1,7.537064E2,8.050903E2,8.686864E1,5.5807916E2,3.21437E2,3.6867328E0,9.769842E1,4.078448E1,3.6037814E2,3.1337229E1,1.152104E1,6.3457886E2,1.19127556E2,1.6544214E2,6.3964813E2,5.9909406E0,8.08777E1,4.354953E1,5.1452966E2,1.3986542E2,1.815716E2],"tree_param":{"num_deleted":"0","num_feature":"44","num_nodes":"31","size_leaf_vector":"1"}},{"base_weights":[4.648159E-3,-8.289947E-1,6.1709905E-1,-1.3696669E0,-4.796126E-1,2.2556168E-1,1.010022E0,-1.8787309E0,-1.0980494E0,-7.476475E-1,-1.520005E-1,1.3113202E-1,1.1743919E0,8.40933E-1,1.3317394E0,-1.9221343E-2,-6.3041584E-3,-1.3648405E-2,-6.4077764E-3,-1.0624702E-2,-4.0153316E-3,1.9230209E-3,-3.3621239E-3,-2.0321102E-3,2.1392691E-3,1.2491755E-2,-4.449731E-3,2.8239845E-3,9.096976E-3,1.2209134E-2,1.48412725E-2],"categories":[],"categories_nodes":[],"categories_segments":[],"categories_sizes":[],"default_left":[0,0,0,0,0,0,0,0,0,0,0,0,0,0,0,0,0,0,0,0,0,0,0,0,0,0,0,0,0,0,0],"id":1,"left_children":[1,3,5,7,9,11,13,15,17,19,21,23,25,27,29,-1,-1,-1,-1,-1,-1,-1,-1,-1,-1,-1,-1,-1,-1,-1,-1],"loss_changes":[1.5693286E3,2.450567E2,2.7226288E2,6.8203125E1,6.9378204E1,7.936676E1,4.675293E1,8.070007E0,3.9831177E1,4.6870773E1,2.2784733E1,2.2459797E1,1.035405E1,2.1991852E1,3.0287476E0,0E0,0E0,0E0,0E0,0E0,0E0,0E0,0E0,0E0,0E0,0E0,0E0,0E0,0E0,0E0,0E0],"parents":[2147483647,0,0,1,1,2,2,3,3,4,4,5,5,6,6,7,7,8,8,9,9,10,10,11,11,12,12,13,13,14,14],"right_children":[2,4,6,8,10,12,14,16,18,20,22,24,26,28,30,-1,-1,-1,-1,-1,-1,-1,-1,-1,-1,-1,-1,-1,-1,-1,-1],"split_conditions":[0E0,-8E0,7.285714E0,-1.3820068E0,-1.5000917E-2,2.8139708E0,2.409577E0,2.6607144E-1,-1.05E0,0E0,-3.2E1,-5.94E-1,1.08362946E2,-4.830294E-1,4.92627E0,-1.9221343E-2,-6.3041584E-3,-1.3648405E-2,-6.4077764E-3,-1.0624702E-2,-4.0153316E-3,1.9230209E-3,-3.3621239E-3,-2.0321102E-3,2.1392691E-3,1.2491755E-2,-4.449731E-3,2.8239845E-3,9.096976E-3,1.2209134E-2,1.48412725E-2],"split_indices":[36,36,36,39,39,39,39,41,20,41,33,40,2,39,40,0,0,0,0,0,0,0,0,0,0,0,0,0,0,0,0],"split_type":[0,0,0,0,0,0,0,0,0,0,0,0,0,0,0,0,0,0,0,0,0,0,0,0,0,0,0,0,0,0,0],"sum_hessian":[3.0717473E3,1.3007303E3,1.7710171E3,5.0933023E2,7.914001E2,8.8798846E2,8.830287E2,1.7502135E2,3.3430887E2,4.3440527E2,3.569948E2,8.087441E2,7.9244385E1,5.813868E2,3.0164188E2,1.6854134E2,6.480006E0,2.0973654E2,1.24572334E2,2.2625081E2,2.0815445E2,1.24224785E2,2.3277002E2,1.5999373E2,6.4875037E2,7.602389E1,3.2204978E0,6.44509E1,5.169359E2,1.8023312E2,1.21408745E2],"tree_param":{"num_deleted":"0","num_feature":"44","num_nodes":"31","size_leaf_vector":"1"}},{"base_weights":[-7.799449E-3,-8.182379E-1,5.903318E-1,-1.2037383E0,-3.662575E-1,1.9708575E-1,9.975585E-1,-9.9573433E-1,-1.5650284E0,-5.6855094E-1,-1.8607263E-1,8.4800935E-1,1.3224483E-1,8.418137E-1,1.2766591E0,-1.2230438E-2,-6.416112E-3,-1.1913309E-2,-1.7996589E-2,-6.171945E-3,2.2754073E-3,1.9129004E-3,-3.1807635E-3,-4.062795E-3,1.0288752E-2,-2.0643228E-3,2.3652057E-3,4.353876E-3,9.569718E-3,1.336182E-2,4.3012807E-3],"categories":[],"categories_nodes":[],"categories_segments":[],"categories_sizes":[],"default_left":[0,0,0,0,0,0,0,0,0,0,0,0,0,0,0,0,0,0,0,0,0,0,0,0,0,0,0,0,0,0,0],"id":2,"left_children":[1,3,5,7,9,11,13,15,17,19,21,23,25,27,29,-1,-1,-1,-1,-1,-1,-1,-1,-1,-1,-1,-1,-1,-1,-1,-1],"loss_changes":[1.4916285E3,2.2708087E2,2.8319122E2,5.1140564E1,2.1799911E1,3.7860752E1,3.650287E1,3.5261627E1,1.9962708E1,1.1151901E1,1.6048645E1,1.8944E1,2.9068247E1,2.5707764E1,1.4828827E1,0E0,0E0,0E0,0E0,0E0,0E0,0E0,0E0,0E0,0E0,0E0,0E0,0E0,0E0,0E0,0E0],"parents":[2147483647,0,0,1,1,2,2,3,3,4,4,5,5,6,6,7,7,8,8,9,9,10,10,11,11,12,12,13,13,14,14],"right_children":[2,4,6,8,10,12,14,16,18,20,22,24,26,28,30,-1,-1,-1,-1,-1,-1,-1,-1,-1,-1,-1,-1,-1,-1,-1,-1],"split_conditions":[-7.1428575E-2,-5.6695905E0,7.285714E0,2.7E1,-3E0,1E0,1.7115385E1,-1.0064166E0,-7.57258E-1,3.6278284E0,-1.5E1,-7.537285E-1,1.6296296E0,7E0,1.4E1,-1.2230438E-2,-6.416112E-3,-1.1913309E-2,-1.7996589E-2,-6.171945E-3,2.2754073E-3,1.9129004E-3,-3.1807635E-3,-4.062795E-3,1.0288752E-2,-2.0643228E-3,2.3652057E-3,4.353876E-3,9.569718E-3,1.336182E-2,4.3012807E-3],"split_indices":[36,36,36,33,38,14,36,20,23,20,33,17,36,14,33,0,0,0,0,0,0,0,0,0,0,0,0,0,0,0,0],"split_type":[0,0,0,0,0,0,0,0,0,0,0,0,0,0,0,0,0,0,0,0,0,0,0,0,0,0,0,0,0,0,0],"sum_hessian":[3.0750747E3,1.305706E3,1.7693685E3,7.0366003E2,6.020461E2,9.010156E2,8.683529E2,4.4912186E2,2.5453818E2,2.8234598E2,3.1970007E2,8.038891E1,8.206267E2,5.601502E2,3.0820267E2,2.718725E2,1.7724936E2,1.0068313E2,1.5385506E2,2.6641742E2,1.5928565E1,8.253845E1,2.3716162E2,9.904297E0,7.048461E1,1.9272775E2,6.27899E2,1.2492022E2,4.3523E2,2.873046E2,2.0898062E1],"tree_param":{"num_deleted":"0","num_feature":"44","num_nodes":"31","size_leaf_vector":"1"}},{"base_weights":[9.948322E-3,-7.904106E-1,6.017349E-1,-1.1784798E0,-3.454966E-1,2.137425E-1,1.0051967E0,-1.8286422E0,-9.7746664E-1,-6.081155E-1,-6.953622E-2,1.1983778E-1,1.1506765E0,8.5873145E-1,1.3635E0,-3.893791E-3,-1.8784935E-2,-1.0491286E-2,5.3920415E-3,-1.107562E-2,-4.253784E-3,-1.2496711E-3,9.038924E-3,-1.9274222E-3,2.3271798E-3,1.2087751E-2,-1.1502758E-3,7.750772E-4,9.1718305E-3,8.455673E-3,1.3974141E-2],"categories":[],"categories_nodes":[],"categories_segments":[],"categories_sizes":[],"default_left":[0,0,0,0,0,0,0,0,0,0,0,0,0,0,0,0,0,0,0,0,0,0,0,0,0,0,0,0,0,0,0],"id":3,"left_children":[1,3,5,7,9,11,13,15,17,19,21,23,25,27,29,-1,-1,-1,-1,-1,-1,-1,-1,-1,-1,-1,-1,-1,-1,-1,-1],"loss_changes":[1.4627401E3,2.2609619E2,2.7761157E2,8.949835E1,4.4323975E1,7.949426E1,4.4265564E1,1.0822632E1,5.9029297E1,2.8018684E1,1.6237526E1,2.916411E1,6.305397E0,2.8163086E1,2.9951477E0,0E0,0E0,0E0,0E0,0E0,0E0,0E0,0E0,0E0,0E0,0E0,0E0,0E0,0E0,0E0,0E0],"parents":[2147483647,0,0,1,1,2,2,3,3,4,4,5,5,6,6,7,7,8,8,9,9,10,10,11,11,12,12,13,13,14,14],"right_children":[2,4,6,8,10,12,14,16,18,20,22,24,26,28,30,-1,-1,-1,-1,-1,-1,-1,-1,-1,-1,-1,-1,-1,-1,-1,-1],"split_conditions":[0E0,-5.6695905E0,7.285714E0,-1.9811187E0,-4.9557824E-2,2.8139708E0,2.8139708E0,-1.2491593E0,1.9114027E0,-6.527778E-2,2.8712757E0,-4.7680702E-2,1.0818237E2,-1.1092016E0,8.9E0,-3.893791E-3,-1.8784935E-2,-1.0491286E-2,5.3920415E-3,-1.107562E-2,-4.253784E-3,-1.2496711E-3,9.038924E-3,-1.9274222E-3,2.3271798E-3,1.2087751E-2,-1.1502758E-3,7.750772E-4,9.1718305E-3,8.455673E-3,1.3974141E-2],"split_indices":[36,36,36,40,39,39,39,25,39,41,39,41,2,40,36,0,0,0,0,0,0,0,0,0,0,0,0,0,0,0,0],"split_type":[0,0,0,0,0,0,0,0,0,0,0,0,0,0,0,0,0,0,0,0,0,0,0,0,0,0,0,0,0,0,0],"sum_hessian":[3.08632E3,1.311748E3,1.774572E3,6.996317E2,6.1211633E2,9.055347E2,8.690373E2,1.6319495E2,5.3643677E2,3.128373E2,2.99279E2,8.241668E2,8.1367935E1,6.1948376E2,2.4955348E2,5.8254113E0,1.5736954E2,5.125913E2,2.3845476E1,8.229773E1,2.305396E2,2.8407687E2,1.5202117E1,2.1823955E2,6.0592725E2,7.791543E1,3.4525087E0,4.3404636E1,5.7607916E2,1.7111435E1,2.3244205E2],"tree_param":{"num_deleted":"0","num_feature":"44","num_nodes":"31","size_leaf_vector":"1"}},{"base_weights":[7.911663E-4,-7.9185826E-1,5.890903E-1,-1.3095639E0,-5.027889E-1,1.8792184E-1,1.0049012E0,-1.761924E0,-1.0705196E0,-7.538374E-1,-1.9065176E-1,9.057915E-2,1.1456618E0,8.235409E-1,1.3404573E0,-7.5509828E-3,-1.8254481E-2,-1.3196899E-2,-6.513645E-3,-1.0673396E-2,-5.047174E-3,-2.4125902E-3,8.090842E-3,-2.6319004E-3,1.8589396E-3,-1.7194713E-3,1.2350452E-2,2.9709064E-3,9.014353E-3,4.7725863E-3,1.3510711E-2],"categories":[],"categories_nodes":[],"categories_segments":[],"categories_sizes":[],"default_left":[0,0,0,0,0,0,0,0,0,0,0,0,0,0,0,0,0,0,0,0,0,0,0,0,0,0,0,0,0,0,0],"id":4,"left_children":[1,3,5,7,9,11,13,15,17,19,21,23,25,27,29,-1,-1,-1,-1,-1,-1,-1,-1,-1,-1,-1,-1,-1,-1,-1,-1],"loss_changes":[1.4292244E3,1.9455334E2,2.9316693E2,4.8336426E1,6.5552155E1,8.3379036E1,5.123224E1,8.583405E0,3.1140137E1,3.5605255E1,1.9150036E1,2.753024E1,1.0041664E1,2.2714325E1,1.9318237E0,0E0,0E0,0E0,0E0,0E0,0E0,0E0,0E0,0E0,0E0,0E0,0E0,0E0,0E0,0E0,0E0],"parents":[2147483647,0,0,1,1,2,2,3,3,4,4,5,5,6,6,7,7,8,8,9,9,10,10,11,11,12,12,13,13,14,14],"right_children":[2,4,6,8,10,12,14,16,18,20,22,24,26,28,30,-1,-1,-1,-1,-1,-1,-1,-1,-1,-1,-1,-1,-1,-1,-1,-1],"split_conditions":[0E0,-8.523809E0,7.285714E0,-1.3820068E0,-1.5000917E-2,2.8139708E0,2.30068E0,-1.0714893E0,-1.05E0,-1.9760992E-2,2.8712757E0,-4.646573E-1,-2.6285556E-1,1E0,9.546586E1,-7.5509828E-3,-1.8254481E-2,-1.3196899E-2,-6.513645E-3,-1.0673396E-2,-5.047174E-3,-2.4125902E-3,8.090842E-3,-2.6319004E-3,1.8589396E-3,-1.7194713E-3,1.2350452E-2,2.9709064E-3,9.014353E-3,4.7725863E-3,1.3510711E-2],"split_indices":[36,36,36,39,39,39,39,25,20,41,39,39,20,31,3,0,0,0,0,0,0,0,0,0,0,0,0,0,0,0,0],"split_type":[0,0,0,0,0,0,0,0,0,0,0,0,0,0,0,0,0,0,0,0,0,0,0,0,0,0,0,0,0,0,0],"sum_hessian":[3.0629766E3,1.3046416E3,1.7583351E3,4.6606726E2,8.3857434E2,8.957859E2,8.625492E2,1.587896E2,3.0727768E2,4.6380533E2,3.74769E2,8.142284E2,8.155748E1,5.6235944E2,3.0018976E2,1.0282224E1,1.4850737E2,1.9121892E2,1.16058754E2,2.0373344E2,2.6007187E2,3.5752933E2,1.7239656E1,1.7221754E2,6.4201086E2,5.051426E0,7.650605E1,7.326881E1,4.890906E2,4.319034E0,2.9587073E2],"tree_param":{"num_deleted":"0","num_feature":"44","num_nodes":"31","size_leaf_vector":"1"}},{"base_weights":[1.4359293E-2,-7.7746516E-1,6.1075634E-1,-1.3130906E0,-4.511509E-1,2.1546267E-1,1.0030916E0,-1.4134506E0,-3.6433026E-1,-7.0112336E-1,-1.823268E-1,1.2417731E-1,1.1014006E0,8.4234273E-1,1.288815E0,-1.9604355E-2,-1.2588783E-2,-1.5403607E-2,-8.250162E-4,-1.4482881E-2,-5.667102E-3,-4.305939E-3,1.5960555E-3,-3.1403692E-3,2.0337687E-3,7.155665E-3,1.2829846E-2,1.2317592E-3,8.996271E-3,1.3222842E-2,6.389823E-3],"categories":[],"categories_nodes":[],"categories_segments":[],"categories_sizes":[],"default_left":[0,0,0,0,0,0,0,0,0,0,0,0,0,0,0,0,0,0,0,0,0,0,0,0,0,0,0,0,0,0,0],"id":5,"left_children":[1,3,5,7,9,11,13,15,17,19,21,23,25,27,29,-1,-1,-1,-1,-1,-1,-1,-1,-1,-1,-1,-1,-1,-1,-1,-1],"loss_changes":[1.4555665E3,2.306643E2,2.723302E2,4.6977844E1,5.5187363E1,7.0680725E1,3.9210327E1,3.5452637E1,1.606225E1,4.1827927E1,3.395034E1,2.7695265E1,4.606819E0,2.3167877E1,5.81958E0,0E0,0E0,0E0,0E0,0E0,0E0,0E0,0E0,0E0,0E0,0E0,0E0,0E0,0E0,0E0,0E0],"parents":[2147483647,0,0,1,1,2,2,3,3,4,4,5,5,6,6,7,7,8,8,9,9,10,10,11,11,12,12,13,13,14,14],"right_children":[2,4,6,8,10,12,14,16,18,20,22,24,26,28,30,-1,-1,-1,-1,-1,-1,-1,-1,-1,-1,-1,-1,-1,-1,-1,-1],"split_conditions":[0E0,-8.2E0,7.15E0,2.147633E-1,4.9335198E-3,3.1333926E0,2.251935E0,-2.41067E0,-2.52E1,-1.9811187E0,-2.6E0,-9.0750986E-1,2.5010297E0,-1.1488774E0,-0E0,-1.9604355E-2,-1.2588783E-2,-1.5403607E-2,-8.250162E-4,-1.4482881E-2,-5.667102E-3,-4.305939E-3,1.5960555E-3,-3.1403692E-3,2.0337687E-3,7.155665E-3,1.2829846E-2,1.2317592E-3,8.996271E-3,1.3222842E-2,6.389823E-3],"split_indices":[36,36,36,41,41,40,40,40,38,40,38,40,20,40,29,0,0,0,0,0,0,0,0,0,0,0,0,0,0,0,0],"split_type":[0,0,0,0,0,0,0,0,0,0,0,0,0,0,0,0,0,0,0,0,0,0,0,0,0,0,0,0,0,0,0],"sum_hessian":[3.0802788E3,1.3231233E3,1.7571556E3,4.9964893E2,8.234743E2,8.761765E2,8.809791E2,4.513137E2,4.8335224E1,4.256725E2,3.9780185E2,7.9546625E2,8.071029E1,5.6654004E2,3.144391E2,9.6720116E1,3.5459357E2,8.412143E0,3.9923084E1,6.329799E1,3.623745E2,2.3048589E2,1.6731595E2,1.211134E2,6.7435284E2,2.7586092E1,5.31242E1,4.2158928E1,5.243811E2,2.9790692E2,1.6532171E1],"tree_param":{"num_deleted":"0","num_feature":"44","num_nodes":"31","size_leaf_vector":"1"}},{"base_weights":[1.052777E-3,-7.783762E-1,5.8317906E-1,-1.2692538E0,-4.66061E-1,1.9892278E-1,9.618691E-1,-1.9015636E0,-1.0988547E0,-7.3045063E-1,-1.766731E-1,9.982119E-2,1.0440196E0,8.2132727E-1,1.3469195E0,-2.1146943E-3,-1.9684715E-2,-1.1493007E-2,4.2668157E-3,-1.5048048E-2,-6.161978E-3,-2.253255E-3,8.072804E-3,-2.3582214E-3,1.8883392E-3,1.1430784E-2,2.090661E-3,1.1909942E-3,8.739675E-3,1.1571914E-2,1.4592092E-2],"categories":[],"categories_nodes":[],"categories_segments":[],"categories_sizes":[],"default_left":[0,0,0,0,0,0,0,0,0,0,0,0,0,0,0,0,0,0,0,0,0,0,0,0,0,0,0,0,0,0,0],"id":6,"left_children":[1,3,5,7,9,11,13,15,17,19,21,23,25,27,29,-1,-1,-1,-1,-1,-1,-1,-1,-1,-1,-1,-1,-1,-1,-1,-1],"loss_changes":[1.3893031E3,1.9992859E2,2.5477081E2,5.2379578E1,6.1123917E1,7.276744E1,4.643268E1,1.1398956E1,3.1569427E1,3.588423E1,1.8520035E1,2.3379791E1,7.173584E0,2.3796753E1,3.0397034E0,0E0,0E0,0E0,0E0,0E0,0E0,0E0,0E0,0E0,0E0,0E0,0E0,0E0,0E0,0E0,0E0],"parents":[2147483647,0,0,1,1,2,2,3,3,4,4,5,5,6,6,7,7,8,8,9,9,10,10,11,11,12,12,13,13,14,14],"right_children":[2,4,6,8,10,12,14,16,18,20,22,24,26,28,30,-1,-1,-1,-1,-1,-1,-1,-1,-1,-1,-1,-1,-1,-1,-1,-1],"split_conditions":[-7.1428575E-2,-8E0,7.15E0,-2.41067E0,-5.589957E-2,2.5248046E0,3.0315545E0,-1.0714893E0,1.9114027E0,-2.4200065E0,2.8139708E0,-4.646573E-1,7.7333336E1,-1.065098E0,2.077398E0,-2.1146943E-3,-1.9684715E-2,-1.1493007E-2,4.2668157E-3,-1.5048048E-2,-6.161978E-3,-2.253255E-3,8.072804E-3,-2.3582214E-3,1.8883392E-3,1.1430784E-2,2.090661E-3,1.1909942E-3,8.739675E-3,1.1571914E-2,1.4592092E-2],"split_indices":[36,36,36,40,39,39,39,25,39,39,39,39,13,40,17,0,0,0,0,0,0,0,0,0,0,0,0,0,0,0,0],"split_type":[0,0,0,0,0,0,0,0,0,0,0,0,0,0,0,0,0,0,0,0,0,0,0,0,0,0,0,0,0,0,0],"sum_hessian":[3.060029E3,1.3080828E3,1.7519462E3,5.0732184E2,8.007609E2,8.7047046E2,8.8147577E2,1.0541311E2,4.0190872E2,4.174771E2,3.832838E2,7.802139E2,9.025655E1,6.482573E2,2.3321846E2,4.229556E0,1.01183556E2,3.893461E2,1.2562632E1,5.1999798E1,3.654773E2,3.6605646E2,1.7227346E1,1.629605E2,6.172534E2,8.024723E1,1.0009321E1,4.5565834E1,6.0269147E2,9.1244576E1,1.4197388E2],"tree_param":{"num_deleted":"0","num_feature":"44","num_nodes":"31","size_leaf_vector":"1"}},{"base_weights":[9.858617E-3,-7.6039606E-1,5.893863E-1,-1.2543358E0,-4.515868E-1,2.2319728E-1,9.705939E-1,-1.6158533E0,-9.2203325E-1,-1.6951196E0,-3.8129452E-1,1.2587395E-1,1.1684674E0,6.5491176E-1,1.1396104E0,-2.018994E-2,-1.433228E-2,-1.08557865E-2,-2.5419224E-4,-1.9736728E-2,-8.208365E-3,-4.7720512E-3,2.0396062E-3,-8.9615997E-4,2.6936014E-3,1.2387818E-2,-2.6223233E-3,1.377712E-3,8.043489E-3,9.712527E-3,1.3223444E-2],"categories":[],"categories_nodes":[],"categories_segments":[],"categories_sizes":[],"default_left":[0,0,0,0,0,0,0,0,0,0,0,0,0,0,0,0,0,0,0,0,0,0,0,0,0,0,0,0,0,0,0],"id":7,"left_children":[1,3,5,7,9,11,13,15,17,19,21,23,25,27,29,-1,-1,-1,-1,-1,-1,-1,-1,-1,-1,-1,-1,-1,-1,-1,-1],"loss_changes":[1.3704854E3,2.0032196E2,2.4424622E2,5.9090027E1,7.0188934E1,8.2068405E1,4.485382E1,1.4508667E1,3.8914734E1,8.601036E0,4.338183E1,2.5172123E1,8.806114E0,2.3114212E1,1.563031E1,0E0,0E0,0E0,0E0,0E0,0E0,0E0,0E0,0E0,0E0,0E0,0E0,0E0,0E0,0E0,0E0],"parents":[2147483647,0,0,1,1,2,2,3,3,4,4,5,5,6,6,7,7,8,8,9,9,10,10,11,11,12,12,13,13,14,14],"right_children":[2,4,6,8,10,12,14,16,18,20,22,24,26,28,30,-1,-1,-1,-1,-1,-1,-1,-1,-1,-1,-1,-1,-1,-1,-1,-1],"split_conditions":[0E0,-8.2E0,7.285714E0,-6.458498E-1,-2.6099603E0,2.8139708E0,2.6093328E-1,-1.75E1,1.8846133E-1,5.839907E-3,1.2546431E0,-1.3541667E-2,1.08362946E2,4.920631E-1,1.54E1,-2.018994E-2,-1.433228E-2,-1.08557865E-2,-2.5419224E-4,-1.9736728E-2,-8.208365E-3,-4.7720512E-3,2.0396062E-3,-8.9615997E-4,2.6936014E-3,1.2387818E-2,-2.6223233E-3,1.377712E-3,8.043489E-3,9.712527E-3,1.3223444E-2],"split_indices":[36,36,36,40,39,39,39,38,41,41,40,41,2,6,36,0,0,0,0,0,0,0,0,0,0,0,0,0,0,0,0],"split_type":[0,0,0,0,0,0,0,0,0,0,0,0,0,0,0,0,0,0,0,0,0,0,0,0,0,0,0,0,0,0,0],"sum_hessian":[3.068229E3,1.3171329E3,1.7510962E3,5.0538498E2,8.117479E2,8.9408435E2,8.570118E2,2.4005818E2,2.653268E2,4.211732E1,7.696306E2,8.1174725E2,8.233709E1,3.007498E2,5.56262E2,7.153761E1,1.6852057E2,2.2412361E2,4.120319E1,3.0900372E1,1.1216948E1,6.615693E2,1.0806134E2,3.2433463E2,4.8741263E2,7.867453E1,3.6625655E0,6.80047E1,2.327451E2,2.930915E2,2.631705E2],"tree_param":{"num_deleted":"0","num_feature":"44","num_nodes":"31","size_leaf_vector":"1"}},{"base_weights":[1.5269399E-2,-7.543689E-1,5.9585583E-1,-1.269546E0,-4.4745293E-1,2.4779025E-1,9.4735134E-1,-1.6091921E0,-9.3686485E-1,-5.929426E-1,9.823821E-2,1.7381293E-1,1.1504368E0,7.964529E-1,1.3158199E0,-1.8178742E-2,-1.2748475E-2,-1.22161005E-2,-4.9207453E-3,-8.65448E-3,-4.0067956E-3,3.2953592E-4,9.961668E-3,-2.21552E-3,2.4359147E-3,1.29938265E-2,5.0677513E-3,5.6210725E-4,8.528135E-3,7.0628976E-3,1.3671071E-2],"categories":[],"categories_nodes":[],"categories_segments":[],"categories_sizes":[],"default_left":[0,0,0,0,0,0,0,0,0,0,0,0,0,0,0,0,0,0,0,0,0,0,0,0,0,0,0,0,0,0,0],"id":8,"left_children":[1,3,5,7,9,11,13,15,17,19,21,23,25,27,29,-1,-1,-1,-1,-1,-1,-1,-1,-1,-1,-1,-1,-1,-1,-1,-1],"loss_changes":[1.3808175E3,2.0934912E2,2.1515387E2,5.4213135E1,6.6346146E1,5.8868385E1,4.744391E1,1.4368591E1,3.1245163E1,3.4052597E1,1.020101E1,2.269738E1,5.5722656E0,2.5901611E1,6.729004E0,0E0,0E0,0E0,0E0,0E0,0E0,0E0,0E0,0E0,0E0,0E0,0E0,0E0,0E0,0E0,0E0],"parents":[2147483647,0,0,1,1,2,2,3,3,4,4,5,5,6,6,7,7,8,8,9,9,10,10,11,11,12,12,13,13,14,14],"right_children":[2,4,6,8,10,12,14,16,18,20,22,24,26,28,30,-1,-1,-1,-1,-1,-1,-1,-1,-1,-1,-1,-1,-1,-1,-1,-1],"split_conditions":[0E0,-8.384615E0,7.285714E0,-5.94E-1,6.2874377E-1,3.3787708E0,2.9859462E0,-1.2055555E1,-1.05E0,-1.8055555E-1,1.9067504E0,1E0,-9.2E1,-1.065098E0,7.9E0,-1.8178742E-2,-1.2748475E-2,-1.22161005E-2,-4.9207453E-3,-8.65448E-3,-4.0067956E-3,3.2953592E-4,9.961668E-3,-2.21552E-3,2.4359147E-3,1.29938265E-2,5.0677513E-3,5.6210725E-4,8.528135E-3,7.0628976E-3,1.3671071E-2],"split_indices":[36,36,36,40,40,40,40,36,20,37,19,31,33,40,38,0,0,0,0,0,0,0,0,0,0,0,0,0,0,0,0],"split_type":[0,0,0,0,0,0,0,0,0,0,0,0,0,0,0,0,0,0,0,0,0,0,0,0,0,0,0,0,0,0,0],"sum_hessian":[3.0882017E3,1.3277006E3,1.760501E3,4.9438428E2,8.3331635E2,8.855659E2,8.749351E2,2.4258403E2,2.5180026E2,6.579842E2,1.7533209E2,8.196907E2,6.5875244E1,6.231643E2,2.5177081E2,1.4644424E2,9.613978E1,1.5231815E2,9.948212E1,2.7052795E2,3.8745627E2,1.645187E2,1.0813395E1,1.22424706E2,6.97266E2,5.2542583E1,1.33326645E1,4.4356495E1,5.788078E2,2.0838161E1,2.3093265E2],"tree_param":{"num_deleted":"0","num_feature":"44","num_nodes":"31","size_leaf_vector":"1"}},{"base_weights":[1.0221528E-3,-7.6188266E-1,5.8288616E-1,-1.1219256E0,-3.392796E-1,2.0170562E-1,9.659522E-1,-1.2252473E0,-3.1474847E-1,-7.1880853E-1,-1.7671527E-1,1.2707962E-1,1.1119254E0,7.982253E-1,1.2478884E0,-1.7967047E-2,-1.1112913E-2,4.2344758E-4,-8.529028E-3,-2.5103497E-3,-8.867922E-3,-2.6887767E-3,2.8288907E-3,-2.293475E-3,2.1451944E-3,2.792851E-4,1.1686218E-2,1.003516E-3,8.601952E-3,1.0825378E-2,1.3902623E-2],"categories":[],"categories_nodes":[],"categories_segments":[],"categories_sizes":[],"default_left":[0,0,0,0,0,0,0,0,0,0,0,0,0,0,0,0,0,0,0,0,0,0,0,0,0,0,0,0,0,0,0],"id":9,"left_children":[1,3,5,7,9,11,13,15,17,19,21,23,25,27,29,-1,-1,-1,-1,-1,-1,-1,-1,-1,-1,-1,-1,-1,-1,-1,-1],"loss_changes":[1.3669272E3,2.0219287E2,2.5478485E2,5.94115E1,3.76951E1,5.9310345E1,3.998584E1,3.91828E1,1.6072968E1,1.4103096E1,1.8361298E1,2.5349339E1,3.918007E0,2.3564056E1,5.8487854E0,0E0,0E0,0E0,0E0,0E0,0E0,0E0,0E0,0E0,0E0,0E0,0E0,0E0,0E0,0E0,0E0],"parents":[2147483647,0,0,1,1,2,2,3,3,4,4,5,5,6,6,7,7,8,8,9,9,10,10,11,11,12,12,13,13,14,14],"right_children":[2,4,6,8,10,12,14,16,18,20,22,24,26,28,30,-1,-1,-1,-1,-1,-1,-1,-1,-1,-1,-1,-1,-1,-1,-1,-1],"split_conditions":[0E0,-5.6695905E0,7.15E0,6.857143E-1,-6.181818E-1,3.3787708E0,2.1014209E0,-2.8234296E0,1.5E1,7.1166664E1,1.4747616E0,-5.94E-1,-1.439288E-1,-1.1092016E0,1.6772728E1,-1.7967047E-2,-1.1112913E-2,4.2344758E-4,-8.529028E-3,-2.5103497E-3,-8.867922E-3,-2.6887767E-3,2.8288907E-3,-2.293475E-3,2.1451944E-3,2.792851E-4,1.1686218E-2,1.003516E-3,8.601952E-3,1.0825378E-2,1.3902623E-2],"split_indices":[36,36,36,40,40,40,40,40,14,15,40,40,20,40,36,0,0,0,0,0,0,0,0,0,0,0,0,0,0,0,0],"split_type":[0,0,0,0,0,0,0,0,0,0,0,0,0,0,0,0,0,0,0,0,0,0,0,0,0,0,0,0,0,0,0],"sum_hessian":[3.0773506E3,1.3313214E3,1.7460292E3,7.1784845E2,6.13473E2,8.7606445E2,8.699648E2,6.358194E2,8.202906E1,1.8275928E2,4.3071375E2,8.1083606E2,6.522838E1,5.4808746E2,3.218773E2,1.0310952E2,5.327099E2,4.9751713E1,3.2277344E1,4.910615E1,1.3365312E2,3.5929788E2,7.1415855E1,1.5918611E2,6.5164996E2,3.4039261E0,6.1824455E1,4.504519E1,5.030423E2,1.5322743E2,1.6864986E2],"tree_param":{"num_deleted":"0","num_feature":"44","num_nodes":"31","size_leaf_vector":"1"}},{"base_weights":[3.4010902E-3,-7.3718673E-1,5.71825E-1,-1.0812979E0,-3.36665E-1,2.0336193E-1,9.5829266E-1,-1.4631253E0,-8.030821E-1,-5.942601E-1,-6.7726195E-2,1.1446751E-1,1.128121E0,7.5756365E-1,1.2443526E0,-1.7280731E-2,-1.2444532E-2,-9.512897E-3,-1.9773664E-3,-8.3570415E-3,-3.1477564E-3,-1.3122739E-3,5.918339E-3,-2.8567591E-3,1.8594894E-3,1.2011449E-2,-1.9196258E-3,5.405081E-4,8.244483E-3,1.0534105E-2,1.3474474E-2],"categories":[],"categories_nodes":[],"categories_segments":[],"categories_sizes":[],"default_left":[0,0,0,0,0,0,0,0,0,0,0,0,0,0,0,0,0,0,0,0,0,0,0,0,0,0,0,0,0,0,0],"id":10,"left_children":[1,3,5,7,9,11,13,15,17,19,21,23,25,27,29,-1,-1,-1,-1,-1,-1,-1,-1,-1,-1,-1,-1,-1,-1,-1,-1],"loss_changes":[1.2916907E3,1.8312451E2,2.469032E2,7.466547E1,4.265821E1,7.2921165E1,4.748828E1,1.4959778E1,3.7072968E1,2.0876648E1,1.27353945E1,2.3305431E1,7.836128E0,2.3416199E1,5.180603E0,0E0,0E0,0E0,0E0,0E0,0E0,0E0,0E0,0E0,0E0,0E0,0E0,0E0,0E0,0E0,0E0],"parents":[2147483647,0,0,1,1,2,2,3,3,4,4,5,5,6,6,7,7,8,8,9,9,10,10,11,11,12,12,13,13,14,14],"right_children":[2,4,6,8,10,12,14,16,18,20,22,24,26,28,30,-1,-1,-1,-1,-1,-1,-1,-1,-1,-1,-1,-1,-1,-1,-1,-1],"split_conditions":[0E0,-5.6695905E0,7.285714E0,-6.597083E-1,-4.9557824E-2,2.8139708E0,1.5756052E0,-1.27E1,6.857143E-1,-1.0994895E-3,2.3520691E0,1E0,1.0755227E2,-1.1092016E0,3.0315545E0,-1.7280731E-2,-1.2444532E-2,-9.512897E-3,-1.9773664E-3,-8.3570415E-3,-3.1477564E-3,-1.3122739E-3,5.918339E-3,-2.8567591E-3,1.8594894E-3,1.2011449E-2,-1.9196258E-3,5.405081E-4,8.244483E-3,1.0534105E-2,1.3474474E-2],"split_indices":[36,36,36,39,39,39,39,38,40,41,39,31,2,40,39,0,0,0,0,0,0,0,0,0,0,0,0,0,0,0,0],"split_type":[0,0,0,0,0,0,0,0,0,0,0,0,0,0,0,0,0,0,0,0,0,0,0,0,0,0,0,0,0,0,0],"sum_hessian":[3.0664211E3,1.3313542E3,1.7350669E3,7.1505774E2,6.162965E2,8.891372E2,8.459296E2,2.9945837E2,4.155994E2,3.1397925E2,3.0231723E2,8.122864E2,7.685082E1,4.9945715E2,3.464725E2,1.3207433E2,1.6738405E2,3.3326822E2,8.233118E1,1.6719394E2,1.4678531E2,2.7663593E2,2.5681328E1,1.2244731E2,6.8983905E2,7.297962E1,3.8712065E0,4.3648796E1,4.5580835E2,1.2575302E2,2.2071947E2],"tree_param":{"num_deleted":"0","num_feature":"44","num_nodes":"31","size_leaf_vector":"1"}},{"base_weights":[-2.3117587E-3,-7.3561585E-1,5.6181175E-1,-1.2350439E0,-4.2794433E-1,2.0599811E-1,9.3362427E-1,-1.7227988E0,-1.0649214E0,-6.480983E-1,-1.1037663E-1,1.2040467E-1,1.0103961E0,7.880648E-1,1.2961844E0,-2.1965583E-3,-1.7893977E-2,-1.3276497E-2,-7.2426787E-3,-9.218724E-3,-3.5961987E-3,-1.4600983E-3,1.2458846E-2,-1.6480862E-3,2.2572624E-3,-8.949833E-5,1.103378E-2,3.0878356E-3,8.577402E-3,8.031211E-3,1.3368585E-2],"categories":[],"categories_nodes":[],"categories_segments":[],"categories_sizes":[],"default_left":[0,0,0,0,0,0,0,0,0,0,0,0,0,0,0,0,0,0,0,0,0,0,0,0,0,0,0,0,0,0,0],"id":11,"left_children":[1,3,5,7,9,11,13,15,17,19,21,23,25,27,29,-1,-1,-1,-1,-1,-1,-1,-1,-1,-1,-1,-1,-1,-1,-1,-1],"loss_changes":[1.2742539E3,2.0511572E2,2.30008E2,4.0199585E1,5.791327E1,6.1112385E1,4.367505E1,1.2429443E1,3.2917816E1,3.8244446E1,1.6571E1,2.4271835E1,8.217735E0,1.9985077E1,3.5657043E0,0E0,0E0,0E0,0E0,0E0,0E0,0E0,0E0,0E0,0E0,0E0,0E0,0E0,0E0,0E0,0E0],"parents":[2147483647,0,0,1,1,2,2,3,3,4,4,5,5,6,6,7,7,8,8,9,9,10,10,11,11,12,12,13,13,14,14],"right_children":[2,4,6,8,10,12,14,16,18,20,22,24,26,28,30,-1,-1,-1,-1,-1,-1,-1,-1,-1,-1,-1,-1,-1,-1,-1,-1],"split_conditions":[0E0,-8.2E0,7.285714E0,-2.1454809E0,2.2255018E-2,2.9859462E0,2.9859462E0,-1.1328553E0,-8.4299463E-1,-3.5E0,3.7591493E0,-4.7680702E-2,-1.439288E-1,1E0,-2.6685715E-1,-2.1965583E-3,-1.7893977E-2,-1.3276497E-2,-7.2426787E-3,-9.218724E-3,-3.5961987E-3,-1.4600983E-3,1.2458846E-2,-1.6480862E-3,2.2572624E-3,-8.949833E-5,1.103378E-2,3.0878356E-3,8.577402E-3,8.031211E-3,1.3368585E-2],"split_indices":[36,36,36,40,41,40,40,25,18,36,40,41,20,31,19,0,0,0,0,0,0,0,0,0,0,0,0,0,0,0,0],"split_type":[0,0,0,0,0,0,0,0,0,0,0,0,0,0,0,0,0,0,0,0,0,0,0,0,0,0,0,0,0,0,0],"sum_hessian":[3.0782922E3,1.3383911E3,1.7399011E3,5.0893033E2,8.2946075E2,8.900103E2,8.4989075E2,1.2909363E2,3.798367E2,4.8906232E2,3.403984E2,8.055665E2,8.444377E1,6.088864E2,2.4100433E2,5.723074E0,1.2337055E2,2.1264433E2,1.6719238E2,2.4962184E2,2.3944048E2,3.326254E2,7.773025E0,2.1684117E2,5.8872534E2,7.044482E0,7.739929E1,7.815346E1,5.30733E2,2.0134295E1,2.2087004E2],"tree_param":{"num_deleted":"0","num_feature":"44","num_nodes":"31","size_leaf_vector":"1"}},{"base_weights":[3.631631E-4,-7.1606135E-1,5.538185E-1,-1.1921952E0,-4.134093E-1,1.8856846E-1,9.258545E-1,-1.2902591E0,-2.9568616E-1,-6.5536857E-1,-1.0707343E-1,1.01927504E-1,1.0777413E0,7.868157E-1,1.3044167E0,-1.7261049E-2,-1.1636444E-2,8.846752E-4,-1.0272363E-2,-1.4068013E-2,-5.6551457E-3,-1.6949059E-3,6.5574446E-3,-2.5176667E-3,1.9517266E-3,1.1384301E-2,-2.3151413E-3,9.2851825E-4,8.345525E-3,1.3333003E-2,5.3186268E-3],"categories":[],"categories_nodes":[],"categories_segments":[],"categories_sizes":[],"default_left":[0,0,0,0,0,0,0,0,0,0,0,0,0,0,0,0,0,0,0,0,0,0,0,0,0,0,0,0,0,0,0],"id":12,"left_children":[1,3,5,7,9,11,13,15,17,19,21,23,25,27,29,-1,-1,-1,-1,-1,-1,-1,-1,-1,-1,-1,-1,-1,-1,-1,-1],"loss_changes":[1.2176832E3,1.9221198E2,2.3515918E2,4.5128723E1,6.0626816E1,6.723484E1,4.3923584E1,2.3520447E1,1.4971468E1,2.9911957E1,1.7355724E1,2.6399748E1,6.5157547E0,2.0707123E1,4.208832E0,0E0,0E0,0E0,0E0,0E0,0E0,0E0,0E0,0E0,0E0,0E0,0E0,0E0,0E0,0E0,0E0],"parents":[2147483647,0,0,1,1,2,2,3,3,4,4,5,5,6,6,7,7,8,8,9,9,10,10,11,11,12,12,13,13,14,14],"right_children":[2,4,6,8,10,12,14,16,18,20,22,24,26,28,30,-1,-1,-1,-1,-1,-1,-1,-1,-1,-1,-1,-1,-1,-1,-1,-1],"split_conditions":[-7.1428575E-2,-8.2E0,7.15E0,6.857143E-1,-1.5000917E-2,2.8139708E0,3.0315545E0,-2.4841194E0,1.5E1,-2.6099603E0,2.4709766E0,-4.646573E-1,1.08362946E2,-1.1092016E0,-0E0,-1.7261049E-2,-1.1636444E-2,8.846752E-4,-1.0272363E-2,-1.4068013E-2,-5.6551457E-3,-1.6949059E-3,6.5574446E-3,-2.5176667E-3,1.9517266E-3,1.1384301E-2,-2.3151413E-3,9.2851825E-4,8.345525E-3,1.3333003E-2,5.3186268E-3],"split_indices":[36,36,36,40,39,39,39,40,14,39,39,39,2,40,29,0,0,0,0,0,0,0,0,0,0,0,0,0,0,0,0],"split_type":[0,0,0,0,0,0,0,0,0,0,0,0,0,0,0,0,0,0,0,0,0,0,0,0,0,0,0,0,0,0,0],"sum_hessian":[3.0690513E3,1.3373866E3,1.7316647E3,5.1846497E2,8.189216E2,8.746974E2,8.569673E2,4.6684842E2,5.161657E1,4.5671756E2,3.62204E2,7.981525E2,7.6544846E1,6.29212E2,2.277553E2,1.0207006E2,3.6477835E2,3.4330967E1,1.7285603E1,4.709565E1,4.0962192E2,3.3564865E2,2.6555363E1,1.659405E2,6.3221204E2,7.335158E1,3.1932633E0,4.08212E1,5.883908E2,2.1872256E2,9.032723E0],"tree_param":{"num_deleted":"0","num_feature":"44","num_nodes":"31","size_leaf_vector":"1"}},{"base_weights":[5.1349923E-3,-6.9722426E-1,5.5431134E-1,-1.0864002E0,-3.4535578E-1,2.5224262E-1,1.0071284E0,-1.4253464E0,-7.9105616E-1,-5.654317E-1,-3.757667E-2,1.4868468E-1,1.0321858E0,8.667634E-1,1.308881E0,-1.8289777E-2,-1.2613703E-2,-8.7302765E-3,4.094614E-3,-1.0874671E-2,-4.6067555E-3,-2.4085583E-3,3.5240124E-3,-3.1820454E-3,2.6978222E-3,8.712557E-3,1.3466423E-2,8.945335E-3,-4.854248E-3,3.8598618E-3,1.3283156E-2],"categories":[],"categories_nodes":[],"categories_segments":[],"categories_sizes":[],"default_left":[0,0,0,0,0,0,0,0,0,0,0,0,0,0,0,0,0,0,0,0,0,0,0,0,0,0,0,0,0,0,0],"id":13,"left_children":[1,3,5,7,9,11,13,15,17,19,21,23,25,27,29,-1,-1,-1,-1,-1,-1,-1,-1,-1,-1,-1,-1,-1,-1,-1,-1],"loss_changes":[1.1963828E3,1.8585114E2,2.3772443E2,6.3281494E1,4.8439873E1,8.41856E1,2.8131653E1,1.7187927E1,3.459166E1,2.217154E1,2.3849892E1,5.23444E1,4.793152E0,1.8434998E1,3.2404785E0,0E0,0E0,0E0,0E0,0E0,0E0,0E0,0E0,0E0,0E0,0E0,0E0,0E0,0E0,0E0,0E0],"parents":[2147483647,0,0,1,1,2,2,3,3,4,4,5,5,6,6,7,7,8,8,9,9,10,10,11,11,12,12,13,13,14,14],"right_children":[2,4,6,8,10,12,14,16,18,20,22,24,26,28,30,-1,-1,-1,-1,-1,-1,-1,-1,-1,-1,-1,-1,-1,-1,-1,-1],"split_conditions":[-1E-1,-7.2E0,9.9E0,-5.6982857E-1,3.2764994E-2,2.5248046E0,2.9859462E0,-3.086198E0,1.7982632E0,-1.9241277E0,4.5299146E-2,-4.646573E-1,2.7058823E0,2.9132187E2,6.778261E1,-1.8289777E-2,-1.2613703E-2,-8.7302765E-3,4.094614E-3,-1.0874671E-2,-4.6067555E-3,-2.4085583E-3,3.5240124E-3,-3.1820454E-3,2.6978222E-3,8.712557E-3,1.3466423E-2,8.945335E-3,-4.854248E-3,3.8598618E-3,1.3283156E-2],"split_indices":[38,38,38,40,39,39,40,40,39,39,41,39,22,29,12,0,0,0,0,0,0,0,0,0,0,0,0,0,0,0,0],"split_type":[0,0,0,0,0,0,0,0,0,0,0,0,0,0,0,0,0,0,0,0,0,0,0,0,0,0,0,0,0,0,0],"sum_hessian":[3.09973E3,1.3599696E3,1.7397604E3,6.446252E2,7.1534436E2,1.044659E3,6.951014E2,2.9821713E2,3.4640808E2,4.164219E2,2.9892245E2,9.233755E2,1.21283516E2,4.7728757E2,2.1781383E2,8.304237E1,2.1517474E2,3.246004E2,2.1807686E1,6.7869545E1,3.4855237E2,1.969168E2,1.0200566E2,1.896665E2,7.33709E2,8.293064E1,3.835288E1,4.6808682E2,9.200758E0,5.028531E0,2.127853E2],"tree_param":{"num_deleted":"0","num_feature":"44","num_nodes":"31","size_leaf_vector":"1"}},{"base_weights":[-5.718995E-3,-7.0841825E-1,5.303557E-1,-1.1858087E0,-4.3119407E-1,1.6719538E-1,9.0231216E-1,-5.01822E-1,-1.3116962E0,-1.4465443E0,-3.650998E-1,7.8489825E-2,1.1102605E0,5.881621E-1,1.0732534E0,-7.429979E-3,8.866633E-3,-1.4712858E-2,-9.181102E-3,-1.6479535E-2,-5.969759E-3,-6.0390104E-3,-1.580377E-3,-2.758566E-3,1.6751919E-3,1.1741026E-2,-2.3615826E-3,1.0037596E-3,7.135971E-3,9.066765E-3,1.304254E-2],"categories":[],"categories_nodes":[],"categories_segments":[],"categories_sizes":[],"default_left":[0,0,0,0,0,0,0,0,0,0,0,0,0,0,0,0,0,0,0,0,0,0,0,0,0,0,0,0,0,0,0],"id":14,"left_children":[1,3,5,7,9,11,13,15,17,19,21,23,25,27,29,-1,-1,-1,-1,-1,-1,-1,-1,-1,-1,-1,-1,-1,-1,-1,-1],"loss_changes":[1.1562874E3,1.7513043E2,2.3492938E2,4.1120117E1,5.5801422E1,7.360533E1,4.537323E1,2.6593548E1,2.4214478E1,7.5243225E0,3.8992134E1,2.5514338E1,6.87677E0,1.8532547E1,1.996698E1,0E0,0E0,0E0,0E0,0E0,0E0,0E0,0E0,0E0,0E0,0E0,0E0,0E0,0E0,0E0,0E0],"parents":[2147483647,0,0,1,1,2,2,3,3,4,4,5,5,6,6,7,7,8,8,9,9,10,10,11,11,12,12,13,13,14,14],"right_children":[2,4,6,8,10,12,14,16,18,20,22,24,26,28,30,-1,-1,-1,-1,-1,-1,-1,-1,-1,-1,-1,-1,-1,-1,-1,-1],"split_conditions":[0E0,-8.523809E0,7.15E0,1.5E-1,-2.6099603E0,2.8139708E0,2.5319573E-1,1.0996191E2,7.3363096E-2,3.2511402E-2,-1.110223E-16,-4.646573E-1,1.0818237E2,1.06071396E2,1.6772728E1,-7.429979E-3,8.866633E-3,-1.4712858E-2,-9.181102E-3,-1.6479535E-2,-5.969759E-3,-6.0390104E-3,-1.580377E-3,-2.758566E-3,1.6751919E-3,1.1741026E-2,-2.3615826E-3,1.0037596E-3,7.135971E-3,9.066765E-3,1.304254E-2],"split_indices":[36,36,36,43,39,39,39,0,41,41,41,39,2,0,36,0,0,0,0,0,0,0,0,0,0,0,0,0,0,0,0],"split_type":[0,0,0,0,0,0,0,0,0,0,0,0,0,0,0,0,0,0,0,0,0,0,0,0,0,0,0,0,0,0,0],"sum_hessian":[3.067479E3,1.3273813E3,1.7400977E3,4.8630603E2,8.410754E2,8.813291E2,8.5876855E2,7.649033E1,4.098157E2,5.0034756E1,7.910406E2,8.0664465E2,7.468446E1,3.043923E2,5.543763E2,6.562787E1,1.0862465E1,2.8945605E2,1.2035966E2,3.959129E1,1.0443466E1,3.6625052E2,4.247901E2,1.6132645E2,6.453182E2,7.149661E1,3.1878486E0,6.2795067E1,2.4159723E2,3.2521695E2,2.2915933E2],"tree_param":{"num_deleted":"0","num_feature":"44","num_nodes":"31","size_leaf_vector":"1"}},{"base_weights":[-8.181046E-3,-7.074214E-1,5.3544164E-1,-1.0414064E0,-3.0225044E-1,1.7280827E-1,9.132246E-1,-1.383157E0,-7.9173017E-1,-5.11911E-1,-4.9860716E-2,8.720032E-2,1.0519279E0,7.84924E-1,1.2715753E0,-1.6694855E-2,-1.1680864E-2,-8.7049315E-3,3.8910632E-3,-7.582069E-3,-2.3077528E-3,-1.0605461E-3,9.096084E-3,-8.311491E-4,2.2538388E-3,1.1225864E-2,-2.9024335E-3,8.645749E-3,4.0811202E-3,8.437548E-3,1.3221239E-2],"categories":[],"categories_nodes":[],"categories_segments":[],"categories_sizes":[],"default_left":[0,0,0,0,0,0,0,0,0,0,0,0,0,0,0,0,0,0,0,0,0,0,0,0,0,0,0,0,0,0,0],"id":15,"left_children":[1,3,5,7,9,11,13,15,17,19,21,23,25,27,29,-1,-1,-1,-1,-1,-1,-1,-1,-1,-1,-1,-1,-1,-1,-1,-1],"loss_changes":[1.1653488E3,1.8101447E2,2.3601013E2,6.136194E1,3.2062958E1,6.612495E1,3.7615784E1,1.6768616E1,4.0095337E1,2.2679756E1,1.49492035E1,1.8962938E1,7.807747E0,1.826477E1,3.4424133E0,0E0,0E0,0E0,0E0,0E0,0E0,0E0,0E0,0E0,0E0,0E0,0E0,0E0,0E0,0E0,0E0],"parents":[2147483647,0,0,1,1,2,2,3,3,4,4,5,5,6,6,7,7,8,8,9,9,10,10,11,11,12,12,13,13,14,14],"right_children":[2,4,6,8,10,12,14,16,18,20,22,24,26,28,30,-1,-1,-1,-1,-1,-1,-1,-1,-1,-1,-1,-1,-1,-1,-1,-1],"split_conditions":[-7.1428575E-2,-5.6695905E0,7.15E0,-6.597083E-1,-1.5000917E-2,2.8139708E0,3.0315545E0,-1.2722222E1,1.7982632E0,-1.0994895E-3,2.8712757E0,-3.1907836E-3,1.0744635E2,4E0,1E1,-1.6694855E-2,-1.1680864E-2,-8.7049315E-3,3.8910632E-3,-7.582069E-3,-2.3077528E-3,-1.0605461E-3,9.096084E-3,-8.311491E-4,2.2538388E-3,1.1225864E-2,-2.9024335E-3,8.645749E-3,4.0811202E-3,8.437548E-3,1.3221239E-2],"split_indices":[36,36,36,39,39,39,39,36,39,41,39,41,2,33,36,0,0,0,0,0,0,0,0,0,0,0,0,0,0,0,0],"split_type":[0,0,0,0,0,0,0,0,0,0,0,0,0,0,0,0,0,0,0,0,0,0,0,0,0,0,0,0,0,0,0],"sum_hessian":[3.0636736E3,1.3399857E3,1.723688E3,7.3352185E2,6.0646387E2,8.8035675E2,8.4333124E2,3.075774E2,4.2594443E2,3.3049594E2,2.7596793E2,8.03341E2,7.7015755E1,6.235505E2,2.1978079E2,1.2883241E2,1.7874498E2,3.996358E2,2.630862E1,1.750694E2,1.5542654E2,2.616381E2,1.4329853E1,3.596889E2,4.436521E2,7.3390236E1,3.6255198E0,5.134558E2,1.10094666E2,2.5302443E1,1.9447835E2],"tree_param":{"num_deleted":"0","num_feature":"44","num_nodes":"31","size_leaf_vector":"1"}},{"base_weights":[8.411826E-3,-6.934627E-1,5.5762756E-1,-1.1195382E0,-4.2012122E-1,2.1572624E-1,9.0768766E-1,-1.6674402E0,-9.6828246E-1,-5.103417E-1,2.0233022E-1,1.4955634E-1,1.0690465E0,7.409867E-1,1.2105712E0,-1.7053495E-3,-1.7149096E-2,-1.7698106E-3,-1.0559704E-2,-7.2272136E-3,-2.5448278E-3,8.2334876E-4,9.8269E-3,-2.3276922E-3,2.3942147E-3,1.1300845E-2,-0E0,5.455399E-3,9.28006E-3,1.2340498E-2,-5.5825E-3],"categories":[],"categories_nodes":[],"categories_segments":[],"categories_sizes":[],"default_left":[0,0,0,0,0,0,0,0,0,0,0,0,0,0,0,0,0,0,0,0,0,0,0,0,0,0,0,0,0,0,0],"id":16,"left_children":[1,3,5,7,9,11,13,15,17,19,21,23,25,27,29,-1,-1,-1,-1,-1,-1,-1,-1,-1,-1,-1,-1,-1,-1,-1,-1],"loss_changes":[1.1819816E3,1.561358E2,2.0558667E2,4.1654358E1,4.6279312E1,4.8940495E1,4.180237E1,7.485443E0,2.8428497E1,3.87397E1,9.607229E0,2.789584E1,4.1630936E0,1.9477661E1,1.3206848E1,0E0,0E0,0E0,0E0,0E0,0E0,0E0,0E0,0E0,0E0,0E0,0E0,0E0,0E0,0E0,0E0],"parents":[2147483647,0,0,1,1,2,2,3,3,4,4,5,5,6,6,7,7,8,8,9,9,10,10,11,11,12,12,13,13,14,14],"right_children":[2,4,6,8,10,12,14,16,18,20,22,24,26,28,30,-1,-1,-1,-1,-1,-1,-1,-1,-1,-1,-1,-1,-1,-1,-1,-1],"split_conditions":[0E0,-8E0,7.15E0,-2.41067E0,1.3241352E0,3.3787708E0,1.7115385E1,-1.0714893E0,1E-1,5.839907E-3,3.7591493E0,-7.0493335E-1,1.0497092E0,5.094737E-1,2.483871E0,-1.7053495E-3,-1.7149096E-2,-1.7698106E-3,-1.0559704E-2,-7.2272136E-3,-2.5448278E-3,8.2334876E-4,9.8269E-3,-2.3276922E-3,2.3942147E-3,1.1300845E-2,-0E0,5.455399E-3,9.28006E-3,1.2340498E-2,-5.5825E-3],"split_indices":[36,36,36,40,40,40,36,25,43,41,40,40,25,40,28,0,0,0,0,0,0,0,0,0,0,0,0,0,0,0,0],"split_type":[0,0,0,0,0,0,0,0,0,0,0,0,0,0,0,0,0,0,0,0,0,0,0,0,0,0,0,0,0,0,0],"sum_hessian":[3.0642869E3,1.3449951E3,1.7192917E3,5.242893E2,8.207058E2,8.707439E2,8.4854785E2,1.1111307E2,4.1317624E2,7.1710645E2,1.0359941E2,8.0928143E2,6.1462498E1,5.497521E2,2.9879575E2,3.6211965E0,1.07491875E2,4.163333E1,3.715429E2,3.906368E2,3.264696E2,9.086138E1,1.273803E1,1.5350426E2,6.5577716E2,5.815711E1,3.3053904E0,2.709961E2,2.7875598E2,2.9523578E2,3.5599763E0],"tree_param":{"num_deleted":"0","num_feature":"44","num_nodes":"31","size_leaf_vector":"1"}},{"base_weights":[1.1866125E-3,-6.848301E-1,5.344781E-1,-9.834692E-1,-3.271169E-1,1.8179668E-1,9.054857E-1,-1.2171191E0,-6.092021E-1,-1.5140402E0,-2.6584783E-1,9.249939E-2,1.0885614E0,7.3335487E-1,1.192786E0,-1.55558605E-2,-1.0473481E-2,-7.1326965E-3,5.2586813E-3,-4.2455387E-3,-1.666142E-2,-4.7258786E-3,-8.3270035E-4,-3.0453994E-3,1.6429009E-3,1.1789315E-2,-1.4897138E-3,2.5935161E-3,8.0641955E-3,1.0775711E-2,1.3704892E-2],"categories":[],"categories_nodes":[],"categories_segments":[],"categories_sizes":[],"default_left":[0,0,0,0,0,0,0,0,0,0,0,0,0,0,0,0,0,0,0,0,0,0,0,0,0,0,0,0,0,0,0],"id":17,"left_children":[1,3,5,7,9,11,13,15,17,19,21,23,25,27,29,-1,-1,-1,-1,-1,-1,-1,-1,-1,-1,-1,-1,-1,-1,-1,-1],"loss_changes":[1.1225411E3,1.4290308E2,2.2562628E2,6.297461E1,4.394201E1,7.155981E1,4.052124E1,2.3893494E1,3.3824234E1,4.0150146E0,2.1928898E1,2.3072365E1,9.144844E0,1.7994904E1,4.6921997E0,0E0,0E0,0E0,0E0,0E0,0E0,0E0,0E0,0E0,0E0,0E0,0E0,0E0,0E0,0E0,0E0],"parents":[2147483647,0,0,1,1,2,2,3,3,4,4,5,5,6,6,7,7,8,8,9,9,10,10,11,11,12,12,13,13,14,14],"right_children":[2,4,6,8,10,12,14,16,18,20,22,24,26,28,30,-1,-1,-1,-1,-1,-1,-1,-1,-1,-1,-1,-1,-1,-1,-1,-1],"split_conditions":[0E0,-5.6695905E0,7.285714E0,-1.2264524E-1,-2.6099603E0,2.8139708E0,1.9114027E0,-2.0413501E0,1.9114027E0,6.8666664E1,-1.110223E-16,-9.886022E-1,1.0755227E2,1E0,4.7433386E0,-1.55558605E-2,-1.0473481E-2,-7.1326965E-3,5.2586813E-3,-4.2455387E-3,-1.666142E-2,-4.7258786E-3,-8.3270035E-4,-3.0453994E-3,1.6429009E-3,1.1789315E-2,-1.4897138E-3,2.5935161E-3,8.0641955E-3,1.0775711E-2,1.3704892E-2],"split_indices":[36,36,36,39,39,39,39,39,39,15,41,40,2,31,40,0,0,0,0,0,0,0,0,0,0,0,0,0,0,0,0],"split_type":[0,0,0,0,0,0,0,0,0,0,0,0,0,0,0,0,0,0,0,0,0,0,0,0,0,0,0,0,0,0,0],"sum_hessian":[3.0663765E3,1.3409415E3,1.7254349E3,7.297099E2,6.1123157E2,8.8546625E2,8.399687E2,4.4769855E2,2.8201135E2,2.8759033E1,5.8247253E2,8.071875E2,7.827873E1,5.277046E2,3.1226413E2,1.4662497E2,3.0107358E2,2.5874808E2,2.3263296E1,4.0681443E0,2.469089E1,2.7215952E2,3.1031302E2,1.2289272E2,6.842948E2,7.307092E1,5.2078066E0,7.126902E1,4.5643555E2,1.9406665E2,1.1819748E2],"tree_param":{"num_deleted":"0","num_feature":"44","num_nodes":"31","size_leaf_vector":"1"}},{"base_weights":[2.7581472E-3,-6.639539E-1,5.27254E-1,-9.9186647E-1,-2.6753134E-1,1.8121305E-1,8.947954E-1,-1.0456517E0,5.4313064E-1,-1.0008655E0,-1.8734302E-1,9.594442E-2,1.081955E0,7.4796766E-1,1.2548623E0,-1.53873665E-2,-9.074846E-3,7.487407E-3,-6.4220517E-3,-2.484616E-3,-1.2022244E-2,-3.84524E-3,-2.2247391E-4,1.7280494E-4,4.082885E-3,-2.2384433E-4,1.163163E-2,2.3017735E-3,8.269503E-3,1.0753321E-2,1.3715966E-2],"categories":[],"categories_nodes":[],"categories_segments":[],"categories_sizes":[],"default_left":[0,0,0,0,0,0,0,0,0,0,0,0,0,0,0,0,0,0,0,0,0,0,0,0,0,0,0,0,0,0,0],"id":18,"left_children":[1,3,5,7,9,11,13,15,17,19,21,23,25,27,29,-1,-1,-1,-1,-1,-1,-1,-1,-1,-1,-1,-1,-1,-1,-1,-1],"loss_changes":[1.0746088E3,1.7549011E2,2.1849652E2,6.171167E1,3.5801605E1,6.7930824E1,4.29386E1,4.7093933E1,6.7418823E0,8.672363E0,1.8013485E1,1.9896633E1,7.0040894E0,2.4033356E1,3.306488E0,0E0,0E0,0E0,0E0,0E0,0E0,0E0,0E0,0E0,0E0,0E0,0E0,0E0,0E0,0E0,0E0],"parents":[2147483647,0,0,1,1,2,2,3,3,4,4,5,5,6,6,7,7,8,8,9,9,10,10,11,11,12,12,13,13,14,14],"right_children":[2,4,6,8,10,12,14,16,18,20,22,24,26,28,30,-1,-1,-1,-1,-1,-1,-1,-1,-1,-1,-1,-1,-1,-1,-1,-1],"split_conditions":[0E0,-5.6695905E0,7.285714E0,1.7982632E0,-1.9241277E0,2.8139708E0,2.8139708E0,-1.9826497E0,1.16526184E2,-7.737778E-1,-4.9557824E-2,5.4666667E0,-1.439288E-1,1E0,2.077398E0,-1.53873665E-2,-9.074846E-3,7.487407E-3,-6.4220517E-3,-2.484616E-3,-1.2022244E-2,-3.84524E-3,-2.2247391E-4,1.7280494E-4,4.082885E-3,-2.2384433E-4,1.163163E-2,2.3017735E-3,8.269503E-3,1.0753321E-2,1.3715966E-2],"split_indices":[36,36,36,39,39,39,39,39,3,24,39,36,20,31,17,0,0,0,0,0,0,0,0,0,0,0,0,0,0,0,0],"split_type":[0,0,0,0,0,0,0,0,0,0,0,0,0,0,0,0,0,0,0,0,0,0,0,0,0,0,0,0,0,0,0],"sum_hessian":[3.0710906E3,1.3520182E3,1.7190723E3,7.3898816E2,6.1303E2,8.863434E2,8.3272894E2,7.143421E2,2.464607E1,5.917129E1,5.5385876E2,8.10806E2,7.553732E1,5.939029E2,2.3882607E2,1.5397638E2,5.603657E2,2.1388657E1,3.2574136E0,1.30687475E1,4.6102543E1,2.5152113E2,3.0233762E2,6.487849E2,1.6202115E2,5.1394534E0,7.0397865E1,7.928836E1,5.146145E2,9.84636E1,1.4036247E2],"tree_param":{"num_deleted":"0","num_feature":"44","num_nodes":"31","size_leaf_vector":"1"}},{"base_weights":[5.104397E-3,-6.6290313E-1,5.294773E-1,-9.8099613E-1,-2.8360713E-1,1.9796656E-1,8.828874E-1,-1.08733E0,-1.6205147E-1,-4.7635815E-1,3.691306E-3,1.242866E-1,1.0977025E0,7.3723483E-1,1.2466135E0,-1.3517015E-2,-9.07965E-3,2.8248942E-3,-7.7390363E-3,-6.8373573E-3,-2.3552508E-3,-8.344416E-4,6.3068895E-3,2.3299424E-4,3.80798E-3,4.5970757E-3,1.2438123E-2,2.097147E-3,8.143611E-3,6.3205794E-3,1.2826945E-2],"categories":[],"categories_nodes":[],"categories_segments":[],"categories_sizes":[],"default_left":[0,0,0,0,0,0,0,0,0,0,0,0,0,0,0,0,0,0,0,0,0,0,0,0,0,0,0,0,0,0,0],"id":19,"left_children":[1,3,5,7,9,11,13,15,17,19,21,23,25,27,29,-1,-1,-1,-1,-1,-1,-1,-1,-1,-1,-1,-1,-1,-1,-1,-1],"loss_changes":[1.0741127E3,1.6228711E2,2.0099527E2,6.351587E1,3.419467E1,5.8602097E1,4.2911987E1,2.9290405E1,2.3523754E1,1.8188034E1,1.3676419E1,2.1241974E1,5.501198E0,2.3979248E1,4.2308044E0,0E0,0E0,0E0,0E0,0E0,0E0,0E0,0E0,0E0,0E0,0E0,0E0,0E0,0E0,0E0,0E0],"parents":[2147483647,0,0,1,1,2,2,3,3,4,4,5,5,6,6,7,7,8,8,9,9,10,10,11,11,12,12,13,13,14,14],"right_children":[2,4,6,8,10,12,14,16,18,20,22,24,26,28,30,-1,-1,-1,-1,-1,-1,-1,-1,-1,-1,-1,-1,-1,-1,-1,-1],"split_conditions":[0E0,-5.6695905E0,7.285714E0,7.0658183E-1,2.0833334E-2,3.3787708E0,2.9859462E0,-3.3003953E-1,1.5E1,0E0,1.4103986E-1,4.168284E-2,9.722606E-1,1E0,7.5E0,-1.3517015E-2,-9.07965E-3,2.8248942E-3,-7.7390363E-3,-6.8373573E-3,-2.3552508E-3,-8.344416E-4,6.3068895E-3,2.3299424E-4,3.80798E-3,4.5970757E-3,1.2438123E-2,2.097147E-3,8.143611E-3,6.3205794E-3,1.2826945E-2],"split_indices":[36,36,36,40,40,40,40,35,14,41,41,41,17,31,38,0,0,0,0,0,0,0,0,0,0,0,0,0,0,0,0],"split_type":[0,0,0,0,0,0,0,0,0,0,0,0,0,0,0,0,0,0,0,0,0,0,0,0,0,0,0,0,0,0,0],"sum_hessian":[3.0644324E3,1.3474447E3,1.7169877E3,7.318422E2,6.156025E2,8.8689404E2,8.3009357E2,6.4734015E2,8.4502075E1,3.6823822E2,2.4736426E2,8.2091785E2,6.5976204E1,5.950929E2,2.3500067E2,2.5879727E2,3.8854285E2,4.915987E1,3.534221E1,1.9665091E2,1.7158733E2,2.1780304E2,2.956122E1,5.9008514E2,2.308327E2,1.3194143E1,5.2782063E1,7.654752E1,5.185454E2,1.4212495E1,2.2078818E2],"tree_param":{"num_deleted":"0","num_feature":"44","num_nodes":"31","size_leaf_vector":"1"}},{"base_weights":[1.0803142E-3,-8.4906477E-1,3.9830083E-1,-1.4396402E0,-7.084232E-1,8.216371E-2,8.859608E-1,-1.7006136E0,-1.2296844E0,-9.6356815E-1,-4.5892662E-1,1.103713E-2,1.0309324E0,5.667509E-1,1.0604045E0,-1.8952115E-2,-1.2380388E-2,-1.3204196E-2,-3.0833317E-3,-1.1909269E-2,-5.7111904E-3,-5.447544E-3,1.8295759E-3,-6.746152E-3,5.1573146E-4,1.126945E-2,-3.331486E-4,4.2141266E-3,1.0414468E-2,9.110269E-3,1.2691847E-2],"categories":[],"categories_nodes":[],"categories_segments":[],"categories_sizes":[],"default_left":[0,0,0,0,0,0,0,0,0,0,0,0,0,0,0,0,0,0,0,0,0,0,0,0,0,0,0,0,0,0,0],"id":20,"left_children":[1,3,5,7,9,11,13,15,17,19,21,23,25,27,29,-1,-1,-1,-1,-1,-1,-1,-1,-1,-1,-1,-1,-1,-1,-1,-1],"loss_changes":[1.0345721E3,7.979541E1,3.217616E2,7.8365173E0,4.9707367E1,8.546078E1,4.495685E1,4.5721893E0,8.391327E0,3.389633E1,2.2257607E1,3.2791035E1,9.172455E0,1.9594429E1,1.5141663E1,0E0,0E0,0E0,0E0,0E0,0E0,0E0,0E0,0E0,0E0,0E0,0E0,0E0,0E0,0E0,0E0],"parents":[2147483647,0,0,1,1,2,2,3,3,4,4,5,5,6,6,7,7,8,8,9,9,10,10,11,11,12,12,13,13,14,14],"right_children":[2,4,6,8,10,12,14,16,18,20,22,24,26,28,30,-1,-1,-1,-1,-1,-1,-1,-1,-1,-1,-1,-1,-1,-1,-1,-1],"split_conditions":[-3.25E0,-1.9241277E0,7.285714E0,-3.5471674E-2,-8.2E0,2.8139708E0,2.5319573E-1,-1.9642857E-1,-4.8E0,-1.05E0,1.1416665E0,-1.8668039E0,-2.0081919E1,1.8389744E1,3.0315545E0,-1.8952115E-2,-1.2380388E-2,-1.3204196E-2,-3.0833317E-3,-1.1909269E-2,-5.7111904E-3,-5.447544E-3,1.8295759E-3,-6.746152E-3,5.1573146E-4,1.126945E-2,-3.331486E-4,4.2141266E-3,1.0414468E-2,9.110269E-3,1.2691847E-2],"split_indices":[36,39,36,41,36,39,39,35,36,20,39,39,29,36,39,0,0,0,0,0,0,0,0,0,0,0,0,0,0,0,0],"split_type":[0,0,0,0,0,0,0,0,0,0,0,0,0,0,0,0,0,0,0,0,0,0,0,0,0,0,0,0,0,0,0],"sum_hessian":[3.06176E3,9.745675E2,2.0871924E3,1.8553416E2,7.890334E2,1.2671233E3,8.200691E2,7.933954E1,1.0619462E2,3.8848776E2,4.005456E2,1.1797944E3,8.7328896E1,2.9149405E2,5.285751E2,5.3513844E1,2.5825693E1,9.6181E1,1.0013619E1,2.4453253E2,1.4395523E2,3.5357532E2,4.697026E1,6.484556E1,1.1149489E3,8.01345E1,7.1943955E0,2.2477335E2,6.67207E1,3.1152698E2,2.1704808E2],"tree_param":{"num_deleted":"0","num_feature":"44","num_nodes":"31","size_leaf_vector":"1"}},{"base_weights":[-1.3276833E-2,-6.926312E-1,5.2374625E-1,-1.0144681E0,-3.029502E-1,2.6242515E-1,9.2214173E-1,-1.2275635E0,-6.658022E-1,-5.142941E-1,-5.373349E-2,1.817874E-1,1.0251895E0,7.747275E-1,1.2566319E0,-1.8112319E-2,-1.1311302E-2,-7.6274183E-3,3.5282397E-3,-7.847207E-3,-2.001333E-3,-1.0458989E-3,7.298295E-3,-2.0395117E-3,2.749304E-3,3.911482E-3,1.1447719E-2,2.1479386E-3,8.484063E-3,7.6052183E-3,1.2946525E-2],"categories":[],"categories_nodes":[],"categories_segments":[],"categories_sizes":[],"default_left":[0,0,0,0,0,0,0,0,0,0,0,0,0,0,0,0,0,0,0,0,0,0,0,0,0,0,0,0,0,0,0],"id":21,"left_children":[1,3,5,7,9,11,13,15,17,19,21,23,25,27,29,-1,-1,-1,-1,-1,-1,-1,-1,-1,-1,-1,-1,-1,-1,-1,-1],"loss_changes":[1.1057546E3,1.6738586E2,1.758624E2,5.340381E1,3.1878803E1,6.2660507E1,3.1856995E1,2.3163269E1,2.7974228E1,2.7614258E1,1.1163975E1,3.337608E1,6.794548E0,1.9011444E1,2.6412048E0,0E0,0E0,0E0,0E0,0E0,0E0,0E0,0E0,0E0,0E0,0E0,0E0,0E0,0E0,0E0,0E0],"parents":[2147483647,0,0,1,1,2,2,3,3,4,4,5,5,6,6,7,7,8,8,9,9,10,10,11,11,12,12,13,13,14,14],"right_children":[2,4,6,8,10,12,14,16,18,20,22,24,26,28,30,-1,-1,-1,-1,-1,-1,-1,-1,-1,-1,-1,-1,-1,-1,-1,-1],"split_conditions":[0E0,-5.6695905E0,9.8E0,-1.2264524E-1,-1.5000917E-2,2.8139708E0,2.8139708E0,-2E1,1.7982632E0,0E0,2.8139708E0,-4.646573E-1,4.1273016E-1,1E0,7.18E1,-1.8112319E-2,-1.1311302E-2,-7.6274183E-3,3.5282397E-3,-7.847207E-3,-2.001333E-3,-1.0458989E-3,7.298295E-3,-2.0395117E-3,2.749304E-3,3.911482E-3,1.1447719E-2,2.1479386E-3,8.484063E-3,7.6052183E-3,1.2946525E-2],"split_indices":[36,36,38,39,39,39,39,38,39,41,39,39,17,31,12,0,0,0,0,0,0,0,0,0,0,0,0,0,0,0,0],"split_type":[0,0,0,0,0,0,0,0,0,0,0,0,0,0,0,0,0,0,0,0,0,0,0,0,0,0,0,0,0,0,0],"sum_hessian":[3.0288445E3,1.3371703E3,1.6916742E3,7.3131683E2,6.058535E2,1.02273645E3,6.6893774E2,4.5216064E2,2.791562E2,3.2704434E2,2.7880914E2,9.2619104E2,9.654542E1,4.6681934E2,2.021184E2,6.1444576E1,3.9071606E2,2.5521727E2,2.3938913E1,1.7477962E2,1.5226474E2,2.6274976E2,1.6059378E1,1.79705E2,7.46486E2,1.6129879E1,8.0415535E1,5.4896595E1,4.1192273E2,1.60695E1,1.8604889E2],"tree_param":{"num_deleted":"0","num_feature":"44","num_nodes":"31","size_leaf_vector":"1"}},{"base_weights":[-1.30449245E-2,-6.5411353E-1,4.9727908E-1,-1.0563133E0,-3.902676E-1,1.5103485E-1,8.708403E-1,-1.0876881E0,4.5953682E-1,-6.214697E-1,-2.545713E-1,8.457742E-1,8.692893E-2,7.013002E-1,1.1828647E0,-9.131278E-3,-1.3270763E-2,1.2001711E-2,6.498061E-5,-1.8429805E-3,-7.4273488E-3,-2.0739974E-3,-1.0121572E-2,-3.6451945E-3,1.022763E-2,-1.0786258E-3,2.4645152E-3,3.5019752E-3,8.135538E-3,1.213519E-2,-5.523709E-3],"categories":[],"categories_nodes":[],"categories_segments":[],"categories_sizes":[],"default_left":[0,0,0,0,0,0,0,0,0,0,0,0,0,0,0,0,0,0,0,0,0,0,0,0,0,0,0,0,0,0,0],"id":22,"left_children":[1,3,5,7,9,11,13,15,17,19,21,23,25,27,29,-1,-1,-1,-1,-1,-1,-1,-1,-1,-1,-1,-1,-1,-1,-1,-1],"loss_changes":[9.987657E2,1.4304028E2,2.1960959E2,2.6021667E1,2.5444725E1,3.917907E1,4.221466E1,2.0494934E1,3.727983E0,1.5774689E1,1.817883E1,1.6372646E1,2.5211916E1,2.0573547E1,1.5952423E1,0E0,0E0,0E0,0E0,0E0,0E0,0E0,0E0,0E0,0E0,0E0,0E0,0E0,0E0,0E0,0E0],"parents":[2147483647,0,0,1,1,2,2,3,3,4,4,5,5,6,6,7,7,8,8,9,9,10,10,11,11,12,12,13,13,14,14],"right_children":[2,4,6,8,10,12,14,16,18,20,22,24,26,28,30,-1,-1,-1,-1,-1,-1,-1,-1,-1,-1,-1,-1,-1,-1,-1,-1],"split_conditions":[0E0,-8E0,7.285714E0,4.353424E0,-4.690909E0,1.6666668E-2,1.7115385E1,1.7E1,1E0,-1.5E1,8.9776343E-1,-8.511241E-1,3.0555556E0,2.5E-1,1.5833334E0,-9.131278E-3,-1.3270763E-2,1.2001711E-2,6.498061E-5,-1.8429805E-3,-7.4273488E-3,-2.0739974E-3,-1.0121572E-2,-3.6451945E-3,1.022763E-2,-1.0786258E-3,2.4645152E-3,3.5019752E-3,8.135538E-3,1.213519E-2,-5.523709E-3],"split_indices":[36,36,36,20,36,43,36,11,10,33,7,17,36,43,28,0,0,0,0,0,0,0,0,0,0,0,0,0,0,0,0],"split_type":[0,0,0,0,0,0,0,0,0,0,0,0,0,0,0,0,0,0,0,0,0,0,0,0,0,0,0,0,0,0,0],"sum_hessian":[3.0508613E3,1.3521747E3,1.6986866E3,5.3430774E2,8.17867E2,8.824441E2,8.162425E2,5.2381433E2,1.0493396E1,3.008892E2,5.169778E2,7.3385475E1,8.090586E2,5.311872E2,2.8505533E2,3.0594992E2,2.1786441E2,3.2729084E0,7.220487E0,6.606471E1,2.348245E2,4.8799808E2,2.8979723E1,9.155225E0,6.4230255E1,3.6412546E2,4.4493314E2,1.2990022E2,4.0128696E2,2.8045908E2,4.5962443E0],"tree_param":{"num_deleted":"0","num_feature":"44","num_nodes":"31","size_leaf_vector":"1"}},{"base_weights":[1.9597309E-3,-6.321015E-1,5.00313E-1,-9.3534046E-1,-2.6240468E-1,1.5435545E-1,8.7362313E-1,-1.0177366E0,-2.3585383E-2,-4.895034E-1,-1.3738005E-2,7.079173E-2,1.0039908E0,7.3771346E-1,1.2404087E0,-1.4364282E-2,-8.931192E-3,-3.6782166E-3,5.466645E-3,-7.181006E-3,-2.2569406E-3,-9.2784903E-4,7.913562E-3,-2.1972226E-3,1.7560063E-3,1.0837186E-2,-5.1311175E-3,1.928568E-3,8.026918E-3,1.2554081E-2,2.7394437E-3],"categories":[],"categories_nodes":[],"categories_segments":[],"categories_sizes":[],"default_left":[0,0,0,0,0,0,0,0,0,0,0,0,0,0,0,0,0,0,0,0,0,0,0,0,0,0,0,0,0,0,0],"id":23,"left_children":[1,3,5,7,9,11,13,15,17,19,21,23,25,27,29,-1,-1,-1,-1,-1,-1,-1,-1,-1,-1,-1,-1,-1,-1,-1,-1],"loss_changes":[9.739135E2,1.5168689E2,2.22656E2,5.5809692E1,3.454464E1,6.3514286E1,4.0250427E1,3.410785E1,1.2518132E1,1.904219E1,1.8695513E1,2.4939505E1,1.0307465E1,2.1274475E1,2.7310486E0,0E0,0E0,0E0,0E0,0E0,0E0,0E0,0E0,0E0,0E0,0E0,0E0,0E0,0E0,0E0,0E0],"parents":[2147483647,0,0,1,1,2,2,3,3,4,4,5,5,6,6,7,7,8,8,9,9,10,10,11,11,12,12,13,13,14,14],"right_children":[2,4,6,8,10,12,14,16,18,20,22,24,26,28,30,-1,-1,-1,-1,-1,-1,-1,-1,-1,-1,-1,-1,-1,-1,-1,-1],"split_conditions":[0E0,-5.6695905E0,7.285714E0,8.825849E-1,-4.9557824E-2,2.8139708E0,2.951818E0,-1.9826497E0,1.9114027E0,-1.0994895E-3,2.3520691E0,-4.7680702E-2,1.08362946E2,-4.646573E-1,1.8844777E0,-1.4364282E-2,-8.931192E-3,-3.6782166E-3,5.466645E-3,-7.181006E-3,-2.2569406E-3,-9.2784903E-4,7.913562E-3,-2.1972226E-3,1.7560063E-3,1.0837186E-2,-5.1311175E-3,1.928568E-3,8.026918E-3,1.2554081E-2,2.7394437E-3],"split_indices":[36,36,36,39,39,39,39,39,39,41,39,41,2,39,23,0,0,0,0,0,0,0,0,0,0,0,0,0,0,0,0],"split_type":[0,0,0,0,0,0,0,0,0,0,0,0,0,0,0,0,0,0,0,0,0,0,0,0,0,0,0,0,0,0,0],"sum_hessian":[3.0801775E3,1.355319E3,1.7248586E3,7.4359467E2,6.1172424E2,8.960988E2,8.287599E2,6.817577E2,6.1836967E1,3.1901144E2,2.9271283E2,8.1695074E2,7.9148094E1,6.0709076E2,2.2166911E2,1.5377448E2,5.279832E2,3.889064E1,2.2946327E1,1.6978635E2,1.4922508E2,2.6746152E2,2.5251322E1,2.1604817E2,6.009025E2,7.553035E1,3.617744E0,6.527284E1,5.4181793E2,2.178851E2,3.7840018E0],"tree_param":{"num_deleted":"0","num_feature":"44","num_nodes":"31","size_leaf_vector":"1"}},{"base_weights":[1.03553645E-2,-6.264921E-1,5.2830595E-1,-9.410287E-1,-2.6159698E-1,1.9932155E-1,8.8004637E-1,-1.0366217E0,-2.1815673E-1,-4.114129E-1,-9.38193E-3,1.3401723E-1,1.0370791E0,7.287825E-1,1.1557628E0,-1.4828683E-2,-9.241274E-3,-3.922119E-3,8.15627E-3,-1.1092983E-3,-5.540275E-3,-8.378681E-4,1.0745156E-2,-9.446635E-4,2.6491864E-3,4.9767005E-3,1.1940259E-2,2.0470181E-3,8.081248E-3,1.2004358E-2,5.985329E-3],"categories":[],"categories_nodes":[],"categories_segments":[],"categories_sizes":[],"default_left":[0,0,0,0,0,0,0,0,0,0,0,0,0,0,0,0,0,0,0,0,0,0,0,0,0,0,0,0,0,0,0],"id":24,"left_children":[1,3,5,7,9,11,13,15,17,19,21,23,25,27,29,-1,-1,-1,-1,-1,-1,-1,-1,-1,-1,-1,-1,-1,-1,-1,-1],"loss_changes":[1.0054302E3,1.5653564E2,1.9424323E2,5.034558E1,2.3925495E1,4.734441E1,3.2834045E1,3.089795E1,1.5945834E1,1.6915741E1,1.9159266E1,2.4220524E1,4.5412216E0,2.1658142E1,6.2139893E0,0E0,0E0,0E0,0E0,0E0,0E0,0E0,0E0,0E0,0E0,0E0,0E0,0E0,0E0,0E0,0E0],"parents":[2147483647,0,0,1,1,2,2,3,3,4,4,5,5,6,6,7,7,8,8,9,9,10,10,11,11,12,12,13,13,14,14],"right_children":[2,4,6,8,10,12,14,16,18,20,22,24,26,28,30,-1,-1,-1,-1,-1,-1,-1,-1,-1,-1,-1,-1,-1,-1,-1,-1],"split_conditions":[-1E-1,-5.6695905E0,7.285714E0,6.669E-1,2.2255018E-2,3.3787708E0,2.251935E0,-2.4841194E0,2.8447511E0,7.09375E1,2.9165313E0,-1.5707668E-2,1.2773093E0,1E0,-3.6361008E1,-1.4828683E-2,-9.241274E-3,-3.922119E-3,8.15627E-3,-1.1092983E-3,-5.540275E-3,-8.378681E-4,1.0745156E-2,-9.446635E-4,2.6491864E-3,4.9767005E-3,1.1940259E-2,2.0470181E-3,8.081248E-3,1.2004358E-2,5.985329E-3],"split_indices":[38,36,36,40,41,40,40,40,40,13,40,41,17,31,29,0,0,0,0,0,0,0,0,0,0,0,0,0,0,0,0],"split_type":[0,0,0,0,0,0,0,0,0,0,0,0,0,0,0,0,0,0,0,0,0,0,0,0,0,0,0,0,0,0,0],"sum_hessian":[3.046119E3,1.3660662E3,1.6800529E3,7.326634E2,6.334028E2,8.690642E2,8.109886E2,6.465862E2,8.607725E1,3.9672192E2,2.3668083E2,8.074052E2,6.165899E1,5.26271E2,2.847176E2,1.2754899E2,5.190372E2,7.428709E1,1.1790164E1,1.2848607E2,2.6823584E2,2.2242712E2,1.4253702E1,2.9391022E2,5.13495E2,1.4980553E1,4.6678436E1,6.9834335E1,4.564367E2,2.6235123E2,2.2366356E1],"tree_param":{"num_deleted":"0","num_feature":"44","num_nodes":"31","size_leaf_vector":"1"}},{"base_weights":[-3.159432E-3,-6.255596E-1,4.9855882E-1,-1.0216299E0,-3.5368618E-1,1.5390383E-1,8.5654366E-1,-1.2907649E0,-7.5282186E-1,-6.0750324E-1,-1.1556596E-1,6.652615E-2,9.8065543E-1,7.25136E-1,1.2084373E0,-1.6849902E-2,-1.1305422E-2,-1.0474325E-2,-3.1025913E-3,-1.2722009E-2,-5.0249747E-3,-1.5665794E-3,9.5948335E-3,-2.690953E-3,1.5798613E-3,-8.998742E-4,1.0512928E-2,2.5637443E-3,7.9472605E-3,7.3031317E-3,1.2479116E-2],"categories":[],"categories_nodes":[],"categories_segments":[],"categories_sizes":[],"default_left":[0,0,0,0,0,0,0,0,0,0,0,0,0,0,0,0,0,0,0,0,0,0,0,0,0,0,0,0,0,0,0],"id":25,"left_children":[1,3,5,7,9,11,13,15,17,19,21,23,25,27,29,-1,-1,-1,-1,-1,-1,-1,-1,-1,-1,-1,-1,-1,-1,-1,-1],"loss_changes":[9.477855E2,1.4537897E2,2.070958E2,3.8667175E1,4.851014E1,6.1775238E1,3.7028503E1,1.5096008E1,3.5801544E1,2.6349197E1,1.848145E1,2.3873356E1,6.375702E0,1.9348267E1,3.0865784E0,0E0,0E0,0E0,0E0,0E0,0E0,0E0,0E0,0E0,0E0,0E0,0E0,0E0,0E0,0E0,0E0],"parents":[2147483647,0,0,1,1,2,2,3,3,4,4,5,5,6,6,7,7,8,8,9,9,10,10,11,11,12,12,13,13,14,14],"right_children":[2,4,6,8,10,12,14,16,18,20,22,24,26,28,30,-1,-1,-1,-1,-1,-1,-1,-1,-1,-1,-1,-1,-1,-1,-1,-1],"split_conditions":[0E0,-7.899471E0,7.0011497E0,-5.2383476E-1,0E0,2.9859462E0,2.8712757E0,-1.75E1,-1.05E0,-1.9826497E0,2.8139708E0,-4.646573E-1,-1.027957E0,1E0,7.18E1,-1.6849902E-2,-1.1305422E-2,-1.0474325E-2,-3.1025913E-3,-1.2722009E-2,-5.0249747E-3,-1.5665794E-3,9.5948335E-3,-2.690953E-3,1.5798613E-3,-8.998742E-4,1.0512928E-2,2.5637443E-3,7.9472605E-3,7.3031317E-3,1.2479116E-2],"split_indices":[36,36,36,40,41,40,39,38,20,39,39,39,18,31,12,0,0,0,0,0,0,0,0,0,0,0,0,0,0,0,0],"split_type":[0,0,0,0,0,0,0,0,0,0,0,0,0,0,0,0,0,0,0,0,0,0,0,0,0,0,0,0,0,0,0],"sum_hessian":[3.0331123E3,1.3537222E3,1.6793903E3,5.49734E2,8.039881E2,8.564959E2,8.2289435E2,2.7261423E2,2.7711975E2,3.88213E2,4.1577512E2,7.7571375E2,8.0782166E1,6.015881E2,2.2130629E2,7.584887E1,1.9676537E2,1.6541292E2,1.1170683E2,5.13151E1,3.368979E2,4.013803E2,1.4394802E1,1.6546992E2,6.1024384E2,4.8952785E0,7.588689E1,7.8555595E1,5.230325E2,1.8558254E1,2.0274803E2],"tree_param":{"num_deleted":"0","num_feature":"44","num_nodes":"31","size_leaf_vector":"1"}},{"base_weights":[-4.898714E-3,-6.1877316E-1,4.8637983E-1,-1.0180285E0,-3.5858804E-1,1.4167939E-1,8.479128E-1,-1.3113147E0,-7.5014853E-1,-1.019964E0,-2.7921954E-1,6.0542393E-2,9.815468E-1,7.0423156E-1,1.211837E0,-1.4558272E-2,-9.1313245E-3,-9.709799E-3,-3.8912427E-3,-1.3877597E-2,-7.2962292E-3,-3.1107848E-3,9.142275E-3,-2.6664448E-3,1.4584617E-3,3.7731028E-3,1.1119306E-2,2.0140884E-3,7.7866893E-3,1.0363122E-2,1.3276395E-2],"categories":[],"categories_nodes":[],"categories_segments":[],"categories_sizes":[],"default_left":[0,0,0,0,0,0,0,0,0,0,0,0,0,0,0,0,0,0,0,0,0,0,0,0,0,0,0,0,0,0,0],"id":26,"left_children":[1,3,5,7,9,11,13,15,17,19,21,23,25,27,29,-1,-1,-1,-1,-1,-1,-1,-1,-1,-1,-1,-1,-1,-1,-1,-1],"loss_changes":[9.151739E2,1.3963556E2,2.0982718E2,4.0573364E1,4.2548393E1,5.8724747E1,4.1953064E1,1.294812E1,2.1835953E1,8.085754E0,2.8066788E1,2.2054035E1,5.41555E0,2.1908142E1,3.086731E0,0E0,0E0,0E0,0E0,0E0,0E0,0E0,0E0,0E0,0E0,0E0,0E0,0E0,0E0,0E0,0E0],"parents":[2147483647,0,0,1,1,2,2,3,3,4,4,5,5,6,6,7,7,8,8,9,9,10,10,11,11,12,12,13,13,14,14],"right_children":[2,4,6,8,10,12,14,16,18,20,22,24,26,28,30,-1,-1,-1,-1,-1,-1,-1,-1,-1,-1,-1,-1,-1,-1,-1,-1],"split_conditions":[0E0,-8E0,7.15E0,-6.458498E-1,-1.9241277E0,2.8139708E0,2.8139708E0,7.4052635E1,-1.05E0,-1.3384615E-1,2.8139708E0,-4.646573E-1,7.4639475E-1,1E0,2.077398E0,-1.4558272E-2,-9.1313245E-3,-9.709799E-3,-3.8912427E-3,-1.3877597E-2,-7.2962292E-3,-3.1107848E-3,9.142275E-3,-2.6664448E-3,1.4584617E-3,3.7731028E-3,1.1119306E-2,2.0140884E-3,7.7866893E-3,1.0363122E-2,1.3276395E-2],"split_indices":[36,36,36,40,39,39,39,16,20,35,39,39,17,31,17,0,0,0,0,0,0,0,0,0,0,0,0,0,0,0,0],"split_type":[0,0,0,0,0,0,0,0,0,0,0,0,0,0,0,0,0,0,0,0,0,0,0,0,0,0,0,0,0,0,0],"sum_hessian":[3.032522E3,1.3480355E3,1.6844865E3,5.3057245E2,8.17463E2,8.631716E2,8.2131494E2,2.512381E2,2.7933438E2,8.618388E1,7.312792E2,7.8821564E2,7.4955925E1,5.911373E2,2.3017758E2,1.8220352E2,6.903457E1,1.720986E2,1.0723577E2,3.620114E1,4.9982742E1,7.13067E2,1.8212126E1,1.623223E2,6.258934E2,1.4130746E1,6.0825176E1,7.6877945E1,5.142594E2,9.579351E1,1.3438406E2],"tree_param":{"num_deleted":"0","num_feature":"44","num_nodes":"31","size_leaf_vector":"1"}},{"base_weights":[2.839447E-3,-6.008226E-1,4.938752E-1,-9.0962654E-1,-2.669874E-1,1.6901116E-1,8.548055E-1,-1.5383277E0,-7.776832E-1,-9.622158E-1,-1.7406145E-1,9.2425905E-2,1.0150189E0,8.890449E-2,9.2195946E-1,-1.584065E-2,-4.5648166E-3,-8.60825E-3,-1.9534845E-4,-1.3261393E-2,-6.309948E-3,-2.2858258E-3,4.368259E-3,-2.144377E-3,1.9694364E-3,3.7857038E-3,1.1359081E-2,3.2756056E-3,-7.870858E-3,8.058602E-3,1.2085495E-2],"categories":[],"categories_nodes":[],"categories_segments":[],"categories_sizes":[],"default_left":[0,0,0,0,0,0,0,0,0,0,0,0,0,0,0,0,0,0,0,0,0,0,0,0,0,0,0,0,0,0,0],"id":27,"left_children":[1,3,5,7,9,11,13,15,17,19,21,23,25,27,29,-1,-1,-1,-1,-1,-1,-1,-1,-1,-1,-1,-1,-1,-1,-1,-1],"loss_changes":[9.050841E2,1.4082574E2,1.9719281E2,5.754132E1,4.2336926E1,5.7305016E1,4.0822998E1,5.117218E0,3.7067413E1,8.300835E0,1.9504688E1,2.6184036E1,5.0714874E0,1.3904424E1,2.3206055E1,0E0,0E0,0E0,0E0,0E0,0E0,0E0,0E0,0E0,0E0,0E0,0E0,0E0,0E0,0E0,0E0],"parents":[2147483647,0,0,1,1,2,2,3,3,4,4,5,5,6,6,7,7,8,8,9,9,10,10,11,11,12,12,13,13,14,14],"right_children":[2,4,6,8,10,12,14,16,18,20,22,24,26,28,30,-1,-1,-1,-1,-1,-1,-1,-1,-1,-1,-1,-1,-1,-1,-1,-1],"split_conditions":[0E0,-6.5E0,7.285714E0,-2.4841194E0,-2.0777767E0,2.8139708E0,-4.4225678E-1,2.2243902E-1,8.825849E-1,-3.5471674E-2,2.0526989E0,-5E-2,8.3532774E-1,6.8995834E1,3.0315545E0,-1.584065E-2,-4.5648166E-3,-8.60825E-3,-1.9534845E-4,-1.3261393E-2,-6.309948E-3,-2.2858258E-3,4.368259E-3,-2.144377E-3,1.9694364E-3,3.7857038E-3,1.1359081E-2,3.2756056E-3,-7.870858E-3,8.058602E-3,1.2085495E-2],"split_indices":[36,38,36,40,40,39,39,41,39,41,40,41,17,5,39,0,0,0,0,0,0,0,0,0,0,0,0,0,0,0,0],"split_type":[0,0,0,0,0,0,0,0,0,0,0,0,0,0,0,0,0,0,0,0,0,0,0,0,0,0,0,0,0,0,0],"sum_hessian":[3.0514226E3,1.3685492E3,1.6828733E3,7.09876E2,6.586732E2,8.866068E2,7.9626654E2,1.21156494E2,5.887195E2,7.642991E1,5.822433E2,8.141344E2,7.247244E1,6.4495705E1,7.317708E2,1.1570803E2,5.448465E0,5.302975E2,5.8421997E1,3.4842064E1,4.1587845E1,5.352612E2,4.6982075E1,2.0633305E2,6.0780133E2,1.2359871E1,6.0112576E1,5.1268314E1,1.322739E1,5.2375543E2,2.080154E2],"tree_param":{"num_deleted":"0","num_feature":"44","num_nodes":"31","size_leaf_vector":"1"}},{"base_weights":[3.8861681E-3,-6.759913E-1,4.4971824E-1,-9.177874E-1,-3.1795266E-1,1.4066347E-1,8.4150124E-1,-1.1844869E0,-6.1946E-1,-4.0223232E-1,4.5867157E-1,6.684686E-2,9.407242E-1,7.0501417E-1,1.2241856E0,-1.614194E-2,-1.041057E-2,-1.0357784E-2,-4.9733124E-3,-7.057284E-3,-1.6076682E-3,1.1263023E-2,1.969011E-3,-3.4525234E-3,1.4661269E-3,3.9032116E-3,1.1154009E-2,1.3595393E-4,7.559509E-3,7.240315E-3,1.256362E-2],"categories":[],"categories_nodes":[],"categories_segments":[],"categories_sizes":[],"default_left":[0,0,0,0,0,0,0,0,0,0,0,0,0,0,0,0,0,0,0,0,0,0,0,0,0,0,0,0,0,0,0],"id":28,"left_children":[1,3,5,7,9,11,13,15,17,19,21,23,25,27,29,-1,-1,-1,-1,-1,-1,-1,-1,-1,-1,-1,-1,-1,-1,-1,-1],"loss_changes":[9.1792523E2,1.03411194E2,2.2125668E2,5.5987E1,3.1933147E1,6.0302963E1,4.105597E1,2.1247925E1,1.6610458E1,3.1919975E1,8.0075655E0,3.0882591E1,7.710617E0,2.0932892E1,2.278473E0,0E0,0E0,0E0,0E0,0E0,0E0,0E0,0E0,0E0,0E0,0E0,0E0,0E0,0E0,0E0,0E0],"parents":[2147483647,0,0,1,1,2,2,3,3,4,4,5,5,6,6,7,7,8,8,9,9,10,10,11,11,12,12,13,13,14,14],"right_children":[2,4,6,8,10,12,14,16,18,20,22,24,26,28,30,-1,-1,-1,-1,-1,-1,-1,-1,-1,-1,-1,-1,-1,-1,-1,-1],"split_conditions":[-1.3333334E0,-6.258233E-2,7.15E0,-8.3E0,1.9114027E0,2.9859462E0,2.951818E0,-2.8234296E0,-1.9241277E0,-6.7647057E0,1.6666667E-1,-9.886022E-1,1.0305654E0,-1.1092016E0,7.8E0,-1.614194E-2,-1.041057E-2,-1.0357784E-2,-4.9733124E-3,-7.057284E-3,-1.6076682E-3,1.1263023E-2,1.969011E-3,-3.4525234E-3,1.4661269E-3,3.9032116E-3,1.1154009E-2,1.3595393E-4,7.559509E-3,7.240315E-3,1.256362E-2],"split_indices":[36,39,36,38,39,40,39,40,39,36,43,40,17,40,38,0,0,0,0,0,0,0,0,0,0,0,0,0,0,0,0],"split_type":[0,0,0,0,0,0,0,0,0,0,0,0,0,0,0,0,0,0,0,0,0,0,0,0,0,0,0,0,0,0,0],"sum_hessian":[3.0264167E3,1.198305E3,1.8281117E3,7.141631E2,4.8414197E2,1.02285516E3,8.052565E2,3.7532416E2,3.388389E2,4.372971E2,4.6844864E1,9.375608E2,8.529434E1,5.9584705E2,2.0940942E2,9.118576E1,2.841384E2,7.497173E1,2.638672E2,1.9272531E2,2.4457178E2,1.2156291E1,3.4688576E1,1.5130132E2,7.862595E2,2.146513E1,6.3829216E1,4.1105667E1,5.547414E2,1.42660675E1,1.9514336E2],"tree_param":{"num_deleted":"0","num_feature":"44","num_nodes":"31","size_leaf_vector":"1"}},{"base_weights":[3.737838E-3,-7.325685E-1,3.8616183E-1,-1.1791285E0,-5.6726456E-1,8.830733E-2,8.302567E-1,-1.5413791E0,-9.6923953E-1,-6.19542E-1,4.7789904E-1,2.116047E-2,9.5525306E-1,6.7813927E-1,1.2049898E0,-3.2666633E-3,-1.5828978E-2,-1.3072935E-2,-6.4783534E-3,-9.297184E-3,-4.3448685E-3,-6.226238E-3,6.60653E-3,-5.703882E-3,5.8743794E-4,3.7386527E-3,1.1385757E-2,1.140667E-3,7.500508E-3,1.23650925E-2,4.7554392E-3],"categories":[],"categories_nodes":[],"categories_segments":[],"categories_sizes":[],"default_left":[0,0,0,0,0,0,0,0,0,0,0,0,0,0,0,0,0,0,0,0,0,0,0,0,0,0,0,0,0,0,0],"id":29,"left_children":[1,3,5,7,9,11,13,15,17,19,21,23,25,27,29,-1,-1,-1,-1,-1,-1,-1,-1,-1,-1,-1,-1,-1,-1,-1,-1],"loss_changes":[8.541389E2,7.569647E1,2.639379E2,1.9470703E1,4.1771957E1,6.9523636E1,4.467047E1,4.3602905E0,1.8464996E1,4.0972015E1,7.780574E0,2.4692749E1,8.575012E0,2.3046692E1,4.526062E0,0E0,0E0,0E0,0E0,0E0,0E0,0E0,0E0,0E0,0E0,0E0,0E0,0E0,0E0,0E0,0E0],"parents":[2147483647,0,0,1,1,2,2,3,3,4,4,5,5,6,6,7,7,8,8,9,9,10,10,11,11,12,12,13,13,14,14],"right_children":[2,4,6,8,10,12,14,16,18,20,22,24,26,28,30,-1,-1,-1,-1,-1,-1,-1,-1,-1,-1,-1,-1,-1,-1,-1,-1],"split_conditions":[-2.7333333E0,-1.349868E0,7.285714E0,-4.1666668E-2,1.9114027E0,2.6830845E0,2.8139708E0,-1.1328553E0,-1.1283626E1,-2.5E-1,1.0052488E2,-1.8668039E0,9.722606E-1,-4.4225678E-1,-0E0,-3.2666633E-3,-1.5828978E-2,-1.3072935E-2,-6.4783534E-3,-9.297184E-3,-4.3448685E-3,-6.226238E-3,6.60653E-3,-5.703882E-3,5.8743794E-4,3.7386527E-3,1.1385757E-2,1.140667E-3,7.500508E-3,1.23650925E-2,4.7554392E-3],"split_indices":[36,39,36,41,39,39,39,25,36,35,0,39,17,39,29,0,0,0,0,0,0,0,0,0,0,0,0,0,0,0,0],"split_type":[0,0,0,0,0,0,0,0,0,0,0,0,0,0,0,0,0,0,0,0,0,0,0,0,0,0,0,0,0,0,0],"sum_hessian":[3.0314846E3,1.0358728E3,1.9956118E3,2.7803568E2,7.5783716E2,1.1953286E3,8.0028314E2,9.949518E1,1.785405E2,7.2221594E2,3.562118E1,1.1104608E3,8.4867874E1,5.714058E2,2.2887729E2,3.6610365E0,9.5834145E1,8.5369736E1,9.317075E1,2.6816772E2,4.5404822E2,4.6521864E0,3.0968996E1,6.533129E1,1.0451295E3,2.1204615E1,6.366326E1,6.505925E1,5.063466E2,2.1859937E2,1.0277937E1],"tree_param":{"num_deleted":"0","num_feature":"44","num_nodes":"31","size_leaf_vector":"1"}},{"base_weights":[-7.167445E-3,-6.0565776E-1,4.7954217E-1,-8.860956E-1,-2.7214274E-1,1.7658709E-1,8.149235E-1,-1.381454E0,-7.4181545E-1,-1.3277146E0,-2.1677387E-1,9.615454E-2,9.1709757E-1,6.470082E-1,1.1226858E0,-1.4209846E-2,1.8488127E-4,-1.0195537E-2,-5.600949E-3,-6.1452994E-3,-1.4745482E-2,-3.896126E-3,-3.000634E-4,-2.0291542E-3,1.7453728E-3,1.0369433E-2,-1.3421149E-3,-4.7925985E-3,6.9195568E-3,-4.7033876E-3,1.1648631E-2],"categories":[],"categories_nodes":[],"categories_segments":[],"categories_sizes":[],"default_left":[0,0,0,0,0,0,0,0,0,0,0,0,0,0,0,0,0,0,0,0,0,0,0,0,0,0,0,0,0,0,0],"id":30,"left_children":[1,3,5,7,9,11,13,15,17,19,21,23,25,27,29,-1,-1,-1,-1,-1,-1,-1,-1,-1,-1,-1,-1,-1,-1,-1,-1],"loss_changes":[8.848036E2,1.2706769E2,1.6995572E2,5.161377E1,3.6022713E1,5.2315197E1,4.0158386E1,9.324554E0,2.8291412E1,2.1113815E0,1.9124311E1,1.8701658E1,1.1081306E1,2.6507446E1,1.935736E1,0E0,0E0,0E0,0E0,0E0,0E0,0E0,0E0,0E0,0E0,0E0,0E0,0E0,0E0,0E0,0E0],"parents":[2147483647,0,0,1,1,2,2,3,3,4,4,5,5,6,6,7,7,8,8,9,9,10,10,11,11,12,12,13,13,14,14],"right_children":[2,4,6,8,10,12,14,16,18,20,22,24,26,28,30,-1,-1,-1,-1,-1,-1,-1,-1,-1,-1,-1,-1,-1,-1,-1,-1],"split_conditions":[0E0,-5.6695905E0,7.285714E0,-1.9241277E0,-2.6099603E0,2.5248046E0,1.7115385E1,2.6607144E-1,-3.3333334E-1,-7.912569E2,-1.5000917E-2,-4.646573E-1,7.7333336E1,-2.6166666E-1,-1.0324012E0,-1.4209846E-2,1.8488127E-4,-1.0195537E-2,-5.600949E-3,-6.1452994E-3,-1.4745482E-2,-3.896126E-3,-3.000634E-4,-2.0291542E-3,1.7453728E-3,1.0369433E-2,-1.3421149E-3,-4.7925985E-3,6.9195568E-3,-4.7033876E-3,1.1648631E-2],"split_indices":[36,36,36,39,39,39,36,41,37,29,39,39,13,41,39,0,0,0,0,0,0,0,0,0,0,0,0,0,0,0,0],"split_type":[0,0,0,0,0,0,0,0,0,0,0,0,0,0,0,0,0,0,0,0,0,0,0,0,0,0,0,0,0,0,0],"sum_hessian":[3.0354846E3,1.3613903E3,1.6740945E3,7.384794E2,6.229109E2,8.805263E2,7.935681E2,1.6448465E2,5.7399475E2,2.9810347E1,5.931006E2,7.9539703E2,8.512931E1,5.1565405E2,2.7791403E2,1.6002243E2,4.462219E0,2.2497957E2,3.4901517E2,6.091181E0,2.3719166E1,3.0719452E2,2.8590604E2,1.6457921E2,6.308178E2,7.651557E1,8.613735E0,1.9332952E1,4.963211E2,6.8453226E0,2.7106873E2],"tree_param":{"num_deleted":"0","num_feature":"44","num_nodes":"31","size_leaf_vector":"1"}},{"base_weights":[2.8223593E-3,-5.846406E-1,4.669054E-1,-8.08995E-1,-1.756135E-1,2.1140957E-1,8.7787735E-1,-1.0887482E0,-5.399409E-1,-2.346845E-1,7.9570794E-1,9.591894E-2,7.021793E-1,7.349162E-1,1.1967487E0,-1.3333849E-2,-9.064332E-3,-1.0862163E-2,-4.646956E-3,-6.1895484E-3,-9.355743E-4,-5.9746588E-3,1.0222257E-2,-6.5961527E-3,1.3759747E-3,5.3615193E-3,1.1344405E-2,7.964762E-3,8.871558E-4,7.0288554E-3,1.2342823E-2],"categories":[],"categories_nodes":[],"categories_segments":[],"categories_sizes":[],"default_left":[0,0,0,0,0,0,0,0,0,0,0,0,0,0,0,0,0,0,0,0,0,0,0,0,0,0,0,0,0,0,0],"id":31,"left_children":[1,3,5,7,9,11,13,15,17,19,21,23,25,27,29,-1,-1,-1,-1,-1,-1,-1,-1,-1,-1,-1,-1,-1,-1,-1,-1],"loss_changes":[8.2911664E2,1.229194E2,1.7811462E2,6.445209E1,2.748954E1,5.932129E1,2.8599457E1,1.745691E1,1.7580063E1,2.4294333E1,9.321093E0,2.6825512E1,1.35457E1,1.7830185E1,2.6400452E0,0E0,0E0,0E0,0E0,0E0,0E0,0E0,0E0,0E0,0E0,0E0,0E0,0E0,0E0,0E0,0E0],"parents":[2147483647,0,0,1,1,2,2,3,3,4,4,5,5,6,6,7,7,8,8,9,9,10,10,11,11,12,12,13,13,14,14],"right_children":[2,4,6,8,10,12,14,16,18,20,22,24,26,28,30,-1,-1,-1,-1,-1,-1,-1,-1,-1,-1,-1,-1,-1,-1,-1,-1],"split_conditions":[-4E-1,1.2551541E-2,9.9E0,-8.3E0,2.8139708E0,1.6638025E0,2.8139708E0,-3.392857E-1,-2.4200065E0,-9.5E0,9.39324E1,-1.9241277E0,3.712169E0,4.4E1,7.18E1,-1.3333849E-2,-9.064332E-3,-1.0862163E-2,-4.646956E-3,-6.1895484E-3,-9.355743E-4,-5.9746588E-3,1.0222257E-2,-6.5961527E-3,1.3759747E-3,5.3615193E-3,1.1344405E-2,7.964762E-3,8.871558E-4,7.0288554E-3,1.2342823E-2],"split_indices":[38,39,38,38,39,39,39,35,39,38,1,39,39,33,12,0,0,0,0,0,0,0,0,0,0,0,0,0,0,0,0],"split_type":[0,0,0,0,0,0,0,0,0,0,0,0,0,0,0,0,0,0,0,0,0,0,0,0,0,0,0,0,0,0,0],"sum_hessian":[3.0392031E3,1.341094E3,1.6981091E3,8.6526654E2,4.7582748E2,1.0482092E3,6.4989996E2,4.2252322E2,4.4274335E2,4.4936087E2,2.6466587E1,8.4966144E2,1.9854779E2,4.5122055E2,1.9867943E2,1.7749367E2,2.4502957E2,5.1813843E1,3.909295E2,1.196031E2,3.2975778E2,3.4106534E0,2.3055935E1,4.3520004E1,8.061414E2,1.452358E2,5.3311993E1,4.1162045E2,3.9600094E1,1.5614592E1,1.8306483E2],"tree_param":{"num_deleted":"0","num_feature":"44","num_nodes":"31","size_leaf_vector":"1"}},{"base_weights":[-1.4669758E-3,-5.7105905E-1,4.595496E-1,-8.490733E-1,-2.4129169E-1,1.2579188E-1,8.2365054E-1,-1.378312E0,-7.0795405E-1,-4.4519737E-1,-4.860616E-2,4.9404748E-2,9.417595E-1,5.2527446E-1,9.888014E-1,-1.5336971E-2,-8.654959E-3,-7.608784E-3,4.864355E-3,-8.885205E-3,-2.9996976E-3,-3.3007397E-3,7.909224E-4,-6.368312E-3,8.251043E-4,-1.8768212E-3,1.0197933E-2,3.694296E-3,9.775056E-3,8.751654E-3,1.2503075E-2],"categories":[],"categories_nodes":[],"categories_segments":[],"categories_sizes":[],"default_left":[0,0,0,0,0,0,0,0,0,0,0,0,0,0,0,0,0,0,0,0,0,0,0,0,0,0,0,0,0,0,0],"id":32,"left_children":[1,3,5,7,9,11,13,15,17,19,21,23,25,27,29,-1,-1,-1,-1,-1,-1,-1,-1,-1,-1,-1,-1,-1,-1,-1,-1],"loss_changes":[7.986303E2,1.2442081E2,2.040495E2,5.3906494E1,2.4442116E1,5.459467E1,3.8924072E1,1.0710144E1,3.7348846E1,1.9106731E1,1.1630395E1,1.8267868E1,6.8857193E0,1.9846558E1,1.4023376E1,0E0,0E0,0E0,0E0,0E0,0E0,0E0,0E0,0E0,0E0,0E0,0E0,0E0,0E0,0E0,0E0],"parents":[2147483647,0,0,1,1,2,2,3,3,4,4,5,5,6,6,7,7,8,8,9,9,10,10,11,11,12,12,13,13,14,14],"right_children":[2,4,6,8,10,12,14,16,18,20,22,24,26,28,30,-1,-1,-1,-1,-1,-1,-1,-1,-1,-1,-1,-1,-1,-1,-1,-1],"split_conditions":[0E0,-5.6695905E0,7.285714E0,-1.9826497E0,-1.110223E-16,2.739491E0,2.5319573E-1,7.4052635E1,1.7982632E0,-1.1488774E0,-3.5555556E-1,-1.9241277E0,-1.439288E-1,1.81E1,3.854363E0,-1.5336971E-2,-8.654959E-3,-7.608784E-3,4.864355E-3,-8.885205E-3,-2.9996976E-3,-3.3007397E-3,7.909224E-4,-6.368312E-3,8.251043E-4,-1.8768212E-3,1.0197933E-2,3.694296E-3,9.775056E-3,8.751654E-3,1.2503075E-2],"split_indices":[36,36,36,39,41,39,39,16,39,40,40,39,20,38,39,0,0,0,0,0,0,0,0,0,0,0,0,0,0,0,0],"split_type":[0,0,0,0,0,0,0,0,0,0,0,0,0,0,0,0,0,0,0,0,0,0,0,0,0,0,0,0,0,0,0],"sum_hessian":[3.0393005E3,1.3595441E3,1.6797565E3,7.366362E2,6.2290784E2,8.772418E2,8.0251465E2,1.5307697E2,5.8355927E2,3.0175357E2,3.211543E2,8.032302E2,7.4011604E1,2.8763467E2,5.1487994E2,1.158026E2,3.7274364E1,5.592262E2,2.4333063E1,7.302625E1,2.2872731E2,9.998018E1,2.211741E2,3.598813E1,7.6724207E2,4.6094136E0,6.940219E1,2.1543199E2,7.220269E1,3.6221182E2,1.5266812E2],"tree_param":{"num_deleted":"0","num_feature":"44","num_nodes":"31","size_leaf_vector":"1"}},{"base_weights":[1.4366924E-2,-5.5106723E-1,4.8487264E-1,-7.741176E-1,-1.725951E-1,2.3417668E-1,8.746261E-1,-1.0562478E0,-5.1903814E-1,-2.3604164E-1,7.9569924E-1,1.1452054E-1,7.5030696E-1,7.445592E-1,1.1975261E0,-5.95228E-3,-1.1694622E-2,-1.1438745E-2,-4.3555996E-3,-4.162319E-3,5.169248E-4,1.4719852E-4,1.3533235E-2,-6.303421E-3,1.6017171E-3,5.721583E-3,1.1680103E-2,7.7358624E-3,-6.1847144E-3,1.2162095E-2,8.935833E-4],"categories":[],"categories_nodes":[],"categories_segments":[],"categories_sizes":[],"default_left":[0,0,0,0,0,0,0,0,0,0,0,0,0,0,0,0,0,0,0,0,0,0,0,0,0,0,0,0,0,0,0],"id":33,"left_children":[1,3,5,7,9,11,13,15,17,19,21,23,25,27,29,-1,-1,-1,-1,-1,-1,-1,-1,-1,-1,-1,-1,-1,-1,-1,-1],"loss_changes":[8.0799E2,1.16211945E2,1.6166693E2,6.171753E1,3.1643044E1,6.222768E1,2.6146149E1,2.0564087E1,2.3217209E1,2.5060934E1,1.3636946E1,2.7990616E1,1.3282875E1,1.8894806E1,3.5769653E0,0E0,0E0,0E0,0E0,0E0,0E0,0E0,0E0,0E0,0E0,0E0,0E0,0E0,0E0,0E0,0E0],"parents":[2147483647,0,0,1,1,2,2,3,3,4,4,5,5,6,6,7,7,8,8,9,9,10,10,11,11,12,12,13,13,14,14],"right_children":[2,4,6,8,10,12,14,16,18,20,22,24,26,28,30,-1,-1,-1,-1,-1,-1,-1,-1,-1,-1,-1,-1,-1,-1,-1,-1],"split_conditions":[-1E-1,7.1284813E-3,9.9E0,-8.3E0,2.8139708E0,1.6638025E0,3.0315545E0,7.175E1,-2.4200065E0,-4E0,3.8310322E-1,-1.9241277E0,3.712169E0,1E0,2.6365469E0,-5.95228E-3,-1.1694622E-2,-1.1438745E-2,-4.3555996E-3,-4.162319E-3,5.169248E-4,1.4719852E-4,1.3533235E-2,-6.303421E-3,1.6017171E-3,5.721583E-3,1.1680103E-2,7.7358624E-3,-6.1847144E-3,1.2162095E-2,8.935833E-4],"split_indices":[38,39,38,38,39,39,39,13,39,38,18,39,39,30,26,0,0,0,0,0,0,0,0,0,0,0,0,0,0,0,0],"split_type":[0,0,0,0,0,0,0,0,0,0,0,0,0,0,0,0,0,0,0,0,0,0,0,0,0,0,0,0,0,0,0],"sum_hessian":[3.03512E3,1.378324E3,1.6567961E3,8.664041E2,5.119199E2,1.0093942E3,6.4740186E2,4.0971097E2,4.5669318E2,4.8124622E2,3.0673681E1,8.2057367E2,1.8882059E2,4.6408148E2,1.8332039E2,8.2185295E1,3.2752567E2,5.218516E1,4.04508E2,2.9586502E2,1.8538118E2,1.3280057E1,1.7393623E1,4.652095E1,7.740527E2,1.3419585E2,5.4624744E1,4.5489978E2,9.181719E0,1.8009628E2,3.2241087E0],"tree_param":{"num_deleted":"0","num_feature":"44","num_nodes":"31","size_leaf_vector":"1"}},{"base_weights":[6.092982E-3,-5.7582754E-1,4.7946712E-1,-8.4431976E-1,-2.5578275E-1,1.476634E-1,7.919068E-1,-1.0438489E0,-5.175008E-1,-4.540548E-1,-4.509149E-2,6.971691E-2,9.723622E-1,5.110012E-1,9.519815E-1,-1.4747187E-2,-9.456185E-3,-6.6056466E-3,1.2094538E-3,-6.941877E-3,-2.6398646E-3,-9.334979E-4,7.964666E-3,-3.4284446E-4,3.322086E-3,1.0600414E-2,-3.1253807E-3,2.557518E-4,6.304708E-3,8.088674E-3,1.1867174E-2],"categories":[],"categories_nodes":[],"categories_segments":[],"categories_sizes":[],"default_left":[0,0,0,0,0,0,0,0,0,0,0,0,0,0,0,0,0,0,0,0,0,0,0,0,0,0,0,0,0,0,0],"id":34,"left_children":[1,3,5,7,9,11,13,15,17,19,21,23,25,27,29,-1,-1,-1,-1,-1,-1,-1,-1,-1,-1,-1,-1,-1,-1,-1,-1],"loss_changes":[8.4060645E2,1.17292114E2,1.7424655E2,4.7802307E1,2.6082054E1,5.2379654E1,3.8322266E1,1.785907E1,2.6083908E1,1.4425407E1,1.2385497E1,2.0464079E1,8.338036E0,1.8294098E1,1.7332886E1,0E0,0E0,0E0,0E0,0E0,0E0,0E0,0E0,0E0,0E0,0E0,0E0,0E0,0E0,0E0,0E0],"parents":[2147483647,0,0,1,1,2,2,3,3,4,4,5,5,6,6,7,7,8,8,9,9,10,10,11,11,12,12,13,13,14,14],"right_children":[2,4,6,8,10,12,14,16,18,20,22,24,26,28,30,-1,-1,-1,-1,-1,-1,-1,-1,-1,-1,-1,-1,-1,-1,-1,-1],"split_conditions":[0E0,-5.6695905E0,6.5416665E0,-1.2264524E-1,-4.9557824E-2,2.8139708E0,2.5319573E-1,-1.8577778E1,1.5749007E-1,-2.0833334E-2,2.8139708E0,3.9722223E-2,1.07143425E2,1.0558427E2,1.6772728E1,-1.4747187E-2,-9.456185E-3,-6.6056466E-3,1.2094538E-3,-6.941877E-3,-2.6398646E-3,-9.334979E-4,7.964666E-3,-3.4284446E-4,3.322086E-3,1.0600414E-2,-3.1253807E-3,2.557518E-4,6.304708E-3,8.088674E-3,1.1867174E-2],"split_indices":[36,36,36,39,39,39,39,38,41,41,39,41,2,0,36,0,0,0,0,0,0,0,0,0,0,0,0,0,0,0,0],"split_type":[0,0,0,0,0,0,0,0,0,0,0,0,0,0,0,0,0,0,0,0,0,0,0,0,0,0,0,0,0,0,0],"sum_hessian":[3.0496113E3,1.367774E3,1.6818372E3,7.4273096E2,6.2504315E2,8.1651245E2,8.653247E2,4.5962268E2,2.8310825E2,3.211725E2,3.0387064E2,7.4710547E2,6.940696E1,3.158592E2,5.494655E2,8.254098E1,3.7708173E2,2.3138187E2,5.172637E1,1.4049379E2,1.806787E2,2.8834375E2,1.5526881E1,5.3544586E2,2.116596E2,6.520998E1,4.1969814E0,6.2788715E1,2.5307048E2,3.443772E2,2.0508832E2],"tree_param":{"num_deleted":"0","num_feature":"44","num_nodes":"31","size_leaf_vector":"1"}},{"base_weights":[-1.0136617E-2,-5.8421254E-1,4.6267533E-1,-9.5375365E-1,-3.434897E-1,1.6900444E-1,7.89471E-1,-5.203725E-1,-1.1327016E0,-5.6944734E-1,-1.2969697E-1,9.328701E-2,9.0447164E-1,6.5726745E-1,1.1733235E0,-6.6169724E-3,3.6436538E-3,-1.44384885E-2,-9.178536E-3,-1.2387482E-2,-4.6407646E-3,-1.6943893E-3,7.6373694E-3,-2.3067659E-3,1.7423169E-3,1.0238147E-2,5.89959E-4,1.2441245E-3,7.2059557E-3,1.0037346E-2,1.2699789E-2],"categories":[],"categories_nodes":[],"categories_segments":[],"categories_sizes":[],"default_left":[0,0,0,0,0,0,0,0,0,0,0,0,0,0,0,0,0,0,0,0,0,0,0,0,0,0,0,0,0,0,0],"id":35,"left_children":[1,3,5,7,9,11,13,15,17,19,21,23,25,27,29,-1,-1,-1,-1,-1,-1,-1,-1,-1,-1,-1,-1,-1,-1,-1,-1],"loss_changes":[8.1751996E2,1.2055527E2,1.5826682E2,4.080365E1,3.9733444E1,4.8335037E1,3.869095E1,2.0103615E1,2.37247E1,2.7521072E1,1.51844635E1,2.0781902E1,8.013237E0,1.9518173E1,1.7544556E0,0E0,0E0,0E0,0E0,0E0,0E0,0E0,0E0,0E0,0E0,0E0,0E0,0E0,0E0,0E0,0E0],"parents":[2147483647,0,0,1,1,2,2,3,3,4,4,5,5,6,6,7,7,8,8,9,9,10,10,11,11,12,12,13,13,14,14],"right_children":[2,4,6,8,10,12,14,16,18,20,22,24,26,28,30,-1,-1,-1,-1,-1,-1,-1,-1,-1,-1,-1,-1,-1,-1,-1,-1],"split_conditions":[0E0,-8E0,7.285714E0,2.8333333E-1,0E0,2.5248046E0,3.0315545E0,9.2016053E-1,-3.5E-1,-1.9826497E0,2.9165313E0,-5.1695794E-1,7.7333336E1,-4.4225678E-1,2.077398E0,-6.6169724E-3,3.6436538E-3,-1.44384885E-2,-9.178536E-3,-1.2387482E-2,-4.6407646E-3,-1.6943893E-3,7.6373694E-3,-2.3067659E-3,1.7423169E-3,1.0238147E-2,5.89959E-4,1.2441245E-3,7.2059557E-3,1.0037346E-2,1.2699789E-2],"split_indices":[36,36,36,43,41,39,39,40,35,39,40,39,13,39,17,0,0,0,0,0,0,0,0,0,0,0,0,0,0,0,0],"split_type":[0,0,0,0,0,0,0,0,0,0,0,0,0,0,0,0,0,0,0,0,0,0,0,0,0,0,0,0,0,0,0],"sum_hessian":[3.0098599E3,1.3593494E3,1.6505106E3,5.3487244E2,8.2447687E2,8.702733E2,7.8023724E2,1.5761732E2,3.7725513E2,3.997985E2,4.246784E2,7.9018536E2,8.008793E1,5.825669E2,1.9767038E2,1.3622273E2,2.1394594E1,1.5156702E2,2.2568811E2,5.2788456E1,3.4701E2,4.0747528E2,1.7203146E1,1.5734814E2,6.328372E2,6.9892975E1,1.0194954E1,6.2364452E1,5.202024E2,7.626948E1,1.214009E2],"tree_param":{"num_deleted":"0","num_feature":"44","num_nodes":"31","size_leaf_vector":"1"}},{"base_weights":[1.1554102E-2,-5.421052E-1,3.9174783E-1,-8.432142E-1,-2.1722773E-1,2.082417E-1,9.2135334E-1,-9.4829786E-1,-1.4957534E-1,-6.5914005E-1,-5.2188903E-2,-1.2658938E-2,5.5067587E-1,7.157304E-1,1.1715229E0,-5.8930865E-3,-1.0935665E-2,2.66828E-3,-4.119744E-3,-1.0712006E-2,-4.8744455E-3,-1.0203423E-3,8.914676E-3,-3.2986586E-3,9.4081345E-4,5.8386317E-3,-9.322626E-3,4.2385506E-3,8.922125E-3,1.207261E-2,3.8817164E-3],"categories":[],"categories_nodes":[],"categories_segments":[],"categories_sizes":[],"default_left":[0,0,0,0,0,0,0,0,0,0,0,0,0,0,0,0,0,0,0,0,0,0,0,0,0,0,0,0,0,0,0],"id":36,"left_children":[1,3,5,7,9,11,13,15,17,19,21,23,25,27,29,-1,-1,-1,-1,-1,-1,-1,-1,-1,-1,-1,-1,-1,-1,-1,-1],"loss_changes":[6.3485455E2,1.1981882E2,1.734856E2,4.6157745E1,4.3077805E1,1.00628784E2,2.2621857E1,2.800653E1,9.420638E0,1.0694832E1,2.0348366E1,2.7444931E1,2.6176697E1,1.2631821E1,5.1280212E0,0E0,0E0,0E0,0E0,0E0,0E0,0E0,0E0,0E0,0E0,0E0,0E0,0E0,0E0,0E0,0E0],"parents":[2147483647,0,0,1,1,2,2,3,3,4,4,5,5,6,6,7,7,8,8,9,9,10,10,11,11,12,12,13,13,14,14],"right_children":[2,4,6,8,10,12,14,16,18,20,22,24,26,28,30,-1,-1,-1,-1,-1,-1,-1,-1,-1,-1,-1,-1,-1,-1,-1,-1],"split_conditions":[-1.984127E-2,-1.8589744E-1,1.6638025E0,5.865154E-1,-7.376185E-1,1.8518518E-1,3.5030565E0,1E1,9E0,-2.255637E0,2.4709766E0,-4.646573E-1,8.432E1,1.6450216E-1,-1.1404714E1,-5.8930865E-3,-1.0935665E-2,2.66828E-3,-4.119744E-3,-1.0712006E-2,-4.8744455E-3,-1.0203423E-3,8.914676E-3,-3.2986586E-3,9.4081345E-4,5.8386317E-3,-9.322626E-3,4.2385506E-3,8.922125E-3,1.207261E-2,3.8817164E-3],"split_indices":[35,35,39,40,39,35,39,14,14,39,39,39,15,35,29,0,0,0,0,0,0,0,0,0,0,0,0,0,0,0,0],"split_type":[0,0,0,0,0,0,0,0,0,0,0,0,0,0,0,0,0,0,0,0,0,0,0,0,0,0,0,0,0,0,0],"sum_hessian":[3.0140303E3,1.2268027E3,1.7872274E3,6.357042E2,5.910985E2,1.3284923E3,4.5873514E2,5.51624E2,8.4080246E1,1.5974944E2,4.3134906E2,8.0795807E2,5.205342E2,2.5412326E2,2.0461188E2,1.6056918E2,3.9105484E2,3.234837E1,5.1731876E1,4.527363E1,1.14475815E2,4.106555E2,2.0693588E1,2.0313507E2,6.04823E2,5.0979886E2,1.0735314E1,9.7251656E1,1.5687161E2,1.9504474E2,9.567141E0],"tree_param":{"num_deleted":"0","num_feature":"44","num_nodes":"31","size_leaf_vector":"1"}},{"base_weights":[7.1836333E-3,-5.5609316E-1,4.64497E-1,-9.209841E-1,-3.4383762E-1,2.1598196E-1,8.147533E-1,-1.0940714E0,-5.3390014E-1,-9.853365E-1,-2.604554E-1,1.4177918E-1,9.34312E-1,6.826229E-1,1.1790559E0,-1.5657555E-2,-9.849566E-3,-6.991264E-3,3.612742E-3,-7.3105446E-3,-1.2586101E-2,-2.9005953E-3,8.266296E-3,-6.6526904E-4,2.7859632E-3,6.2049166E-3,1.1573102E-2,7.103921E-3,-9.66746E-3,1.2032453E-2,-5.134345E-5],"categories":[],"categories_nodes":[],"categories_segments":[],"categories_sizes":[],"default_left":[0,0,0,0,0,0,0,0,0,0,0,0,0,0,0,0,0,0,0,0,0,0,0,0,0,0,0,0,0,0,0],"id":37,"left_children":[1,3,5,7,9,11,13,15,17,19,21,23,25,27,29,-1,-1,-1,-1,-1,-1,-1,-1,-1,-1,-1,-1,-1,-1,-1,-1],"loss_changes":[7.75802E2,1.04071106E2,1.4441565E2,3.2451904E1,4.534855E1,5.1671593E1,3.2193756E1,1.5767181E1,2.3247246E1,5.67997E0,2.458297E1,2.5234592E1,5.464035E0,2.3950775E1,5.336899E0,0E0,0E0,0E0,0E0,0E0,0E0,0E0,0E0,0E0,0E0,0E0,0E0,0E0,0E0,0E0,0E0],"parents":[2147483647,0,0,1,1,2,2,3,3,4,4,5,5,6,6,7,7,8,8,9,9,10,10,11,11,12,12,13,13,14,14],"right_children":[2,4,6,8,10,12,14,16,18,20,22,24,26,28,30,-1,-1,-1,-1,-1,-1,-1,-1,-1,-1,-1,-1,-1,-1,-1,-1],"split_conditions":[0E0,-8.523809E0,9.1E0,0E0,-1.9241277E0,2.8139708E0,3.0315545E0,-2E1,1.4109848E-1,1.1196937E2,2.8139708E0,0E0,2.077398E0,4.5984787E2,1.3947369E0,-1.5657555E-2,-9.849566E-3,-6.991264E-3,3.612742E-3,-7.3105446E-3,-1.2586101E-2,-2.9005953E-3,8.266296E-3,-6.6526904E-4,2.7859632E-3,6.2049166E-3,1.1573102E-2,7.103921E-3,-9.66746E-3,1.2032453E-2,-5.134345E-5],"split_indices":[36,36,38,40,39,39,39,38,34,1,39,39,17,29,28,0,0,0,0,0,0,0,0,0,0,0,0,0,0,0,0],"split_type":[0,0,0,0,0,0,0,0,0,0,0,0,0,0,0,0,0,0,0,0,0,0,0,0,0,0,0,0,0,0,0],"sum_hessian":[3.0097568E3,1.3484386E3,1.6613181E3,4.9451028E2,8.5392834E2,9.729146E2,6.8840356E2,3.4027094E2,1.5423936E2,9.684414E1,7.570842E2,8.830346E2,8.988001E1,5.0748874E2,1.8091481E2,6.124657E1,2.7902435E2,1.3048575E2,2.3753616E1,5.225852E1,4.458562E1,7.378167E2,1.9267508E1,3.499752E2,5.330594E2,3.9094357E1,5.0785652E1,4.9970547E2,7.783257E0,1.7736024E2,3.5545776E0],"tree_param":{"num_deleted":"0","num_feature":"44","num_nodes":"31","size_leaf_vector":"1"}},{"base_weights":[1.7424226E-2,-5.355642E-1,4.7042277E-1,-8.893934E-1,-3.1162423E-1,1.807502E-1,7.8425217E-1,-9.240609E-1,6.3499975E-1,-1.166292E0,-2.4905427E-1,1.0840054E-1,9.877627E-1,6.3020337E-1,1.1116639E0,-1.3335036E-2,-8.073346E-3,1.1236969E-2,-2.1377632E-3,-1.5391542E-2,-7.3148534E-3,-3.9128903E-3,-3.3117546E-4,-7.397776E-4,2.5133342E-3,4.2445515E-3,1.1218386E-2,-5.7332736E-4,6.853323E-3,9.040886E-3,1.2192977E-2],"categories":[],"categories_nodes":[],"categories_segments":[],"categories_sizes":[],"default_left":[0,0,0,0,0,0,0,0,0,0,0,0,0,0,0,0,0,0,0,0,0,0,0,0,0,0,0,0,0,0,0],"id":38,"left_children":[1,3,5,7,9,11,13,15,17,19,21,23,25,27,29,-1,-1,-1,-1,-1,-1,-1,-1,-1,-1,-1,-1,-1,-1,-1,-1],"loss_changes":[7.541283E2,1.0701126E2,1.5020801E2,2.8343842E1,4.4052727E1,5.011611E1,3.9166534E1,2.3250519E1,5.389877E0,7.7851334E0,2.3793495E1,2.0691586E1,4.708023E0,2.0660202E1,4.326599E0,0E0,0E0,0E0,0E0,0E0,0E0,0E0,0E0,0E0,0E0,0E0,0E0,0E0,0E0,0E0,0E0],"parents":[2147483647,0,0,1,1,2,2,3,3,4,4,5,5,6,6,7,7,8,8,9,9,10,10,11,11,12,12,13,13,14,14],"right_children":[2,4,6,8,10,12,14,16,18,20,22,24,26,28,30,-1,-1,-1,-1,-1,-1,-1,-1,-1,-1,-1,-1,-1,-1,-1,-1],"split_conditions":[0E0,-8.2E0,7.15E0,1.9661806E0,-2.4200065E0,2.8139708E0,2.409577E0,-2.41067E0,9.444445E0,-4.0529203E-2,-2.6E0,-6.5224636E-3,8.3532774E-1,-1.1092016E0,1.5356156E0,-1.3335036E-2,-8.073346E-3,1.1236969E-2,-2.1377632E-3,-1.5391542E-2,-7.3148534E-3,-3.9128903E-3,-3.3117546E-4,-7.397776E-4,2.5133342E-3,4.2445515E-3,1.1218386E-2,-5.7332736E-4,6.853323E-3,9.040886E-3,1.2192977E-2],"split_indices":[36,36,36,39,39,39,39,40,27,41,38,41,17,40,17,0,0,0,0,0,0,0,0,0,0,0,0,0,0,0,0],"split_type":[0,0,0,0,0,0,0,0,0,0,0,0,0,0,0,0,0,0,0,0,0,0,0,0,0,0,0,0,0,0,0],"sum_hessian":[3.0084773E3,1.3545437E3,1.6539335E3,5.236883E2,8.3085535E2,8.610536E2,7.9287994E2,5.124927E2,1.1195595E1,5.5365005E1,7.7549036E2,7.91365E2,6.9688614E1,5.413856E2,2.514943E2,1.1118969E2,4.01303E2,6.9740696E0,4.2215247E0,2.8314476E1,2.705053E1,4.667638E2,3.0872656E2,3.476088E2,4.437562E2,1.434231E1,5.5346302E1,4.0050125E1,5.013355E2,8.940416E1,1.6209012E2],"tree_param":{"num_deleted":"0","num_feature":"44","num_nodes":"31","size_leaf_vector":"1"}},{"base_weights":[1.1468462E-2,-6.529657E-1,3.9023507E-1,-9.2669684E-1,-4.285926E-1,1.144191E-1,8.012208E-1,-1.0053116E0,-1.5427282E-1,-5.413301E-1,5.994212E-3,6.420547E-2,9.458131E-1,6.173873E-1,1.0549998E0,-2.1150368E-3,-1.0630954E-2,5.8063716E-3,-5.1915753E-3,-7.0139924E-3,-3.2120033E-3,-4.8087146E-3,2.0596203E-3,-1.3055782E-3,2.1965664E-3,-2.3291777E-3,1.0260787E-2,-6.1469018E-3,6.5651974E-3,1.0852446E-2,-3.8034464E-3],"categories":[],"categories_nodes":[],"categories_segments":[],"categories_sizes":[],"default_left":[0,0,0,0,0,0,0,0,0,0,0,0,0,0,0,0,0,0,0,0,0,0,0,0,0,0,0,0,0,0,0],"id":39,"left_children":[1,3,5,7,9,11,13,15,17,19,21,23,25,27,29,-1,-1,-1,-1,-1,-1,-1,-1,-1,-1,-1,-1,-1,-1,-1,-1],"loss_changes":[7.596608E2,6.677652E1,2.1776764E2,2.9641632E1,2.9664986E1,4.7925705E1,3.518994E1,2.0142029E1,1.2845822E1,1.6587006E1,1.226887E1,3.2961357E1,6.507839E0,2.2115738E1,1.4487701E1,0E0,0E0,0E0,0E0,0E0,0E0,0E0,0E0,0E0,0E0,0E0,0E0,0E0,0E0,0E0,0E0],"parents":[2147483647,0,0,1,1,2,2,3,3,4,4,5,5,6,6,7,7,8,8,9,9,10,10,11,11,12,12,13,13,14,14],"right_children":[2,4,6,8,10,12,14,16,18,20,22,24,26,28,30,-1,-1,-1,-1,-1,-1,-1,-1,-1,-1,-1,-1,-1,-1,-1,-1],"split_conditions":[-2.6E0,-8.523809E0,7.285714E0,2.2243902E-1,6.094877E-1,3.3787708E0,1.54E1,3E0,6.64E1,5.839907E-3,-1.0578119E0,-3.1907836E-3,-1E0,-2.8333333E-1,1.6666666E0,-2.1150368E-3,-1.0630954E-2,5.8063716E-3,-5.1915753E-3,-7.0139924E-3,-3.2120033E-3,-4.8087146E-3,2.0596203E-3,-1.3055782E-3,2.1965664E-3,-2.3291777E-3,1.0260787E-2,-6.1469018E-3,6.5651974E-3,1.0852446E-2,-3.8034464E-3],"split_indices":[38,36,36,41,40,40,36,11,16,41,18,41,18,41,28,0,0,0,0,0,0,0,0,0,0,0,0,0,0,0,0],"split_type":[0,0,0,0,0,0,0,0,0,0,0,0,0,0,0,0,0,0,0,0,0,0,0,0,0,0,0,0,0,0,0],"sum_hessian":[3.016626E3,1.0949215E3,1.9217045E3,4.9160117E2,6.033204E2,1.1508687E3,7.708359E2,4.4579834E2,4.580284E1,4.7903653E2,1.2428385E2,1.086448E3,6.44206E1,4.4924023E2,3.2159564E2,3.068282E1,4.151155E2,1.490915E1,3.089369E1,2.7582645E2,2.0321008E2,3.5629986E1,8.865386E1,4.8203183E2,6.044162E2,3.9063659E0,6.051424E1,1.3297824E1,4.359424E2,3.1526608E2,6.329543E0],"tree_param":{"num_deleted":"0","num_feature":"44","num_nodes":"31","size_leaf_vector":"1"}},{"base_weights":[9.863238E-4,-6.4367354E-1,3.6822662E-1,-8.1352365E-1,-2.6489347E-1,9.069211E-2,7.6944023E-1,-8.8698214E-1,-2.4978558E-2,-3.7424338E-1,1.8172427E-1,2.6145509E-2,1.0215465E0,6.4117795E-1,1.1454412E0,-1.0476194E-2,-6.2185535E-3,-1.2330006E-2,9.335974E-4,-7.131387E-4,-4.9179588E-3,-3.0531766E-4,9.64916E-3,-1.7934202E-3,1.9344685E-3,1.0818546E-2,-6.912344E-4,6.652022E-3,-5.5696713E-3,2.7567388E-3,1.1697578E-2],"categories":[],"categories_nodes":[],"categories_segments":[],"categories_sizes":[],"default_left":[0,0,0,0,0,0,0,0,0,0,0,0,0,0,0,0,0,0,0,0,0,0,0,0,0,0,0,0,0,0,0],"id":40,"left_children":[1,3,5,7,9,11,13,15,17,19,21,23,25,27,29,-1,-1,-1,-1,-1,-1,-1,-1,-1,-1,-1,-1,-1,-1,-1,-1],"loss_changes":[7.199198E2,7.0674805E1,2.1558249E2,4.398178E1,1.6853891E1,6.87563E1,3.7279327E1,2.883319E1,9.666501E0,9.747562E0,1.14299555E1,3.6934864E1,5.057968E0,1.7449677E1,3.7621765E0,0E0,0E0,0E0,0E0,0E0,0E0,0E0,0E0,0E0,0E0,0E0,0E0,0E0,0E0,0E0,0E0],"parents":[2147483647,0,0,1,1,2,2,3,3,4,4,5,5,6,6,7,7,8,8,9,9,10,10,11,11,12,12,13,13,14,14],"right_children":[2,4,6,8,10,12,14,16,18,20,22,24,26,28,30,-1,-1,-1,-1,-1,-1,-1,-1,-1,-1,-1,-1,-1,-1,-1,-1],"split_conditions":[-2.6E0,-5E0,7.15E0,8.825849E-1,6.794126E-2,2.8139708E0,3.0315545E0,3.642863E-2,-2.1913044E0,-0E0,1.2837838E-1,-3.1907836E-3,1.08362946E2,4.347707E0,6.769231E1,-1.0476194E-2,-6.2185535E-3,-1.2330006E-2,9.335974E-4,-7.131387E-4,-4.9179588E-3,-3.0531766E-4,9.64916E-3,-1.7934202E-3,1.9344685E-3,1.0818546E-2,-6.912344E-4,6.652022E-3,-5.5696713E-3,2.7567388E-3,1.1697578E-2],"split_indices":[38,36,36,39,41,39,39,41,20,30,34,41,2,26,12,0,0,0,0,0,0,0,0,0,0,0,0,0,0,0,0],"split_type":[0,0,0,0,0,0,0,0,0,0,0,0,0,0,0,0,0,0,0,0,0,0,0,0,0,0,0,0,0,0,0],"sum_hessian":[3.0390225E3,1.1025546E3,1.936468E3,7.602406E2,3.4231393E2,1.1455343E3,7.909337E2,6.9522394E2,6.5016624E1,2.7529633E2,6.701762E1,1.0723142E3,7.322009E1,5.919706E2,1.9896312E2,4.3084894E2,2.6437503E2,5.0358067E0,5.9980816E1,7.76505E1,1.9764581E2,5.3383316E1,1.3634298E1,4.8093594E2,5.9137823E2,6.94781E1,3.7419875E0,5.808521E2,1.1118518E1,5.8586297E0,1.9310449E2],"tree_param":{"num_deleted":"0","num_feature":"44","num_nodes":"31","size_leaf_vector":"1"}},{"base_weights":[-1.8312868E-3,-6.267933E-1,3.6440834E-1,-7.3845273E-1,-2.1654189E-2,1.3318375E-1,8.4756345E-1,-9.511629E-1,-4.4993147E-1,-1.8357505E-1,5.886813E-1,3.2959536E-2,6.320383E-1,7.1991646E-1,1.1749701E0,-5.8778673E-3,-1.085382E-2,-9.8233735E-3,-3.7933344E-3,2.768191E-3,-3.8174966E-3,-2.3662054E-3,8.770838E-3,-7.288966E-3,8.664352E-4,4.869485E-3,1.03565715E-2,7.49111E-3,-6.811675E-3,1.1952801E-2,4.279993E-4],"categories":[],"categories_nodes":[],"categories_segments":[],"categories_sizes":[],"default_left":[0,0,0,0,0,0,0,0,0,0,0,0,0,0,0,0,0,0,0,0,0,0,0,0,0,0,0,0,0,0,0],"id":41,"left_children":[1,3,5,7,9,11,13,15,17,19,21,23,25,27,29,-1,-1,-1,-1,-1,-1,-1,-1,-1,-1,-1,-1,-1,-1,-1,-1],"loss_changes":[6.903591E2,7.5214386E1,2.122257E2,5.7165466E1,1.7340546E1,6.4279274E1,2.46734E1,2.5551422E1,1.4575401E1,1.2800739E1,9.020011E0,4.3894073E1,1.1943222E1,1.8735626E1,3.751419E0,0E0,0E0,0E0,0E0,0E0,0E0,0E0,0E0,0E0,0E0,0E0,0E0,0E0,0E0,0E0,0E0],"parents":[2147483647,0,0,1,1,2,2,3,3,4,4,5,5,6,6,7,7,8,8,9,9,10,10,11,11,12,12,13,13,14,14],"right_children":[2,4,6,8,10,12,14,16,18,20,22,24,26,28,30,-1,-1,-1,-1,-1,-1,-1,-1,-1,-1,-1,-1,-1,-1,-1,-1],"split_conditions":[-2.6E0,6.2874377E-1,9.9E0,-1.764706E-1,2.2393768E0,1.6638025E0,3.0315545E0,3.1666666E-1,-2.255637E0,7.1818184E1,6.575E1,-1.8668039E0,3.712169E0,2.9132187E2,1.8844777E0,-5.8778673E-3,-1.085382E-2,-9.8233735E-3,-3.7933344E-3,2.768191E-3,-3.8174966E-3,-2.3662054E-3,8.770838E-3,-7.288966E-3,8.664352E-4,4.869485E-3,1.03565715E-2,7.49111E-3,-6.811675E-3,1.1952801E-2,4.279993E-4],"split_indices":[38,40,38,35,39,39,39,43,39,13,12,39,39,29,23,0,0,0,0,0,0,0,0,0,0,0,0,0,0,0,0],"split_type":[0,0,0,0,0,0,0,0,0,0,0,0,0,0,0,0,0,0,0,0,0,0,0,0,0,0,0,0,0,0,0],"sum_hessian":[3.014059E3,1.1135043E3,1.9005548E3,9.3972253E2,1.7378175E2,1.2864015E3,6.141533E2,5.3940607E2,4.003164E2,1.3802661E2,3.575514E1,1.0722448E3,2.1415675E2,4.4439862E2,1.6975467E2,1.4714893E2,3.9225717E2,4.5190117E1,3.551263E2,4.126331E1,9.6763306E1,9.215782E0,2.6539356E1,6.963134E1,1.00261334E3,1.5933458E2,5.4822166E1,4.3585342E2,8.545206E0,1.6662158E2,3.1330824E0],"tree_param":{"num_deleted":"0","num_feature":"44","num_nodes":"31","size_leaf_vector":"1"}},{"base_weights":[4.478072E-3,-5.215061E-1,4.433917E-1,-7.5081825E-1,-1.6014855E-1,1.4822668E-1,7.805416E-1,-8.4560037E-1,-1.3054633E-1,-7.474332E-1,-1.0837107E-1,8.8260956E-2,8.4756976E-1,5.950393E-1,1.0340321E0,-1.323982E-2,-7.621035E-3,6.0848678E-3,-3.807108E-3,1.3962074E-3,-9.290308E-3,2.1834949E-3,-1.8183755E-3,6.5244827E-3,3.6984315E-4,-3.3686676E-3,9.092111E-3,-1.7269341E-4,6.5480825E-3,9.32068E-3,1.26701845E-2],"categories":[],"categories_nodes":[],"categories_segments":[],"categories_sizes":[],"default_left":[0,0,0,0,0,0,0,0,0,0,0,0,0,0,0,0,0,0,0,0,0,0,0,0,0,0,0,0,0,0,0],"id":42,"left_children":[1,3,5,7,9,11,13,15,17,19,21,23,25,27,29,-1,-1,-1,-1,-1,-1,-1,-1,-1,-1,-1,-1,-1,-1,-1,-1],"loss_changes":[6.9488696E2,1.1323688E2,1.6308636E2,4.9007965E1,1.6039604E1,3.658169E1,3.5221954E1,2.777533E1,2.096851E1,7.111965E0,1.1823963E1,2.3292643E1,5.3982353E0,1.6348297E1,6.246887E0,0E0,0E0,0E0,0E0,0E0,0E0,0E0,0E0,0E0,0E0,0E0,0E0,0E0,0E0,0E0,0E0],"parents":[2147483647,0,0,1,1,2,2,3,3,4,4,5,5,6,6,7,7,8,8,9,9,10,10,11,11,12,12,13,13,14,14],"right_children":[2,4,6,8,10,12,14,16,18,20,22,24,26,28,30,-1,-1,-1,-1,-1,-1,-1,-1,-1,-1,-1,-1,-1,-1,-1,-1],"split_conditions":[0E0,-4.690909E0,7.285714E0,6.2874377E-1,-2.41067E0,3.1333926E0,1.4419348E0,-2.9469812E0,7.108E1,-1.7558531E-1,2.9904288E-1,7.2272725E0,-4.8560536E-1,-1.1092016E0,4.92627E0,-1.323982E-2,-7.621035E-3,6.0848678E-3,-3.807108E-3,1.3962074E-3,-9.290308E-3,2.1834949E-3,-1.8183755E-3,6.5244827E-3,3.6984315E-4,-3.3686676E-3,9.092111E-3,-1.7269341E-4,6.5480825E-3,9.32068E-3,1.26701845E-2],"split_indices":[36,36,36,40,40,40,40,40,13,26,7,21,19,40,40,0,0,0,0,0,0,0,0,0,0,0,0,0,0,0,0],"split_type":[0,0,0,0,0,0,0,0,0,0,0,0,0,0,0,0,0,0,0,0,0,0,0,0,0,0,0,0,0,0,0],"sum_hessian":[3.0080044E3,1.3680947E3,1.6399097E3,8.361388E2,5.319559E2,8.7532446E2,7.6458514E2,7.248517E2,1.11287155E2,4.1854576E1,4.901013E2,8.073655E2,6.795899E1,4.4366013E2,3.20925E2,1.05329414E2,6.195223E2,2.7680792E1,8.360636E1,7.058119E0,3.479646E1,8.936105E1,4.0074023E2,6.612542E1,7.4124005E2,3.0606897E0,6.48983E1,3.936986E1,4.0429028E2,2.2700728E2,9.391772E1],"tree_param":{"num_deleted":"0","num_feature":"44","num_nodes":"31","size_leaf_vector":"1"}},{"base_weights":[1.2394316E-2,-5.1935214E-1,4.4994277E-1,-1.1714724E0,-3.992974E-1,1.3495758E-1,7.528753E-1,-1.3308777E0,-7.54191E-1,-5.702977E-1,-6.474289E-2,5.9031185E-2,9.585263E-1,4.496585E-1,9.296776E-1,-1.4467777E-2,-9.563267E-3,5.2977943E-5,-9.736139E-3,-6.112427E-3,3.0453736E-3,-1.151078E-3,5.117142E-3,-1.1913945E-3,2.1222844E-3,3.3823266E-3,1.1128885E-2,-0E0,5.88542E-3,7.69889E-3,1.1247918E-2],"categories":[],"categories_nodes":[],"categories_segments":[],"categories_sizes":[],"default_left":[0,0,0,0,0,0,0,0,0,0,0,0,0,0,0,0,0,0,0,0,0,0,0,0,0,0,0,0,0,0,0],"id":43,"left_children":[1,3,5,7,9,11,13,15,17,19,21,23,25,27,29,-1,-1,-1,-1,-1,-1,-1,-1,-1,-1,-1,-1,-1,-1,-1,-1],"loss_changes":[7.010945E2,1.0586249E2,1.5755548E2,1.2811249E1,6.570909E1,5.060717E1,4.4601166E1,4.934082E0,1.0227074E1,2.7472992E1,1.13543625E1,2.0355885E1,6.0231285E0,1.9451572E1,1.5497681E1,0E0,0E0,0E0,0E0,0E0,0E0,0E0,0E0,0E0,0E0,0E0,0E0,0E0,0E0,0E0,0E0],"parents":[2147483647,0,0,1,1,2,2,3,3,4,4,5,5,6,6,7,7,8,8,9,9,10,10,11,11,12,12,13,13,14,14],"right_children":[2,4,6,8,10,12,14,16,18,20,22,24,26,28,30,-1,-1,-1,-1,-1,-1,-1,-1,-1,-1,-1,-1,-1,-1,-1,-1],"split_conditions":[0E0,-1.9826497E0,6.5416665E0,-1.3384615E-1,-3.7142856E0,2.8139708E0,2.5319573E-1,7.425E1,-4.670793E-1,1.7982632E0,1.5749007E-1,-1.0994895E-3,8.3532774E-1,4.920631E-1,1.5087301E1,-1.4467777E-2,-9.563267E-3,5.2977943E-5,-9.736139E-3,-6.112427E-3,3.0453736E-3,-1.151078E-3,5.117142E-3,